{"net.0.weight": [[0.0029133388336428723, -0.12541382146380717, -0.09135762359231589], [0.22859754492461748, -0.1866851794473169, -0.15112880131734246], [-0.1563770886462332, 0.11985538921501765, -0.11317074351059216], [0.013653505319139708, 0.2894300789161185, 0.20812484655264182], [0.08492467616585667, 0.26290210935934333, -0.06605239528073742], [-0.0761495061791149, 0.09741104302564467, -0.08900491249628772], [-0.18553282823926576, 0.07223246848115375, -0.011598121599873008], [-0.11851286286822756, 0.16465029178004378, -0.004240947555789706], [0.1036975994447933, 0.17389755906361912, 0.08839068635482801]], "net.0.bias": [-0.012906656145932265, 0.05662261569639762, 0.0, 0.07856502595726446, 0.04121615596988481, 0.0, 0.0, 0.0, 0.1005328986317113], "net.2.weight": [[-0.01784946664731385, 0.028112033558872335, 0.0009584374943012158, 0.0024856608896607923, -0.048029465846841146, -0.08456662890615568, -0.03560864186879099, 0.033417588887207895, -0.050503772198692516], [-0.026773745609119444, 0.007601094384112061, 0.023356946612789954, 0.16003318707076014, 0.09069959208795789, 0.13379657864725586, 0.020419210892130047, -0.07226231781349242, 0.10282040885751768], [-0.03479481287626787, -0.13414043702562686, 0.14210094092032344, 0.041827645167020144, -0.06917826676970835, -0.03240147899662026, 0.1159348590080771, 0.028707840619382703, -0.06421022440603566], [0.02549294150537678, 0.0589045391590638, -0.2151572336475996, -0.08255299665232049, -0.05964972598203925, 0.015521359141681164, 0.1463426909468212, -0.049333634322576064, -0.2256471659153208], [0.08064523320727701, 0.10341473182853184, 0.07866000703486258, 0.2506320656603111, 0.18147861546651733, 0.00716640163503119, -0.11717188768253575, 0.009060020306650424, 0.14782525011802664], [-0.08188715329575995, 0.04285413288503327, 0.09920500356670685, 0.0796290415270813, 0.13922136638461366, 0.011957839233938216, 0.017952320395654663, 0.013936544306692902, 0.13992974611521763], [-0.0351570195749567, 0.22399728460329543, 0.18867583220337336, -0.16637564779771877, 0.14574850676119053, 0.19032967608548623, -0.05624497336558955, 0.003521199561305806, 0.06662418545239333], [0.012081571319858967, -0.19276519545034454, 0.025455844487762752, -0.022961358750195282, 0.015527795711497533, 0.2800141676546502, -0.04309853847686323, 0.01619529451845645, -0.20257774675628265], [0.12985765034956812, -0.0726999398943167, 0.11807885286709066, -0.12436492135851414, -0.07139796486801783, -0.02667445944696625, 0.02351178596293882, -0.08689184512490501, 0.12013990599247652], [0.09758810193931128, 0.2321916627337751, 0.10877346744384178, 0.0020634430639651837, 0.03348256590286254, -0.0674100868093815, 0.06866626647951528, 0.0050011943142071955, 0.12055195527154824], [0.006252142981862394, 0.1096343996757935, 0.12495721852567868, -0.26118323476182326, -0.04879693669680629, 0.19657229253819114, 0.07603061896815763, -0.029172402414558825, -0.16100668570404134], [-0.006252498974962237, 0.11050889456958263, -0.013537764788843372, -0.1382177497501363, -0.07384574072243867, 0.09561204145909788, -0.05955312415963089, -0.021577435232625317, 0.14073019067896142], [0.14011689058106067, 0.10348972711968657, -0.11199513920969384, -0.2340871803914376, 0.15041482510997764, 0.09686761844795833, 0.0154043956671734, -0.07338475287942386, -0.07697011979072281], [0.19680426246544708, -0.16212834909734644, 0.08181319122965652, 0.19965584479387616, 0.06153036315205649, -0.045526680533244365, -0.011845182849301918, 0.009828971086759336, 0.23583122546583593], [0.036834350873467515, 0.1059764696670599, -0.0127935680959295, -0.14855612910604732, 0.10246775281621565, 0.014808422936650434, 0.04871880196840116, -0.018265527089049705, -0.11033314621035817], [0.03574392781149429, 0.15237405259803544, 0.06762131182674457, -0.3018200834982144, 0.10429460041581129, 0.18468363033938032, 0.04056578752058557, -0.08997142777528659, -0.027014492402106256], [0.13428258787452851, -0.13085970731603347, 0.19557581731276097, 0.10443777807760794, 0.00881887674218831, -0.05210083832882857, -0.22571618775107727, 0.035153087881891754, 0.2165964361308139], [0.026428228958947735, 0.18403086935385998, 0.03645008016142576, -0.04096876075607743, 0.10918719725442377, -0.1912471612626238, 0.072598314866428, 0.16409804551586715, 0.05959351148509733], [0.06884002568679991, 0.008991281293790405, -0.08032320600147524, 0.06705973711236898, 0.09841214994527513, -0.1589192084011249, 0.05771908059955683, -0.07074200798755192, 0.024655102966435062], [0.034412082266735596, 0.0055842929456023415, 0.28800198907146934, 0.04824615813257432, 0.00033095246679906015, 0.11934657427946108, 0.060709542128832054, -0.023262762904612194, -0.11204685224020304], [0.08130386512188048, -0.030077209208814227, -0.11186879545102875, 0.00418499151465644, 0.10701781572117966, 0.08539421224595783, 0.1058988734464925, -0.03297086074326474, -0.12357176488816646], [0.015809982385543687, 0.021685797798009467, 0.07282192092587775, -0.040481912129085966, 0.059156508547536596, -0.04699931491467204, -0.16072855523092264, 0.0691528050350845, -0.09920597148367855], [0.07937019857974219, -0.4883049662549603, -0.016716830104049254, 0.23457788193599824, -0.4560331950850598, 0.0131274300085906, 0.10648499883141514, -0.0036619500760467073, 0.20941381418363325], [-0.1852313304926224, -0.09818429810454943, -0.14954727034394985, -0.044784693251119057, -0.039967641470414234, -0.0723190671638739, -0.0632694387005767, 0.015332465897993275, -0.16128654208131923], [0.03342287089481498, 0.07386291311821322, -0.045135086854563806, 0.003627855524117661, 0.3074449903995911, -0.1086654775983445, 0.009210868554846699, 0.08530594098098951, 0.07982979836909854]], "net.2.bias": [-0.02003945685512035, 0.10602298491969052, -0.01594538614590112, -0.011372808325410726, 0.018477053669130286, 0.02725893903629321, 0.016195994209432508, 0.0, -0.021469985681284057, -0.00567964324274033, 0.012496856053636244, 0.07625682713477645, -0.004340206386556031, 0.06312202884127968, -0.04007025615092008, -0.0707942259552031, 0.047411357767304464, -0.0317076577988204, -0.015840996490826705, -0.0019566128538038487, -0.009999991111690454, -0.010418411000330394, 0.1149906967991112, 0.0, -0.004710307197496909], "net.4.weight": [[0.017826475887215556, 0.14546768973180776, -0.030137212948772866, 0.09955497556361237, 0.15722999179401212, 0.13785287099139365, -0.13731736118735605, -0.011263944733615507, -0.001997287873462152, -0.08753853105116492, -0.02789221678846163, -0.05467974038878174, 0.01910938461602663, 0.11678948146873137, 0.02963688388950048, -0.254762327198887, 0.2505187575767658, -0.05811938978500882, 0.08828623510513897, -0.06068184738254513, 0.013454163793315745, -0.12791309057247757, -0.36344824268540465, -0.07343394247267539, 0.09683707056841658], [0.06142088410326807, 0.08104129857398212, -0.08913404083326514, -0.10852976379957675, -0.021713650140818518, -0.06397987098698751, -0.01458179721495391, -0.16924602298200303, -0.09790040540479812, 0.0011688284092897568, -0.06470911361484222, -0.10532217477811408, 0.10044263192679413, 0.00569696239680785, -0.14025671025159286, -0.15560290374945096, -0.009688338787031618, -0.22963891229760314, 0.09486510407217869, 0.10462954513619767, -0.0905559158389649, 0.09902376209172496, -0.049808764475538156, -0.023987912891325472, -0.05926843202808104], [0.14309780878917017, 0.2740346991579102, 0.061519224177014595, 0.06933414414576515, 0.20810152618990527, -0.025687402485261177, 0.19311952402320526, 0.13706737331531121, 0.07457926599822695, 0.016350982762946914, 0.037859691526448844, 0.13507911696567002, -0.28776112460021785, 0.19749154472700853, -0.4104034317653564, -0.4636657408377278, -0.05644776607908333, 0.11718978617812079, 0.07016531584974095, 0.07172922251242127, -0.09221293128475874, 0.11349820888926132, -0.6095863339541423, 0.006548684004570645, -0.0741555066893882], [-0.05279094521288055, 0.015205994718034108, 0.006030161851987299, -0.10027792507304456, 0.027491736002451073, -0.2528318846615498, 0.021552128161090083, -0.017089911094051426, 0.10210831368979074, -0.21783470841677205, -0.03526861510833859, -0.08294595533507376, -0.13402208816846753, 0.060348670247594896, -0.13785206702952715, 0.10116433944339794, -0.03896686035031023, 0.07127423265524478, -0.08535515205192198, 0.08785427330208004, -0.12657905630179941, 0.13401238307385707, 0.044091828818050995, -0.0328131188571733, 0.03977521050603566], [-0.0853205660530615, 0.044396239194227874, 0.23770051627379535, 0.048202135220663765, 0.06522656603813012, 0.10843942911739106, -0.32398940392017533, -0.2344461622759087, 0.030581767097823384, -0.022497247709197952, 0.16685592275206382, -0.2217622476865338, -0.12379550383612731, 0.07876692876596146, -0.18843217239014795, -0.2801762590784179, 0.055260402227012874, -0.18787268567222631, 0.068094016841993, -0.20144631200974208, 0.006605686358986562, 0.12895611533566492, -0.09085707892766123, -0.12464969735223577, 0.06694737613009187], [0.006351293960387163, 0.1335581262033375, 0.07980003038235861, 0.03602863209288965, 0.0031415033975895467, -0.08719442866867305, -0.09021349720213864, 0.05998106674474294, 0.008278385149498267, -0.048866793226959165, 0.048718504687915026, -0.044118801194466234, -0.09359891383511737, 0.09084755783228328, 0.07203325319078346, 0.042993415611273955, -0.09681339750844223, -0.12634597550084167, -0.11788607210072412, 0.12123991413530892, -0.08074179307792502, 0.005904408398609695, -0.11555992402906579, -0.05185949581728536, 0.05538209741236484], [-0.028739299770410086, -0.03037842800609321, -0.09940785421404887, -0.029114883602487547, 0.09557939032736104, 0.08136091095490994, -0.03595872293641079, 0.10313283575979793, -0.0180743835566707, -0.054554349534090954, 0.027647090605876484, 0.011280661169507052, -0.07739737924172725, 0.11418973465997163, -0.03449082590024007, -0.06502639958602711, 0.08022285541309934, 0.09852077253980333, -0.09851175999039379, 0.016877993731260303, -0.06165018050780339, 0.09703933424644108, -0.13588150170098376, 0.17451472724485784, 0.10125446290826182], [0.006409826460710369, 0.1983576355302341, -0.09515599029861369, -0.022531929326671266, -0.00608215961497351, 0.006619425360492356, -0.05103798957297991, -0.16058777921194894, -0.05317352768770894, 0.008854728783630476, -0.18781182873615454, -0.10021685581695944, -0.1540120838086834, 0.11959144584084003, -0.1665904460504729, 0.010017228170058257, 0.09653836964825889, -0.046791411744947636, 0.02109704700348312, 0.030816172036760982, 0.06061179735574698, 0.015110492678511804, -0.3349388335943505, 0.13386166567125388, 0.12808434305379826], [-0.044106339232379346, 0.025918143100572295, -0.17673197326192702, 0.03238190109369424, -0.0022494961975099608, 0.09142839799923792, 0.07642716245086428, -0.0021872617017674174, -0.15315524036365724, 0.1602741811907603, 0.09798971606208498, 0.23970350823166953, -0.030446966273880202, -0.08383228286556459, -0.2244530089627769, -0.02904478188101497, 0.08596864680831202, 0.08417755609818187, -0.15254447426820983, 0.06507163466642957, 0.07741424920307981, -0.15274580265260723, -0.32738427210735355, -0.11632237618076442, 0.007327830039333689], [-0.07641923064507694, 0.04555258770910241, 0.057479993997353145, -0.04811452181269691, -0.07437480503050582, 0.2024287509271473, 0.12102019066411984, -0.03944299539144591, 0.005010571469447324, -0.09553704100558362, 0.03998141472892953, 0.041264127566431226, -0.1519548383034752, 0.01736545860958405, -0.1595110449867047, -0.31213730238002835, 0.010833785523495473, 0.06008207110958049, 0.07832950148626382, 0.06271570749831216, -0.10439576080094513, 0.014075016393037803, -0.42480350047947274, -0.10168473000086316, 0.21011630407304266], [-0.07204115890153562, 0.05155083969195776, 0.05185305322239134, 0.1426278297638296, 0.06364895711268267, 0.1736076896103061, -0.036018563733506495, -0.05906127718992471, 0.026195973809081056, 0.11183615977086762, 0.1211854851908872, -0.027161074053329768, -0.2968752136897225, -0.07651959781266529, -0.21544636406658996, -0.23512793017145675, -0.2590425264481035, 0.06810188229056217, 0.0846465367909919, -0.11864230619745061, -0.05547679658406791, 0.07200892444126034, 0.07948020055903639, -0.02086545336472857, 0.055194774863677125], [0.016431534307518304, -0.011966385317721139, 0.03199241998257623, -0.1555363858235748, -0.0704456962241289, -0.04079169443506164, -0.11252498084293446, 0.17876239400145644, -0.004468949352783371, -0.10658277280364327, -0.12541032995408957, -0.1482269666851966, -0.1441184394684717, 0.03938757170845295, -0.08901034010913993, 0.09733984825719054, 0.05541870171879824, -0.013745666688076379, -0.007393776483917238, -0.0441623120181733, -0.2338779468806652, -0.030645576440033503, 0.03224302970288667, -0.015333364209919, 0.04045885048616549], [0.04367933751579832, 0.030485335017761985, 0.10078735555012422, 0.08441882271691013, 0.032716537520456744, -0.06938003814361723, -0.05088989954770269, 0.08624447635316743, 0.10939000697762193, 0.21433580228445914, -0.023197924014620154, -0.07902987045645848, 0.27048314445221383, -0.32623439524693487, 0.0030823517341742844, 0.11557127662115366, -0.0934988796133904, 0.04643162750151655, -0.03741142849412956, 0.09585042851049407, 0.14106983474814375, 0.04643028323695177, 0.09762675167104373, -0.014230663330562826, -0.06085521270585516], [-0.21632632306374952, 0.020908107354579968, -0.018137639138062354, 0.06648071926699664, 0.018946398644999515, -0.07380395441058323, 0.1065193276691787, -0.10278203616582793, -0.08786824659156761, -0.03524233006426901, -0.09630870814564159, -0.1534024749802787, -0.08545234231159253, -0.11121822799930106, 0.017687822330791803, -0.06052886100848753, -0.1015005552182279, -0.010899726680053495, 0.06582263029014336, 0.044904014407843716, 0.20605195430182943, -0.1753795678433734, -0.13488091973291366, -0.06825425858409792, -0.0007395459799894375], [0.053003639594028706, -0.0684302818941441, 0.08322930250672853, 0.09118216777777718, 0.10903826921405015, -0.03946402884828294, -0.005144654574710346, -0.09335869055276692, 0.10733381384046334, 0.06938998258132208, -0.09690520006917999, 0.14163302932261357, -0.166875086811523, 0.190330979636638, -0.007597341242409438, -0.11314463042587407, -0.06462442430568799, 0.11070079934541194, -0.09415142213494909, -0.020597093096065795, -0.03714181328832174, -0.07691555233747555, -0.048665527768425795, 0.0020897282729450246, 0.03397165731634573], [0.03045517181607841, 0.040527765405296706, -0.20124420457881131, 0.0273675741703361, 0.06397454010845689, 0.07650927280311262, 0.033592318962258665, -0.22828428055481573, 0.030478701133037054, 0.09991564137212262, -0.01617250493001144, 0.19504332535135985, -0.08047574399928294, -0.09598104727607527, -0.18998004594184043, -0.27168264871251824, 0.28388738486960546, 0.050294793424114644, 0.2937020530005937, 0.000524735341172499, -0.06678109823719536, 0.11549140249700476, -0.2722846590985448, -0.04121849786665534, 0.22179110454422696], [0.04520803104362384, 0.10467927403904864, -0.025446532210301482, 0.08441103031976717, 0.10651614408666706, -0.03189761237916698, 0.03781030387632675, -0.013986737229941369, 0.04860170963381569, -0.013987046699422957, 0.0880183495587298, -0.022148006397491034, -0.15491178494678998, 0.10029556686457126, 0.12237699493055663, -0.1246716321841095, 0.05187973821604047, 0.027708538432925242, -0.01686263393000409, 0.2023091273378752, -0.019721188740786957, -0.27422339013929425, -0.19509433578675203, 0.10109540392905543, -0.11217091000829821], [-0.23140672772009302, -0.10643385260823461, 0.1411527321195835, -0.060729423132210615, 0.05449408744884732, -0.02763819236571952, -0.02329778193048994, -0.12978347151595446, 0.14662140172418311, 0.22989799388213988, 0.05503111139998637, 0.1422478042645039, -0.08207197556429052, -0.03883770278689276, -0.029570551760761045, -0.2142820456627991, 0.15407595931787374, -0.047093736508213996, 0.005587698056125696, 0.08756103004284516, -0.012804571478836287, -0.12224751350858902, -0.003591385310513535, -0.0012548697214059352, 0.24611460076685845], [0.07880443820240951, 0.11174353054989902, 0.09088219962667364, 0.058045522044173556, 0.08963779278707744, 0.025057369832609117, 0.05611806121061186, -0.06081072741507087, 0.013231033345953854, 0.13480677231068441, 0.11191108341623147, 0.0803892405932746, -0.39248587938432855, -0.08456235976814826, -0.32864871392815476, -0.14682889157953932, 0.0035658329156829974, -0.22280314367495166, 0.019107389388401404, 0.06655542531108685, -0.09415366831622907, 0.18700563219942878, -0.7834605232851666, -0.06605211177705354, 0.2603374307403074], [0.14953606101762054, 0.07217454999903805, -0.1275080121315333, -0.13065800126789776, -0.27828508224789383, 0.060201371944175186, 0.08408469275127008, -0.011381200536983747, 0.021006527989101922, -0.0715950637713847, 0.13086365564392524, -0.03946014945014656, 0.09604932227095607, 0.11189804657885474, 0.0169806133127351, 0.06581368811573106, -0.014073740919837456, -0.03442024269794806, 0.028592318936004307, -0.030325973737799796, 0.20154279859815386, -0.1280673165669521, 0.06774097289876616, -0.20615040029042797, 0.06309475761906659], [-0.008184667261099397, 0.07289614313175623, 0.17320048721103606, 0.16800525751102124, 0.03578375308338119, 0.22578325596133447, -0.10293141084368852, -0.013119391858909292, -0.11856425450857346, -0.03748291538913703, 0.001723397897934418, 0.10226890922943872, -0.04610045822805961, 0.12103818284901353, -0.01837702282229423, -0.013044412755297198, -0.039802672078134475, 0.07186471408807142, 0.10171581631307378, -0.0130431821477802, -0.07723108598445674, 0.009910080280361342, -0.22652289560854424, -0.04338397847418101, 0.04033324142666985], [0.22405196228494506, -0.024333700331266334, -0.07204720006172215, 0.25109600551922534, -0.04258697206112865, 0.01594639961891038, -0.13213712875717534, 0.00019238063787237373, 0.18823251117100662, 0.03430532773825704, 0.07017624961582161, -0.13552426171899226, -0.2200381555123648, 0.04653302081786695, -0.13486129288861945, -0.00038735354340398024, -0.05537778095020081, -0.039286029521622357, -0.13915685068291803, 0.3151297861163792, -0.0469760235148247, -0.11025239965774, -0.20149172651006864, -0.09180539562804621, 0.12142451978129275], [-0.03283558914620976, -0.031106189213476486, 0.1328343064233714, 0.07394034463301626, 0.08165396007385836, -0.0516861464483069, -0.1394576665154132, 0.11838326204668244, 0.18685044723996536, -0.06871105215536531, -0.18161866745410135, -0.023614728973631975, -0.04717465573094794, 0.14862358492412958, 0.14429006601796926, 0.09899477958609504, 0.06128677295172149, 0.0033491358755844275, -0.07579020953359215, -0.11538510777527884, 0.07225397921467215, 0.008344795384558732, -0.1396009244430845, -0.08498127288287058, 0.09891130003886844], [-0.05507343059583169, 0.1602977358250069, -0.06943091466306729, 0.0068047476451368015, 0.13330256463957163, 0.03696625662085899, -0.057847611572060545, 0.036595494278259345, -0.2340988585187816, 0.16647070358773228, -0.023782504554912338, 0.16037241318984966, -0.07299146570925609, 0.04056782397860833, -0.18368925654416482, -0.3382041803459114, 0.1599266317167656, 0.07258236440509201, 0.12713383605950782, -0.11427013687422952, 0.002099349232691094, 0.04820470493051961, -0.3510710826178021, 0.07662250740951058, -0.0038686492340930753], [-0.10554860877919169, 0.09816787322524623, 0.13271161403355847, 0.1299731823289273, 0.127537970462695, 0.09691005111031736, -0.3044120724792665, -0.06933760994323424, 0.008367119223734697, 0.049839786597705465, -0.08874692037791555, 0.010572718182093488, 0.17591734211614665, 0.22464081477876532, 0.028605256860016737, -0.24118501949518703, 0.0910162971157267, -0.010909129712081734, 0.06035286013123123, 0.049612996855822974, -0.14929037358835834, -0.02329421020802935, -0.3561354319535219, 0.11943068903850099, 0.047914737591260415]], "net.4.bias": [0.06896010063413707, -0.0161815154100575, 0.07932024972522402, 0.0, -0.016392199123989277, -0.009999982933320576, -0.0008536186821414141, 0.03545408637059433, 0.05189412564267096, 0.0024046691538510143, -0.010038235846377072, -0.0006957597056938898, -0.03739024922717452, 0.0, 0.016487969022754113, 0.02832510178381269, 0.0009690163308421169, 0.031911592450922545, 0.01917222336987205, 0.0, 0.0122620446736579, -0.006928662160609646, -0.022814998569089393, 0.05329782254307145, 0.10101416008354829], "net.6.weight": [[0.08583666420369006, 0.019760482374155574, 0.12830593781297434, 0.031569141944775156, -0.07143936636824788, 0.09313809565881066, -0.14896575993077088, 0.0707438468601837, -0.058969940744964505, -0.0858725303211246, 0.007121014766680726, 0.07235807474402775, 0.040771659308398996, 0.07217643885738766, -0.06763363777481338, -0.18670616115984404, -0.07106818581985863, 0.06294806402817288, 0.1327997723830588, 0.022048373252440204, -0.012083900657857728, -0.18962295207779925, 0.15208116814514508, -0.008464514474468209, -0.024810692907076354], [-0.1488785769297345, -0.08259090857577428, 0.0686335967620704, -0.05776741467437797, 0.11628981944321341, 0.040745488725420685, 0.040093297008024616, 0.0005247543595719318, -0.12294413977680967, 0.19418512453873205, -0.2449520671468175, 0.05006876662601925, 0.037285040246589865, -0.06618721577598523, -0.093569956834304, -0.0691460435597768, 0.17162297566459422, -0.004505323980961018, 0.014101856130037378, 0.12707238270582485, 0.1230503073890779, -0.09255166833215188, 0.038659442554527156, -0.07496112715205974, -0.007212752422706219], [0.09251027870411907, -0.0317483774325979, 0.13876554579350012, 0.01321385420666032, 0.02861624127875058, 0.05594542839313907, -0.07503779281330689, 0.010763453458318058, -0.08049493970800937, 0.016792644185599254, -0.03291931837073078, 0.08632945141242954, 0.007010246419500668, -0.14561208125048675, -0.07344469402765044, -0.144920018574294, -0.05035045675064541, 0.004198347716833438, 0.04392036197407806, -0.011156160329726295, -0.032935841872306665, 0.10408327072694054, -0.05845498973466909, -0.005939695457279038, -0.0011777151796779819], [-0.07479253625122888, -0.08961114244669383, 0.10163030429418361, -0.006336282125096427, -0.26020120900276217, -0.06055938867139761, -0.001727065339724919, 0.0018904401518166753, 0.017085534263417107, 0.060333249742901114, 0.19105447785971394, -0.08190901755189525, 0.012619226722897198, -0.06047052138159248, 0.0120307437610967, 0.12525043085269225, 0.019354971748068377, 0.010181238658748754, 0.10617677936335242, 0.11222016584724324, -0.11710410502440134, -0.04700015263802584, -0.0014623553626172893, 0.05158720404519417, -0.01714487520591312], [0.22140161392894134, -0.09088566875706111, 0.15669714492063577, -0.05749160895117353, 0.26241660375747106, -0.1459933978956793, 0.0675867145394886, 0.13929342571896206, -0.08005997379464387, -0.019946512413912917, -0.21068713841076472, 0.02897665443476424, 0.14905357057917987, 0.0006117155136323121, -0.06939384767147459, 0.06860999777688846, 0.17615285929794008, 0.0011381806996633775, -0.19543059647509378, 0.03974076511495993, 0.07524358236774592, 0.03709544027378997, 0.10417380487575233, 0.19870202000943113, 0.3506036639277418], [-0.0490157370252203, -0.03980540620043951, 0.029340437464062483, -0.05374148359041771, -0.16235041725721008, 0.02709684059935898, -0.08310196651740337, 0.02581038210197276, 0.07433049435287235, -0.12757076705932938, 0.15679794109991518, -0.011558429123106638, -0.006325725826013179, -0.013643378900206189, -0.11778607035650186, -0.18173833569590453, 0.048291849286447176, 0.10765787683831952, 0.1074085563269667, 0.010634917515828672, -0.12477429837014788, 0.009938925605482679, -0.1267735152264468, 0.15031140263840964, -0.04512807240218129], [0.0969621974000472, 0.012211832047558989, 0.15650331759541683, 0.14786172473390788, 0.025507559311774106, -0.07280937216089686, 0.11955143216339432, 0.03848587803808353, 0.06940702721986748, 0.04652043621178733, 0.018057704410854577, 0.09622814419396297, -0.13958662938590302, -0.010707405331572129, 0.07495844951849982, 0.037679490600197776, 0.011427970743559768, 0.02720871173240056, 0.11530598097959206, 0.23802982193683514, 0.10758150501290763, -0.06251482444911358, 0.1551440150372611, -0.02943826263175454, 0.04408993976394633], [-0.16452802925265372, 0.09673485022848465, -0.0495724937898219, -0.08802402787769134, 0.016910180523514055, -0.1313797952143456, -0.041836987338179, -0.0679971081373009, -0.07485913783151782, 0.0933156718847118, 0.1205830317985962, -0.17835275988959812, 0.11308546537673624, -0.02629242368884413, 0.0030261468366968563, -0.13541812504819453, -0.1422433271102061, -0.06066214334942307, 0.037107119429745296, -0.02859445324698448, -0.014086076339408247, -0.010772072687490593, 0.18289110403296696, 0.07490861730789726, -0.055071915060828217], [0.04137038224043087, -0.15697747599085377, 0.305632581448205, -0.06282600300787303, -0.09927248980887898, -0.10607345976437774, 0.038662492416138006, 0.06824749110714064, 0.1440473638015613, 0.18981634609455753, 0.12982767515169694, 0.03173623590762457, -0.13498949932427082, -0.077595133850614, 0.06905854245151127, 0.10129380189623173, 0.0751661206248957, 0.12627162133099837, 0.14804033357761673, -0.027315178293750922, 0.11471460545040911, 0.15993359798783058, -0.016071702487775334, 0.14948779841048035, 0.05984012203201046]], "net.6.bias": [-0.014662276100215609, -0.02713868486122595, -0.010546370070211216, -0.023292740724137166, 0.060481784194329036, -0.0007309941714123445, 0.025256177355284244, -0.013237108931101771, 0.05140005694365846], "net.8.weight": [[0.11304977930092344, 0.0035196711179111195, 0.08991692041923913, -0.10031635973197563, -0.059637202882485585, -0.054054423935754464, -0.09409465213663433, 0.13604917272368977, -0.1693802421530027], [-0.177939052439638, -0.07546494548686758, -0.12059888384542013, 0.022199420507016388, -0.156365090827483, 0.0033356217268061816, -0.10078571453113419, -0.010396093438299833, 0.16628930789986623], [0.020596936973583446, -0.13095575973347273, 0.047834946225487104, -0.04854378089853138, 0.19010264208137367, -0.15017899082935532, 0.1310443033203263, -0.062273328115588014, 0.07692674551795498]], "net.8.bias": [-0.033810722073003924, 0.01513809088522602, 0.035646428674639435]}