{"net.0.weight": [[0.0029133388336428723, -0.12541382146380717, -0.09135762359231589], [0.2313146673753293, -0.19675177690866097, -0.14680192689439886], [-0.1563770886462332, 0.11985538921501765, -0.11317074351059216], [0.013803635648849328, 0.29959618406147775, 0.21271938198319906], [0.08665446841452125, 0.26785979016325023, -0.0654422300033324], [-0.0761495061791149, 0.09741104302564467, -0.08900491249628772], [-0.18553282823926576, 0.07223246848115375, -0.011598121599873008], [-0.11851286286822756, 0.16465029178004378, -0.004240947555789706], [0.10299463613782943, 0.18093181772678216, 0.08581141747759394]], "net.0.bias": [-0.012906656145932265, 0.06062182925238449, 0.0, 0.08013753347778078, 0.04298806203902105, 0.0, 0.0, 0.0, 0.10028087153740972], "net.2.weight": [[-0.01784946664731385, 0.028112033558872335, 0.0009584374943012158, 0.0024856608896607923, -0.048029465846841146, -0.08456662890615568, -0.03560864186879099, 0.033417588887207895, -0.050503772198692516], [-0.026773745609119444, 0.010202334366620144, 0.023356946612789954, 0.15818611910290828, 0.09328477169468515, 0.13379657864725586, 0.020419210892130047, -0.07226231781349242, 0.10286650932731382], [-0.03479481287626787, -0.13414043702562686, 0.14210094092032344, 0.039017762784890594, -0.06917826676970835, -0.03240147899662026, 0.1159348590080771, 0.028707840619382703, -0.06812259252298548], [0.02549294150537678, 0.0589045391590638, -0.2151572336475996, -0.08255299665232049, -0.05964972598203925, 0.015521359141681164, 0.1463426909468212, -0.049333634322576064, -0.2256471659153208], [0.08064523320727701, 0.10370306670913686, 0.07866000703486258, 0.24873787355304938, 0.18201773994427303, 0.00716640163503119, -0.11717188768253575, 0.009060020306650424, 0.1467948441063529], [-0.08188715329575995, 0.04452718083842871, 0.09920500356670685, 0.08169351019461263, 0.14107123673381372, 0.011957839233938216, 0.017952320395654663, 0.013936544306692902, 0.14170530730396363], [-0.0351570195749567, 0.23431037769829566, 0.18867583220337336, -0.16807752090111183, 0.155378750630207, 0.19032967608548623, -0.05624497336558955, 0.003521199561305806, 0.06974722689867073], [0.012081571319858967, -0.19276519545034454, 0.025455844487762752, -0.022961358750195282, 0.015527795711497533, 0.2800141676546502, -0.04309853847686323, 0.01619529451845645, -0.20257774675628265], [0.12985765034956812, -0.0726999398943167, 0.11807885286709066, -0.12436492135851414, -0.07139796486801783, -0.02667445944696625, 0.02351178596293882, -0.08689184512490501, 0.12013990599247652], [0.09758810193931128, 0.22993256600511514, 0.10877346744384178, 0.002445283904569798, 0.026433384232158512, -0.0674100868093815, 0.06866626647951528, 0.0050011943142071955, 0.11917570136743837], [0.006252142981862394, 0.1096343996757935, 0.12495721852567868, -0.26118323476182326, -0.04879693669680629, 0.19657229253819114, 0.07603061896815763, -0.029172402414558825, -0.16100668570404134], [-0.006252498974962237, 0.11469637920819295, -0.013537764788843372, -0.1345243402968329, -0.06912281800016752, 0.09561204145909788, -0.05955312415963089, -0.021577435232625317, 0.144512026059343], [0.14011689058106067, 0.10679097483310483, -0.11199513920969384, -0.2389463198877348, 0.152514139625732, 0.09686761844795833, 0.0154043956671734, -0.07338475287942386, -0.07589010969447485], [0.19680426246544708, -0.16122893271311553, 0.08181319122965652, 0.1978387648388482, 0.06366931283169008, -0.045526680533244365, -0.011845182849301918, 0.009828971086759336, 0.23521955633722536], [0.036834350873467515, 0.1083116580529867, -0.0127935680959295, -0.15591286731815712, 0.10320775593451957, 0.014808422936650434, 0.04871880196840116, -0.018265527089049705, -0.11068935009595929], [0.03574392781149429, 0.14916663857199583, 0.06762131182674457, -0.31724991783384215, 0.09865461881642415, 0.18468363033938032, 0.04056578752058557, -0.08997142777528659, -0.034010178666398466], [0.13428258787452851, -0.12807121628792417, 0.19557581731276097, 0.10514774076959235, 0.013443820659718018, -0.05210083832882857, -0.22571618775107727, 0.035153087881891754, 0.21829662325045254], [0.026428228958947735, 0.181065443400244, 0.03645008016142576, -0.07571397815914033, 0.10062043308319323, -0.1912471612626238, 0.072598314866428, 0.16409804551586715, 0.03928131545391916], [0.06884002568679991, 0.008409233266488113, -0.08032320600147524, 0.06639496257349357, 0.09759042137716625, -0.1589192084011249, 0.05771908059955683, -0.07074200798755192, 0.023871621154596175], [0.034412082266735596, 0.0055842929456023415, 0.28800198907146934, 0.04824615813257432, 0.00033095246679906015, 0.11934657427946108, 0.060709542128832054, -0.023262762904612194, -0.11204685224020304], [0.08130386512188048, -0.030077209208814227, -0.11186879545102875, 0.00418499151465644, 0.10701781572117966, 0.08539421224595783, 0.1058988734464925, -0.03297086074326474, -0.12357176488816646], [0.015809982385543687, 0.021685797798009467, 0.07282192092587775, -0.040481912129085966, 0.059156508547536596, -0.04699931491467204, -0.16072855523092264, 0.0691528050350845, -0.09920597148367855], [0.07937019857974219, -0.5065307357974217, -0.016716830104049254, 0.23639657043173182, -0.4679100303902866, 0.0131274300085906, 0.10648499883141514, -0.0036619500760467073, 0.20880523226499761], [-0.1852313304926224, -0.09818429810454943, -0.14954727034394985, -0.044784693251119057, -0.039967641470414234, -0.0723190671638739, -0.0632694387005767, 0.015332465897993275, -0.16128654208131923], [0.03342287089481498, 0.07322021267331938, -0.045135086854563806, 0.004519438583821092, 0.307047715827522, -0.1086654775983445, 0.009210868554846699, 0.08530594098098951, 0.07983651126513701]], "net.2.bias": [-0.02003945685512035, 0.1074193930529413, -0.016388793578675034, -0.011372808325410726, 0.01878461159491153, 0.030739552019713675, 0.018211901816675174, 0.0, -0.021469985681284057, -0.004286584018184691, 0.012496856053636244, 0.08155085170676424, -0.004734041809073189, 0.06353955178443492, -0.04185561494318478, -0.07916108965179147, 0.05003368670673585, -0.0511966950021075, -0.014953587873413533, -0.0019566128538038487, -0.009999991111690454, -0.010418411000330394, 0.11337944874864384, 0.0, -0.0030613017590106414], "net.4.weight": [[0.017826475887215556, 0.14681230888107386, -0.03014282077809778, 0.09955497556361237, 0.15960295294311605, 0.13994848236561375, -0.13546931315334787, -0.011263944733615507, -0.001997287873462152, -0.08490958798697357, -0.02789221678846163, -0.05799104435934218, 0.02402037211809429, 0.11735508568888484, 0.033357533095063154, -0.2501285199361056, 0.24993935807012058, -0.05705838381206186, 0.08831486980478398, -0.06068184738254513, 0.013454163793315745, -0.12791309057247757, -0.37248819411381723, -0.07343394247267539, 0.09999899166997979], [0.06142088410326807, 0.08104129857398212, -0.08913404083326514, -0.10852976379957675, -0.021713650140818518, -0.06397987098698751, -0.01458179721495391, -0.16924602298200303, -0.09790040540479812, 0.0011688284092897568, -0.06470911361484222, -0.10532217477811408, 0.10044263192679413, 0.00569696239680785, -0.14025671025159286, -0.15560290374945096, -0.009688338787031618, -0.22963891229760314, 0.09486510407217869, 0.10462954513619767, -0.0905559158389649, 0.09902376209172496, -0.049808764475538156, -0.023987912891325472, -0.05926843202808104], [0.14309780878917017, 0.27039035012757207, 0.061519224177014595, 0.06933414414576515, 0.20662421683015217, -0.027426728250241117, 0.1981092039616893, 0.13706737331531121, 0.07457926599822695, 0.01732639860846303, 0.037859691526448844, 0.13511593381282597, -0.2913247966913539, 0.18893105059496612, -0.4133052712706168, -0.4674156889293078, -0.06689739195148586, 0.11910823957789461, 0.0656209184262593, 0.07172922251242127, -0.09221293128475874, 0.11349820888926132, -0.632895270562449, 0.006548684004570645, -0.07371904870609976], [-0.05279094521288055, 0.015205994718034108, 0.006030161851987299, -0.10027792507304456, 0.027491736002451073, -0.2528318846615498, 0.021552128161090083, -0.017089911094051426, 0.10210831368979074, -0.21783470841677205, -0.03526861510833859, -0.08294595533507376, -0.13402208816846753, 0.060348670247594896, -0.13785206702952715, 0.10116433944339794, -0.03896686035031023, 0.07127423265524478, -0.08535515205192198, 0.08785427330208004, -0.12657905630179941, 0.13401238307385707, 0.044091828818050995, -0.0328131188571733, 0.03977521050603566], [-0.0853205660530615, 0.04435787886208438, 0.23769168725044354, 0.048202135220663765, 0.06554884962914492, 0.10957290142301597, -0.3803734319303173, -0.2344461622759087, 0.030581767097823384, -0.02592260706007127, 0.16685592275206382, -0.2960810599562548, -0.12379550383612731, 0.07934307876807231, -0.18843217239014795, -0.2801762590784179, 0.054881948860699976, -0.20392784550629403, 0.06941088665349815, -0.20144631200974208, 0.006605686358986562, 0.12895611533566492, -0.12371577359763511, -0.12464969735223577, 0.07378898777362394], [0.006351293960387163, 0.1335581262033375, 0.07980003038235861, 0.03602863209288965, 0.0031415033975895467, -0.08719442866867305, -0.09021349720213864, 0.05998106674474294, 0.008278385149498267, -0.048866793226959165, 0.048718504687915026, -0.044118801194466234, -0.09359891383511737, 0.09084755783228328, 0.07203325319078346, 0.042993415611273955, -0.09681339750844223, -0.12634597550084167, -0.11788607210072412, 0.12123991413530892, -0.08074179307792502, 0.005904408398609695, -0.11555992402906579, -0.05185949581728536, 0.05538209741236484], [-0.028739299770410086, -0.03177161676024779, -0.09941167600978307, -0.029114883602487547, 0.09444999431862333, 0.07984676216683873, -0.03916178576150297, 0.10313283575979793, -0.0180743835566707, -0.05681337958676384, 0.027647090605876484, 0.0033421985913852682, -0.08718768168761765, 0.11384553074292027, -0.04520505522014631, -0.07353390166377319, 0.07899685716398305, 0.09463622026331642, -0.101548812080693, 0.016877993731260303, -0.06165018050780339, 0.09703933424644108, -0.13573207042081542, 0.17451472724485784, 0.09934492310804675], [0.006409826460710369, 0.20003778025043678, -0.09516097522394638, -0.022531929326671266, -0.003299692517216228, 0.00887318645511467, -0.04648877879795262, -0.16058777921194894, -0.05317352768770894, 0.012013907314636885, -0.18781182873615454, -0.10056263305671412, -0.14900655853449016, 0.12036386286975176, -0.1615548136912352, 0.01434630255713738, 0.0961989694932495, -0.044693804618981404, 0.020971333501648377, 0.030816172036760982, 0.06061179735574698, 0.015110492678511804, -0.3335371302458536, 0.13386166567125388, 0.13084904280216658], [-0.044106339232379346, 0.029133860014766692, -0.17673197326192702, 0.03238190109369424, 0.0021977947393208097, 0.09512073335273126, 0.08262603754074464, -0.0021872617017674174, -0.15315524036365724, 0.16469563777040389, 0.09798971606208498, 0.2423727221674517, -0.03222338611350079, -0.08271405346787364, -0.22454452985685497, -0.03167555914973197, 0.08619231094710304, 0.08848473683932163, -0.1506982831307703, 0.06507163466642957, 0.07741424920307981, -0.15274580265260723, -0.3803899330251535, -0.11632237618076442, 0.011699217293775137], [-0.07641923064507694, 0.046624393683269746, 0.057479993997353145, -0.04811452181269691, -0.07167269603538569, 0.20449256020859582, 0.12707537090954626, -0.03944299539144591, 0.005010571469447324, -0.09212945891969654, 0.03998141472892953, 0.04318337532416054, -0.15472582925556785, 0.014832027344677133, -0.16081771926518898, -0.3155726791627317, 0.006796908737347598, 0.06361790572894714, 0.07812134700953578, 0.06271570749831216, -0.10439576080094513, 0.014075016393037803, -0.4651207322649058, -0.10168473000086316, 0.21331464769413958], [-0.07204115890153562, 0.04652485667916147, 0.05185555563660811, 0.1426278297638296, 0.05627493621161295, 0.16316147292019667, -0.033880937193784384, -0.05906127718992471, 0.026195973809081056, 0.1000523883015922, 0.1211854851908872, -0.027218069567271828, -0.318655093647345, -0.07528729779359981, -0.2331042967465889, -0.2576005852872999, -0.25630633178004264, 0.05943921706047522, 0.07311704425039557, -0.11864230619745061, -0.05547679658406791, 0.07200892444126034, 0.11484890517722617, -0.02086545336472857, 0.035504478707767906], [0.016431534307518304, -0.011966385317721139, 0.03199241998257623, -0.1555363858235748, -0.0704456962241289, -0.04079169443506164, -0.11252498084293446, 0.17876239400145644, -0.004468949352783371, -0.10658277280364327, -0.12541032995408957, -0.1482269666851966, -0.1441184394684717, 0.03938757170845295, -0.08901034010913993, 0.09733984825719054, 0.05541870171879824, -0.013745666688076379, -0.007393776483917238, -0.0441623120181733, -0.2338779468806652, -0.030645576440033503, 0.03224302970288667, -0.015333364209919, 0.04045885048616549], [0.04367933751579832, 0.025069228956070524, 0.10078735555012422, 0.08441882271691013, 0.026889278891167056, -0.07412257390016588, -0.05523568204671241, 0.08624447635316743, 0.10939000697762193, 0.21027273451708844, -0.023197924014620154, -0.0801998841148471, 0.2661383151640687, -0.3365836495066701, -0.0024485414137002046, 0.11234930820696501, -0.10424348100247019, 0.043196335745384146, -0.04041198634771844, 0.09585042851049407, 0.14106983474814375, 0.04643028323695177, 0.09762675167104373, -0.014230663330562826, -0.06518665902569759], [-0.21632632306374952, 0.020908107354579968, -0.018137639138062354, 0.06648071926699664, 0.018946398644999515, -0.07380395441058323, 0.1065193276691787, -0.10278203616582793, -0.08786824659156761, -0.03524233006426901, -0.09630870814564159, -0.1534024749802787, -0.08545234231159253, -0.11121822799930106, 0.017687822330791803, -0.06052886100848753, -0.1015005552182279, -0.010899726680053495, 0.06582263029014336, 0.044904014407843716, 0.20605195430182943, -0.1753795678433734, -0.13488091973291366, -0.06825425858409792, -0.0007395459799894375], [0.053003639594028706, -0.06813470328009556, 0.08322953885953044, 0.09118216777777718, 0.10940067491415928, -0.040833488299860575, -0.0026281632551976774, -0.09335869055276692, 0.10733381384046334, 0.06763488682777112, -0.09690520006917999, 0.14016029561017568, -0.1740643047914044, 0.1936491715603326, -0.012999128072388868, -0.12083245776334328, -0.06102427217302786, 0.10875349924701164, -0.0978323089557898, -0.020597093096065795, -0.03714181328832174, -0.07691555233747555, 0.0051534702723664855, 0.0020897282729450246, 0.029774579751549148], [0.03045517181607841, 0.03859315825902344, -0.2012482520643002, 0.0273675741703361, 0.062214806929719486, 0.07398559215277344, 0.031896122744666015, -0.22828428055481573, 0.030478701133037054, 0.09679874309007616, -0.01617250493001144, 0.18905057773882766, -0.09399965303850553, -0.09595618908637733, -0.20309201401144272, -0.28416683472803916, 0.2831945986584841, 0.046207542189510654, 0.289229302446005, 0.000524735341172499, -0.06678109823719536, 0.11549140249700476, -0.2552360301214659, -0.04121849786665534, 0.21799184921343107], [0.04520803104362384, 0.10542819716341938, -0.025450203727345626, 0.08441103031976717, 0.10829124574201908, -0.030655203983994687, 0.04063823834504256, -0.013986737229941369, 0.04860170963381569, -0.01208285240381992, 0.0880183495587298, -0.024334542749120464, -0.15418422298090087, 0.10044814827749152, 0.1229127600644393, -0.12412607790154359, 0.050988961903684724, 0.02849733382791118, -0.017949564028315775, 0.2023091273378752, -0.019721188740786957, -0.27422339013929425, -0.1961188783222607, 0.10109540392905543, -0.11046958243795488], [-0.23140672772009302, -0.10354637538556931, 0.14115278864512462, -0.060729423132210615, 0.05788717342286645, -0.025535830828290442, -0.018256790389425327, -0.12978347151595446, 0.14662140172418311, 0.23205935968452623, 0.05503111139998637, 0.14346794979381228, -0.08347426122609779, -0.03493574464281415, -0.029649406193767536, -0.21643584506432667, 0.15789095388328706, -0.04538101193165415, 0.005636589478210561, 0.08756103004284516, -0.012804571478836287, -0.12224751350858902, 0.02358519965181976, -0.0012548697214059352, 0.24676222571315393], [0.07880443820240951, 0.11461625132986973, 0.09088219962667364, 0.058045522044173556, 0.09394718527851993, 0.028777738502238078, 0.06201537135622791, -0.06081072741507087, 0.013231033345953854, 0.13892620641076694, 0.11191108341623147, 0.08236959355484419, -0.40230194427198573, -0.08587377377430665, -0.3358741986478685, -0.15731011387056312, 0.0003600398866900002, -0.21864213310715702, 0.020839344205685402, 0.06655542531108685, -0.09415366831622907, 0.18700563219942878, -0.9264815789550332, -0.06605211177705354, 0.26507012151034964], [0.14953606101762054, 0.07217454999903805, -0.1275080121315333, -0.13065800126789776, -0.27828508224789383, 0.060201371944175186, 0.08408469275127008, -0.011381200536983747, 0.021006527989101922, -0.0715950637713847, 0.13086365564392524, -0.03946014945014656, 0.09604932227095607, 0.11189804657885474, 0.0169806133127351, 0.06581368811573106, -0.014073740919837456, -0.03442024269794806, 0.028592318936004307, -0.030325973737799796, 0.20154279859815386, -0.1280673165669521, 0.06774097289876616, -0.20615040029042797, 0.06309475761906659], [-0.008184667261099397, 0.07737480862523809, 0.17319563915729283, 0.16800525751102124, 0.04091612356420683, 0.2298617666263479, -0.09785697693690935, -0.013119391858909292, -0.11856425450857346, -0.03342912542019133, 0.001723397897934418, 0.10346490711743835, -0.04246843271710561, 0.12618745030536965, -0.014265488191553438, -0.010307507800585824, -0.03514115331237043, 0.07486696241088565, 0.1037767495550405, -0.0130431821477802, -0.07723108598445674, 0.009910080280361342, -0.20935910211401246, -0.04338397847418101, 0.043746507788973384], [0.22405196228494506, -0.024333700331266334, -0.07204720006172215, 0.25109600551922534, -0.04258697206112865, 0.01594639961891038, -0.13213712875717534, 0.00019238063787237373, 0.18823251117100662, 0.03430532773825704, 0.07017624961582161, -0.13552426171899226, -0.2200381555123648, 0.04653302081786695, -0.13486129288861945, -0.00038735354340398024, -0.05537778095020081, -0.039286029521622357, -0.13915685068291803, 0.3151297861163792, -0.0469760235148247, -0.11025239965774, -0.20149172651006864, -0.09180539562804621, 0.12142451978129275], [-0.03283558914620976, -0.040024561883117524, 0.1328308563800531, 0.07394034463301626, 0.07209320584203954, -0.06130488726175866, -0.16633705164040644, 0.11838326204668244, 0.18685044723996536, -0.08118646238614025, -0.18161866745410135, -0.05336700559007333, -0.047776107724984584, 0.14177336588381895, 0.14399413421742654, 0.09808454907288928, 0.05413485770663666, -0.013355526497186233, -0.08531467747058925, -0.11538510777527884, 0.07225397921467215, 0.008344795384558732, -0.15211970759710455, -0.08498127288287058, 0.088240662431434], [-0.05507343059583169, 0.16242580733809756, -0.06943437708082734, 0.0068047476451368015, 0.13618768670934045, 0.03886084548918751, -0.05460484126576083, 0.036595494278259345, -0.2340988585187816, 0.16839634270778017, -0.023782504554912338, 0.15874644615610486, -0.0760756139074821, 0.043206880834053295, -0.18629962618217638, -0.3414919889340899, 0.16186811591141737, 0.07335573529878685, 0.12668492058169017, -0.11427013687422952, 0.002099349232691094, 0.04820470493051961, -0.3411952375130688, 0.07662250740951058, -0.0025820036408515817], [-0.10554860877919169, 0.0996611447419648, 0.1326758443414571, 0.1299731823289273, 0.13024474891160542, 0.09955161600970859, -0.30059144203237254, -0.06933760994323424, 0.008367119223734697, 0.05363551985961171, -0.08874692037791555, 0.009538154244059068, 0.18447741763101544, 0.22460966691761902, 0.03619084660360857, -0.23326979992026436, 0.08976311550702512, -0.008304176774267992, 0.06087472359152191, 0.049612996855822974, -0.14929037358835834, -0.02329421020802935, -0.3677238198469413, 0.11943068903850099, 0.052135876036634644]], "net.4.bias": [0.07280528428751377, -0.0161815154100575, 0.07981868350923138, 0.0, -0.018277941631998227, -0.009999982933320576, -0.0007926503974022478, 0.040449393723840175, 0.05864551496413638, 0.007417984746009196, -0.011235595758717161, -0.0006957597056938898, -0.045439025183407956, 0.0, 0.021414407878400515, 0.02890578510163152, 0.004992141276380356, 0.03898663050009026, 0.025042834477034363, 0.0, 0.020534799696274652, -0.006928662160609646, -0.03279946061576753, 0.059324263094032006, 0.10490787017289284], "net.6.weight": [[0.08583666420369006, 0.019760482374155574, 0.12830593781297434, 0.031569141944775156, -0.07143936636824788, 0.09313809565881066, -0.14896575993077088, 0.0707438468601837, -0.058969940744964505, -0.0858725303211246, 0.007121014766680726, 0.07235807474402775, 0.040771659308398996, 0.07217643885738766, -0.06763363777481338, -0.18670616115984404, -0.07106818581985863, 0.06294806402817288, 0.1327997723830588, 0.022048373252440204, -0.012083900657857728, -0.18962295207779925, 0.15208116814514508, -0.008464514474468209, -0.024810692907076354], [-0.1488785769297345, -0.08259090857577428, 0.0686335967620704, -0.05776741467437797, 0.11628981944321341, 0.040745488725420685, 0.040093297008024616, 0.0005247543595719318, -0.12294413977680967, 0.19418512453873205, -0.2449520671468175, 0.05006876662601925, 0.037285040246589865, -0.06618721577598523, -0.093569956834304, -0.0691460435597768, 0.17162297566459422, -0.004505323980961018, 0.014101856130037378, 0.12707238270582485, 0.1230503073890779, -0.09255166833215188, 0.038659442554527156, -0.07496112715205974, -0.007212752422706219], [0.09101558338119327, -0.0317483774325979, 0.13658689942766872, 0.01321385420666032, 0.027600997540503793, 0.05594542839313907, -0.07776047967593384, 0.00956567154264132, -0.0842869163799438, 0.013591647743480014, -0.03791424786490488, 0.08632945141242954, 0.007010246419500668, -0.14561208125048675, -0.07656612515653893, -0.14777287062903002, -0.052411628036865124, 0.0013174469250046526, 0.04192723503194401, -0.011156160329726295, -0.03473727931321323, 0.10408327072694054, -0.06157097827615701, -0.008171973578418876, -0.0026510334161685342], [-0.0787453616651836, -0.08961114244669383, 0.09905716268486642, -0.006336282125096427, -0.2735066783208823, -0.06055938867139761, -0.007268461671428639, -0.0008251020998285096, 0.015434384310092463, 0.061125803703822354, 0.19121081419484226, -0.08190901755189525, -0.0062792512047748945, -0.06047052138159248, 0.01063081338059443, 0.12070286469350881, 0.016624001819729815, 0.008197185938264602, 0.10542930688680635, 0.11222016584724324, -0.11927557086269522, -0.04700015263802584, -0.013814416433671031, 0.04861344500278259, -0.021834705565651494], [0.22404467416271176, -0.09088566875706111, 0.1570610836246351, -0.05749160895117353, 0.2774714382445323, -0.1459933978956793, 0.0664966625152371, 0.14410366681280237, -0.08720998001557155, -0.028949999384046576, -0.2077816079656017, 0.02897665443476424, 0.12968456893478014, 0.0006117155136323121, -0.07055515459068334, 0.06903696276656324, 0.1747398335021705, 0.0011568725649784121, -0.20632029065381893, 0.03974076511495993, 0.07775375770376755, 0.03709544027378997, 0.11259476398248004, 0.20075183786180048, 0.3537367221792888], [-0.0490157370252203, -0.03980540620043951, 0.029340437464062483, -0.05374148359041771, -0.16235041725721008, 0.02709684059935898, -0.08310196651740337, 0.02581038210197276, 0.07433049435287235, -0.12757076705932938, 0.15679794109991518, -0.011558429123106638, -0.006325725826013179, -0.013643378900206189, -0.11778607035650186, -0.18173833569590453, 0.048291849286447176, 0.10765787683831952, 0.1074085563269667, 0.010634917515828672, -0.12477429837014788, 0.009938925605482679, -0.1267735152264468, 0.15031140263840964, -0.04512807240218129], [0.09745205132474713, 0.012211832047558989, 0.15604737933337, 0.14786172473390788, 0.03018288727642403, -0.07280937216089686, 0.1171062909851427, 0.03898449998463172, 0.06629712177739286, 0.043945719765031324, 0.022329467352960687, 0.09622814419396297, -0.15898063167282972, -0.010707405331572129, 0.0759265996841851, 0.036317896764340385, 0.009857252879772693, 0.028294781437182327, 0.11081033059877551, 0.23802982193683514, 0.10884055409540022, -0.06251482444911358, 0.15156829572399796, -0.028925837804339886, 0.044097624456374385], [-0.16452802925265372, 0.09673485022848465, -0.0495724937898219, -0.08802402787769134, 0.016910180523514055, -0.1313797952143456, -0.041836987338179, -0.0679971081373009, -0.07485913783151782, 0.0933156718847118, 0.1205830317985962, -0.17835275988959812, 0.11308546537673624, -0.02629242368884413, 0.0030261468366968563, -0.13541812504819453, -0.1422433271102061, -0.06066214334942307, 0.037107119429745296, -0.02859445324698448, -0.014086076339408247, -0.010772072687490593, 0.18289110403296696, 0.07490861730789726, -0.055071915060828217], [0.04154255823138639, -0.15697747599085377, 0.3082841791078359, -0.06282600300787303, -0.11055880526274083, -0.10607345976437774, 0.04138970538492289, 0.06235280479167849, 0.14822341317427026, 0.19389219351632356, 0.13395527709423843, 0.03173623590762457, -0.12609210834270682, -0.077595133850614, 0.07091577156325794, 0.10387937852574304, 0.07273881732090243, 0.12837977823116678, 0.15483188503552056, -0.027315178293750922, 0.11279091239620508, 0.15993359798783058, -0.02498460728681314, 0.15023197766137883, 0.058495759302475685]], "net.6.bias": [-0.014662276100215609, -0.02713868486122595, -0.012732307708599601, -0.03057637276288283, 0.06088038663080624, -0.0007309941714123445, 0.024650111606778713, -0.013237108931101771, 0.06176668917539191], "net.8.weight": [[0.11304977930092344, 0.0035196711179111195, 0.08455178424765743, -0.09966296849743074, -0.05926289026038503, -0.054054423935754464, -0.09445396966141631, 0.13604917272368977, -0.17408254457088215], [-0.177939052439638, -0.07546494548686758, -0.12595411250700023, 0.031730985695819905, -0.15594576651229927, 0.0033356217268061816, -0.09833944094001368, -0.010396093438299833, 0.1653489162418271], [0.020596936973583446, -0.13095575973347273, 0.04216454348231244, -0.04071958703678171, 0.19385407965795515, -0.15017899082935532, 0.13496247769065234, -0.062273328115588014, 0.07719266520612444]], "net.8.bias": [-0.03526827307528472, 0.020298287867247886, 0.04214734786839513]}