{"net.0.weight": [[0.0029133388336428723, -0.12541382146380717, -0.09135762359231589], [0.23270603628047526, -0.1994912297120606, -0.14579343443065748], [-0.1563770886462332, 0.11985538921501765, -0.11317074351059216], [0.012956828735998129, 0.30112820844991184, 0.21362005627610745], [0.08672737392761241, 0.2677086747352094, -0.06564997969933756], [-0.0761495061791149, 0.09741104302564467, -0.08900491249628772], [-0.18553282823926576, 0.07223246848115375, -0.011598121599873008], [-0.11851286286822756, 0.16465029178004378, -0.004240947555789706], [0.10225441799333637, 0.1818700822696017, 0.08553143710171686]], "net.0.bias": [-0.012906656145932265, 0.061911016672284436, 0.0, 0.07978844865259253, 0.04313752345224436, 0.0, 0.0, 0.0, 0.09987604943676694], "net.2.weight": [[-0.01784946664731385, 0.028112033558872335, 0.0009584374943012158, 0.0024856608896607923, -0.048029465846841146, -0.08456662890615568, -0.03560864186879099, 0.033417588887207895, -0.050503772198692516], [-0.026773745609119444, 0.010256520144655785, 0.023356946612789954, 0.15714745413718723, 0.09313879886174395, 0.13379657864725586, 0.020419210892130047, -0.07226231781349242, 0.10227761366178294], [-0.03479481287626787, -0.13414043702562686, 0.14210094092032344, 0.039017762784890594, -0.06917826676970835, -0.03240147899662026, 0.1159348590080771, 0.028707840619382703, -0.06812259252298548], [0.02549294150537678, 0.0589045391590638, -0.2151572336475996, -0.08255299665232049, -0.05964972598203925, 0.015521359141681164, 0.1463426909468212, -0.049333634322576064, -0.2256471659153208], [0.08064523320727701, 0.1032445297112922, 0.07866000703486258, 0.2477947706077874, 0.18138222823113467, 0.00716640163503119, -0.11717188768253575, 0.009060020306650424, 0.1460239671567295], [-0.08188715329575995, 0.04415120787765691, 0.09920500356670685, 0.08215126469761215, 0.14071690513705995, 0.011957839233938216, 0.017952320395654663, 0.013936544306692902, 0.14173721762185176], [-0.0351570195749567, 0.23673881595049523, 0.18867583220337336, -0.16727160644807867, 0.15826765385423527, 0.19032967608548623, -0.05624497336558955, 0.003521199561305806, 0.07141982400005384], [0.012081571319858967, -0.19276519545034454, 0.025455844487762752, -0.022961358750195282, 0.015527795711497533, 0.2800141676546502, -0.04309853847686323, 0.01619529451845645, -0.20257774675628265], [0.12985765034956812, -0.0726999398943167, 0.11807885286709066, -0.12436492135851414, -0.07139796486801783, -0.02667445944696625, 0.02351178596293882, -0.08689184512490501, 0.12013990599247652], [0.09758810193931128, 0.22851858684846602, 0.10877346744384178, 0.0026144843012077352, 0.024256159217196434, -0.0674100868093815, 0.06866626647951528, 0.0050011943142071955, 0.11856732005920016], [0.006252142981862394, 0.1096343996757935, 0.12495721852567868, -0.26118323476182326, -0.04879693669680629, 0.19657229253819114, 0.07603061896815763, -0.029172402414558825, -0.16100668570404134], [-0.006252498974962237, 0.11528746854216389, -0.013537764788843372, -0.1345069696965317, -0.06853816579825868, 0.09561204145909788, -0.05955312415963089, -0.021577435232625317, 0.14481758709744938], [0.14011689058106067, 0.10868700297508474, -0.11199513920969384, -0.23908186560008007, 0.15411601389355772, 0.09686761844795833, 0.0154043956671734, -0.07338475287942386, -0.07455722248464555], [0.19680426246544708, -0.16144976673931238, 0.08181319122965652, 0.19682855755675552, 0.06345627770274476, -0.045526680533244365, -0.011845182849301918, 0.009828971086759336, 0.23453581601127477], [0.036834350873467515, 0.10985612539108155, -0.0127935680959295, -0.15660742046900786, 0.10440026600298438, 0.014808422936650434, 0.04871880196840116, -0.018265527089049705, -0.10976888371708865], [0.03574392781149429, 0.14950218625647244, 0.06762131182674457, -0.3198657158589359, 0.09843269840271555, 0.18468363033938032, 0.04056578752058557, -0.08997142777528659, -0.03457080055650248], [0.13428258787452851, -0.12792712219747257, 0.19557581731276097, 0.10533933452047235, 0.013707271038453699, -0.05210083832882857, -0.22571618775107727, 0.035153087881891754, 0.21847658901375555], [0.026428228958947735, 0.17978621887637983, 0.03645008016142576, -0.08112495836756464, 0.09863391807565154, -0.1912471612626238, 0.072598314866428, 0.16409804551586715, 0.035837890797060235], [0.06884002568679991, 0.007426666619322922, -0.08032320600147524, 0.06582985144914673, 0.09641477890480146, -0.1589192084011249, 0.05771908059955683, -0.07074200798755192, 0.02307895623934303], [0.034412082266735596, 0.0055842929456023415, 0.28800198907146934, 0.04824615813257432, 0.00033095246679906015, 0.11934657427946108, 0.060709542128832054, -0.023262762904612194, -0.11204685224020304], [0.08130386512188048, -0.030077209208814227, -0.11186879545102875, 0.00418499151465644, 0.10701781572117966, 0.08539421224595783, 0.1058988734464925, -0.03297086074326474, -0.12357176488816646], [0.015809982385543687, 0.021685797798009467, 0.07282192092587775, -0.040481912129085966, 0.059156508547536596, -0.04699931491467204, -0.16072855523092264, 0.0691528050350845, -0.09920597148367855], [0.07937019857974219, -0.5101964435117978, -0.016716830104049254, 0.23734536375208604, -0.468888145456476, 0.0131274300085906, 0.10648499883141514, -0.0036619500760467073, 0.2092386100259169], [-0.1852313304926224, -0.09818429810454943, -0.14954727034394985, -0.044784693251119057, -0.039967641470414234, -0.0723190671638739, -0.0632694387005767, 0.015332465897993275, -0.16128654208131923], [0.03342287089481498, 0.0727730723987216, -0.045135086854563806, 0.005200706156468086, 0.3066119631225585, -0.1086654775983445, 0.009210868554846699, 0.08530594098098951, 0.07992964241016337]], "net.2.bias": [-0.02003945685512035, 0.10739175021565621, -0.016388793578675034, -0.011372808325410726, 0.018589113630312248, 0.03143130400785309, 0.01958161846786525, 0.0, -0.021469985681284057, -0.004046369968719567, 0.012496856053636244, 0.08240655803323522, -0.003917669174339536, 0.06334552134832848, -0.04144892671435532, -0.08021639268588489, 0.05073830740847478, -0.0541779547709487, -0.01509087689985999, -0.0019566128538038487, -0.009999991111690454, -0.010418411000330394, 0.11329765050559554, 0.0, -0.0023197984445024584], "net.4.weight": [[0.017826475887215556, 0.14646800223324094, -0.03014282077809778, 0.09955497556361237, 0.15951961200447992, 0.13969752817037095, -0.13580413413937326, -0.011263944733615507, -0.001997287873462152, -0.08505981562889771, -0.02789221678846163, -0.059668788391459324, 0.024714087634314413, 0.11689717788894127, 0.033654844076474955, -0.25020187317767434, 0.24920614985282086, -0.0580671793806995, 0.08746524082673554, -0.06068184738254513, 0.013454163793315745, -0.12791309057247757, -0.37425464268278436, -0.07343394247267539, 0.09987239433646951], [0.06142088410326807, 0.08104129857398212, -0.08913404083326514, -0.10852976379957675, -0.021713650140818518, -0.06397987098698751, -0.01458179721495391, -0.16924602298200303, -0.09790040540479812, 0.0011688284092897568, -0.06470911361484222, -0.10532217477811408, 0.10044263192679413, 0.00569696239680785, -0.14025671025159286, -0.15560290374945096, -0.009688338787031618, -0.22963891229760314, 0.09486510407217869, 0.10462954513619767, -0.0905559158389649, 0.09902376209172496, -0.049808764475538156, -0.023987912891325472, -0.05926843202808104], [0.14309780878917017, 0.268504345906815, 0.061519224177014595, 0.06933414414576515, 0.2054166925773708, -0.028710970691674897, 0.198865051738879, 0.13706737331531121, 0.07457926599822695, 0.016937042956479388, 0.037859691526448844, 0.13460119047621358, -0.2922466002085222, 0.18540762757627136, -0.4139313169898905, -0.4687821893878526, -0.0709350736514897, 0.11922279446391224, 0.06347803497025256, 0.07172922251242127, -0.09221293128475874, 0.11349820888926132, -0.6417223679788587, 0.006548684004570645, -0.07427412650364013], [-0.05279094521288055, 0.015205994718034108, 0.006030161851987299, -0.10027792507304456, 0.027491736002451073, -0.2528318846615498, 0.021552128161090083, -0.017089911094051426, 0.10210831368979074, -0.21783470841677205, -0.03526861510833859, -0.08294595533507376, -0.13402208816846753, 0.060348670247594896, -0.13785206702952715, 0.10116433944339794, -0.03896686035031023, 0.07127423265524478, -0.08535515205192198, 0.08785427330208004, -0.12657905630179941, 0.13401238307385707, 0.044091828818050995, -0.0328131188571733, 0.03977521050603566], [-0.0853205660530615, 0.045390234053429304, 0.23769168725044354, 0.048202135220663765, 0.06676621214513725, 0.1110506073529286, -0.39233707709143734, -0.2344461622759087, 0.030581767097823384, -0.0254348847915836, 0.16685592275206382, -0.31436042625660565, -0.12379550383612731, 0.08025391523424767, -0.18843217239014795, -0.2801762590784179, 0.05553178475960128, -0.21259993332294458, 0.07094387416242626, -0.20144631200974208, 0.006605686358986562, 0.12895611533566492, -0.1336445319497434, -0.12464969735223577, 0.07697025798888472], [0.006351293960387163, 0.1335581262033375, 0.07980003038235861, 0.03602863209288965, 0.0031415033975895467, -0.08719442866867305, -0.09021349720213864, 0.05998106674474294, 0.008278385149498267, -0.048866793226959165, 0.048718504687915026, -0.044118801194466234, -0.09359891383511737, 0.09084755783228328, 0.07203325319078346, 0.042993415611273955, -0.09681339750844223, -0.12634597550084167, -0.11788607210072412, 0.12123991413530892, -0.08074179307792502, 0.005904408398609695, -0.11555992402906579, -0.05185949581728536, 0.05538209741236484], [-0.028739299770410086, -0.033038359888562165, -0.09941167600978307, -0.029114883602487547, 0.09329486243677958, 0.07853835600069645, -0.040637191451804944, 0.10313283575979793, -0.0180743835566707, -0.05819981149829586, 0.027647090605876484, 0.0008420886467099739, -0.09017785564769787, 0.11273495192201002, -0.0485884260764866, -0.07688240742350715, 0.07768626457632877, 0.09284849284277995, -0.10323757214748149, 0.016877993731260303, -0.06165018050780339, 0.09703933424644108, -0.13543245397388576, 0.17451472724485784, 0.09795028681284988], [0.006409826460710369, 0.19980342978493384, -0.09516097522394638, -0.022531929326671266, -0.0032481863054505743, 0.008710335498090378, -0.04618069877905773, -0.16058777921194894, -0.05317352768770894, 0.012060017338053619, -0.18781182873615454, -0.10148208383419785, -0.14824356264736643, 0.11997196401713754, -0.16079377917298074, 0.014428475249720832, 0.09554418849253296, -0.04512925220282707, 0.020124522366588703, 0.030816172036760982, 0.06061179735574698, 0.015110492678511804, -0.3325998600466958, 0.13386166567125388, 0.13070811038710156], [-0.044106339232379346, 0.029929923907387246, -0.17673197326192702, 0.03238190109369424, 0.003297736183722602, 0.09594098357628322, 0.08372921314749873, -0.0021872617017674174, -0.15315524036365724, 0.1655369952719074, 0.09798971606208498, 0.24229059800418482, -0.03258425286830709, -0.08197456640653882, -0.22425212995760557, -0.032388806840462046, 0.08661014733930529, 0.08904064692853093, -0.15057369453337033, 0.06507163466642957, 0.07741424920307981, -0.15274580265260723, -0.3901647075367338, -0.11632237618076442, 0.012537230712238945], [-0.07641923064507694, 0.046919418868816794, 0.057479993997353145, -0.04811452181269691, -0.0710008019871789, 0.20491392303417855, 0.1280843384595358, -0.03944299539144591, 0.005010571469447324, -0.09154878868279105, 0.03998141472892953, 0.042964835307821816, -0.15539554807894473, 0.014718539992428923, -0.16091706614679874, -0.3166123516660203, 0.006290157080051019, 0.06402514853205908, 0.07780177434373002, 0.06271570749831216, -0.10439576080094513, 0.014075016393037803, -0.4720781588582867, -0.10168473000086316, 0.21386091771329188], [-0.07204115890153562, 0.04409635192797566, 0.05185555563660811, 0.1426278297638296, 0.05258233814711055, 0.15848436426635518, -0.03969186859203417, -0.05906127718992471, 0.026195973809081056, 0.09299663065553554, 0.1211854851908872, -0.03323801135049207, -0.3325748776074735, -0.07403263399858438, -0.24614757585877434, -0.2709589578264765, -0.25465874775125574, 0.05421433412723344, 0.06877723659066914, -0.11864230619745061, -0.05547679658406791, 0.07200892444126034, 0.12489146679461462, -0.02086545336472857, 0.02749614511550419], [0.016431534307518304, -0.011966385317721139, 0.03199241998257623, -0.1555363858235748, -0.0704456962241289, -0.04079169443506164, -0.11252498084293446, 0.17876239400145644, -0.004468949352783371, -0.10658277280364327, -0.12541032995408957, -0.1482269666851966, -0.1441184394684717, 0.03938757170845295, -0.08901034010913993, 0.09733984825719054, 0.05541870171879824, -0.013745666688076379, -0.007393776483917238, -0.0441623120181733, -0.2338779468806652, -0.030645576440033503, 0.03224302970288667, -0.015333364209919, 0.04045885048616549], [0.04367933751579832, 0.023543125846964295, 0.10078735555012422, 0.08441882271691013, 0.025228069886563672, -0.07546200395923297, -0.05635041283172103, 0.08624447635316743, 0.10939000697762193, 0.20918669151110666, -0.023197924014620154, -0.08038456876958193, 0.26492253956658696, -0.34009518744170336, -0.004019263396437474, 0.11154588930232762, -0.10756894222710842, 0.042459994334908796, -0.04113186102992236, 0.09585042851049407, 0.14106983474814375, 0.04643028323695177, 0.09762675167104373, -0.014230663330562826, -0.06639127159272616], [-0.21632632306374952, 0.020908107354579968, -0.018137639138062354, 0.06648071926699664, 0.018946398644999515, -0.07380395441058323, 0.1065193276691787, -0.10278203616582793, -0.08786824659156761, -0.03524233006426901, -0.09630870814564159, -0.1534024749802787, -0.08545234231159253, -0.11121822799930106, 0.017687822330791803, -0.06052886100848753, -0.1015005552182279, -0.010899726680053495, 0.06582263029014336, 0.044904014407843716, 0.20605195430182943, -0.1753795678433734, -0.13488091973291366, -0.06825425858409792, -0.0007395459799894375], [0.053003639594028706, -0.06853241903788956, 0.08322953885953044, 0.09118216777777718, 0.1091051613502841, -0.04158376487510235, -0.0025412677989811797, -0.09335869055276692, 0.10733381384046334, 0.06678872643684841, -0.09690520006917999, 0.13910317189517454, -0.17592841287978203, 0.19396450564110193, -0.014231138274929157, -0.12297826473746919, -0.060776717101650696, 0.10830290450868674, -0.09932481688078595, -0.020597093096065795, -0.03714181328832174, -0.07691555233747555, 0.017242031574755835, 0.0020897282729450246, 0.028360136713797224], [0.03045517181607841, 0.03780294839711724, -0.2012482520643002, 0.0273675741703361, 0.06145977626620763, 0.07293790194839808, 0.03090914138928925, -0.22828428055481573, 0.030478701133037054, 0.09555518051117168, -0.01617250493001144, 0.18723116876099566, -0.09794645535992717, -0.09613091151755405, -0.20693791662790018, -0.28828938110516056, 0.28291851588364797, 0.0449338595988344, 0.28767831429698393, 0.000524735341172499, -0.06678109823719536, 0.11549140249700476, -0.25053553567346665, -0.04121849786665534, 0.21647447180974266], [0.04520803104362384, 0.10512816757598134, -0.025450203727345626, 0.08441103031976717, 0.1082132110780413, -0.030982912340974843, 0.04036922427002615, -0.013986737229941369, 0.04860170963381569, -0.012378987340849038, 0.0880183495587298, -0.02588488706849963, -0.15489920992228437, 0.10023824356319345, 0.12212610117470162, -0.12544919201442656, 0.05055292607455426, 0.0275738551930313, -0.018938402592085065, 0.2023091273378752, -0.019721188740786957, -0.27422339013929425, -0.19502961356526094, 0.10109540392905543, -0.11091376387226227], [-0.23140672772009302, -0.10298892229225358, 0.14115278864512462, -0.060729423132210615, 0.05861438007406004, -0.02519771876463571, -0.017436740120871604, -0.12978347151595446, 0.14662140172418311, 0.2323319684248697, 0.05503111139998637, 0.1430370547636019, -0.08374818935502182, -0.03397461931878183, -0.02937743747373461, -0.21711535164713794, 0.15871608974507365, -0.045205497755326764, 0.005233867895169852, 0.08756103004284516, -0.012804571478836287, -0.12224751350858902, 0.030487922675800097, -0.0012548697214059352, 0.24664112731633273], [0.07880443820240951, 0.1159473797833944, 0.09088219962667364, 0.058045522044173556, 0.0954365922938641, 0.030004280225004905, 0.06293297791462513, -0.06081072741507087, 0.013231033345953854, 0.13985612899304956, 0.11191108341623147, 0.08231050472346037, -0.40479642154630235, -0.08393430582360967, -0.33753419192418865, -0.159960096139974, 0.002135288232552382, -0.21796660952229158, 0.02157145079724992, 0.06655542531108685, -0.09415366831622907, 0.18700563219942878, -0.949485691301547, -0.06605211177705354, 0.2662541510227453], [0.14953606101762054, 0.07217454999903805, -0.1275080121315333, -0.13065800126789776, -0.27828508224789383, 0.060201371944175186, 0.08408469275127008, -0.011381200536983747, 0.021006527989101922, -0.0715950637713847, 0.13086365564392524, -0.03946014945014656, 0.09604932227095607, 0.11189804657885474, 0.0169806133127351, 0.06581368811573106, -0.014073740919837456, -0.03442024269794806, 0.028592318936004307, -0.030325973737799796, 0.20154279859815386, -0.1280673165669521, 0.06774097289876616, -0.20615040029042797, 0.06309475761906659], [-0.008184667261099397, 0.07800355431870565, 0.17319563915729283, 0.16800525751102124, 0.04177895905987148, 0.2303933568114605, -0.09697671955211229, -0.013119391858909292, -0.11856425450857346, -0.0328819267987021, 0.001723397897934418, 0.10302800441137071, -0.04138233314987558, 0.12701015255371684, -0.01283249870693937, -0.009780676606316423, -0.03454560670410911, 0.07502329574792688, 0.10355982931277788, -0.0130431821477802, -0.07723108598445674, 0.009910080280361342, -0.20449029107474453, -0.04338397847418101, 0.044046156902932204], [0.22405196228494506, -0.024333700331266334, -0.07204720006172215, 0.25109600551922534, -0.04258697206112865, 0.01594639961891038, -0.13213712875717534, 0.00019238063787237373, 0.18823251117100662, 0.03430532773825704, 0.07017624961582161, -0.13552426171899226, -0.2200381555123648, 0.04653302081786695, -0.13486129288861945, -0.00038735354340398024, -0.05537778095020081, -0.039286029521622357, -0.13915685068291803, 0.3151297861163792, -0.0469760235148247, -0.11025239965774, -0.20149172651006864, -0.09180539562804621, 0.12142451978129275], [-0.03283558914620976, -0.041806816343742725, 0.1328308563800531, 0.07394034463301626, 0.07006777784106132, -0.06333533148751024, -0.1758037602654944, 0.11838326204668244, 0.18685044723996536, -0.08417489425969732, -0.18161866745410135, -0.06303250424160581, -0.047776107724984584, 0.14046836060130055, 0.14399413421742654, 0.09808454907288928, 0.05282297917601335, -0.019036088745345243, -0.08702124766471936, -0.11538510777527884, 0.07225397921467215, 0.008344795384558732, -0.15475997876690376, -0.08498127288287058, 0.08586181580371635], [-0.05507343059583169, 0.16274904794699155, -0.06943437708082734, 0.0068047476451368015, 0.136704009473205, 0.039035760737954686, -0.05433179915100224, 0.036595494278259345, -0.2340988585187816, 0.16849300420668653, -0.023782504554912338, 0.15769173285804186, -0.07684665669062714, 0.04383298574408635, -0.1868117817883762, -0.34274504974033326, 0.16230189679219964, 0.07296852789288111, 0.12612772690295332, -0.11427013687422952, 0.002099349232691094, 0.04820470493051961, -0.337750161501116, 0.07662250740951058, -0.0027361683267975515], [-0.10554860877919169, 0.09958571687080593, 0.1326758443414571, 0.1299731823289273, 0.13047977913699618, 0.09968093508603369, -0.3001665503342264, -0.06933760994323424, 0.008367119223734697, 0.05406265141690553, -0.08874692037791555, 0.008823606694271076, 0.1866603733521331, 0.2241963233892204, 0.03801322991757521, -0.2319077778682348, 0.08908539151560046, -0.008627707374100188, 0.060399353057202385, 0.049612996855822974, -0.14929037358835834, -0.02329421020802935, -0.36953957835104345, 0.11943068903850099, 0.05254836087730566]], "net.4.bias": [0.07343181298014022, -0.0161815154100575, 0.07930927766869729, 0.0, -0.01768819506283434, -0.009999982933320576, -0.0014405321494134241, 0.04136911506236992, 0.060651267144660036, 0.008978074887206085, -0.013438526453427885, -0.0006957597056938898, -0.0478476944914654, 0.0, 0.022447135788817126, 0.02905398903807827, 0.0058509682418945415, 0.04094076004744822, 0.027144070283679714, 0.0, 0.02252534539127656, -0.006928662160609646, -0.0351168747429411, 0.060979932825149595, 0.10577342836932753], "net.6.weight": [[0.08583666420369006, 0.019760482374155574, 0.12830593781297434, 0.031569141944775156, -0.07143936636824788, 0.09313809565881066, -0.14896575993077088, 0.0707438468601837, -0.058969940744964505, -0.0858725303211246, 0.007121014766680726, 0.07235807474402775, 0.040771659308398996, 0.07217643885738766, -0.06763363777481338, -0.18670616115984404, -0.07106818581985863, 0.06294806402817288, 0.1327997723830588, 0.022048373252440204, -0.012083900657857728, -0.18962295207779925, 0.15208116814514508, -0.008464514474468209, -0.024810692907076354], [-0.1488785769297345, -0.08259090857577428, 0.0686335967620704, -0.05776741467437797, 0.11628981944321341, 0.040745488725420685, 0.040093297008024616, 0.0005247543595719318, -0.12294413977680967, 0.19418512453873205, -0.2449520671468175, 0.05006876662601925, 0.037285040246589865, -0.06618721577598523, -0.093569956834304, -0.0691460435597768, 0.17162297566459422, -0.004505323980961018, 0.014101856130037378, 0.12707238270582485, 0.1230503073890779, -0.09255166833215188, 0.038659442554527156, -0.07496112715205974, -0.007212752422706219], [0.09101558338119327, -0.0317483774325979, 0.13658689942766872, 0.01321385420666032, 0.027600997540503793, 0.05594542839313907, -0.07776047967593384, 0.00956567154264132, -0.0842869163799438, 0.013591647743480014, -0.03791424786490488, 0.08632945141242954, 0.007010246419500668, -0.14561208125048675, -0.07656612515653893, -0.14777287062903002, -0.052411628036865124, 0.0013174469250046526, 0.04192723503194401, -0.011156160329726295, -0.03473727931321323, 0.10408327072694054, -0.06157097827615701, -0.008171973578418876, -0.0026510334161685342], [-0.0792772963711782, -0.08961114244669383, 0.09876739991731658, -0.006336282125096427, -0.27792437305619094, -0.06055938867139761, -0.007847478326759279, -0.0007224641481531751, 0.015321017101326858, 0.061914731136942076, 0.19147323930315327, -0.08190901755189525, -0.012704192728006582, -0.06047052138159248, 0.010742180116820443, 0.12002392631158625, 0.017106634402908327, 0.007937963395394461, 0.10553430953862042, 0.11222016584724324, -0.11945975151904406, -0.04700015263802584, -0.01836517269394339, 0.04823577154607247, -0.022400825941472524], [0.2242965099079485, -0.09088566875706111, 0.1558694260347507, -0.05749160895117353, 0.2834071911820302, -0.1459933978956793, 0.06586163321651937, 0.14470207043951844, -0.09000527253893739, -0.032282590276715296, -0.20783696291970435, 0.02897665443476424, 0.12114178234705414, 0.0006117155136323121, -0.07176932864895941, 0.06870741847392917, 0.1739136825926943, 0.0004322154853271817, -0.20993236007370447, 0.03974076511495993, 0.07746993787097033, 0.03709544027378997, 0.11949101690855266, 0.20064768943280945, 0.35415397524657066], [-0.0490157370252203, -0.03980540620043951, 0.029340437464062483, -0.05374148359041771, -0.16235041725721008, 0.02709684059935898, -0.08310196651740337, 0.02581038210197276, 0.07433049435287235, -0.12757076705932938, 0.15679794109991518, -0.011558429123106638, -0.006325725826013179, -0.013643378900206189, -0.11778607035650186, -0.18173833569590453, 0.048291849286447176, 0.10765787683831952, 0.1074085563269667, 0.010634917515828672, -0.12477429837014788, 0.009938925605482679, -0.1267735152264468, 0.15031140263840964, -0.04512807240218129], [0.09680320815762428, 0.012211832047558989, 0.15531532116116067, 0.14786172473390788, 0.030716472339068993, -0.07280937216089686, 0.11620667455598414, 0.03864147987743139, 0.06538706785959356, 0.043306731342185004, 0.022677105341729616, 0.09622814419396297, -0.16647989708052524, -0.010707405331572129, 0.07554127118252794, 0.03566858789774611, 0.009333359762627013, 0.027933109553407307, 0.10953327774733343, 0.23802982193683514, 0.10845339956380068, -0.06251482444911358, 0.1510568318294566, -0.029380491698057332, 0.04338177089664213], [-0.16452802925265372, 0.09673485022848465, -0.0495724937898219, -0.08802402787769134, 0.016910180523514055, -0.1313797952143456, -0.041836987338179, -0.0679971081373009, -0.07485913783151782, 0.0933156718847118, 0.1205830317985962, -0.17835275988959812, 0.11308546537673624, -0.02629242368884413, 0.0030261468366968563, -0.13541812504819453, -0.1422433271102061, -0.06066214334942307, 0.037107119429745296, -0.02859445324698448, -0.014086076339408247, -0.010772072687490593, 0.18289110403296696, 0.07490861730789726, -0.055071915060828217], [0.04112604812770075, -0.15697747599085377, 0.3085431174758726, -0.06282600300787303, -0.11418078547472925, -0.10607345976437774, 0.041338043604297436, 0.060209137785546984, 0.14841998415185323, 0.19386150854635872, 0.1352120196686046, 0.03173623590762457, -0.12265983975262378, -0.077595133850614, 0.07097011404535798, 0.10389774322913427, 0.07106669715697608, 0.12841216617055473, 0.1556793725232504, -0.027315178293750922, 0.11185635466955278, 0.15993359798783058, -0.029601797345109124, 0.14991062874291128, 0.057675626389981534]], "net.6.bias": [-0.014662276100215609, -0.02713868486122595, -0.012732307708599601, -0.033111588973102506, 0.06067751095637048, -0.0007309941714123445, 0.023135447097054493, -0.013237108931101771, 0.0645936718825716], "net.8.weight": [[0.11304977930092344, 0.0035196711179111195, 0.08455178424765743, -0.10007982044363532, -0.05942992723922988, -0.054054423935754464, -0.09498923452677419, 0.13604917272368977, -0.1757291745458504], [-0.177939052439638, -0.07546494548686758, -0.12595411250700023, 0.03373967222217514, -0.15623904937772348, 0.0033356217268061816, -0.0981417366466861, -0.010396093438299833, 0.16472774790373], [0.020596936973583446, -0.13095575973347273, 0.04216454348231244, -0.039049059372278365, 0.1943397306370192, -0.15017899082935532, 0.13547880661390355, -0.062273328115588014, 0.076693234171767]], "net.8.bias": [-0.03438874708367015, 0.022561837970334668, 0.04475612903196039]}