{"net.0.weight": [[0.0029133388336428723, -0.12541382146380717, -0.09135762359231589], [0.23460000618538795, -0.20473468624264118, -0.14382070811828332], [-0.1563770886462332, 0.11985538921501765, -0.11317074351059216], [0.011605881756956116, 0.3078716725314975, 0.21422877961224635], [0.08769856456753043, 0.2723952930715055, -0.06583329997110836], [-0.0761495061791149, 0.09741104302564467, -0.08900491249628772], [-0.18553282823926576, 0.07223246848115375, -0.011598121599873008], [-0.11851286286822756, 0.16465029178004378, -0.004240947555789706], [0.10055208554469872, 0.1866321831057605, 0.0829690946355535]], "net.0.bias": [-0.012906656145932265, 0.06401214204411833, 0.0, 0.07933754449269839, 0.044073101614742025, 0.0, 0.0, 0.0, 0.09862854902524576], "net.2.weight": [[-0.01784946664731385, 0.028112033558872335, 0.0009584374943012158, 0.0024856608896607923, -0.048029465846841146, -0.08456662890615568, -0.03560864186879099, 0.033417588887207895, -0.050503772198692516], [-0.026773745609119444, 0.011332233073553147, 0.023356946612789954, 0.15486830084020564, 0.09428215739456182, 0.13379657864725586, 0.020419210892130047, -0.07226231781349242, 0.10144753079394088], [-0.03479481287626787, -0.13414043702562686, 0.14210094092032344, 0.039017762784890594, -0.06917826676970835, -0.03240147899662026, 0.1159348590080771, 0.028707840619382703, -0.06812259252298548], [0.02549294150537678, 0.0589045391590638, -0.2151572336475996, -0.08255299665232049, -0.05964972598203925, 0.015521359141681164, 0.1463426909468212, -0.049333634322576064, -0.2256471659153208], [0.08064523320727701, 0.10331410529403015, 0.07866000703486258, 0.2457291223541284, 0.18160209659243717, 0.00716640163503119, -0.11717188768253575, 0.009060020306650424, 0.1448149456149187], [-0.08188715329575995, 0.0435158295718074, 0.09920500356670685, 0.08219352895438277, 0.1405712339633048, 0.011957839233938216, 0.017952320395654663, 0.013936544306692902, 0.14142607411908842], [-0.0351570195749567, 0.23949468303994007, 0.18867583220337336, -0.17032619786858214, 0.15989341207087351, 0.19032967608548623, -0.05624497336558955, 0.003521199561305806, 0.07046424206515642], [0.012081571319858967, -0.19276519545034454, 0.025455844487762752, -0.022961358750195282, 0.015527795711497533, 0.2800141676546502, -0.04309853847686323, 0.01619529451845645, -0.20257774675628265], [0.12985765034956812, -0.0726999398943167, 0.11807885286709066, -0.12436492135851414, -0.07139796486801783, -0.02667445944696625, 0.02351178596293882, -0.08689184512490501, 0.12013990599247652], [0.09758810193931128, 0.22398420284899787, 0.10877346744384178, 0.0010152671146031358, 0.01741714699973628, -0.0674100868093815, 0.06866626647951528, 0.0050011943142071955, 0.11527919659093616], [0.006252142981862394, 0.1096343996757935, 0.12495721852567868, -0.26118323476182326, -0.04879693669680629, 0.19657229253819114, 0.07603061896815763, -0.029172402414558825, -0.16100668570404134], [-0.006252498974962237, 0.1165900772454014, -0.013537764788843372, -0.1329993732000108, -0.06686086212704027, 0.09561204145909788, -0.05955312415963089, -0.021577435232625317, 0.146070794600665], [0.14011689058106067, 0.11164163090376517, -0.11199513920969384, -0.24184983664882978, 0.15613920612770743, 0.09686761844795833, 0.0154043956671734, -0.07338475287942386, -0.07313508691782161], [0.19680426246544708, -0.1614048415168044, 0.08181319122965652, 0.19495128439461942, 0.06442507984099183, -0.045526680533244365, -0.011845182849301918, 0.009828971086759336, 0.23348743814546297], [0.036834350873467515, 0.11246786514441631, -0.0127935680959295, -0.16016122749995618, 0.10596263896900547, 0.014808422936650434, 0.04871880196840116, -0.018265527089049705, -0.10881330016054046], [0.03574392781149429, 0.14975168638788852, 0.06762131182674457, -0.3274082946668819, 0.09716795896844645, 0.18468363033938032, 0.04056578752058557, -0.08997142777528659, -0.03657768194092962], [0.13428258787452851, -0.12760358967489663, 0.19557581731276097, 0.10577868921384112, 0.015350399259734158, -0.05210083832882857, -0.22571618775107727, 0.035153087881891754, 0.2189334053606137], [0.026428228958947735, 0.17801130365650983, 0.03645008016142576, -0.08946610204790992, 0.0958595911230847, -0.1912471612626238, 0.072598314866428, 0.16409804551586715, 0.030842265310546735], [0.06884002568679991, 0.006735243343045062, -0.08032320600147524, 0.06410062709770932, 0.09557249889426347, -0.1589192084011249, 0.05771908059955683, -0.07074200798755192, 0.021699883755586048], [0.034412082266735596, 0.0055842929456023415, 0.28800198907146934, 0.04824615813257432, 0.00033095246679906015, 0.11934657427946108, 0.060709542128832054, -0.023262762904612194, -0.11204685224020304], [0.08130386512188048, -0.030077209208814227, -0.11186879545102875, 0.00418499151465644, 0.10701781572117966, 0.08539421224595783, 0.1058988734464925, -0.03297086074326474, -0.12357176488816646], [0.015809982385543687, 0.021685797798009467, 0.07282192092587775, -0.040481912129085966, 0.059156508547536596, -0.04699931491467204, -0.16072855523092264, 0.0691528050350845, -0.09920597148367855], [0.07937019857974219, -0.5224684551384758, -0.016716830104049254, 0.23899564093363082, -0.4770721061589678, 0.0131274300085906, 0.10648499883141514, -0.0036619500760467073, 0.20917001315186767], [-0.1852313304926224, -0.09818429810454943, -0.14954727034394985, -0.044784693251119057, -0.039967641470414234, -0.0723190671638739, -0.0632694387005767, 0.015332465897993275, -0.16128654208131923], [0.03342287089481498, 0.0716349359944277, -0.045135086854563806, 0.006278639305908479, 0.30608059964193196, -0.1086654775983445, 0.009210868554846699, 0.08530594098098951, 0.07984917714477825]], "net.2.bias": [-0.02003945685512035, 0.1076906624115838, -0.016388793578675034, -0.011372808325410726, 0.018536610833081946, 0.03246074686933054, 0.0179654473328814, 0.0, -0.021469985681284057, -0.005330470661324625, 0.012496856053636244, 0.0849057517682181, -0.003693445507466057, 0.06323628648914228, -0.04168540301895465, -0.08337071588796748, 0.052212962334171824, -0.058042323449770415, -0.015141984592164693, -0.0019566128538038487, -0.009999991111690454, -0.010418411000330394, 0.11231481424985004, 0.0, -0.0010317699020591365], "net.4.weight": [[0.017826475887215556, 0.14586800481301637, -0.03014282077809778, 0.09955497556361237, 0.15982385724879156, 0.13968431211926605, -0.13453269710458635, -0.011263944733615507, -0.001997287873462152, -0.08446558257572978, -0.02789221678846163, -0.06288586549470553, 0.026685390681662483, 0.1155991882041186, 0.03497995238405736, -0.25125427851297516, 0.24692428388267262, -0.05972478909903019, 0.08532724425361402, -0.06068184738254513, 0.013454163793315745, -0.12791309057247757, -0.3809456744198872, -0.07343394247267539, 0.1005863767920957], [0.06142088410326807, 0.08104129857398212, -0.08913404083326514, -0.10852976379957675, -0.021713650140818518, -0.06397987098698751, -0.01458179721495391, -0.16924602298200303, -0.09790040540479812, 0.0011688284092897568, -0.06470911361484222, -0.10532217477811408, 0.10044263192679413, 0.00569696239680785, -0.14025671025159286, -0.15560290374945096, -0.009688338787031618, -0.22963891229760314, 0.09486510407217869, 0.10462954513619767, -0.0905559158389649, 0.09902376209172496, -0.049808764475538156, -0.023987912891325472, -0.05926843202808104], [0.14309780878917017, 0.26499731068202803, 0.061519224177014595, 0.06933414414576515, 0.20373976549733747, -0.03051408593340334, 0.20270778842407555, 0.13706737331531121, 0.07457926599822695, 0.017411866963581497, 0.037859691526448844, 0.13453472391474525, -0.2933558787317752, 0.17722640751388577, -0.41430547716453286, -0.47154236271557337, -0.0806814912004289, 0.12075689415400755, 0.05904740048381825, 0.07172922251242127, -0.09221293128475874, 0.11349820888926132, -0.6681916973812153, 0.006548684004570645, -0.07415613377545167], [-0.05279094521288055, 0.015205994718034108, 0.006030161851987299, -0.10027792507304456, 0.027491736002451073, -0.2528318846615498, 0.021552128161090083, -0.017089911094051426, 0.10210831368979074, -0.21783470841677205, -0.03526861510833859, -0.08294595533507376, -0.13402208816846753, 0.060348670247594896, -0.13785206702952715, 0.10116433944339794, -0.03896686035031023, 0.07127423265524478, -0.08535515205192198, 0.08785427330208004, -0.12657905630179941, 0.13401238307385707, 0.044091828818050995, -0.0328131188571733, 0.03977521050603566], [-0.0853205660530615, 0.04796258441227571, 0.23769168725044354, 0.048202135220663765, 0.07016041633262914, 0.1151122858664771, -0.4168837052929891, -0.2344461622759087, 0.030581767097823384, -0.022187740165480863, 0.16685592275206382, -0.3553914746526818, -0.12379550383612731, 0.08213061274577112, -0.18843217239014795, -0.2801762590784179, 0.0565913304669672, -0.23588087245568906, 0.0742965816985036, -0.20144631200974208, 0.006605686358986562, 0.12895611533566492, -0.15907786904519583, -0.12464969735223577, 0.08630507092987254], [0.006351293960387163, 0.1335581262033375, 0.07980003038235861, 0.03602863209288965, 0.0031415033975895467, -0.08719442866867305, -0.09021349720213864, 0.05998106674474294, 0.008278385149498267, -0.048866793226959165, 0.048718504687915026, -0.044118801194466234, -0.09359891383511737, 0.09084755783228328, 0.07203325319078346, 0.042993415611273955, -0.09681339750844223, -0.12634597550084167, -0.11788607210072412, 0.12123991413530892, -0.08074179307792502, 0.005904408398609695, -0.11555992402906579, -0.05185949581728536, 0.05538209741236484], [-0.028739299770410086, -0.03526996620301234, -0.09941167600978307, -0.029114883602487547, 0.09196536759216453, 0.07698208081158041, -0.03936489433998743, 0.10313283575979793, -0.0180743835566707, -0.05884833022314061, 0.027647090605876484, -0.001981387158729684, -0.09103059672813743, 0.10953873870364732, -0.04965439314250024, -0.08007808700458181, 0.07348966128246064, 0.09144746927101523, -0.10689609776327451, 0.016877993731260303, -0.06165018050780339, 0.09703933424644108, -0.13815755178406278, 0.17451472724485784, 0.09705803241556415], [0.006409826460710369, 0.1997208034302375, -0.09516097522394638, -0.022531929326671266, -0.0024594776351446693, 0.00901738494368051, -0.043749539315900955, -0.16058777921194894, -0.05317352768770894, 0.013004506047372015, -0.18781182873615454, -0.10329619319400485, -0.1460385215372631, 0.11932969017952459, -0.15846572003619436, 0.014136135540473427, 0.09395393186007016, -0.04557974299253752, 0.01818145643332448, 0.030816172036760982, 0.06061179735574698, 0.015110492678511804, -0.3309758768377087, 0.13386166567125388, 0.13125633025956232], [-0.044106339232379346, 0.030669194316829566, -0.17673197326192702, 0.03238190109369424, 0.004585175257986121, 0.09655051929426371, 0.08444403260252555, -0.0021872617017674174, -0.15315524036365724, 0.16581445845770268, 0.09798971606208498, 0.2403029407113602, -0.03733858434736509, -0.08055931397878403, -0.22764013399543315, -0.03781568066713599, 0.0873713339571136, 0.08854904310009942, -0.1513964747845094, 0.06507163466642957, 0.07741424920307981, -0.15274580265260723, -0.40860804758900454, -0.11632237618076442, 0.013051415732336114], [-0.07641923064507694, 0.047712497597716334, 0.057479993997353145, -0.04811452181269691, -0.06942847931244593, 0.20584465642191674, 0.12994945209720257, -0.03944299539144591, 0.005010571469447324, -0.09061979283219823, 0.03998141472892953, 0.041668129551533525, -0.15921694662363903, 0.015279366949009922, -0.16349835000810117, -0.3213854751762447, 0.005867876526775064, 0.06428562500258177, 0.07691921252260567, 0.06271570749831216, -0.10439576080094513, 0.014075016393037803, -0.4819377719282528, -0.10168473000086316, 0.2149033143287107], [-0.07204115890153562, 0.04241935663698408, 0.05185555563660811, 0.1426278297638296, 0.04947401538812778, 0.15396949293574624, -0.03911283371872235, -0.05906127718992471, 0.026195973809081056, 0.08621372604304817, 0.1211854851908872, -0.03243568452844483, -0.36160640319469917, -0.07230560046079158, -0.27231836268680776, -0.29748276489044684, -0.2521661337369563, 0.05596416782994719, 0.06455808788159277, -0.11864230619745061, -0.05547679658406791, 0.07200892444126034, 0.15182048000349205, -0.02086545336472857, 0.016901748722632965], [0.016431534307518304, -0.011966385317721139, 0.03199241998257623, -0.1555363858235748, -0.0704456962241289, -0.04079169443506164, -0.11252498084293446, 0.17876239400145644, -0.004468949352783371, -0.10658277280364327, -0.12541032995408957, -0.1482269666851966, -0.1441184394684717, 0.03938757170845295, -0.08901034010913993, 0.09733984825719054, 0.05541870171879824, -0.013745666688076379, -0.007393776483917238, -0.0441623120181733, -0.2338779468806652, -0.030645576440033503, 0.03224302970288667, -0.015333364209919, 0.04045885048616549], [0.04367933751579832, 0.016424733464851075, 0.10078735555012422, 0.08441882271691013, 0.01805706946673569, -0.08178160485156538, -0.06151232965977173, 0.08624447635316743, 0.10939000697762193, 0.20406161646178972, -0.023197924014620154, -0.0829152924993453, 0.26096736548588956, -0.3577777981827616, -0.008559595105380362, 0.10896683087613927, -0.1251824195774345, 0.03857204263693694, -0.04583944036851252, 0.09585042851049407, 0.14106983474814375, 0.04643028323695177, 0.09762675167104373, -0.014230663330562826, -0.07207600626409329], [-0.21632632306374952, 0.020908107354579968, -0.018137639138062354, 0.06648071926699664, 0.018946398644999515, -0.07380395441058323, 0.1065193276691787, -0.10278203616582793, -0.08786824659156761, -0.03524233006426901, -0.09630870814564159, -0.1534024749802787, -0.08545234231159253, -0.11121822799930106, 0.017687822330791803, -0.06052886100848753, -0.1015005552182279, -0.010899726680053495, 0.06582263029014336, 0.044904014407843716, 0.20605195430182943, -0.1753795678433734, -0.13488091973291366, -0.06825425858409792, -0.0007395459799894375], [0.053003639594028706, -0.07220434936420599, 0.08322953885953044, 0.09118216777777718, 0.10588314717585949, -0.0458445422771681, -0.0034546771545233587, -0.09335869055276692, 0.10733381384046334, 0.06272254120095354, -0.09690520006917999, 0.13517533098188536, -0.18268910550787593, 0.19152615169327933, -0.019560609539311925, -0.1304352019453059, -0.06356732253428686, 0.10591741369243561, -0.10565863613361354, -0.020597093096065795, -0.03714181328832174, -0.07691555233747555, 0.04929197399728906, 0.0020897282729450246, 0.02276008236406231], [0.03045517181607841, 0.037154351222687426, -0.2012482520643002, 0.0273675741703361, 0.06150463241646799, 0.07239720045824001, 0.0328874648500037, -0.22828428055481573, 0.030478701133037054, 0.09538126027034981, -0.01617250493001144, 0.1855548671600788, -0.10165578397490801, -0.09676759779379643, -0.21006711921161791, -0.2935664271161551, 0.2813446494177036, 0.04467632856512008, 0.2847992746453628, 0.000524735341172499, -0.06678109823719536, 0.11549140249700476, -0.23924840122164526, -0.04121849786665534, 0.21549592944213156], [0.04520803104362384, 0.10469563960012408, -0.025450203727345626, 0.08441103031976717, 0.10859367320388559, -0.03111868791207663, 0.041863335797853056, -0.013986737229941369, 0.04860170963381569, -0.012071195719304826, 0.0880183495587298, -0.028695373154857404, -0.15530129554755134, 0.09950734728080735, 0.12176018959217402, -0.12833240162540044, 0.04894657711414071, 0.026296057805944417, -0.02129242706922264, 0.2023091273378752, -0.019721188740786957, -0.27422339013929425, -0.19439719832397637, 0.10109540392905543, -0.11091942829287875], [-0.23140672772009302, -0.10247028184438105, 0.14115278864512462, -0.060729423132210615, 0.05938732623269439, -0.025418796825743786, -0.016944419689660328, -0.12978347151595446, 0.14662140172418311, 0.23155130410802427, 0.05503111139998637, 0.1404412422535065, -0.0878054359199912, -0.03185094016916519, -0.032313005350599236, -0.2221563466225049, 0.16054736719463036, -0.04625150046595325, 0.0033057746819533354, 0.08756103004284516, -0.012804571478836287, -0.12224751350858902, 0.04971261767150215, -0.0012548697214059352, 0.245039782579377], [0.07880443820240951, 0.11866835082730279, 0.09088219962667364, 0.058045522044173556, 0.09863893183821183, 0.03260050298304713, 0.06507722180780591, -0.06081072741507087, 0.013231033345953854, 0.14175207800089132, 0.11191108341623147, 0.0819353029486499, -0.4115617182247258, -0.08031158536255138, -0.3423900233764577, -0.16698245881393697, 0.004976123935589197, -0.21671970699063717, 0.022813550478120958, 0.06655542531108685, -0.09415366831622907, 0.18700563219942878, -0.9819138312201532, -0.06605211177705354, 0.2687913770839047], [0.14953606101762054, 0.07217454999903805, -0.1275080121315333, -0.13065800126789776, -0.27828508224789383, 0.060201371944175186, 0.08408469275127008, -0.011381200536983747, 0.021006527989101922, -0.0715950637713847, 0.13086365564392524, -0.03946014945014656, 0.09604932227095607, 0.11189804657885474, 0.0169806133127351, 0.06581368811573106, -0.014073740919837456, -0.03442024269794806, 0.028592318936004307, -0.030325973737799796, 0.20154279859815386, -0.1280673165669521, 0.06774097289876616, -0.20615040029042797, 0.06309475761906659], [-0.008184667261099397, 0.07856632847422021, 0.17319563915729283, 0.16800525751102124, 0.042846928085091225, 0.23067715200921504, -0.09628171288719438, -0.013119391858909292, -0.11856425450857346, -0.0328461980541207, 0.001723397897934418, 0.10036590814666982, -0.042694689865192655, 0.1283601821407597, -0.013575004656809208, -0.012592647186634012, -0.0338059695260483, 0.07390486845826516, 0.10201759676531441, -0.0130431821477802, -0.07723108598445674, 0.009910080280361342, -0.19575042204788842, -0.04338397847418101, 0.0437455420536835], [0.22405196228494506, -0.024333700331266334, -0.07204720006172215, 0.25109600551922534, -0.04258697206112865, 0.01594639961891038, -0.13213712875717534, 0.00019238063787237373, 0.18823251117100662, 0.03430532773825704, 0.07017624961582161, -0.13552426171899226, -0.2200381555123648, 0.04653302081786695, -0.13486129288861945, -0.00038735354340398024, -0.05537778095020081, -0.039286029521622357, -0.13915685068291803, 0.3151297861163792, -0.0469760235148247, -0.11025239965774, -0.20149172651006864, -0.09180539562804621, 0.12142451978129275], [-0.03283558914620976, -0.04185061801054607, 0.1328308563800531, 0.07394034463301626, 0.06970302262817207, -0.06387398579492622, -0.20029245492633152, 0.11838326204668244, 0.18685044723996536, -0.08728571989818248, -0.18161866745410135, -0.09795207627286796, -0.047776107724984584, 0.14165719107107747, 0.14399413421742654, 0.09808454907288928, 0.05366977006900452, -0.03899751728326019, -0.0878327249519609, -0.11538510777527884, 0.07225397921467215, 0.008344795384558732, -0.15601826118932005, -0.08498127288287058, 0.08431315049272507], [-0.05507343059583169, 0.16403562159581775, -0.06943437708082734, 0.0068047476451368015, 0.13856334868930928, 0.040102430467563795, -0.052489208827254344, 0.036595494278259345, -0.2340988585187816, 0.1693695174203279, -0.023782504554912338, 0.15562149661528216, -0.07866164902992966, 0.04578185163386901, -0.1880068143449466, -0.34627571657445805, 0.16357452908615397, 0.07250777528900175, 0.12506331033703066, -0.11427013687422952, 0.002099349232691094, 0.04820470493051961, -0.3290442638930322, 0.07662250740951058, -0.0023416285740705074], [-0.10554860877919169, 0.09971109140327594, 0.1326758443414571, 0.1299731823289273, 0.13155326836394798, 0.10049801343997042, -0.29770002871401274, -0.06933760994323424, 0.008367119223734697, 0.05566626067217381, -0.08874692037791555, 0.006867786956099223, 0.19012489631888665, 0.22341795702442302, 0.040851155271778336, -0.23148451710680568, 0.08732051094027611, -0.009212581239516612, 0.059051260255022144, 0.049612996855822974, -0.14929037358835834, -0.02329421020802935, -0.3758685054940635, 0.11943068903850099, 0.054222248647675]], "net.4.bias": [0.0753034566443096, -0.0161815154100575, 0.07921158592235206, 0.0, -0.015617584556687296, -0.009999982933320576, -0.001479417253935167, 0.044149898738567256, 0.06389101482681281, 0.0126007107831999, -0.013824199058979213, -0.0006957597056938898, -0.05676014764868839, 0.0, 0.022380500354246855, 0.03131158176667381, 0.00834366044906956, 0.0446148141817922, 0.03176644512328484, 0.0, 0.026101768350129596, -0.006928662160609646, -0.0356463011921268, 0.06547337112485482, 0.10834115731033099], "net.6.weight": [[0.07590817656506106, 0.019760482374155574, 0.1183487557192205, 0.031569141944775156, -0.08138654116186725, 0.09313809565881066, -0.15833605321211183, 0.06078364764105999, -0.06887072435310419, -0.09580196187260295, -0.002132111223350672, 0.07235807474402775, 0.040771659308398996, 0.07217643885738766, -0.0772331779543927, -0.1965716713928423, -0.08089644525947194, 0.053263313003419466, 0.12286330837393268, 0.022048373252440204, -0.02197888468792691, -0.18962295207779925, 0.1437396602009377, -0.01840316383729799, -0.03473711897109591], [-0.1488785769297345, -0.08259090857577428, 0.0686335967620704, -0.05776741467437797, 0.11628981944321341, 0.040745488725420685, 0.040093297008024616, 0.0005247543595719318, -0.12294413977680967, 0.19418512453873205, -0.2449520671468175, 0.05006876662601925, 0.037285040246589865, -0.06618721577598523, -0.093569956834304, -0.0691460435597768, 0.17162297566459422, -0.004505323980961018, 0.014101856130037378, 0.12707238270582485, 0.1230503073890779, -0.09255166833215188, 0.038659442554527156, -0.07496112715205974, -0.007212752422706219], [0.09101558338119327, -0.0317483774325979, 0.13658689942766872, 0.01321385420666032, 0.027600997540503793, 0.05594542839313907, -0.07776047967593384, 0.00956567154264132, -0.0842869163799438, 0.013591647743480014, -0.03791424786490488, 0.08632945141242954, 0.007010246419500668, -0.14561208125048675, -0.07656612515653893, -0.14777287062903002, -0.052411628036865124, 0.0013174469250046526, 0.04192723503194401, -0.011156160329726295, -0.03473727931321323, 0.10408327072694054, -0.06157097827615701, -0.008171973578418876, -0.0026510334161685342], [-0.08134065638325394, -0.08961114244669383, 0.0994402189694773, -0.006336282125096427, -0.2949425957726672, -0.06055938867139761, -0.009959725339391132, -0.0022441856654121734, 0.019003577358318882, 0.06524517824196899, 0.1939056898166186, -0.08190901755189525, -0.01635412926708952, -0.06047052138159248, 0.012840075999267652, 0.12003871587415463, 0.015917518997386287, 0.010166759447968179, 0.10714147264282464, 0.11222016584724324, -0.11832414381282182, -0.04700015263802584, -0.040338419054224736, 0.04869328342588612, -0.02524048494808684], [0.22495652148928635, -0.09088566875706111, 0.1548485555385874, -0.05749160895117353, 0.2938692772284544, -0.1459933978956793, 0.06338519665593915, 0.14511419633777467, -0.09090646136832202, -0.036141053716855026, -0.20598606761530588, 0.02897665443476424, 0.10866173806278642, 0.0006117155136323121, -0.07312462291788197, 0.06951872758692851, 0.1704055889204509, 0.0016373092267405352, -0.21414400190089983, 0.03974076511495993, 0.07858902764615462, 0.03709544027378997, 0.1347358863623978, 0.20213926471449534, 0.3545429477529278], [-0.0490157370252203, -0.03980540620043951, 0.029340437464062483, -0.05374148359041771, -0.16235041725721008, 0.02709684059935898, -0.08310196651740337, 0.02581038210197276, 0.07433049435287235, -0.12757076705932938, 0.15679794109991518, -0.011558429123106638, -0.006325725826013179, -0.013643378900206189, -0.11778607035650186, -0.18173833569590453, 0.048291849286447176, 0.10765787683831952, 0.1074085563269667, 0.010634917515828672, -0.12477429837014788, 0.009938925605482679, -0.1267735152264468, 0.15031140263840964, -0.04512807240218129], [0.09477945754017501, 0.012211832047558989, 0.15573114928309637, 0.14786172473390788, 0.027923624831410393, -0.07280937216089686, 0.1125497258079458, 0.03639567463813704, 0.06860601430621523, 0.04478315201179493, 0.02606391707047397, 0.09622814419396297, -0.17403840658994227, -0.010707405331572129, 0.07581997200595418, 0.03576765327897783, 0.005451649392712006, 0.02989745495757371, 0.10973188031557114, 0.23802982193683514, 0.10914518228304962, -0.06251482444911358, 0.1417782660787741, -0.02881597495373652, 0.040540788536090264], [-0.16452802925265372, 0.09673485022848465, -0.0495724937898219, -0.08802402787769134, 0.016910180523514055, -0.1313797952143456, -0.041836987338179, -0.0679971081373009, -0.07485913783151782, 0.0933156718847118, 0.1205830317985962, -0.17835275988959812, 0.11308546537673624, -0.02629242368884413, 0.0030261468366968563, -0.13541812504819453, -0.1422433271102061, -0.06066214334942307, 0.037107119429745296, -0.02859445324698448, -0.014086076339408247, -0.010772072687490593, 0.18289110403296696, 0.07490861730789726, -0.055071915060828217], [0.040814380108915894, -0.15697747599085377, 0.30978646676210203, -0.06282600300787303, -0.12467785663192528, -0.10607345976437774, 0.04148745692775766, 0.05583318346055616, 0.1478296057026969, 0.1940756411360135, 0.14227900829257895, 0.03173623590762457, -0.1187173249331687, -0.077595133850614, 0.07154960239020354, 0.10366455796200187, 0.06834409575200937, 0.1283200511432894, 0.1579553994297502, -0.027315178293750922, 0.10948649367820376, 0.15993359798783058, -0.04532407002419992, 0.14912582564986243, 0.056185701670870815]], "net.6.bias": [-0.023138811149549, -0.02713868486122595, -0.012732307708599601, -0.03523137119370264, 0.06355687705392596, -0.0007309941714123445, 0.023112052373925312, -0.013237108931101771, 0.07106138480897091], "net.8.weight": [[0.11667968784895072, 0.0035196711179111195, 0.08455178424765743, -0.10352085416682026, -0.057708737512409666, -0.054054423935754464, -0.09567714815048485, 0.13604917272368977, -0.18125648961158594], [-0.17594047253605288, -0.07546494548686758, -0.12595411250700023, 0.0372895756310863, -0.1551658674508189, 0.0033356217268061816, -0.0969703327273181, -0.010396093438299833, 0.16227044978102872], [0.022886804885307168, -0.13095575973347273, 0.04216454348231244, -0.03609122708986487, 0.19770485240793564, -0.15017899082935532, 0.1376698416645946, -0.062273328115588014, 0.07517263172110612]], "net.8.bias": [-0.0348395745168523, 0.026123035445672033, 0.05007297712626891]}