{"net.0.weight": [[0.0029133388336428723, -0.12541382146380717, -0.09135762359231589], [0.23258009528593862, -0.14564699881689425, -0.1546712267033704], [-0.1563770886462332, 0.11985538921501765, -0.11317074351059216], [0.01459785138124793, 0.25142074010241705, 0.1789922381031194], [0.08626169232720544, 0.2548412075607673, -0.07108396468742008], [-0.0761495061791149, 0.09741104302564467, -0.08900491249628772], [-0.18553282823926576, 0.07223246848115375, -0.011598121599873008], [-0.11851286286822756, 0.16465029178004378, -0.004240947555789706], [0.11351993872621705, 0.1524878994658933, 0.09284225272089953]], "net.0.bias": [-0.012906656145932265, 0.057694003290120886, 0.0, 0.07149866746048894, 0.03850961825034824, 0.0, 0.0, 0.0, 0.1063711769380066], "net.2.weight": [[-0.01784946664731385, 0.028112033558872335, 0.0009584374943012158, 0.0024856608896607923, -0.048029465846841146, -0.08456662890615568, -0.03560864186879099, 0.033417588887207895, -0.050503772198692516], [-0.026773745609119444, 0.012073238913639303, 0.023356946612789954, 0.16413836369992554, 0.08991654154772084, 0.13379657864725586, 0.020419210892130047, -0.07226231781349242, 0.10670227654960417], [-0.03479481287626787, -0.13414043702562686, 0.14210094092032344, 0.046507843880996436, -0.06917826676970835, -0.03240147899662026, 0.1159348590080771, 0.028707840619382703, -0.05640158308649593], [0.02549294150537678, 0.0589045391590638, -0.2151572336475996, -0.08255299665232049, -0.05964972598203925, 0.015521359141681164, 0.1463426909468212, -0.049333634322576064, -0.2256471659153208], [0.08064523320727701, 0.11199892497172492, 0.07866000703486258, 0.25465686994699, 0.18338559810010793, 0.00716640163503119, -0.11717188768253575, 0.009060020306650424, 0.1532614830319484], [-0.08188715329575995, 0.05443769091230784, 0.09920500356670685, 0.08241893757704447, 0.14530118595009264, 0.011957839233938216, 0.017952320395654663, 0.013936544306692902, 0.14582262391277903], [-0.0351570195749567, 0.20580129993480648, 0.18867583220337336, -0.15611376708201216, 0.12033934444836289, 0.19032967608548623, -0.05624497336558955, 0.003521199561305806, 0.06461714449580534], [0.012081571319858967, -0.19276519545034454, 0.025455844487762752, -0.022961358750195282, 0.015527795711497533, 0.2800141676546502, -0.04309853847686323, 0.01619529451845645, -0.20257774675628265], [0.12985765034956812, -0.0726999398943167, 0.11807885286709066, -0.12436492135851414, -0.07139796486801783, -0.02667445944696625, 0.02351178596293882, -0.08689184512490501, 0.12013990599247652], [0.09758810193931128, 0.25354723451445854, 0.10877346744384178, 0.008679512726874514, 0.060650217221388344, -0.0674100868093815, 0.06866626647951528, 0.0050011943142071955, 0.13365695819200224], [0.006252142981862394, 0.1096343996757935, 0.12495721852567868, -0.26118323476182326, -0.04879693669680629, 0.19657229253819114, 0.07603061896815763, -0.029172402414558825, -0.16100668570404134], [-0.006252498974962237, 0.11649104181786545, -0.013537764788843372, -0.1286663872076511, -0.0718863834157557, 0.09561204145909788, -0.05955312415963089, -0.021577435232625317, 0.1482633306804907], [0.14011689058106067, 0.08643822293817092, -0.11199513920969384, -0.16774663923844535, 0.15116959833774865, 0.09686761844795833, 0.0154043956671734, -0.07338475287942386, -0.06419139632082888], [0.19680426246544708, -0.15483116374173275, 0.08181319122965652, 0.20133859611892668, 0.06051355988229597, -0.045526680533244365, -0.011845182849301918, 0.009828971086759336, 0.23904683779663966], [0.036834350873467515, 0.09510679252313503, -0.0127935680959295, -0.08524612153630487, 0.107855085681479, 0.014808422936650434, 0.04871880196840116, -0.018265527089049705, -0.09409420730134278], [0.03574392781149429, 0.15809883366691546, 0.06762131182674457, -0.24675516150789673, 0.12194676864481022, 0.18468363033938032, 0.04056578752058557, -0.08997142777528659, -0.0022230150104451864], [0.13428258787452851, -0.12508274819410575, 0.19557581731276097, 0.10863534551312322, 0.004809853545079706, -0.05210083832882857, -0.22571618775107727, 0.035153087881891754, 0.2202958867843173], [0.026428228958947735, 0.1988825769181462, 0.03645008016142576, -0.015205050538268037, 0.1357891858938451, -0.1912471612626238, 0.072598314866428, 0.16409804551586715, 0.08265554127220717], [0.06884002568679991, 0.022248057839992084, -0.08032320600147524, 0.07137499717803798, 0.10660669166168713, -0.1589192084011249, 0.05771908059955683, -0.07074200798755192, 0.03235131195870169], [0.034412082266735596, 0.0055842929456023415, 0.28800198907146934, 0.04824615813257432, 0.00033095246679906015, 0.11934657427946108, 0.060709542128832054, -0.023262762904612194, -0.11204685224020304], [0.08130386512188048, -0.030077209208814227, -0.11186879545102875, 0.00418499151465644, 0.10701781572117966, 0.08539421224595783, 0.1058988734464925, -0.03297086074326474, -0.12357176488816646], [0.015809982385543687, 0.021685797798009467, 0.07282192092587775, -0.040481912129085966, 0.059156508547536596, -0.04699931491467204, -0.16072855523092264, 0.0691528050350845, -0.09920597148367855], [0.07937019857974219, -0.44118300141702926, -0.016716830104049254, 0.22888379713373688, -0.41682118159093706, 0.0131274300085906, 0.10648499883141514, -0.0036619500760467073, 0.21054008430628976], [-0.1852313304926224, -0.09818429810454943, -0.14954727034394985, -0.044784693251119057, -0.039967641470414234, -0.0723190671638739, -0.0632694387005767, 0.015332465897993275, -0.16128654208131923], [0.03342287089481498, 0.09091857532741209, -0.045135086854563806, 0.012493485994797845, 0.3163819203881865, -0.1086654775983445, 0.009210868554846699, 0.08530594098098951, 0.0920385522279417]], "net.2.bias": [-0.02003945685512035, 0.1070585892172368, -0.015181910784630938, -0.011372808325410726, 0.021390956627649598, 0.029802075047686307, 0.017656230124989104, 0.0, -0.021469985681284057, 0.0017655935557047682, 0.012496856053636244, 0.08095100294181821, 0.011838515318200864, 0.06412136563853824, -0.020488688200405468, -0.04266826848398406, 0.04956162469967919, -0.013837225675826497, -0.011607431474219087, -0.0019566128538038487, -0.009999991111690454, -0.010418411000330394, 0.11780592337237047, 0.0, 0.004720512768355337], "net.4.weight": [[0.017826475887215556, 0.14499478785078695, -0.030121275494812864, 0.09955497556361237, 0.15483573851639956, 0.13569178051322903, -0.13132824918906613, -0.011263944733615507, -0.001997287873462152, -0.08942698404555678, -0.02789221678846163, -0.04189999379270442, -0.03899794826288906, 0.11678463147480093, -0.028473454129078587, -0.29516604198105967, 0.2529070883048738, -0.059868242126655105, 0.0900173879249759, -0.06068184738254513, 0.013454163793315745, -0.12791309057247757, -0.3422676306818141, -0.07343394247267539, 0.09285439799843584], [0.06142088410326807, 0.09121223655461325, -0.08913402908923605, -0.10852976379957675, -0.011623781518295899, -0.05387091993594165, -0.01458179721495391, -0.16924602298200303, -0.09790040540479812, 0.011257020122382347, -0.06470911361484222, -0.10532217477811408, 0.10044263192679413, 0.015789667009251326, -0.14025671025159286, -0.15560290374945096, 0.00040757360430638493, -0.21960821088040375, 0.10500783780366188, 0.10462954513619767, -0.0905559158389649, 0.09902376209172496, -0.03924627765249914, -0.023987912891325472, -0.04882256245018817], [0.14309780878917017, 0.2795541422184809, 0.061519224177014595, 0.06933414414576515, 0.21127262534532126, -0.021282084233017116, 0.19457897242843764, 0.13706737331531121, 0.07457926599822695, 0.02021906682382388, 0.037859691526448844, 0.14681644512796793, -0.2452250235091045, 0.20432179432270917, -0.3729828726137805, -0.44013071020258493, -0.04687533451742489, 0.12141522283606321, 0.07903605983098329, 0.07172922251242127, -0.09221293128475874, 0.11349820888926132, -0.5810159803578704, 0.006548684004570645, -0.07079410551890179], [-0.05279094521288055, 0.015205994718034108, 0.006030161851987299, -0.10027792507304456, 0.027491736002451073, -0.2528318846615498, 0.021552128161090083, -0.017089911094051426, 0.10210831368979074, -0.21783470841677205, -0.03526861510833859, -0.08294595533507376, -0.13402208816846753, 0.060348670247594896, -0.13785206702952715, 0.10116433944339794, -0.03896686035031023, 0.07127423265524478, -0.08535515205192198, 0.08785427330208004, -0.12657905630179941, 0.13401238307385707, 0.044091828818050995, -0.0328131188571733, 0.03977521050603566], [-0.0853205660530615, 0.039211805129476786, 0.23771588950286096, 0.048202135220663765, 0.06481891844488602, 0.10935596503489835, -0.1834826597480323, -0.2344461622759087, 0.030581767097823384, 0.0011928329752658104, 0.16685592275206382, -0.10311566401876875, -0.12106931862226365, 0.05968349934108961, -0.18479787167123507, -0.2388489369401645, 0.03668319000962716, -0.1625819855487167, 0.06642866290839064, -0.20144631200974208, 0.006605686358986562, 0.12895611533566492, -0.06073563202027854, -0.12464969735223577, 0.07159051790327392], [0.006351293960387163, 0.1335581262033375, 0.07980003038235861, 0.03602863209288965, 0.0031415033975895467, -0.08719442866867305, -0.09021349720213864, 0.05998106674474294, 0.008278385149498267, -0.048866793226959165, 0.048718504687915026, -0.044118801194466234, -0.09359891383511737, 0.09084755783228328, 0.07203325319078346, 0.042993415611273955, -0.09681339750844223, -0.12634597550084167, -0.11788607210072412, 0.12123991413530892, -0.08074179307792502, 0.005904408398609695, -0.11555992402906579, -0.05185949581728536, 0.05538209741236484], [-0.028739299770410086, -0.02318556460987353, -0.09939751626429355, -0.029114883602487547, 0.10215432620750248, 0.08739499782341718, -0.023837422141986263, 0.10313283575979793, -0.0180743835566707, -0.04722853667167608, 0.027647090605876484, 0.02961220173718968, -0.07713459004889452, 0.12041475327393253, -0.03562363698204665, -0.06655411938412015, 0.08855697912491502, 0.10618475718872658, -0.090091161159371, 0.016877993731260303, -0.06165018050780339, 0.09703933424644108, -0.1149480116136179, 0.17451472724485784, 0.10694181113914035], [0.006409826460710369, 0.19748541767826458, -0.09319220601596143, -0.022531929326671266, -0.008531774200568209, 0.0054091489031230285, -0.049674888697909876, -0.16058777921194894, -0.05317352768770894, 0.008261039981833886, -0.18781182873615454, -0.09000126315683236, -0.16259256387879809, 0.1175992552659886, -0.17802040425325608, -0.0009663345970873777, 0.09652322029966687, -0.04606908106041773, 0.024223124090157463, 0.030816172036760982, 0.06061179735574698, 0.015110492678511804, -0.3370535782128489, 0.13386166567125388, 0.12715973656151713], [-0.044106339232379346, 0.029014863633717403, -0.17673197326192702, 0.03238190109369424, -0.0009802649000506037, 0.09436605244680175, 0.07782112979756492, -0.0021872617017674174, -0.15315524036365724, 0.16327205800291744, 0.09798971606208498, 0.2478888926603176, 0.03155433268311587, -0.07963981969357967, -0.1686446471341701, 0.009205102409757084, 0.09158775040717133, 0.08684530083918147, -0.14728163071001033, 0.06507163466642957, 0.07741424920307981, -0.15274580265260723, -0.20981737267059586, -0.11632237618076442, 0.008800114520250037], [-0.07641923064507694, 0.06056540724847524, 0.057479993997353145, -0.04811452181269691, -0.06351989546680865, 0.21407793738266448, 0.12260490207885605, -0.03944299539144591, 0.005010571469447324, -0.08756158366557415, 0.03998141472892953, 0.05171525565976061, -0.0908544631010892, 0.04096656650298779, -0.10450485229492752, -0.27500030834973027, 0.03771589704425332, 0.06663319709781983, 0.09350609728207891, 0.06271570749831216, -0.10439576080094513, 0.014075016393037803, -0.2960458228170455, -0.10168473000086316, 0.21727789387416574], [-0.07204115890153562, 0.060088397168530004, 0.05184904769856481, 0.1426278297638296, 0.07407650863402127, 0.18664902413435347, -0.05418621230905041, -0.05906127718992471, 0.026195973809081056, 0.12371873219244332, 0.1211854851908872, -0.035369563883148346, -0.11165418909980904, -0.07279305528892781, -0.041371141077703566, -0.10995681980431606, -0.2573223408026301, 0.08412853013284452, 0.09882154270789698, -0.11864230619745061, -0.05547679658406791, 0.07200892444126034, 0.054352414383007044, -0.02086545336472857, 0.07684892922101981], [0.016431534307518304, -0.011241725509492751, 0.03199241998257623, -0.1555363858235748, -0.0697297730611823, -0.04006354851841369, -0.11252498084293446, 0.17876239400145644, -0.004468949352783371, -0.10588640309292081, -0.12541032995408957, -0.1482269666851966, -0.1441184394684717, 0.04011741714536726, -0.08901034010913993, 0.09733984825719054, 0.05615120057312292, -0.012999672694673834, -0.006650311838796684, -0.0441623120181733, -0.2338779468806652, -0.030645576440033503, 0.03297478133557234, -0.015333364209919, 0.04120001765797257], [0.04367933751579832, 0.03991059393386697, 0.10078735555012422, 0.08441882271691013, 0.037598688328732206, -0.06838835968840455, -0.06606308928939814, 0.08624447635316743, 0.10939000697762193, 0.20611174759498863, -0.023197924014620154, -0.10030327420074962, 0.22623226102563643, -0.27386138726285636, -0.03643018880264605, 0.08446588114311242, -0.032640057964014244, 0.03638976165988752, -0.03702681587473697, 0.09585042851049407, 0.14106983474814375, 0.04643028323695177, 0.09762675167104373, -0.014230663330562826, -0.06497427779869167], [-0.21632632306374952, 0.020908107354579968, -0.018137639138062354, 0.06648071926699664, 0.018946398644999515, -0.07380395441058323, 0.1065193276691787, -0.10278203616582793, -0.08786824659156761, -0.03524233006426901, -0.09630870814564159, -0.1534024749802787, -0.08545234231159253, -0.11121822799930106, 0.017687822330791803, -0.06052886100848753, -0.1015005552182279, -0.010899726680053495, 0.06582263029014336, 0.044904014407843716, 0.20605195430182943, -0.1753795678433734, -0.13488091973291366, -0.06825425858409792, -0.0007395459799894375], [0.053003639594028706, -0.06494793342657301, 0.08323123930327114, 0.09118216777777718, 0.11374961985641913, -0.030997366591111714, 0.0030999806370551504, -0.09335869055276692, 0.10733381384046334, 0.0819926713096614, -0.09690520006917999, 0.15871873646558785, -0.07743482384550915, 0.1849312210193878, 0.07452180565526335, -0.05475581907617406, -0.07093961497950735, 0.1271852797278846, -0.08251876151138829, -0.020597093096065795, -0.03714181328832174, -0.07691555233747555, -0.10778424669045203, 0.0020897282729450246, 0.049200499215178266], [0.03045517181607841, 0.04929838246499148, -0.20122144168948689, 0.0273675741703361, 0.07200631226638614, 0.08426577578358474, 0.0388362704500193, -0.22828428055481573, 0.030478701133037054, 0.10804983324222156, -0.01617250493001144, 0.20797912118512782, -0.027583644417484683, -0.08779760160786683, -0.14143159958607054, -0.2404903650542396, 0.29423731752172283, 0.05902687655904721, 0.30411251795127997, 0.000524735341172499, -0.06678109823719536, 0.11549140249700476, -0.260173312565409, -0.04121849786665534, 0.22991361806779442], [0.04520803104362384, 0.10933739902438379, -0.025431042110125025, 0.08441103031976717, 0.10909715769671618, -0.028840024726460255, 0.04243033371289427, -0.013986737229941369, 0.04860170963381569, -0.01129424385593594, 0.0880183495587298, -0.008949298023329716, -0.1630838783429802, 0.10562338175200722, 0.11182100632117482, -0.13439898296847774, 0.059547444708606845, 0.030815270849410197, -0.009557818241499825, 0.2023091273378752, -0.019721188740786957, -0.27422339013929425, -0.17717608576557112, 0.10109540392905543, -0.11041425906928275], [-0.23140672772009302, -0.10750123605088374, 0.14116016000519432, -0.060729423132210615, 0.05369130263638689, -0.025481461560234765, -0.019065200575689258, -0.12978347151595446, 0.14662140172418311, 0.23485518112163123, 0.05503111139998637, 0.15301652321152584, -0.03215026015176553, -0.0453808854197462, 0.014806042604404589, -0.18366387980476517, 0.1470791539752533, -0.039450326721083215, 0.010532832428221053, 0.08756103004284516, -0.012804571478836287, -0.12224751350858902, -0.03858236295701657, -0.0012548697214059352, 0.2522886345943078], [0.07880443820240951, 0.11432066218941991, 0.09088219962667364, 0.058045522044173556, 0.08918149140853189, 0.02421372097028949, 0.05101972866834606, -0.06081072741507087, 0.013231033345953854, 0.13467530673926945, 0.11191108341623147, 0.08739288421903692, -0.25101224046742227, -0.07119150788099154, -0.1965970614181581, -0.05369100340389896, 0.023749974213041362, -0.2250588035357407, 0.020498115666287536, 0.06655542531108685, -0.09415366831622907, 0.18700563219942878, -0.4217963238231835, -0.06605211177705354, 0.25493940436142953], [0.14953606101762054, 0.07217454999903805, -0.1275080121315333, -0.13065800126789776, -0.27828508224789383, 0.060201371944175186, 0.08408469275127008, -0.011381200536983747, 0.021006527989101922, -0.0715950637713847, 0.13086365564392524, -0.03946014945014656, 0.09604932227095607, 0.11189804657885474, 0.0169806133127351, 0.06581368811573106, -0.014073740919837456, -0.03442024269794806, 0.028592318936004307, -0.030325973737799796, 0.20154279859815386, -0.1280673165669521, 0.06774097289876616, -0.20615040029042797, 0.06309475761906659], [-0.008184667261099397, 0.06948416019936093, 0.17321849698728364, 0.16800525751102124, 0.03240256029578662, 0.22488325271744425, -0.09712280077604506, -0.013119391858909292, -0.11856425450857346, -0.035673623076406626, 0.001723397897934418, 0.11260592648424961, -0.035624393903723295, 0.11259455891650086, -0.011255968267324614, -0.007939472086218403, -0.04829410530655308, 0.0756746290317393, 0.10345556060417851, -0.0130431821477802, -0.07723108598445674, 0.009910080280361342, -0.25750211501428055, -0.04338397847418101, 0.04212726623168407], [0.22405196228494506, -0.017208820833765924, -0.07204720006172215, 0.25109600551922534, -0.03464460956326185, 0.023847547399867382, -0.12364486326609406, 0.00019238063787237373, 0.18823251117100662, 0.04269491380711307, 0.07017624961582161, -0.1269606277543815, -0.2200381555123648, 0.05455311267319021, -0.13486129288861945, -0.00038735354340398024, -0.04714266183871917, -0.030859128361203202, -0.13236186689953844, 0.3151297861163792, -0.0469760235148247, -0.11025239965774, -0.19320343417218638, -0.09180539562804621, 0.12916254621533702], [-0.03283558914620976, -0.021114542726200017, 0.1328413024292319, 0.07394034463301626, 0.09174443852878536, -0.04312125886799203, -0.12173682727941013, 0.11838326204668244, 0.18685044723996536, -0.05866041325995524, -0.18161866745410135, -0.0035871918342379044, -0.056952583325112056, 0.15831941643547415, 0.136138793118137, 0.09526958541025865, 0.0724590196936232, 0.013096374376720376, -0.06702659560153602, -0.11538510777527884, 0.07225397921467215, 0.008344795384558732, -0.1060451647342401, -0.08498127288287058, 0.10656356376955553], [-0.05507343059583169, 0.16123201344186183, -0.06940943216841511, 0.0068047476451368015, 0.13354997943927024, 0.03929280782130254, -0.050806598827503435, 0.036595494278259345, -0.2340988585187816, 0.17123829788048825, -0.023782504554912338, 0.17617988669241025, -0.042461850770983814, 0.037550947553906325, -0.157719449225802, -0.3209221197059016, 0.15798381059181107, 0.07928905486532303, 0.13341061789873251, -0.11427013687422952, 0.002099349232691094, 0.04820470493051961, -0.3571499651334209, 0.07662250740951058, 0.00043844476967727663], [-0.10554860877919169, 0.09840412463670291, 0.13282520283363353, 0.1299731823289273, 0.12495415709159213, 0.09362560636754243, -0.3055982590865009, -0.06933760994323424, 0.008367119223734697, 0.044385159947346826, -0.08874692037791555, 0.016554468492868128, 0.10222991575216604, 0.22850065286491178, -0.044508486189959805, -0.2934335240819074, 0.09775410071787453, -0.01741315700231126, 0.06106925327432271, 0.049612996855822974, -0.14929037358835834, -0.02329421020802935, -0.32292432315258063, 0.11943068903850099, 0.040609078923216364]], "net.4.bias": [0.0636078875751554, -0.0062620393910778754, 0.07778823255694654, 0.0, -0.016361888962859252, -0.009999982933320576, 0.004970130223643955, 0.027991867784371953, 0.049417632266923354, 0.010036426133138905, -0.00549811293516008, 0.0, -0.027236731287513267, 0.0, 0.012506070487086962, 0.034629891510571685, -0.00029065140580081033, 0.02409351768108433, 0.020403213490473863, 0.0, 0.0028566090796377248, 0.0008741884507080775, -0.010294977521764594, 0.04725343597266623, 0.09688211829998652], "net.6.weight": [[0.09137999100799668, 0.019760482374155574, 0.1381132042681066, 0.031569141944775156, -0.0659947458191749, 0.09313809565881066, -0.14642867179367908, 0.07813692075783052, -0.05162717994331312, -0.0771799068202483, 0.013469765030200224, 0.07235807474402775, 0.040771659308398996, 0.07217643885738766, -0.06406806502488993, -0.18115914625826404, -0.06699484372123488, 0.06598965953660241, 0.13878726819929346, 0.022048373252440204, -0.007257592398398168, -0.18962295207779925, 0.15435525017650617, -0.0013511697105925355, -0.01921549391767303], [-0.14277549798329756, -0.08259090857577428, 0.07365432364098189, -0.05776741467437797, 0.12204474152035018, 0.040745488725420685, 0.04723515169302279, 0.004441605238622907, -0.11975079431048351, 0.1993687347071248, -0.23956394619144933, 0.05006876662601925, 0.037285040246589865, -0.06618721577598523, -0.08699903617251245, -0.06293907322754229, 0.1786094671180345, 0.001459878682208518, 0.01486655703629084, 0.12707238270582485, 0.1287080060802872, -0.09255166833215188, 0.04609522184688736, -0.06893748054600436, -0.0009550714691508892], [0.09047223881429699, -0.0317483774325979, 0.15231745565330732, 0.01321385420666032, 0.026706675494975813, 0.05594542839313907, -0.07693452246272449, 0.0059810387172907035, -0.07052596871180253, 0.027678064139569525, -0.022931770177996212, 0.08632945141242954, 0.007010246419500668, -0.14561208125048675, -0.06631179903988706, -0.13271545209160504, -0.0519633284822344, 0.018836698954531047, 0.05390338342866169, -0.011156160329726295, -0.03601423605673105, 0.10408327072694054, -0.05977025734825554, -0.007611943990824729, -0.003354520960362912], [-0.07011668035556605, -0.08961114244669383, 0.09747132163490721, -0.006336282125096427, -0.23626801148045193, -0.06055938867139761, 0.005094976378828925, -0.0003995754959936354, 0.007547016142817149, 0.047773096390542814, 0.18927716172036319, -0.08190901755189525, 0.04453360272295388, -0.06047052138159248, 0.00835067206158032, 0.1272489599050382, 0.021475785935834688, 0.006098198060823425, 0.09843504597905468, 0.11222016584724324, -0.1208564955751522, -0.05423061049087549, 0.021176640367039447, 0.050035668190107734, -0.009902705653568994], [0.2242497045776547, -0.08127746393424176, 0.16856198632981315, -0.05749160895117353, 0.2207433218720471, -0.1459933978956793, 0.0747815783165549, 0.13853890007360045, -0.05759719166041241, 0.015879995338808326, -0.20628177702280806, 0.03854557258660577, 0.08139200281884905, 0.0006117155136323121, -0.06644388202301511, 0.0734255410816099, 0.19163441583342664, 0.0050257893166360135, -0.14426497583328587, 0.03974076511495993, 0.06866496996765475, 0.03394486273978928, 0.1004265063614435, 0.20202306244484058, 0.35030438384306223], [-0.0490157370252203, -0.03980540620043951, 0.029340437464062483, -0.05374148359041771, -0.16235041725721008, 0.02709684059935898, -0.08310196651740337, 0.02581038210197276, 0.07433049435287235, -0.12757076705932938, 0.15679794109991518, -0.011558429123106638, -0.006325725826013179, -0.013643378900206189, -0.11778607035650186, -0.18173833569590453, 0.048291849286447176, 0.10765787683831952, 0.1074085563269667, 0.010634917515828672, -0.12477429837014788, 0.009938925605482679, -0.1267735152264468, 0.15031140263840964, -0.04512807240218129], [0.09647719419519474, 0.021989807032663296, 0.15665744852070387, 0.14786172473390788, 0.012062109378556984, -0.07280937216089686, 0.12387953779813543, 0.03438745880840271, 0.07226711398223098, 0.05240487955680867, 0.015308617311254649, 0.0887565441451447, -0.1455574524089094, -0.010707405331572129, 0.070419459041924, 0.03882538874075662, 0.01604552684951233, 0.022798364528223643, 0.13185366904892568, 0.23802982193683514, 0.09925117070301019, -0.06759815255336758, 0.1641394376970688, -0.03195831912590126, 0.04424743258042912], [-0.16452802925265372, 0.09673485022848465, -0.0495724937898219, -0.08802402787769134, 0.016910180523514055, -0.1313797952143456, -0.041836987338179, -0.0679971081373009, -0.07485913783151782, 0.0933156718847118, 0.1205830317985962, -0.17835275988959812, 0.11308546537673624, -0.02629242368884413, 0.0030261468366968563, -0.13541812504819453, -0.1422433271102061, -0.06066214334942307, 0.037107119429745296, -0.02859445324698448, -0.014086076339408247, -0.010772072687490593, 0.18289110403296696, 0.07490861730789726, -0.055071915060828217], [0.03633985852773216, -0.16663366459848775, 0.2994731637052577, -0.06282600300787303, -0.07896731790879526, -0.10607345976437774, 0.03175348007504448, 0.07244690251369369, 0.14460139581127174, 0.1824949958528854, 0.12333868509430168, 0.03403996462532266, -0.0928685276131442, -0.077595133850614, 0.07157564904087331, 0.09802676186965505, 0.07192032323464395, 0.12792681784175697, 0.130505199780987, -0.027315178293750922, 0.1222661370494827, 0.16813444976642053, -0.02474703891536235, 0.14882119395413104, 0.05767234007384815]], "net.6.bias": [-0.013512452221100504, -0.01912517092600053, -0.009999991272292182, -0.013929028394017634, 0.06286712851883457, -0.0007309941714123445, 0.02646564394647081, -0.013237108931101771, 0.03698926234453619], "net.8.weight": [[0.11121876936049283, -0.005943680228643663, 0.08897532965479873, -0.09393540038343391, -0.05576370182453006, -0.054054423935754464, -0.08778177123568599, 0.13604917272368977, -0.1528759274548274], [-0.17896336430864024, -0.0843519865780309, -0.12173393412377942, 0.007130354988755873, -0.15675608126620236, 0.0033356217268061816, -0.1052127352738446, -0.010396093438299833, 0.17096607925298682], [0.019488302190551587, -0.13985201931083002, 0.046882997565438365, -0.053235956254875115, 0.18558863725381647, -0.15017899082935532, 0.12808750352673515, -0.062273328115588014, 0.08353094199377929]], "net.8.bias": [-0.028183463949527306, 0.008862201299297342, 0.027731882581172203]}