{"net.0.weight": [[0.0029133388336428723, -0.12541382146380717, -0.09135762359231589], [0.22933867113588519, -0.1673535070593062, -0.15607903028166828], [-0.1563770886462332, 0.11985538921501765, -0.11317074351059216], [0.012763735909114426, 0.2742381697454896, 0.19930514639783173], [0.08494769892193764, 0.2588259733789346, -0.06825538975385631], [-0.0761495061791149, 0.09741104302564467, -0.08900491249628772], [-0.18553282823926576, 0.07223246848115375, -0.011598121599873008], [-0.11851286286822756, 0.16465029178004378, -0.004240947555789706], [0.10658200950015694, 0.16648826921177695, 0.09356036961202824]], "net.0.bias": [-0.012906656145932265, 0.054593600212519244, 0.0, 0.07546867784157425, 0.039749464547902943, 0.0, 0.0, 0.0, 0.10289054828409792], "net.2.weight": [[-0.01784946664731385, 0.028112033558872335, 0.0009584374943012158, 0.0024856608896607923, -0.048029465846841146, -0.08456662890615568, -0.03560864186879099, 0.033417588887207895, -0.050503772198692516], [-0.026773745609119444, 0.006904143229620494, 0.023356946612789954, 0.16330146718797364, 0.08946531448610323, 0.13379657864725586, 0.020419210892130047, -0.07226231781349242, 0.10435820596630296], [-0.03479481287626787, -0.13414043702562686, 0.14210094092032344, 0.043901601140368895, -0.06917826676970835, -0.03240147899662026, 0.1159348590080771, 0.028707840619382703, -0.06096421939924242], [0.02549294150537678, 0.0589045391590638, -0.2151572336475996, -0.08255299665232049, -0.05964972598203925, 0.015521359141681164, 0.1463426909468212, -0.049333634322576064, -0.2256471659153208], [0.08064523320727701, 0.10499930895412848, 0.07866000703486258, 0.25345995256800774, 0.18170712014174387, 0.00716640163503119, -0.11717188768253575, 0.009060020306650424, 0.15006633992162904], [-0.08188715329575995, 0.044225491995719825, 0.09920500356670685, 0.08259628531368583, 0.14035689027985032, 0.011957839233938216, 0.017952320395654663, 0.013936544306692902, 0.14215714475909658], [-0.0351570195749567, 0.21096535429325736, 0.18867583220337336, -0.15394223163101756, 0.13417589078606523, 0.19032967608548623, -0.05624497336558955, 0.003521199561305806, 0.06809760155989512], [0.012081571319858967, -0.19276519545034454, 0.025455844487762752, -0.022961358750195282, 0.015527795711497533, 0.2800141676546502, -0.04309853847686323, 0.01619529451845645, -0.20257774675628265], [0.12985765034956812, -0.0726999398943167, 0.11807885286709066, -0.12436492135851414, -0.07139796486801783, -0.02667445944696625, 0.02351178596293882, -0.08689184512490501, 0.12013990599247652], [0.09758810193931128, 0.23525571407151116, 0.10877346744384178, 0.005997908906079362, 0.04442510509467687, -0.0674100868093815, 0.06866626647951528, 0.0050011943142071955, 0.12511732221769173], [0.006252142981862394, 0.1096343996757935, 0.12495721852567868, -0.26118323476182326, -0.04879693669680629, 0.19657229253819114, 0.07603061896815763, -0.029172402414558825, -0.16100668570404134], [-0.006252498974962237, 0.10858617743275623, -0.013537764788843372, -0.13413197586682338, -0.07552394782529592, 0.09561204145909788, -0.05955312415963089, -0.021577435232625317, 0.1417328850488999], [0.14011689058106067, 0.0995000219358584, -0.11199513920969384, -0.21746963874749872, 0.15029389923113426, 0.09686761844795833, 0.0154043956671734, -0.07338475287942386, -0.07450603390950826], [0.19680426246544708, -0.16054060965684397, 0.08181319122965652, 0.2017378921996975, 0.060183243695353876, -0.045526680533244365, -0.011845182849301918, 0.009828971086759336, 0.23742882122483822], [0.036834350873467515, 0.10440487135291875, -0.0127935680959295, -0.13061862047276107, 0.1045956770684486, 0.014808422936650434, 0.04871880196840116, -0.018265527089049705, -0.10581209892681191], [0.03574392781149429, 0.1593073652076109, 0.06762131182674457, -0.2780629488067946, 0.11482803714076267, 0.18468363033938032, 0.04056578752058557, -0.08997142777528659, -0.01437354379544694], [0.13428258787452851, -0.1298023859855573, 0.19557581731276097, 0.10627148964713423, 0.005608249299630918, -0.05210083832882857, -0.22571618775107727, 0.035153087881891754, 0.217624427369847], [0.026428228958947735, 0.1893469101387153, 0.03645008016142576, -0.030879826596376198, 0.1229312301722518, -0.1912471612626238, 0.072598314866428, 0.16409804551586715, 0.06878943402410201], [0.06884002568679991, 0.0111241932966549, -0.08032320600147524, 0.06951376056114474, 0.10065003017101218, -0.1589192084011249, 0.05771908059955683, -0.07074200798755192, 0.027059277636857077], [0.034412082266735596, 0.0055842929456023415, 0.28800198907146934, 0.04824615813257432, 0.00033095246679906015, 0.11934657427946108, 0.060709542128832054, -0.023262762904612194, -0.11204685224020304], [0.08130386512188048, -0.030077209208814227, -0.11186879545102875, 0.00418499151465644, 0.10701781572117966, 0.08539421224595783, 0.1058988734464925, -0.03297086074326474, -0.12357176488816646], [0.015809982385543687, 0.021685797798009467, 0.07282192092587775, -0.040481912129085966, 0.059156508547536596, -0.04699931491467204, -0.16072855523092264, 0.0691528050350845, -0.09920597148367855], [0.07937019857974219, -0.4642996255725114, -0.016716830104049254, 0.23276639871996085, -0.43682508210254317, 0.0131274300085906, 0.10648499883141514, -0.0036619500760467073, 0.21088823974081267], [-0.1852313304926224, -0.09818429810454943, -0.14954727034394985, -0.044784693251119057, -0.039967641470414234, -0.0723190671638739, -0.0632694387005767, 0.015332465897993275, -0.16128654208131923], [0.03342287089481498, 0.07723709439790605, -0.045135086854563806, 0.008621039825076829, 0.3101489595668052, -0.1086654775983445, 0.009210868554846699, 0.08530594098098951, 0.08413315777715154]], "net.2.bias": [-0.02003945685512035, 0.10617973446925293, -0.015619829527470642, -0.011372808325410726, 0.019448138000149613, 0.027855019920424332, 0.019322871716273463, 0.0, -0.021469985681284057, -0.004029450507387685, 0.012496856053636244, 0.07581662811276334, -0.00035555521892781914, 0.06374010656832915, -0.034030475771387764, -0.05660526551214626, 0.0477709052670863, -0.025394048508225305, -0.015155377539357941, -0.0019566128538038487, -0.009999991111690454, -0.010418411000330394, 0.11724215814569285, 0.0, -0.001852570731592812], "net.4.weight": [[0.017826475887215556, 0.14478645632825066, -0.030131224330096063, 0.09955497556361237, 0.15551240878345282, 0.13626222267393798, -0.13506594201388725, -0.011263944733615507, -0.001997287873462152, -0.08915612926014369, -0.02789221678846163, -0.047636839898051425, -0.0011311467478038028, 0.11666164357114707, 0.008492751798208801, -0.271826115582951, 0.2517308351067392, -0.05977594031276233, 0.08862716446619827, -0.06068184738254513, 0.013454163793315745, -0.12791309057247757, -0.3459994420246056, -0.07343394247267539, 0.0940066247822429], [0.06142088410326807, 0.08991191066434714, -0.08913404442854155, -0.10852976379957675, -0.012367574446390672, -0.05465484264164091, -0.01458179721495391, -0.16924602298200303, -0.09790040540479812, 0.01076481382800411, -0.06470911361484222, -0.10532217477811408, 0.10044263192679413, 0.015050852226419676, -0.14025671025159286, -0.15560290374945096, -0.0002931770296476196, -0.21982042287727874, 0.10401685425614683, 0.10462954513619767, -0.0905559158389649, 0.09902376209172496, -0.04273648800973769, -0.023987912891325472, -0.05094668313659602], [0.14309780878917017, 0.27772856414410013, 0.061519224177014595, 0.06933414414576515, 0.20982758364002163, -0.023526762286095817, 0.1894841751538313, 0.13706737331531121, 0.07457926599822695, 0.016319417854277783, 0.037859691526448844, 0.1368468622569675, -0.28043130882435435, 0.20460272805355695, -0.40419324657831956, -0.4604720736647935, -0.047627551651562, 0.1170219135437192, 0.07507244303529194, 0.07172922251242127, -0.09221293128475874, 0.11349820888926132, -0.5983358651933558, 0.006548684004570645, -0.07349893504918321], [-0.05279094521288055, 0.015205994718034108, 0.006030161851987299, -0.10027792507304456, 0.027491736002451073, -0.2528318846615498, 0.021552128161090083, -0.017089911094051426, 0.10210831368979074, -0.21783470841677205, -0.03526861510833859, -0.08294595533507376, -0.13402208816846753, 0.060348670247594896, -0.13785206702952715, 0.10116433944339794, -0.03896686035031023, 0.07127423265524478, -0.08535515205192198, 0.08785427330208004, -0.12657905630179941, 0.13401238307385707, 0.044091828818050995, -0.0328131188571733, 0.03977521050603566], [-0.0853205660530615, 0.043373333323181114, 0.23770568448377083, 0.048202135220663765, 0.06587426851667251, 0.10890721378527761, -0.24771637735015423, -0.2344461622759087, 0.030581767097823384, -0.0106792409736585, 0.16685592275206382, -0.14546667461418994, -0.12379550383612731, 0.07228677351500525, -0.18843217239014795, -0.2779869697516811, 0.04956490912225454, -0.17686600630991978, 0.06678647123289497, -0.20144631200974208, 0.006605686358986562, 0.12895611533566492, -0.05313236727898761, -0.12464969735223577, 0.06574701770408152], [0.006351293960387163, 0.1335581262033375, 0.07980003038235861, 0.03602863209288965, 0.0031415033975895467, -0.08719442866867305, -0.09021349720213864, 0.05998106674474294, 0.008278385149498267, -0.048866793226959165, 0.048718504687915026, -0.044118801194466234, -0.09359891383511737, 0.09084755783228328, 0.07203325319078346, 0.042993415611273955, -0.09681339750844223, -0.12634597550084167, -0.11788607210072412, 0.12123991413530892, -0.08074179307792502, 0.005904408398609695, -0.11555992402906579, -0.05185949581728536, 0.05538209741236484], [-0.028739299770410086, -0.027242526872871063, -0.09940418128204909, -0.029114883602487547, 0.09834624097641971, 0.08407189064059055, -0.030511253026309935, 0.10313283575979793, -0.0180743835566707, -0.051294691995122245, 0.027647090605876484, 0.021080061994323104, -0.07454117372835628, 0.11682050054157261, -0.0322596361673318, -0.06484558910854758, 0.0839365411555838, 0.10202310363826124, -0.09446907018953703, 0.016877993731260303, -0.06165018050780339, 0.09703933424644108, -0.1258141992084378, 0.17451472724485784, 0.10372321383825314], [0.006409826460710369, 0.19788472952744673, -0.0951525966953793, -0.022531929326671266, -0.007334976537987257, 0.006065107938204081, -0.05081187929544039, -0.16058777921194894, -0.05317352768770894, 0.008415396360157442, -0.18781182873615454, -0.09496088018893396, -0.1587153752651559, 0.11861851563563904, -0.17236897805644721, 0.004173825811445431, 0.09659223367616061, -0.0464263599183309, 0.02280071031516493, 0.030816172036760982, 0.06061179735574698, 0.015110492678511804, -0.3381629838249398, 0.13386166567125388, 0.12775844742976902], [-0.044106339232379346, 0.02853937117760011, -0.17673197326192702, 0.03238190109369424, -0.001558528820718822, 0.0926581078200955, 0.07221370567859564, -0.0021872617017674174, -0.15315524036365724, 0.15949924530174056, 0.09798971606208498, 0.23920496878982161, -0.017439470761815803, -0.07700253780320267, -0.21282563552572675, -0.020475625160431204, 0.09406216449461924, 0.08293368685313049, -0.14943492775166475, 0.06507163466642957, 0.07741424920307981, -0.15274580265260723, -0.26429779353558625, -0.11632237618076442, 0.006732163861506164], [-0.07641923064507694, 0.05308154830986628, 0.057479993997353145, -0.04811452181269691, -0.06975669158472321, 0.20724117368607073, 0.11668037454985664, -0.03944299539144591, 0.005010571469447324, -0.0943773567963505, 0.03998141472892953, 0.041443771676085976, -0.13982780956582028, 0.03257437609984471, -0.14871340644844308, -0.3045975095841462, 0.028255632374695874, 0.060328929839979936, 0.08568173929050919, 0.06271570749831216, -0.10439576080094513, 0.014075016393037803, -0.3655954873846991, -0.10168473000086316, 0.21191346771360406], [-0.07204115890153562, 0.05467173263724057, 0.05185206733827054, 0.1426278297638296, 0.06754886318023613, 0.1798204896638582, -0.05270793117907315, -0.05906127718992471, 0.026195973809081056, 0.11600466208170285, 0.1211854851908872, -0.03912377227026811, -0.2382610278738422, -0.07609254660229685, -0.15914840263848257, -0.18745603278856432, -0.2600435307487586, 0.07583356452840474, 0.0928677618180769, -0.11864230619745061, -0.05547679658406791, 0.07200892444126034, 0.04409455668453141, -0.02086545336472857, 0.0679738646182248], [0.016431534307518304, -0.011241725509492751, 0.03199241998257623, -0.1555363858235748, -0.0697297730611823, -0.04006354851841369, -0.11252498084293446, 0.17876239400145644, -0.004468949352783371, -0.10588640309292081, -0.12541032995408957, -0.1482269666851966, -0.1441184394684717, 0.04011741714536726, -0.08901034010913993, 0.09733984825719054, 0.05615120057312292, -0.012999672694673834, -0.006650311838796684, -0.0441623120181733, -0.2338779468806652, -0.030645576440033503, 0.03297478133557234, -0.015333364209919, 0.04120001765797257], [0.04367933751579832, 0.03525776665669986, 0.10078735555012422, 0.08441882271691013, 0.03693798289377431, -0.066639726604206, -0.05125457621525469, 0.08624447635316743, 0.10939000697762193, 0.21499646521448657, -0.023197924014620154, -0.0827870158989868, 0.2640620775068639, -0.30979398052195933, -0.002203737046239697, 0.11142552733880055, -0.07433208894963271, 0.046428467706151756, -0.03575508712895217, 0.09585042851049407, 0.14106983474814375, 0.04643028323695177, 0.09762675167104373, -0.014230663330562826, -0.05925709403481551], [-0.21632632306374952, 0.020908107354579968, -0.018137639138062354, 0.06648071926699664, 0.018946398644999515, -0.07380395441058323, 0.1065193276691787, -0.10278203616582793, -0.08786824659156761, -0.03524233006426901, -0.09630870814564159, -0.1534024749802787, -0.08545234231159253, -0.11121822799930106, 0.017687822330791803, -0.06052886100848753, -0.1015005552182279, -0.010899726680053495, 0.06582263029014336, 0.044904014407843716, 0.20605195430182943, -0.1753795678433734, -0.13488091973291366, -0.06825425858409792, -0.0007395459799894375], [0.053003639594028706, -0.06572049900750625, 0.08323044338980445, 0.09118216777777718, 0.11151771567079699, -0.03525848544364055, -0.007004928423696024, -0.09335869055276692, 0.10733381384046334, 0.07344751351333952, -0.09690520006917999, 0.14416644539529047, -0.14704061403176352, 0.19086181813129857, 0.010725810988116341, -0.09881103360882955, -0.06444198435879525, 0.11673736031860743, -0.08758490694224924, -0.020597093096065795, -0.03714181328832174, -0.07691555233747555, -0.09270576382877378, 0.0020897282729450246, 0.04085965337508319], [0.03045517181607841, 0.04357433904558844, -0.20123407422235354, 0.0273675741703361, 0.06655468825475101, 0.07936574840760116, 0.034308495144897984, -0.22828428055481573, 0.030478701133037054, 0.10273525101757525, -0.01617250493001144, 0.2003227988531263, -0.06327848521832878, -0.09344522087099298, -0.17371039888920325, -0.2606725883818055, 0.2874964396877611, 0.05378202419282505, 0.2984269748956012, 0.000524735341172499, -0.06678109823719536, 0.11549140249700476, -0.2813522529883306, -0.04121849786665534, 0.22518227291702786], [0.04520803104362384, 0.10715266173764185, -0.02544019162776144, 0.08441103031976717, 0.10787050251114036, -0.030182277659714582, 0.039418841282647624, -0.013986737229941369, 0.04860170963381569, -0.01281113915986095, 0.0880183495587298, -0.015510972109178366, -0.15804794160992075, 0.1033701129633228, 0.11827292950460087, -0.12928683720359826, 0.05616270283385909, 0.029135669133826043, -0.012887133060190896, 0.2023091273378752, -0.019721188740786957, -0.27422339013929425, -0.1869080669466997, 0.10109540392905543, -0.1111736245714568], [-0.23140672772009302, -0.10609906789146692, 0.14115668904587295, -0.060729423132210615, 0.05438265736149784, -0.026393915485394805, -0.025431702238187123, -0.12978347151595446, 0.14662140172418311, 0.2310216884165428, 0.05503111139998637, 0.1438043989375815, -0.0721317794116059, -0.03969506540164923, -0.020946876672136804, -0.2080592050032186, 0.1531142834709562, -0.04461706993077521, 0.00874132714175006, 0.08756103004284516, -0.012804571478836287, -0.12224751350858902, -0.027520095669691078, -0.0012548697214059352, 0.24886240844802915], [0.07880443820240951, 0.11490786274290847, 0.09088219962667364, 0.058045522044173556, 0.08911266842196561, 0.024216698266638657, 0.045916164491155334, -0.06081072741507087, 0.013231033345953854, 0.13051314285404697, 0.11191108341623147, 0.07589992249146998, -0.3616830918474013, -0.06735009198080152, -0.29940095528016364, -0.12388956664841992, 0.025589605341856447, -0.22845898862022726, 0.020811521835999953, 0.06655542531108685, -0.09415366831622907, 0.18700563219942878, -0.5915946984548635, -0.06605211177705354, 0.2554325207837728], [0.14953606101762054, 0.07217454999903805, -0.1275080121315333, -0.13065800126789776, -0.27828508224789383, 0.060201371944175186, 0.08408469275127008, -0.011381200536983747, 0.021006527989101922, -0.0715950637713847, 0.13086365564392524, -0.03946014945014656, 0.09604932227095607, 0.11189804657885474, 0.0169806133127351, 0.06581368811573106, -0.014073740919837456, -0.03442024269794806, 0.028592318936004307, -0.030325973737799796, 0.20154279859815386, -0.1280673165669521, 0.06774097289876616, -0.20615040029042797, 0.06309475761906659], [-0.008184667261099397, 0.07236750348553248, 0.17320816263589223, 0.16800525751102124, 0.03477527538532933, 0.22588275346108555, -0.10245185714250732, -0.013119391858909292, -0.11856425450857346, -0.03711082733578383, 0.001723397897934418, 0.10584820665030614, -0.04715564231201231, 0.11926507382322463, -0.02044259124891811, -0.01515709346622551, -0.041372289340850237, 0.07315823347654654, 0.10351629856650284, -0.0130431821477802, -0.07723108598445674, 0.009910080280361342, -0.2417987619271513, -0.04338397847418101, 0.04120307141566332], [0.22405196228494506, -0.017208820833765924, -0.07204720006172215, 0.25109600551922534, -0.03464460956326185, 0.023847547399867382, -0.12364486326609406, 0.00019238063787237373, 0.18823251117100662, 0.04269491380711307, 0.07017624961582161, -0.1269606277543815, -0.2200381555123648, 0.05455311267319021, -0.13486129288861945, -0.00038735354340398024, -0.04714266183871917, -0.030859128361203202, -0.13236186689953844, 0.3151297861163792, -0.0469760235148247, -0.11025239965774, -0.19320343417218638, -0.09180539562804621, 0.12916254621533702], [-0.03283558914620976, -0.02544814359554345, 0.13283650498490515, 0.07394034463301626, 0.08785434673414749, -0.04592388281955816, -0.12473714730593252, 0.11838326204668244, 0.18685044723996536, -0.06079678791260622, -0.18161866745410135, -0.006792913145783843, -0.0369036072526036, 0.15261585582114004, 0.15450601589404347, 0.10689142221169953, 0.06587162516896862, 0.011479540771775739, -0.07018098481810059, -0.11538510777527884, 0.07225397921467215, 0.008344795384558732, -0.1206935051054174, -0.08498127288287058, 0.10489589535464394], [-0.05507343059583169, 0.1603785783693775, -0.06942105743077792, 0.0068047476451368015, 0.13259967791852206, 0.037237539218565305, -0.05832464775988573, 0.036595494278259345, -0.2340988585187816, 0.16677797854650261, -0.023782504554912338, 0.1649106885126171, -0.06787938408703549, 0.03997224767179585, -0.1797149703409132, -0.33627064659966527, 0.1600025678447343, 0.07385034899194248, 0.12973032521407804, -0.11427013687422952, 0.002099349232691094, 0.04820470493051961, -0.35792747023272276, 0.07662250740951058, -0.003069242008050115], [-0.10554860877919169, 0.09708960263720251, 0.13275612490692257, 0.1299731823289273, 0.12493589628274672, 0.09402956267605114, -0.30670837187843764, -0.06933760994323424, 0.008367119223734697, 0.04557126642348617, -0.08874692037791555, 0.013049402744820717, 0.1455790924052115, 0.22575781286406796, -0.0027233901676842944, -0.26589421061067353, 0.09370793003531606, -0.015878476478893563, 0.05954705856651418, 0.049612996855822974, -0.14929037358835834, -0.02329421020802935, -0.33472034628586894, 0.11943068903850099, 0.042670586913092806]], "net.4.bias": [0.06601802348574966, -0.00639952462608248, 0.07872926695070771, 0.0, -0.013418374034496796, -0.009999982933320576, 0.0013576959240144515, 0.03167128649382169, 0.050669080465631865, 0.005239781783740032, -0.0119272535259159, 0.0, -0.03086985619878863, 0.0, 0.014310945509825916, 0.02916040199163039, 0.0002711718952027683, 0.028098613313946873, 0.018525531519736727, 0.0, 0.008196242357097002, 0.0008741884507080775, -0.015491405778606184, 0.04943822917704318, 0.09771118459663017], "net.6.weight": [[0.08583666420369006, 0.019760482374155574, 0.12830593781297434, 0.031569141944775156, -0.07143936636824788, 0.09313809565881066, -0.14896575993077088, 0.0707438468601837, -0.058969940744964505, -0.0858725303211246, 0.007121014766680726, 0.07235807474402775, 0.040771659308398996, 0.07217643885738766, -0.06763363777481338, -0.18670616115984404, -0.07106818581985863, 0.06294806402817288, 0.1327997723830588, 0.022048373252440204, -0.012083900657857728, -0.18962295207779925, 0.15208116814514508, -0.008464514474468209, -0.024810692907076354], [-0.14303848314924317, -0.08259090857577428, 0.0732911377072936, -0.05776741467437797, 0.1217555979447324, 0.040745488725420685, 0.04704840560995466, 0.003964010238165793, -0.12038426870054517, 0.19899464699931546, -0.23990938873572654, 0.05006876662601925, 0.037285040246589865, -0.06618721577598523, -0.08723091993137726, -0.06320441969723567, 0.17841341888207357, 0.001178434880069257, 0.013572601045633632, 0.12707238270582485, 0.12840815348531526, -0.09255166833215188, 0.04593268165182999, -0.06921077337414021, -0.0012071598103931586], [0.09251027870411907, -0.0317483774325979, 0.13876554579350012, 0.01321385420666032, 0.02861624127875058, 0.05594542839313907, -0.07503779281330689, 0.010763453458318058, -0.08049493970800937, 0.016792644185599254, -0.03291931837073078, 0.08632945141242954, 0.007010246419500668, -0.14561208125048675, -0.07344469402765044, -0.144920018574294, -0.05035045675064541, 0.004198347716833438, 0.04392036197407806, -0.011156160329726295, -0.032935841872306665, 0.10408327072694054, -0.05845498973466909, -0.005939695457279038, -0.0011777151796779819], [-0.07377582646304404, -0.08961114244669383, 0.0995083614330015, -0.006336282125096427, -0.24832267637902924, -0.06055938867139761, 0.0008662032909624911, 0.0008840672081013834, 0.012890436085241447, 0.05400853110663571, 0.18851594425724139, -0.08190901755189525, 0.027704397650576692, -0.06047052138159248, 0.009821825879523963, 0.12576259185028046, 0.019211128434095354, 0.0077262140462593274, 0.10156182376451904, 0.11222016584724324, -0.11909199927692098, -0.05423061049087549, 0.009757673371303876, 0.05041973195227293, -0.014980785668363824], [0.2177577396131952, -0.0812939935028493, 0.15723422834361542, -0.05749160895117353, 0.2403658196781072, -0.1459933978956793, 0.06851794266037384, 0.13130769531595335, -0.06882430251187883, -0.003671831443486987, -0.20995070283155312, 0.03854557258660577, 0.13710443154174023, 0.0006117155136323121, -0.06904212866267392, 0.06860315754172423, 0.17791753406336838, 0.001768014368348742, -0.17347054980966486, 0.03974076511495993, 0.069426430640945, 0.03394486273978928, 0.09927071471315307, 0.19671289387341231, 0.34525573636425355], [-0.0490157370252203, -0.03980540620043951, 0.029340437464062483, -0.05374148359041771, -0.16235041725721008, 0.02709684059935898, -0.08310196651740337, 0.02581038210197276, 0.07433049435287235, -0.12757076705932938, 0.15679794109991518, -0.011558429123106638, -0.006325725826013179, -0.013643378900206189, -0.11778607035650186, -0.18173833569590453, 0.048291849286447176, 0.10765787683831952, 0.1074085563269667, 0.010634917515828672, -0.12477429837014788, 0.009938925605482679, -0.1267735152264468, 0.15031140263840964, -0.04512807240218129], [0.09483550184165626, 0.021967398798625002, 0.1549381051972205, 0.14786172473390788, 0.018340294431659385, -0.07280937216089686, 0.12072894192971823, 0.034457897635524745, 0.07141964981970512, 0.049350527250019045, 0.015114311218435704, 0.0887565441451447, -0.1364938363608352, -0.010707405331572129, 0.07241765879376667, 0.03739539691449702, 0.011619326505442161, 0.02462630494643769, 0.12216050390647218, 0.23802982193683514, 0.10288255499875443, -0.06759815255336758, 0.15893176976046305, -0.03184290264515233, 0.042100461259756604], [-0.16452802925265372, 0.09673485022848465, -0.0495724937898219, -0.08802402787769134, 0.016910180523514055, -0.1313797952143456, -0.041836987338179, -0.0679971081373009, -0.07485913783151782, 0.0933156718847118, 0.1205830317985962, -0.17835275988959812, 0.11308546537673624, -0.02629242368884413, 0.0030261468366968563, -0.13541812504819453, -0.1422433271102061, -0.06066214334942307, 0.037107119429745296, -0.02859445324698448, -0.014086076339408247, -0.010772072687490593, 0.18289110403296696, 0.07490861730789726, -0.055071915060828217], [0.04407833651643636, -0.16662804921787347, 0.3068529841467701, -0.06282600300787303, -0.08811888122917944, -0.10607345976437774, 0.037843570545029105, 0.07791734831171823, 0.14275125383217102, 0.1884778665435431, 0.1277453093414099, 0.03403996462532266, -0.13286572266145855, -0.077595133850614, 0.07087434108861539, 0.10148496282651344, 0.07978112229734236, 0.12750017067015, 0.1428245826486431, -0.027315178293750922, 0.12072832258970918, 0.16813444976642053, -0.016312245531989143, 0.15199324371595918, 0.06425204339877641]], "net.6.bias": [-0.014662276100215609, -0.01923265900819982, -0.010546370070211216, -0.019774462041689513, 0.06090818747326238, -0.0007309941714123445, 0.025242391311756988, -0.013237108931101771, 0.04426652626421536], "net.8.weight": [[0.11304977930092344, -0.005941032290958241, 0.08991692041923913, -0.09675573779498314, -0.0581889429151895, -0.054054423935754464, -0.09127428369355028, 0.13604917272368977, -0.16125568228972656], [-0.177939052439638, -0.08435099237788737, -0.12059888384542013, 0.015006031425067859, -0.1543449970704262, 0.0033356217268061816, -0.10113457246984493, -0.010396093438299833, 0.17031682498939743], [0.020596936973583446, -0.13985072132008172, 0.047834946225487104, -0.05055606782188596, 0.1882239082250116, -0.15017899082935532, 0.13001854744044453, -0.062273328115588014, 0.08070137546396196]], "net.8.bias": [-0.030389961163472343, 0.012473771136885095, 0.031891099890638756]}