{"net.0.weight": [[0.0029133388336428723, -0.12541382146380717, -0.09135762359231589], [0.2280612738858586, -0.18228358024265634, -0.15136995685803237], [-0.1563770886462332, 0.11985538921501765, -0.11317074351059216], [0.014561454246025205, 0.2869275443693753, 0.20815471409039907], [0.0861285835663128, 0.2620739209911474, -0.06515598352835585], [-0.0761495061791149, 0.09741104302564467, -0.08900491249628772], [-0.18553282823926576, 0.07223246848115375, -0.011598121599873008], [-0.11851286286822756, 0.16465029178004378, -0.004240947555789706], [0.10536795006666624, 0.17295460558426853, 0.09119513659718635]], "net.0.bias": [-0.012906656145932265, 0.056363795093729546, 0.0, 0.07916797499368801, 0.04223814326317629, 0.0, 0.0, 0.0, 0.10225682519725612], "net.2.weight": [[-0.01784946664731385, 0.028112033558872335, 0.0009584374943012158, 0.0024856608896607923, -0.048029465846841146, -0.08456662890615568, -0.03560864186879099, 0.033417588887207895, -0.050503772198692516], [-0.026773745609119444, 0.008227924854742594, 0.023356946612789954, 0.16196241951623463, 0.09122631399463069, 0.13379657864725586, 0.020419210892130047, -0.07226231781349242, 0.10419303799628392], [-0.03479481287626787, -0.13414043702562686, 0.14210094092032344, 0.041827645167020144, -0.06917826676970835, -0.03240147899662026, 0.1159348590080771, 0.028707840619382703, -0.06421022440603566], [0.02549294150537678, 0.0589045391590638, -0.2151572336475996, -0.08255299665232049, -0.05964972598203925, 0.015521359141681164, 0.1463426909468212, -0.049333634322576064, -0.2256471659153208], [0.08064523320727701, 0.10472542066166614, 0.07866000703486258, 0.25254508240800866, 0.18251625900991858, 0.00716640163503119, -0.11717188768253575, 0.009060020306650424, 0.14949331014062994], [-0.08188715329575995, 0.04392316880969655, 0.09920500356670685, 0.08158221758897344, 0.14030740469547603, 0.011957839233938216, 0.017952320395654663, 0.013936544306692902, 0.14148310658535634], [-0.0351570195749567, 0.21820399362260112, 0.18867583220337336, -0.16525805146570016, 0.14103842126675664, 0.19032967608548623, -0.05624497336558955, 0.003521199561305806, 0.06482004179187953], [0.012081571319858967, -0.19276519545034454, 0.025455844487762752, -0.022961358750195282, 0.015527795711497533, 0.2800141676546502, -0.04309853847686323, 0.01619529451845645, -0.20257774675628265], [0.12985765034956812, -0.0726999398943167, 0.11807885286709066, -0.12436492135851414, -0.07139796486801783, -0.02667445944696625, 0.02351178596293882, -0.08689184512490501, 0.12013990599247652], [0.09758810193931128, 0.23284218734835396, 0.10877346744384178, 0.0038125423989049455, 0.03661957041430177, -0.0674100868093815, 0.06866626647951528, 0.0050011943142071955, 0.12221065031114385], [0.006252142981862394, 0.1096343996757935, 0.12495721852567868, -0.26118323476182326, -0.04879693669680629, 0.19657229253819114, 0.07603061896815763, -0.029172402414558825, -0.16100668570404134], [-0.006252498974962237, 0.11045850501757859, -0.013537764788843372, -0.13657735176505803, -0.07381609608370586, 0.09561204145909788, -0.05955312415963089, -0.021577435232625317, 0.14146728882455067], [0.14011689058106067, 0.10206241117236166, -0.11199513920969384, -0.23250104046293707, 0.1494644071857621, 0.09686761844795833, 0.0154043956671734, -0.07338475287942386, -0.07753553624136049], [0.19680426246544708, -0.16031797769227274, 0.08181319122965652, 0.20146160430007232, 0.06254138172715032, -0.045526680533244365, -0.011845182849301918, 0.009828971086759336, 0.2375903250075251], [0.036834350873467515, 0.10530538562058635, -0.0127935680959295, -0.14598019472413795, 0.10234530719582219, 0.014808422936650434, 0.04871880196840116, -0.018265527089049705, -0.11008114228240688], [0.03574392781149429, 0.1531649141585109, 0.06762131182674457, -0.2974952296136392, 0.1058135174203197, 0.18468363033938032, 0.04056578752058557, -0.08997142777528659, -0.02510198226540881], [0.13428258787452851, -0.12952958276303073, 0.19557581731276097, 0.10585276719129393, 0.009070174226597203, -0.05210083832882857, -0.22571618775107727, 0.035153087881891754, 0.2178875907082751], [0.026428228958947735, 0.18667429333411417, 0.03645008016142576, -0.0368574193878965, 0.11404973955585015, -0.1912471612626238, 0.072598314866428, 0.16409804551586715, 0.06342780888338062], [0.06884002568679991, 0.01001645579095748, -0.08032320600147524, 0.06870181250183892, 0.09955907823891148, -0.1589192084011249, 0.05771908059955683, -0.07074200798755192, 0.026079439500017627], [0.034412082266735596, 0.0055842929456023415, 0.28800198907146934, 0.04824615813257432, 0.00033095246679906015, 0.11934657427946108, 0.060709542128832054, -0.023262762904612194, -0.11204685224020304], [0.08130386512188048, -0.030077209208814227, -0.11186879545102875, 0.00418499151465644, 0.10701781572117966, 0.08539421224595783, 0.1058988734464925, -0.03297086074326474, -0.12357176488816646], [0.015809982385543687, 0.021685797798009467, 0.07282192092587775, -0.040481912129085966, 0.059156508547536596, -0.04699931491467204, -0.16072855523092264, 0.0691528050350845, -0.09920597148367855], [0.07937019857974219, -0.4837501177920208, -0.016716830104049254, 0.23304875896333124, -0.452153822265092, 0.0131274300085906, 0.10648499883141514, -0.0036619500760467073, 0.2086706516082613], [-0.1852313304926224, -0.09818429810454943, -0.14954727034394985, -0.044784693251119057, -0.039967641470414234, -0.0723190671638739, -0.0632694387005767, 0.015332465897993275, -0.16128654208131923], [0.03342287089481498, 0.07528292193389513, -0.045135086854563806, 0.0058319546981489764, 0.3088795970216579, -0.1086654775983445, 0.009210868554846699, 0.08530594098098951, 0.0817137227175403]], "net.2.bias": [-0.02003945685512035, 0.10714881771008473, -0.01594538614590112, -0.011372808325410726, 0.019912781115335745, 0.028502136558896635, 0.014682596174166368, 0.0, -0.021469985681284057, -0.004731253281678767, 0.012496856053636244, 0.07669042251294876, -0.0045315238723254644, 0.06472721368706175, -0.03945412151454711, -0.06853297594522459, 0.04861049589598277, -0.028546938473533182, -0.014750360009571112, -0.0019566128538038487, -0.009999991111690454, -0.010418411000330394, 0.11430303883329188, 0.0, -0.0031300885017115877], "net.4.weight": [[0.017826475887215556, 0.1467518465744537, -0.030137212948772866, 0.09955497556361237, 0.1582769545792855, 0.13894078859913425, -0.13529024580332522, -0.011263944733615507, -0.001997287873462152, -0.08641401625993754, -0.02789221678846163, -0.05117082181610801, 0.01795187731266667, 0.11805371178037591, 0.028427913496123988, -0.25607131804324534, 0.2521258982816701, -0.05694073095442268, 0.08993461913305091, -0.06068184738254513, 0.013454163793315745, -0.12791309057247757, -0.35854643946035697, -0.07343394247267539, 0.097698699862052], [0.06142088410326807, 0.08104129857398212, -0.08913404083326514, -0.10852976379957675, -0.021713650140818518, -0.06397987098698751, -0.01458179721495391, -0.16924602298200303, -0.09790040540479812, 0.0011688284092897568, -0.06470911361484222, -0.10532217477811408, 0.10044263192679413, 0.00569696239680785, -0.14025671025159286, -0.15560290374945096, -0.009688338787031618, -0.22963891229760314, 0.09486510407217869, 0.10462954513619767, -0.0905559158389649, 0.09902376209172496, -0.049808764475538156, -0.023987912891325472, -0.05926843202808104], [0.14309780878917017, 0.2761188889348728, 0.061519224177014595, 0.06933414414576515, 0.20957956997902377, -0.024154384821837026, 0.19262592490872613, 0.13706737331531121, 0.07457926599822695, 0.017117932434254784, 0.037859691526448844, 0.13615570602364935, -0.2862052854865427, 0.2008165235462112, -0.4091573631105372, -0.4624306848025435, -0.05255027739609571, 0.11786477079246846, 0.07253475400190283, 0.07172922251242127, -0.09221293128475874, 0.11349820888926132, -0.6049472454689008, 0.006548684004570645, -0.07312686220517382], [-0.05279094521288055, 0.015205994718034108, 0.006030161851987299, -0.10027792507304456, 0.027491736002451073, -0.2528318846615498, 0.021552128161090083, -0.017089911094051426, 0.10210831368979074, -0.21783470841677205, -0.03526861510833859, -0.08294595533507376, -0.13402208816846753, 0.060348670247594896, -0.13785206702952715, 0.10116433944339794, -0.03896686035031023, 0.07127423265524478, -0.08535515205192198, 0.08785427330208004, -0.12657905630179941, 0.13401238307385707, 0.044091828818050995, -0.0328131188571733, 0.03977521050603566], [-0.0853205660530615, 0.045061628999743274, 0.23770051627379535, 0.048202135220663765, 0.06601308718442957, 0.10899459342689889, -0.30124411667326767, -0.2344461622759087, 0.030581767097823384, -0.019513267956695297, 0.16685592275206382, -0.19804019734184924, -0.12379550383612731, 0.07879705287210811, -0.18843217239014795, -0.2801762590784179, 0.055536458808693824, -0.18541194821197463, 0.06833117402706879, -0.20144631200974208, 0.006605686358986562, 0.12895611533566492, -0.0809556653863333, -0.12464969735223577, 0.06618558601648654], [0.006351293960387163, 0.1335581262033375, 0.07980003038235861, 0.03602863209288965, 0.0031415033975895467, -0.08719442866867305, -0.09021349720213864, 0.05998106674474294, 0.008278385149498267, -0.048866793226959165, 0.048718504687915026, -0.044118801194466234, -0.09359891383511737, 0.09084755783228328, 0.07203325319078346, 0.042993415611273955, -0.09681339750844223, -0.12634597550084167, -0.11788607210072412, 0.12123991413530892, -0.08074179307792502, 0.005904408398609695, -0.11555992402906579, -0.05185949581728536, 0.05538209741236484], [-0.028739299770410086, -0.029051494485372135, -0.09940785421404887, -0.029114883602487547, 0.0967214052723465, 0.08254508456258249, -0.034533691395269975, 0.10313283575979793, -0.0180743835566707, -0.053332824304328855, 0.027647090605876484, 0.014358256050759013, -0.07617727432193257, 0.11541261128167934, -0.033478787367155524, -0.06418800956838851, 0.08180141879478678, 0.09991341490703712, -0.09673411628195715, 0.016877993731260303, -0.06165018050780339, 0.09703933424644108, -0.13315164441121702, 0.17451472724485784, 0.1024230521325321], [0.006409826460710369, 0.1990882337263764, -0.09515599029861369, -0.022531929326671266, -0.005525251327174694, 0.007358132795681253, -0.05016522248647693, -0.16058777921194894, -0.05317352768770894, 0.009662741605417021, -0.18781182873615454, -0.0978345424439632, -0.15420634722055868, 0.12007537008796154, -0.1670049769880793, 0.009684078712676224, 0.09731253618669763, -0.04569191964309299, 0.022473038919962305, 0.030816172036760982, 0.06061179735574698, 0.015110492678511804, -0.33589634167776583, 0.13386166567125388, 0.12899023388713762], [-0.044106339232379346, 0.02754932226979432, -0.17673197326192702, 0.03238190109369424, -0.0011867555250952672, 0.09255225003951816, 0.07571272169232217, -0.0021872617017674174, -0.15315524036365724, 0.16068210062364588, 0.09798971606208498, 0.23978500040478776, -0.027622847830504903, -0.08061943264491281, -0.22202336998655273, -0.026546020558241953, 0.08953831893855192, 0.08437205828111874, -0.15095607375377937, 0.06507163466642957, 0.07741424920307981, -0.15274580265260723, -0.3078692293315225, -0.11632237618076442, 0.007839009578287016], [-0.07641923064507694, 0.04787857495183876, 0.057479993997353145, -0.04811452181269691, -0.07281325336006648, 0.20400861846317536, 0.1201291059148723, -0.03944299539144591, 0.005010571469447324, -0.09493684874946184, 0.03998141472892953, 0.04153274312701475, -0.14948944783605142, 0.021944254561097866, -0.1574372505933736, -0.30997560490630177, 0.016059464763004447, 0.06043174233353565, 0.08061115846751858, 0.06271570749831216, -0.10439576080094513, 0.014075016393037803, -0.4087077727375788, -0.10168473000086316, 0.2109196715828626], [-0.07204115890153562, 0.05123492693421977, 0.05185305322239134, 0.1426278297638296, 0.06310818873516161, 0.17364760630049203, -0.043642463046400404, -0.05906127718992471, 0.026195973809081056, 0.11038882627661083, 0.1211854851908872, -0.03312850846712702, -0.2921075377917299, -0.07652816684299069, -0.21175901668901817, -0.23007751948468222, -0.2593104508120931, 0.06774635295390422, 0.08563981655134341, -0.11864230619745061, -0.05547679658406791, 0.07200892444126034, 0.06949135613002325, -0.02086545336472857, 0.0568095071613085], [0.016431534307518304, -0.011241725509492751, 0.03199241998257623, -0.1555363858235748, -0.0697297730611823, -0.04006354851841369, -0.11252498084293446, 0.17876239400145644, -0.004468949352783371, -0.10588640309292081, -0.12541032995408957, -0.1482269666851966, -0.1441184394684717, 0.04011741714536726, -0.08901034010913993, 0.09733984825719054, 0.05615120057312292, -0.012999672694673834, -0.006650311838796684, -0.0441623120181733, -0.2338779468806652, -0.030645576440033503, 0.03297478133557234, -0.015333364209919, 0.04120001765797257], [0.04367933751579832, 0.030229410449644327, 0.10078735555012422, 0.08441882271691013, 0.03254149182922022, -0.06985080554704477, -0.05152217837262316, 0.08624447635316743, 0.10939000697762193, 0.21368936619187162, -0.023197924014620154, -0.08048424819700348, 0.2696568333409623, -0.3251506070447823, 0.002564500331837145, 0.11468956080805777, -0.09208459556868108, 0.04565162110200988, -0.03825808254307463, 0.09585042851049407, 0.14106983474814375, 0.04643028323695177, 0.09762675167104373, -0.014230663330562826, -0.0614441093786456], [-0.21632632306374952, 0.020908107354579968, -0.018137639138062354, 0.06648071926699664, 0.018946398644999515, -0.07380395441058323, 0.1065193276691787, -0.10278203616582793, -0.08786824659156761, -0.03524233006426901, -0.09630870814564159, -0.1534024749802787, -0.08545234231159253, -0.11121822799930106, 0.017687822330791803, -0.06052886100848753, -0.1015005552182279, -0.010899726680053495, 0.06582263029014336, 0.044904014407843716, 0.20605195430182943, -0.1753795678433734, -0.13488091973291366, -0.06825425858409792, -0.0007395459799894375], [0.053003639594028706, -0.06645257994596222, 0.08322930250672853, 0.09118216777777718, 0.1108817210472695, -0.037201082994303476, -0.0054105169023899715, -0.09335869055276692, 0.10733381384046334, 0.07131881422290808, -0.09690520006917999, 0.1424717236573416, -0.16320109176411854, 0.1919787942388018, -0.004426380853560758, -0.10978852751557935, -0.0630749190099176, 0.11310904553497332, -0.09119624490196679, -0.020597093096065795, -0.03714181328832174, -0.07691555233747555, -0.06312405523544709, 0.0020897282729450246, 0.03688099523901604], [0.03045517181607841, 0.04155454735152861, -0.20124420457881131, 0.0273675741703361, 0.06470135714272877, 0.07733459127395281, 0.03315261557905519, -0.22828428055481573, 0.030478701133037054, 0.10047555906500587, -0.01617250493001144, 0.1963277781067632, -0.07869823091857486, -0.0947490598242102, -0.18861655378048628, -0.2701641753226509, 0.28557093118877613, 0.05107134089862416, 0.2953253024851136, 0.000524735341172499, -0.06678109823719536, 0.11549140249700476, -0.2752822587347271, -0.04121849786665534, 0.2226697945359429], [0.04520803104362384, 0.1061844167943621, -0.025446532210301482, 0.08441103031976717, 0.1077490568892874, -0.03056271084225301, 0.03906328815953996, -0.013986737229941369, 0.04860170963381569, -0.012747272610234256, 0.0880183495587298, -0.019316037859438098, -0.15418063330348045, 0.10184414200552769, 0.12290626010234963, -0.1242610956214103, 0.05377729332561539, 0.029072444571992713, -0.014868435144235581, 0.2023091273378752, -0.019721188740786957, -0.27422339013929425, -0.19225055890461798, 0.10109540392905543, -0.11093956577097694], [-0.23140672772009302, -0.10539662755782891, 0.1411527321195835, -0.060729423132210615, 0.055458494569791815, -0.026335887028931745, -0.023177260086583207, -0.12978347151595446, 0.14662140172418311, 0.23114172650524561, 0.05503111139998637, 0.14320463312603318, -0.07938355540008757, -0.038138983089271265, -0.027211972158271418, -0.2119697248762276, 0.15469244086167971, -0.04549801626989263, 0.007317528814672278, 0.08756103004284516, -0.012804571478836287, -0.12224751350858902, -0.011010283449984256, -0.0012548697214059352, 0.2478660635601567], [0.07880443820240951, 0.11211433560142695, 0.09088219962667364, 0.058045522044173556, 0.08886550193932367, 0.024190894597756838, 0.05225000626265933, -0.06081072741507087, 0.013231033345953854, 0.13274638578141246, 0.11191108341623147, 0.07813828942577933, -0.3890379301361641, -0.079275012247146, -0.32590189131058167, -0.14345104026992644, 0.010523335187521432, -0.22515892816889096, 0.019225035428746387, 0.06655542531108685, -0.09415366831622907, 0.18700563219942878, -0.7282146538759425, -0.06605211177705354, 0.25838580615283513], [0.14953606101762054, 0.07217454999903805, -0.1275080121315333, -0.13065800126789776, -0.27828508224789383, 0.060201371944175186, 0.08408469275127008, -0.011381200536983747, 0.021006527989101922, -0.0715950637713847, 0.13086365564392524, -0.03946014945014656, 0.09604932227095607, 0.11189804657885474, 0.0169806133127351, 0.06581368811573106, -0.014073740919837456, -0.03442024269794806, 0.028592318936004307, -0.030325973737799796, 0.20154279859815386, -0.1280673165669521, 0.06774097289876616, -0.20615040029042797, 0.06309475761906659], [-0.008184667261099397, 0.07395419262931911, 0.17320048721103606, 0.16800525751102124, 0.036781263996633826, 0.2270458236011587, -0.1014290999713145, -0.013119391858909292, -0.11856425450857346, -0.036069686776351036, 0.001723397897934418, 0.10442587298336828, -0.04433376313505674, 0.12164488591980241, -0.016706662775858864, -0.011726638155944638, -0.03918054409565141, 0.07351292344008876, 0.10332147329058429, -0.0130431821477802, -0.07723108598445674, 0.009910080280361342, -0.2297226211968961, -0.04338397847418101, 0.041839995051744606], [0.22405196228494506, -0.024333700331266334, -0.07204720006172215, 0.25109600551922534, -0.04258697206112865, 0.01594639961891038, -0.13213712875717534, 0.00019238063787237373, 0.18823251117100662, 0.03430532773825704, 0.07017624961582161, -0.13552426171899226, -0.2200381555123648, 0.04653302081786695, -0.13486129288861945, -0.00038735354340398024, -0.05537778095020081, -0.039286029521622357, -0.13915685068291803, 0.3151297861163792, -0.0469760235148247, -0.11025239965774, -0.20149172651006864, -0.09180539562804621, 0.12142451978129275], [-0.03283558914620976, -0.028629320051794156, 0.1328343064233714, 0.07394034463301626, 0.08427417381533592, -0.04903025679287657, -0.1335882638437057, 0.11838326204668244, 0.18685044723996536, -0.06524190443859927, -0.18161866745410135, -0.01647863885016386, -0.04215459032681931, 0.1503304612423359, 0.14888236949651498, 0.10328568883353897, 0.06316807828227633, 0.007184457243733984, -0.07290984818390092, -0.11538510777527884, 0.07225397921467215, 0.008344795384558732, -0.13472194105546165, -0.08498127288287058, 0.1019325621794744], [-0.05507343059583169, 0.16144637757252406, -0.06943091466306729, 0.0068047476451368015, 0.1342375790178213, 0.03813029254963927, -0.05716464463274892, 0.036595494278259345, -0.2340988585187816, 0.16758624064758426, -0.023782504554912338, 0.16247722134914394, -0.07109305792768267, 0.041566982652946886, -0.18204806016016517, -0.336694914196992, 0.16113612962359258, 0.07394694479134174, 0.12894061316500802, -0.11427013687422952, 0.002099349232691094, 0.04820470493051961, -0.3525584069952325, 0.07662250740951058, -0.002565173595154716], [-0.10554860877919169, 0.09904564579794202, 0.13271161403355847, 0.1299731823289273, 0.12808134606927782, 0.09743375210605092, -0.30366644104493684, -0.06933760994323424, 0.008367119223734697, 0.050146367570492616, -0.08874692037791555, 0.012902388535267756, 0.17287466489169512, 0.22581093198823374, 0.02536863818706775, -0.24405445525455127, 0.09259489609046594, -0.010655236942763586, 0.06150217324913388, 0.049612996855822974, -0.14929037358835834, -0.02329421020802935, -0.3503866729859289, 0.11943068903850099, 0.04803259457185893]], "net.4.bias": [0.06974661724129878, -0.0161815154100575, 0.08029727127268481, 0.0, -0.014771123169787334, -0.009999982933320576, 1.3225506179525984e-05, 0.03543696988565185, 0.05259567215837508, 0.0035610396990729326, -0.012250058105601638, 0.0, -0.037006426220114776, 0.0, 0.01712214341891042, 0.028504096999957644, 0.0017379679637090245, 0.031990658856629564, 0.01815803390549026, 0.0, 0.012597372811769867, -0.006928662160609646, -0.020232092683282764, 0.05351257941047204, 0.10135543018671019], "net.6.weight": [[0.08583666420369006, 0.019760482374155574, 0.12830593781297434, 0.031569141944775156, -0.07143936636824788, 0.09313809565881066, -0.14896575993077088, 0.0707438468601837, -0.058969940744964505, -0.0858725303211246, 0.007121014766680726, 0.07235807474402775, 0.040771659308398996, 0.07217643885738766, -0.06763363777481338, -0.18670616115984404, -0.07106818581985863, 0.06294806402817288, 0.1327997723830588, 0.022048373252440204, -0.012083900657857728, -0.18962295207779925, 0.15208116814514508, -0.008464514474468209, -0.024810692907076354], [-0.1488785769297345, -0.08259090857577428, 0.0686335967620704, -0.05776741467437797, 0.11628981944321341, 0.040745488725420685, 0.040093297008024616, 0.0005247543595719318, -0.12294413977680967, 0.19418512453873205, -0.2449520671468175, 0.05006876662601925, 0.037285040246589865, -0.06618721577598523, -0.093569956834304, -0.0691460435597768, 0.17162297566459422, -0.004505323980961018, 0.014101856130037378, 0.12707238270582485, 0.1230503073890779, -0.09255166833215188, 0.038659442554527156, -0.07496112715205974, -0.007212752422706219], [0.09251027870411907, -0.0317483774325979, 0.13876554579350012, 0.01321385420666032, 0.02861624127875058, 0.05594542839313907, -0.07503779281330689, 0.010763453458318058, -0.08049493970800937, 0.016792644185599254, -0.03291931837073078, 0.08632945141242954, 0.007010246419500668, -0.14561208125048675, -0.07344469402765044, -0.144920018574294, -0.05035045675064541, 0.004198347716833438, 0.04392036197407806, -0.011156160329726295, -0.032935841872306665, 0.10408327072694054, -0.05845498973466909, -0.005939695457279038, -0.0011777151796779819], [-0.07458475825152916, -0.08961114244669383, 0.10082423245205034, -0.006336282125096427, -0.2566171479956273, -0.06055938867139761, -0.0013488140525174709, 0.0020695541166221576, 0.01525461090713919, 0.058719179272482006, 0.18965021339600946, -0.08190901755189525, 0.012283330598827158, -0.06047052138159248, 0.010950031268199413, 0.12489286155355266, 0.019809561372858008, 0.008894793773075583, 0.10502920551767597, 0.11222016584724324, -0.11806999752526588, -0.04700015263802584, 0.0012364888424987916, 0.0509404774508947, -0.016553498015997998], [0.221269903022415, -0.09088566875706111, 0.1572593053724706, -0.05749160895117353, 0.2587501193685897, -0.1459933978956793, 0.06870867025572673, 0.13847737350936234, -0.07691929415815599, -0.015801613050233258, -0.2098661602145006, 0.03854557258660577, 0.14964830851662972, 0.0006117155136323121, -0.0685469135875815, 0.06945801461119884, 0.1775017760059651, 0.0019122167428613564, -0.19008265681620276, 0.03974076511495993, 0.07470944674007608, 0.03709544027378997, 0.10415526866647264, 0.19889315697785745, 0.3502136535465852], [-0.0490157370252203, -0.03980540620043951, 0.029340437464062483, -0.05374148359041771, -0.16235041725721008, 0.02709684059935898, -0.08310196651740337, 0.02581038210197276, 0.07433049435287235, -0.12757076705932938, 0.15679794109991518, -0.011558429123106638, -0.006325725826013179, -0.013643378900206189, -0.11778607035650186, -0.18173833569590453, 0.048291849286447176, 0.10765787683831952, 0.1074085563269667, 0.010634917515828672, -0.12477429837014788, 0.009938925605482679, -0.1267735152264468, 0.15031140263840964, -0.04512807240218129], [0.0970400476945475, 0.012211832047558989, 0.15644186635335208, 0.14786172473390788, 0.024752458560687283, -0.07280937216089686, 0.12039982518792677, 0.03859403945541797, 0.0698732580879935, 0.04764107123085806, 0.017356210471527765, 0.0887565441451447, -0.13969302219402938, -0.010707405331572129, 0.07466274396012543, 0.03799972071596857, 0.012595605138648741, 0.026753054583667932, 0.11734069625207981, 0.23802982193683514, 0.10685092981029638, -0.06251482444911358, 0.15690292312712667, -0.02964173819164699, 0.044285325570933204], [-0.16452802925265372, 0.09673485022848465, -0.0495724937898219, -0.08802402787769134, 0.016910180523514055, -0.1313797952143456, -0.041836987338179, -0.0679971081373009, -0.07485913783151782, 0.0933156718847118, 0.1205830317985962, -0.17835275988959812, 0.11308546537673624, -0.02629242368884413, 0.0030261468366968563, -0.13541812504819453, -0.1422433271102061, -0.06066214334942307, 0.037107119429745296, -0.02859445324698448, -0.014086076339408247, -0.010772072687490593, 0.18289110403296696, 0.07490861730789726, -0.055071915060828217], [0.04294947533104045, -0.15697747599085377, 0.3068818238027923, -0.06282600300787303, -0.09555955724573632, -0.10607345976437774, 0.039386886501357736, 0.07172559310913637, 0.144200409868717, 0.18987051940644814, 0.13015976883004646, 0.03403996462532266, -0.1344522524754605, -0.077595133850614, 0.07014934659261954, 0.1022147968344434, 0.07702633895807753, 0.1272269514205961, 0.14728171030277493, -0.027315178293750922, 0.11714442186287059, 0.15993359798783058, -0.013956138777380181, 0.15100527637072225, 0.061932256880397815]], "net.6.bias": [-0.014662276100215609, -0.02713868486122595, -0.010546370070211216, -0.023805156791106775, 0.06098609313071526, -0.0007309941714123445, 0.024882992376143994, -0.013237108931101771, 0.05040555896153414], "net.8.weight": [[0.11304977930092344, 0.0035196711179111195, 0.08991692041923913, -0.0992628075724654, -0.05981110794001845, -0.054054423935754464, -0.09372255623933544, 0.13604917272368977, -0.1673957028463534], [-0.177939052439638, -0.07546494548686758, -0.12059888384542013, 0.020722692848873785, -0.15586911935235923, 0.0033356217268061816, -0.10068480067961606, -0.010396093438299833, 0.16764223721213056], [0.020596936973583446, -0.13095575973347273, 0.047834946225487104, -0.04831691683692808, 0.18958580142738418, -0.15017899082935532, 0.13105332586156962, -0.062273328115588014, 0.07828857550657156]], "net.8.bias": [-0.031969849509274444, 0.0154583964812864, 0.035854304029353044]}