{"net.0.weight": [[0.0029133388336428723, -0.12541382146380717, -0.09135762359231589], [0.22906310380384234, -0.18211999695215764, -0.1503918573233877], [-0.1563770886462332, 0.11985538921501765, -0.11317074351059216], [0.014282884489278332, 0.2890207317468339, 0.20794388017148974], [0.08618667704286267, 0.2643556459907439, -0.06491417420030134], [-0.0761495061791149, 0.09741104302564467, -0.08900491249628772], [-0.18553282823926576, 0.07223246848115375, -0.011598121599873008], [-0.11851286286822756, 0.16465029178004378, -0.004240947555789706], [0.10461333550500412, 0.17419386906376483, 0.08941391210522665]], "net.0.bias": [-0.012906656145932265, 0.05743720320990131, 0.0, 0.07898242771602546, 0.04236300254046765, 0.0, 0.0, 0.0, 0.1013817573499409], "net.2.weight": [[-0.01784946664731385, 0.028112033558872335, 0.0009584374943012158, 0.0024856608896607923, -0.048029465846841146, -0.08456662890615568, -0.03560864186879099, 0.033417588887207895, -0.050503772198692516], [-0.026773745609119444, 0.008249227247646398, 0.023356946612789954, 0.16147798475602596, 0.09154260458901824, 0.13379657864725586, 0.020419210892130047, -0.07226231781349242, 0.10391627598751205], [-0.03479481287626787, -0.13414043702562686, 0.14210094092032344, 0.041827645167020144, -0.06917826676970835, -0.03240147899662026, 0.1159348590080771, 0.028707840619382703, -0.06421022440603566], [0.02549294150537678, 0.0589045391590638, -0.2151572336475996, -0.08255299665232049, -0.05964972598203925, 0.015521359141681164, 0.1463426909468212, -0.049333634322576064, -0.2256471659153208], [0.08064523320727701, 0.10433341724339525, 0.07866000703486258, 0.25189384891196426, 0.18251032471368897, 0.00716640163503119, -0.11717188768253575, 0.009060020306650424, 0.14894305470641092], [-0.08188715329575995, 0.04348298448382404, 0.09920500356670685, 0.08077367475976605, 0.14012981783733147, 0.011957839233938216, 0.017952320395654663, 0.013936544306692902, 0.14084467561650682], [-0.0351570195749567, 0.22040413427814368, 0.18867583220337336, -0.16674680566012282, 0.14253573496437552, 0.19032967608548623, -0.05624497336558955, 0.003521199561305806, 0.06489490368142073], [0.012081571319858967, -0.19276519545034454, 0.025455844487762752, -0.022961358750195282, 0.015527795711497533, 0.2800141676546502, -0.04309853847686323, 0.01619529451845645, -0.20257774675628265], [0.12985765034956812, -0.0726999398943167, 0.11807885286709066, -0.12436492135851414, -0.07139796486801783, -0.02667445944696625, 0.02351178596293882, -0.08689184512490501, 0.12013990599247652], [0.09758810193931128, 0.2329180214808816, 0.10877346744384178, 0.0032798455785757537, 0.035664714784933535, -0.0674100868093815, 0.06866626647951528, 0.0050011943142071955, 0.12177242719280475], [0.006252142981862394, 0.1096343996757935, 0.12495721852567868, -0.26118323476182326, -0.04879693669680629, 0.19657229253819114, 0.07603061896815763, -0.029172402414558825, -0.16100668570404134], [-0.006252498974962237, 0.11041220882046253, -0.013537764788843372, -0.13740246450091212, -0.07376073218167829, 0.09561204145909788, -0.05955312415963089, -0.021577435232625317, 0.14105051029399676], [0.14011689058106067, 0.10289347558690297, -0.11199513920969384, -0.23342821196734867, 0.14994185132803356, 0.09686761844795833, 0.0154043956671734, -0.07338475287942386, -0.07721244951666166], [0.19680426246544708, -0.161124689549569, 0.08181319122965652, 0.20074240868002452, 0.06240869885694149, -0.045526680533244365, -0.011845182849301918, 0.009828971086759336, 0.23686128899273057], [0.036834350873467515, 0.10545136725269298, -0.0127935680959295, -0.14768310351774755, 0.10211326201919013, 0.014808422936650434, 0.04871880196840116, -0.018265527089049705, -0.11046111911787475], [0.03574392781149429, 0.1524741718584356, 0.06762131182674457, -0.3000665357422312, 0.10467033711192307, 0.18468363033938032, 0.04056578752058557, -0.08997142777528659, -0.026382619095929833], [0.13428258787452851, -0.12979114746417056, 0.19557581731276097, 0.10521205768699456, 0.009537887767984123, -0.05210083832882857, -0.22571618775107727, 0.035153087881891754, 0.21743469776475755], [0.026428228958947735, 0.18563820113665525, 0.03645008016142576, -0.03802904728730367, 0.11215337482341517, -0.1912471612626238, 0.072598314866428, 0.16409804551586715, 0.062135991707323535], [0.06884002568679991, 0.009920038718751066, -0.08032320600147524, 0.06831854511325579, 0.09962760186887247, -0.1589192084011249, 0.05771908059955683, -0.07074200798755192, 0.025790369145440733], [0.034412082266735596, 0.0055842929456023415, 0.28800198907146934, 0.04824615813257432, 0.00033095246679906015, 0.11934657427946108, 0.060709542128832054, -0.023262762904612194, -0.11204685224020304], [0.08130386512188048, -0.030077209208814227, -0.11186879545102875, 0.00418499151465644, 0.10701781572117966, 0.08539421224595783, 0.1058988734464925, -0.03297086074326474, -0.12357176488816646], [0.015809982385543687, 0.021685797798009467, 0.07282192092587775, -0.040481912129085966, 0.059156508547536596, -0.04699931491467204, -0.16072855523092264, 0.0691528050350845, -0.09920597148367855], [0.07937019857974219, -0.4869304656879463, -0.016716830104049254, 0.23311244388004138, -0.4560684315963769, 0.0131274300085906, 0.10648499883141514, -0.0036619500760467073, 0.2083137124712242], [-0.1852313304926224, -0.09818429810454943, -0.14954727034394985, -0.044784693251119057, -0.039967641470414234, -0.0723190671638739, -0.0632694387005767, 0.015332465897993275, -0.16128654208131923], [0.03342287089481498, 0.07453364550415152, -0.045135086854563806, 0.004797186123412189, 0.3083837348195135, -0.1086654775983445, 0.009210868554846699, 0.08530594098098951, 0.0807897932871017]], "net.2.bias": [-0.02003945685512035, 0.10688893539588269, -0.01594538614590112, -0.011372808325410726, 0.019383540217234187, 0.027868237368325846, 0.014603997182134855, 0.0, -0.021469985681284057, -0.005006879813747154, 0.012496856053636244, 0.07630350316090433, -0.004317986101398941, 0.06398348754013486, -0.039950669568869945, -0.06993060079501362, 0.04811637697444053, -0.029632327847458402, -0.014987758153742807, -0.0019566128538038487, -0.009999991111690454, -0.010418411000330394, 0.11409499498777739, 0.0, -0.004017029527069306], "net.4.weight": [[0.017826475887215556, 0.14627985603492288, -0.030137212948772866, 0.09955497556361237, 0.1579950323533695, 0.1387099147522654, -0.13562892661258089, -0.011263944733615507, -0.001997287873462152, -0.08652579470824888, -0.02789221678846163, -0.05248064414415953, 0.01965086786079095, 0.11742551437005741, 0.030231919576922797, -0.25444027179729706, 0.25121270007124447, -0.05703104894668763, 0.08930952021642012, -0.06068184738254513, 0.013454163793315745, -0.12791309057247757, -0.3615577247772985, -0.07343394247267539, 0.09770631359632523], [0.06142088410326807, 0.08104129857398212, -0.08913404083326514, -0.10852976379957675, -0.021713650140818518, -0.06397987098698751, -0.01458179721495391, -0.16924602298200303, -0.09790040540479812, 0.0011688284092897568, -0.06470911361484222, -0.10532217477811408, 0.10044263192679413, 0.00569696239680785, -0.14025671025159286, -0.15560290374945096, -0.009688338787031618, -0.22963891229760314, 0.09486510407217869, 0.10462954513619767, -0.0905559158389649, 0.09902376209172496, -0.049808764475538156, -0.023987912891325472, -0.05926843202808104], [0.14309780878917017, 0.2756942480983372, 0.061519224177014595, 0.06933414414576515, 0.20937305652860919, -0.024347566881821683, 0.19323201128848844, 0.13706737331531121, 0.07457926599822695, 0.017157455248170632, 0.037859691526448844, 0.13583556599580757, -0.2868312923024965, 0.20001461220021644, -0.40963114861398736, -0.46280163637581334, -0.053683431282917915, 0.11787071564505276, 0.07191937574809756, 0.07172922251242127, -0.09221293128475874, 0.11349820888926132, -0.6056702175705564, 0.006548684004570645, -0.07319832997457672], [-0.05279094521288055, 0.015205994718034108, 0.006030161851987299, -0.10027792507304456, 0.027491736002451073, -0.2528318846615498, 0.021552128161090083, -0.017089911094051426, 0.10210831368979074, -0.21783470841677205, -0.03526861510833859, -0.08294595533507376, -0.13402208816846753, 0.060348670247594896, -0.13785206702952715, 0.10116433944339794, -0.03896686035031023, 0.07127423265524478, -0.08535515205192198, 0.08785427330208004, -0.12657905630179941, 0.13401238307385707, 0.044091828818050995, -0.0328131188571733, 0.03977521050603566], [-0.0853205660530615, 0.044529762644781194, 0.23770051627379535, 0.048202135220663765, 0.06546206733964935, 0.1086288010603732, -0.31212901952008015, -0.2344461622759087, 0.030581767097823384, -0.020938383912396004, 0.16685592275206382, -0.20882511689513475, -0.12379550383612731, 0.07852853774952076, -0.18843217239014795, -0.2801762590784179, 0.055090652934773617, -0.18648517481896482, 0.06806047323096137, -0.20144631200974208, 0.006605686358986562, 0.12895611533566492, -0.08644549034304845, -0.12464969735223577, 0.06661735924617389], [0.006351293960387163, 0.1335581262033375, 0.07980003038235861, 0.03602863209288965, 0.0031415033975895467, -0.08719442866867305, -0.09021349720213864, 0.05998106674474294, 0.008278385149498267, -0.048866793226959165, 0.048718504687915026, -0.044118801194466234, -0.09359891383511737, 0.09084755783228328, 0.07203325319078346, 0.042993415611273955, -0.09681339750844223, -0.12634597550084167, -0.11788607210072412, 0.12123991413530892, -0.08074179307792502, 0.005904408398609695, -0.11555992402906579, -0.05185949581728536, 0.05538209741236484], [-0.028739299770410086, -0.029615241498895904, -0.09940785421404887, -0.029114883602487547, 0.09636391589083426, 0.08220954687775435, -0.0344716196002354, 0.10313283575979793, -0.0180743835566707, -0.05349694919568726, 0.027647090605876484, 0.013191836666841266, -0.07536998765518091, 0.11469099750686099, -0.03243706099832086, -0.06337907411299419, 0.0807657456011748, 0.09969026299493913, -0.09756309954136355, 0.016877993731260303, -0.06165018050780339, 0.09703933424644108, -0.13514844230986126, 0.17451472724485784, 0.10222277289200786], [0.006409826460710369, 0.19922789649865866, -0.09515599029861369, -0.022531929326671266, -0.00528824385806047, 0.007559677153070111, -0.04988267771388761, -0.16058777921194894, -0.05317352768770894, 0.009851380278216079, -0.18781182873615454, -0.09850786832458501, -0.15300678643520857, 0.12029493853166408, -0.16564079932161116, 0.010833541147072022, 0.09729626914487048, -0.04567080079537516, 0.022284834395987257, 0.030816172036760982, 0.06061179735574698, 0.015110492678511804, -0.3348705342402931, 0.13386166567125388, 0.12910995141645112], [-0.044106339232379346, 0.026744692158458303, -0.17673197326192702, 0.03238190109369424, -0.0018496340731487047, 0.09194746502499651, 0.07567160703896844, -0.0021872617017674174, -0.15315524036365724, 0.16027371255869927, 0.09798971606208498, 0.23958722004569946, -0.030134827813982586, -0.08193424348850684, -0.2244435445594421, -0.028543264898271824, 0.08809908082878554, 0.08407450879505249, -0.1516256330076894, 0.06507163466642957, 0.07741424920307981, -0.15274580265260723, -0.31628305974914056, -0.11632237618076442, 0.0074568178753563015], [-0.07641923064507694, 0.047018573812042684, 0.057479993997353145, -0.04811452181269691, -0.07343501780116106, 0.2034509222356733, 0.12045106600614419, -0.03944299539144591, 0.005010571469447324, -0.09518912558863858, 0.03998141472892953, 0.0413835157062815, -0.15141346224844673, 0.020315103446608723, -0.1592404913846211, -0.31148125421645056, 0.014138101627262053, 0.060273004380423566, 0.07982194376222929, 0.06271570749831216, -0.10439576080094513, 0.014075016393037803, -0.41458889022732787, -0.10168473000086316, 0.21062987650866385], [-0.07204115890153562, 0.05153992084894417, 0.05185305322239134, 0.1426278297638296, 0.06341915886601501, 0.1736953494286467, -0.03968234079924947, -0.05906127718992471, 0.026195973809081056, 0.11101999716720705, 0.1211854851908872, -0.030190297372600615, -0.2953099264491442, -0.0762614400189859, -0.214429562749613, -0.23321911710023918, -0.2588894056618414, 0.06777159925584084, 0.08533917378005494, -0.11864230619745061, -0.05547679658406791, 0.07200892444126034, 0.07478647382591211, -0.02086545336472857, 0.05592041715314653], [0.016431534307518304, -0.011241725509492751, 0.03199241998257623, -0.1555363858235748, -0.0697297730611823, -0.04006354851841369, -0.11252498084293446, 0.17876239400145644, -0.004468949352783371, -0.10588640309292081, -0.12541032995408957, -0.1482269666851966, -0.1441184394684717, 0.04011741714536726, -0.08901034010913993, 0.09733984825719054, 0.05615120057312292, -0.012999672694673834, -0.006650311838796684, -0.0441623120181733, -0.2338779468806652, -0.030645576440033503, 0.03297478133557234, -0.015333364209919, 0.04120001765797257], [0.04367933751579832, 0.031347765647866864, 0.10078735555012422, 0.08441882271691013, 0.03371135735596505, -0.06864063319051128, -0.050096027733121995, 0.08624447635316743, 0.10939000697762193, 0.21504875860428935, -0.023197924014620154, -0.07881878503290995, 0.2716212720952038, -0.32497703660552923, 0.004434948269829508, 0.11638604698899131, -0.09208893224132726, 0.04705667160746317, -0.03696213523669786, 0.09585042851049407, 0.14106983474814375, 0.04643028323695177, 0.09762675167104373, -0.014230663330562826, -0.06013267704062191], [-0.21632632306374952, 0.020908107354579968, -0.018137639138062354, 0.06648071926699664, 0.018946398644999515, -0.07380395441058323, 0.1065193276691787, -0.10278203616582793, -0.08786824659156761, -0.03524233006426901, -0.09630870814564159, -0.1534024749802787, -0.08545234231159253, -0.11121822799930106, 0.017687822330791803, -0.06052886100848753, -0.1015005552182279, -0.010899726680053495, 0.06582263029014336, 0.044904014407843716, 0.20605195430182943, -0.1753795678433734, -0.13488091973291366, -0.06825425858409792, -0.0007395459799894375], [0.053003639594028706, -0.06733779406218127, 0.08322930250672853, 0.09118216777777718, 0.10996428713614086, -0.03823123017691666, -0.005454621582395327, -0.09335869055276692, 0.10733381384046334, 0.07032937843238266, -0.09690520006917999, 0.1419935799395048, -0.16579002983350252, 0.19136125631904874, -0.006841298357796004, -0.11194321485251525, -0.06365252498079622, 0.11189432189858832, -0.0924412149761856, -0.020597093096065795, -0.03714181328832174, -0.07691555233747555, -0.05642628808494596, 0.0020897282729450246, 0.035490129116857394], [0.03045517181607841, 0.04131257451454147, -0.20124420457881131, 0.0273675741703361, 0.0646880243074079, 0.07730115357715646, 0.03409514313338115, -0.22828428055481573, 0.030478701133037054, 0.100670014903619, -0.01617250493001144, 0.19598043059111214, -0.07854471007522762, -0.09523708153573054, -0.18814994793285053, -0.26997781621681893, 0.2846996011565333, 0.05112741729565036, 0.29470760954546965, 0.000524735341172499, -0.06678109823719536, 0.11549140249700476, -0.2740281730423966, -0.04121849786665534, 0.22264153636488515], [0.04520803104362384, 0.10571805299342567, -0.025446532210301482, 0.08441103031976717, 0.10745857982738814, -0.03083297593518796, 0.03906926765438301, -0.013986737229941369, 0.04860170963381569, -0.012897249267120724, 0.0880183495587298, -0.020341581382973158, -0.15359101467498343, 0.10123332040620747, 0.12365934504703081, -0.12360003611226697, 0.05288393082410449, 0.02887960381498478, -0.01554988241706186, 0.2023091273378752, -0.019721188740786957, -0.27422339013929425, -0.19399861953318884, 0.10109540392905543, -0.1110879339774504], [-0.23140672772009302, -0.10577231894232866, 0.1411527321195835, -0.060729423132210615, 0.05500241463288434, -0.026866507480737382, -0.023494880844686285, -0.12978347151595446, 0.14662140172418311, 0.23048422138744726, 0.05503111139998637, 0.14267485559501117, -0.08162789825722536, -0.03822100860993573, -0.029387934575237598, -0.21371218305859072, 0.15466767990037925, -0.04631058280133674, 0.00674316408147986, 0.08756103004284516, -0.012804571478836287, -0.12224751350858902, -0.007433131923264846, -0.0012548697214059352, 0.24706409787989672], [0.07880443820240951, 0.11186278491319308, 0.09088219962667364, 0.058045522044173556, 0.08914707658656469, 0.02459705654828179, 0.054142005751285874, -0.06081072741507087, 0.013231033345953854, 0.13370777034203085, 0.11191108341623147, 0.07917916627542843, -0.3914957085282329, -0.0818291281378213, -0.3280576073452981, -0.14562784304994886, 0.007042419092189829, -0.22406946676828177, 0.019114795792633112, 0.06655542531108685, -0.09415366831622907, 0.18700563219942878, -0.7537128717973989, -0.06605211177705354, 0.2592913075977607], [0.14953606101762054, 0.07217454999903805, -0.1275080121315333, -0.13065800126789776, -0.27828508224789383, 0.060201371944175186, 0.08408469275127008, -0.011381200536983747, 0.021006527989101922, -0.0715950637713847, 0.13086365564392524, -0.03946014945014656, 0.09604932227095607, 0.11189804657885474, 0.0169806133127351, 0.06581368811573106, -0.014073740919837456, -0.03442024269794806, 0.028592318936004307, -0.030325973737799796, 0.20154279859815386, -0.1280673165669521, 0.06774097289876616, -0.20615040029042797, 0.06309475761906659], [-0.008184667261099397, 0.07355470915461233, 0.17320048721103606, 0.16800525751102124, 0.03631909616719002, 0.2265476526950454, -0.102346309129674, -0.013119391858909292, -0.11856425450857346, -0.03675592330698379, 0.001723397897934418, 0.1033985612523266, -0.04599386837471923, 0.12155730108329678, -0.018410801095770885, -0.012876871293308877, -0.039277861970125456, 0.07273890623858911, 0.10278972403226405, -0.0130431821477802, -0.07723108598445674, 0.009910080280361342, -0.22850308282144008, -0.04338397847418101, 0.041202288118320565], [0.22405196228494506, -0.024333700331266334, -0.07204720006172215, 0.25109600551922534, -0.04258697206112865, 0.01594639961891038, -0.13213712875717534, 0.00019238063787237373, 0.18823251117100662, 0.03430532773825704, 0.07017624961582161, -0.13552426171899226, -0.2200381555123648, 0.04653302081786695, -0.13486129288861945, -0.00038735354340398024, -0.05537778095020081, -0.039286029521622357, -0.13915685068291803, 0.3151297861163792, -0.0469760235148247, -0.11025239965774, -0.20149172651006864, -0.09180539562804621, 0.12142451978129275], [-0.03283558914620976, -0.030324909910148204, 0.1328343064233714, 0.07394034463301626, 0.08252297799283465, -0.05083554722695397, -0.13715505113975582, 0.11838326204668244, 0.18685044723996536, -0.06754081626842827, -0.18161866745410135, -0.02122364875900885, -0.04606711625390591, 0.14915273837588577, 0.14528087740256493, 0.09993521075302468, 0.06183317356859403, 0.0045874591647585335, -0.0749848591141831, -0.11538510777527884, 0.07225397921467215, 0.008344795384558732, -0.1377174153594984, -0.08498127288287058, 0.09985642602269969], [-0.05507343059583169, 0.1612390740869745, -0.06943091466306729, 0.0068047476451368015, 0.13409570525689318, 0.03795830906447109, -0.05717286413947675, 0.036595494278259345, -0.2340988585187816, 0.16738156966405124, -0.023782504554912338, 0.16167846942441655, -0.07192730892664034, 0.04143775199861308, -0.18277083110488226, -0.337230979801383, 0.1608405582858073, 0.07362051632681471, 0.1284808736461306, -0.11427013687422952, 0.002099349232691094, 0.04820470493051961, -0.35191487669594346, 0.07662250740951058, -0.002812342715061489], [-0.10554860877919169, 0.0987718146539246, 0.13271161403355847, 0.1299731823289273, 0.12804916959995283, 0.09746506813830967, -0.3033893834258975, -0.06933760994323424, 0.008367119223734697, 0.05040736551120486, -0.08874692037791555, 0.012031749465441154, 0.1756311204123241, 0.22525079756954192, 0.028348477672677452, -0.24156752781339982, 0.09171038473334608, -0.01034465233626702, 0.06107958948023606, 0.049612996855822974, -0.14929037358835834, -0.02329421020802935, -0.3537337622018102, 0.11943068903850099, 0.04836523403115183]], "net.4.bias": [0.06950793933602949, -0.0161815154100575, 0.0802386796952174, 0.0, -0.015835009569757325, -0.009999982933320576, -0.0001895416366121613, 0.03586939294654702, 0.05186173211215962, 0.0029330362120080188, -0.01121460456583601, 0.0, -0.035923778120618824, 0.0, 0.016547545419727798, 0.028788246110003364, 0.001563764186212641, 0.031693818659492494, 0.01845303744699844, 0.0, 0.012194098406034628, -0.006928662160609646, -0.02183412361166898, 0.05352284489302934, 0.10137730290418046], "net.6.weight": [[0.08583666420369006, 0.019760482374155574, 0.12830593781297434, 0.031569141944775156, -0.07143936636824788, 0.09313809565881066, -0.14896575993077088, 0.0707438468601837, -0.058969940744964505, -0.0858725303211246, 0.007121014766680726, 0.07235807474402775, 0.040771659308398996, 0.07217643885738766, -0.06763363777481338, -0.18670616115984404, -0.07106818581985863, 0.06294806402817288, 0.1327997723830588, 0.022048373252440204, -0.012083900657857728, -0.18962295207779925, 0.15208116814514508, -0.008464514474468209, -0.024810692907076354], [-0.1488785769297345, -0.08259090857577428, 0.0686335967620704, -0.05776741467437797, 0.11628981944321341, 0.040745488725420685, 0.040093297008024616, 0.0005247543595719318, -0.12294413977680967, 0.19418512453873205, -0.2449520671468175, 0.05006876662601925, 0.037285040246589865, -0.06618721577598523, -0.093569956834304, -0.0691460435597768, 0.17162297566459422, -0.004505323980961018, 0.014101856130037378, 0.12707238270582485, 0.1230503073890779, -0.09255166833215188, 0.038659442554527156, -0.07496112715205974, -0.007212752422706219], [0.09251027870411907, -0.0317483774325979, 0.13876554579350012, 0.01321385420666032, 0.02861624127875058, 0.05594542839313907, -0.07503779281330689, 0.010763453458318058, -0.08049493970800937, 0.016792644185599254, -0.03291931837073078, 0.08632945141242954, 0.007010246419500668, -0.14561208125048675, -0.07344469402765044, -0.144920018574294, -0.05035045675064541, 0.004198347716833438, 0.04392036197407806, -0.011156160329726295, -0.032935841872306665, 0.10408327072694054, -0.05845498973466909, -0.005939695457279038, -0.0011777151796779819], [-0.07508083405392521, -0.08961114244669383, 0.10110382706660605, -0.006336282125096427, -0.2591293212524385, -0.06055938867139761, -0.0017568275291957047, 0.0013499641279080877, 0.016327301716025658, 0.05914126659249677, 0.19032807608510866, -0.08190901755189525, 0.01538448735592297, -0.06047052138159248, 0.011349835688586727, 0.12505847597902606, 0.018843102354198907, 0.00952611365507994, 0.10526252687166888, 0.11222016584724324, -0.11775089256315738, -0.04700015263802584, -0.000667319214038761, 0.05112976099221283, -0.01733018770580667], [0.22108099960911018, -0.09088566875706111, 0.1570574894977007, -0.05749160895117353, 0.2601023941561924, -0.1459933978956793, 0.067881116431941, 0.13851336643612666, -0.07792933613894233, -0.01781132613258342, -0.20987170649904033, 0.03854557258660577, 0.15216405047491097, 0.0006117155136323121, -0.06875290585158998, 0.06910575635660374, 0.17620413142645308, 0.0018584908526155153, -0.19286132268070388, 0.03974076511495993, 0.07521351317745426, 0.03709544027378997, 0.10317083649758405, 0.19888795850249588, 0.35006321484608843], [-0.0490157370252203, -0.03980540620043951, 0.029340437464062483, -0.05374148359041771, -0.16235041725721008, 0.02709684059935898, -0.08310196651740337, 0.02581038210197276, 0.07433049435287235, -0.12757076705932938, 0.15679794109991518, -0.011558429123106638, -0.006325725826013179, -0.013643378900206189, -0.11778607035650186, -0.18173833569590453, 0.048291849286447176, 0.10765787683831952, 0.1074085563269667, 0.010634917515828672, -0.12477429837014788, 0.009938925605482679, -0.1267735152264468, 0.15031140263840964, -0.04512807240218129], [0.09657818338556606, 0.012211832047558989, 0.15639583972282056, 0.14786172473390788, 0.02442778527170653, -0.07280937216089686, 0.11959266554743808, 0.037917851817410364, 0.07001395663513328, 0.046886922366203905, 0.017914043886990454, 0.0887565441451447, -0.13681487098449616, -0.010707405331572129, 0.07477550531404106, 0.037769877397928885, 0.011170479430910752, 0.027077384997417343, 0.11604500449868563, 0.23802982193683514, 0.10718278540926297, -0.06251482444911358, 0.15510018509734982, -0.02963829313928898, 0.043678589160825225], [-0.16452802925265372, 0.09673485022848465, -0.0495724937898219, -0.08802402787769134, 0.016910180523514055, -0.1313797952143456, -0.041836987338179, -0.0679971081373009, -0.07485913783151782, 0.0933156718847118, 0.1205830317985962, -0.17835275988959812, 0.11308546537673624, -0.02629242368884413, 0.0030261468366968563, -0.13541812504819453, -0.1422433271102061, -0.06066214334942307, 0.037107119429745296, -0.02859445324698448, -0.014086076339408247, -0.010772072687490593, 0.18289110403296696, 0.07490861730789726, -0.055071915060828217], [0.042717319746398495, -0.15697747599085377, 0.3066673211856455, -0.06282600300787303, -0.09656032982039488, -0.10607345976437774, 0.03930460303297123, 0.07089685208732152, 0.14431865436872154, 0.1905584405503201, 0.13039430533502103, 0.03403996462532266, -0.13706097980582777, -0.077595133850614, 0.07014278356349844, 0.10195912736772791, 0.076985938586839, 0.12718045759654517, 0.1481568112619256, -0.027315178293750922, 0.11655542310492267, 0.15993359798783058, -0.014563807037590405, 0.1506948613733134, 0.06146529983711576]], "net.6.bias": [-0.014662276100215609, -0.02713868486122595, -0.010546370070211216, -0.02295811535932001, 0.061097842205991654, -0.0007309941714123445, 0.02542990498179341, -0.013237108931101771, 0.0505516641224924], "net.8.weight": [[0.11304977930092344, 0.0035196711179111195, 0.08991692041923913, -0.09963182107146391, -0.0590451654283059, -0.054054423935754464, -0.09329202998217222, 0.13604917272368977, -0.16799310058949707], [-0.177939052439638, -0.07546494548686758, -0.12059888384542013, 0.021423179123298004, -0.1555105664221971, 0.0033356217268061816, -0.10018270588230009, -0.010396093438299833, 0.16740956810211507], [0.020596936973583446, -0.13095575973347273, 0.047834946225487104, -0.04848367999047045, 0.19040443676839325, -0.15017899082935532, 0.13156658258668188, -0.062273328115588014, 0.07812601628941027]], "net.8.bias": [-0.03317778714673666, 0.01490185374081653, 0.03540031223885054]}