{"net.0.weight": [[-0.0007302957130189803, 0.11408588066857747, 0.2129224681617418], [-0.005438609298429933, 0.4765043507777044, 0.16632287918454625], [0.11112664317918261, 0.18645349767290997, -0.07224039505387339], [-0.04971096356778141, -0.08504546458864776, -0.09152610305547981], [-0.08393551814452266, -0.08710550918520926, -0.03932096231442905], [0.20644241424571808, 0.23602032522362873, 0.0959204212948509], [0.11470430441871049, -0.10395735639474128, -0.17673161431995468], [-0.13728347342829905, 0.003891883407626577, 0.25585295786805495], [0.03628924383722301, 0.0739651715840592, 0.06482017725206758]], "net.0.bias": [0.04344185400312308, 0.05373245560103218, 0.09539674563051903, 0.0, 0.0, 0.05123264416361607, 0.01736835782589318, 0.030122181513888343, 0.01391647733363502], "net.2.weight": [[-0.04171117622199161, -0.0616890664830594, 0.0017851923439920353, -0.0015200158598099615, 0.016078467857785616, -0.028559513407245135, 0.008982759470298786, -0.05329363034040821, -0.10283838646038863], [0.0012427202829060032, -0.2359108181312207, 0.20613138754153745, -0.011891266625309453, -0.016788834508206018, 0.08561667965668332, 0.12013613491141632, -0.2415128656327064, 0.12440853003149407], [0.08707859444705543, 0.12889519417023143, 0.027160800311303683, -0.041731624284958135, 0.14937014872173565, -0.032960623159807, -0.09209769461784273, -0.21104877632115207, 0.2520842818969012], [0.12612445875547174, 0.09835818333033708, -0.10529844116941814, -0.10218484755208271, 0.036947534877976855, -0.040475084526256505, -0.04644058328174633, 0.09071090043072991, -0.09600193186613168], [-0.1421137938224985, 0.13576566193352865, -0.11837909572430694, 0.037441774455780515, 0.057957110446716954, -0.08425095800388277, 0.06859336457688274, -0.01462619535782945, 0.020791432219531846], [0.17961941892991043, -0.030244245269873352, -0.2621819535384002, 0.07186329726147199, -0.1272549559297873, -0.04086099677545483, 0.0029895807073985255, 0.2521442273565976, 0.07631009188728288], [-0.3177130470962366, -0.03922353105442565, 0.06886179787664211, -0.1116072566216374, -0.1535850977024802, -0.007894730835811915, 0.11831940176738343, 0.09686343620395377, -0.062496880801259015], [0.23439544985997887, 0.17985658298365234, -0.14356706017065507, 0.11536511963510648, 0.13089266581963396, -0.06683477430609949, -0.3253292681311832, 0.23367619867972386, 0.018270881650840416], [0.30317605622314386, 0.13782356174380786, -0.0443321680032161, -0.10752787825281024, -0.040218468097427434, 0.18022148097822882, -0.2871566578526383, -0.030982007001422063, 0.08513408838291514], [0.09159775191464223, 0.033872972861779614, 0.22301930116227617, 0.06222617863944559, 0.07076478748871194, 0.10487763952667971, 0.11766675678361414, -0.23084659021742324, -0.0928100252216838], [0.01740462581433432, 0.08994418034326294, 0.2164194405905279, 0.03965964967724529, -0.1178389144413234, 0.14073397260283974, -0.24287459755491694, 0.0853110245950482, 0.08568899685082045], [0.0020179993013796226, -0.1257078964914341, 0.20425036508333416, 0.24467055354726372, 0.04246892142090779, -0.007527184105332017, 0.3276970369280026, -0.1112623577482419, 0.07417904376964397], [-0.13189819711143289, -0.0022899196713311388, -0.011311668574900909, 0.006181522136824415, -0.14015318375940952, -0.0384340524170495, -0.026051266078331616, 0.0552252100013121, -0.11011495283353728], [-0.0519756555786016, -0.002661645425917934, 0.05857752193805067, -0.01096378584699581, 0.05381518033504548, -0.0007312891381469485, -0.030975180606252185, -0.033297750311227996, -0.16147255498447055], [0.19018421459672907, 0.15811701366903474, 0.03130837203666268, -0.10268130418334234, -0.23599802972572614, 0.028006243707919185, -0.05674777431419669, -0.1573441007863669, -0.04233379448020421], [0.060933530656695746, -0.20298056023548786, 0.1204782821857128, -0.011963080324557035, -0.14260364002894968, -0.2554510960164859, -0.06819996326813221, 0.07842816314961985, -0.10667544701341075], [0.0868728671394566, 0.1304263439709375, -0.04072919804221141, 0.01673802206716382, 0.012876758355771775, -0.06266296232489145, -0.19017227623670807, 0.30555821416974627, 0.10318068166894796], [0.047614904106271914, 0.05007816959628513, 0.042148268528308545, -0.011870850797937928, 0.019790150580839286, -0.29696150050068093, -0.05436011206285566, -0.16635876614053505, -0.08431084711110662], [-0.07600574124323597, 0.014753768132741263, -0.05716497960089487, 0.0378514730941964, 0.17283947437603853, -0.009242888222857844, -0.006561208661720295, 0.16250216563959338, -0.1915619198330815], [0.09553524416065534, 0.18448126418352048, 0.0840517900823577, -0.02494942587620976, -0.05315459686943408, 0.13069373342209112, 0.12193671301698807, -0.09839888352889624, 0.033271444083870075], [0.2305349895461427, 0.2105545047922743, -0.00245961392400023, -0.11810590024539025, -0.04761912927822194, 0.2180168750727559, -0.1697765012793767, -0.143077136786608, -0.06050062320864486], [0.045747283780289055, 0.16010215345740444, 0.2154975803566275, 0.14803331336939524, -0.03994201280796183, 0.11194343065416612, -0.05492259936925761, -0.2517841021014573, 0.22361154386406373], [-0.0022632688011252327, -0.04138042231907652, -0.016797238765886964, -0.004585386098467928, -0.17078182556077104, -0.0862178262057616, 0.1531277244286825, -0.04448902651785835, -0.006939884029887849], [-0.1077634203819399, -0.17783942658063265, -0.08773308610358112, 0.030515008718155552, -0.017750192963061007, -0.014873059327589372, 0.034771441615033954, -0.09771540188883779, 0.06616837002142237], [-0.13680162507464685, 0.0728897029168548, -0.010859344836449293, 0.07541266571139175, -0.130365976988737, -0.08444662487571182, -0.021181368366738465, -0.018941893041314564, -0.06780460113548774]], "net.2.bias": [0.0, -0.013961688703985061, 0.033187280002722044, -0.03045151006523985, 0.0, 0.018616085776264286, -0.007673693938970727, 0.05751397568596136, 0.033284250371137476, 0.08514535117386696, 0.06693786683316125, 0.03341920358127342, 0.0, 0.0, 0.03786253869548031, 0.0, 0.041339045798928775, 0.0, -0.01695134146835668, 0.0536416900459042, 0.06691169674152513, 0.05231717623414826, -0.009979100074967285, -0.0006350386686698959, 0.0], "net.4.weight": [[-0.002717321776904928, 0.017326455156018324, -0.03307066619562822, -0.09255540138691665, 0.23501872256447975, 0.023728951150741192, -0.1282479137692203, 0.171115453937848, -0.10165100519048886, 0.00808233977046725, -0.014135405233378577, -0.1524270921604657, 0.03185674465223278, -0.07758493690100088, -0.007107405827052697, 0.039432725463219895, 0.02934546249674582, 0.08103358622549904, 0.03834757548873666, -0.04458509942023558, -0.08059418521673545, 0.09959342201485849, 0.3290403911620081, -0.045906013327832895, 0.03129948168644122], [-0.02649234681040762, 0.007021263170425394, -0.2112827008966244, -0.2127001641073522, 0.0047909337371806245, -0.04725276250235333, -0.0007783500982907324, 0.019422323379172508, -0.21992523361700053, 0.030771961042343338, 0.023523878479530313, 0.10786289577426143, -0.12135173458149678, 0.04051072553649318, -0.09854597513869182, 0.08033237484772764, -0.17319532223528744, -0.0802978690495248, -0.04929490096194392, -0.004402762902137414, -0.009731986767761934, 0.02529509529863512, -0.030237137787159214, 0.1687742550761862, -0.025007547381293772], [-0.11214300971135083, -0.06923661294598736, 0.00011176647060916396, -0.06972161296508915, 0.16279297000902793, -0.03274421560968275, 0.03431934568912588, 0.13227086459453552, 0.07300856299667485, 0.044211078489054305, -0.05168161941446036, -0.0055508866969813594, 0.08400850458720849, -0.014929403618771092, 0.16106209341189512, -0.11248037415063512, 0.06131110307875311, 0.005132961045613573, 0.13126006424406866, -0.1287091324609535, -0.16453330590975812, -0.14821137516228577, -0.007328814940371073, -0.008214478506841828, -0.0011997541847947601], [-0.10273533820357633, 0.12888729426659426, 0.12856560378975387, 0.04780309874004845, 0.051982251787480616, -0.12416993481405135, -0.046668497241569094, 0.021512000270537113, -0.05341882054999836, 0.02886516338711182, -0.004146081853811266, -0.021494081764438892, -0.02376372927003287, -0.03661893042548715, -0.010085629413437072, 0.1538960625572876, 0.07774546292434599, -0.14287626933208789, 0.03705535286934307, -0.08555289841492018, 0.10310586319342613, -0.1977948402157812, -0.11673056077315698, -0.07883837156523239, -0.14998056995793987], [-0.011306185935491923, 0.08717336982433332, 0.024122017385042993, 0.04602665399385366, -0.14467089152161997, -0.0043705124490950814, -0.02010783777942493, -0.039579204724128736, -0.019383548280116424, -0.26138627930366903, 0.07813679546046828, -0.0008816827328041171, -0.06287684019115328, -0.051555618428443244, 0.025025391308456966, 0.07242202307430048, -0.0994550931491355, -0.07300575495025069, -0.2505699975006978, -0.073413039030068, -0.0060253743215002735, -0.004374958293374171, 0.055604253110329384, 0.036561678164137607, 0.16221318158867082], [0.0010774514563340546, 0.1005927180109052, 0.14066684777841662, 0.12739551472915886, 0.01212045974719466, 0.010564976162241788, 0.22261777921342413, -0.07687659909776466, -0.06966335949975994, -0.11008021892034432, -0.07027979543160087, -0.25063453588919404, 0.06426370108881173, 0.03938686170662348, -0.12889723904607178, 0.04159663133767339, 0.031579779372802645, -0.020308908104892238, 0.044247812864520474, -0.046981545686255, 0.07917725346990959, 0.049874894297405326, 0.03374141076782818, -0.16296147600037003, 0.03856356333063854], [-0.1633887040434957, -0.08493923996219478, 0.031241730438187298, 0.11571688981323909, -0.09089184721875541, 0.01130133241465409, -0.038390163552677256, -0.12683668712586216, 0.18432886710052865, 0.06398588699333035, 0.2065472873177686, -0.15075082032320472, -0.06647544528934446, -0.009281781962610055, 0.14060700266225035, 0.04488905031388147, 0.07496858913903537, -0.0066791668325581355, 0.02506121923179413, -0.13750488669420877, 0.16220008094222424, 0.02872085162609253, -0.07308408117583733, -0.18692207275928913, 0.07429602822866478], [0.058217918752813805, -0.15856418743515266, -0.03576364080939158, -0.030343637132408913, -0.025558085148067178, 0.038045113485367855, 0.031995157265718104, -0.021885782462820847, -0.24029136932774403, 0.022790788290392827, -0.059876626038888076, -0.010364253561154845, -0.025722429839307434, -0.09332949572511266, 0.2310732368667844, -0.010975728141306547, 0.13623840057140513, -0.07358201139514467, 0.07720178410810162, 0.1121052241301998, -0.09035650545908035, 0.06516746350352738, 0.07894353519283707, 0.06739989634258635, -0.07994140984717385], [-0.0818608164040609, -0.030401317389935005, 0.16619789962048673, 0.030455362216771954, 0.12568814305050552, -0.24296387172703132, -0.1041833758661102, -0.10123761440949214, -0.12555730786146296, 0.06736628396585839, 0.043220172765841, 0.0433459733624597, 0.07053682755485538, 0.05347582600604446, 0.09651597330831418, 0.028481405016878732, -0.30148181510705796, 0.0338948657227762, -0.04621661341288599, -0.016861140544776335, -0.11319123154380772, -0.036647902483353235, -0.02922458910475642, -0.09261291858457991, 0.04134564532973209], [0.048451619278282454, -0.48890933620991983, -0.030150379397319266, -0.03730164912448519, -0.0718295210529023, 0.040101507313735754, 0.15941440269335394, 0.037995155593590166, 0.10184976938257186, 0.05162348836165025, -0.04892524241006262, -0.49431122418380935, -0.0018953121418916364, 0.005076837709789132, 0.15624942117982568, -0.02703914724590281, 0.2681820436611678, 0.16275519982433403, -0.02030815030582798, -0.07767277829498109, 0.06926339394255754, 0.002585004746307838, -0.13730810170955618, -0.1497497611863918, 0.006158506526580977], [-0.009033377002476728, -0.04523288144982924, 0.09619258600567292, -0.07417949592655858, 0.16451986368376914, 0.020116573424781688, 0.060317553249604236, -0.20329926271659315, 0.13398426500485847, -0.02210003884424621, 0.09535046779215177, -0.2578037648583809, -0.0076158192570169835, -0.10738360369029634, 0.028008517183751934, 0.07834970076355982, -0.2579413519945462, -0.08700397313524678, -0.0487988333135621, 0.031350668969529746, 0.23904902748651854, 0.051996396051016504, 0.009869173218430078, 0.09578316614858005, -0.07886995658343093], [0.1840736891685418, -0.14906251558825545, -0.03408828385775539, 0.062276820211780756, -0.10407915540783114, 0.060491863574942524, 0.09338403788420804, -0.0832522766798074, 0.011445129467083048, -0.0165729066426598, 0.053260494433545275, -0.004344572472729845, 0.05806722955855841, 0.04021605379471456, -0.03755831695681715, -0.11165475289094454, -0.06307426735783796, -0.057462417061505955, -0.1060335296400171, -0.04552323072138478, 0.1407752598684702, -0.2243099379931808, -0.23947710122812174, 0.09762897726874953, -0.0045337290169564885], [0.04723490016268237, -0.0028490873201028177, 0.05906804191368958, -0.01640118383194697, 0.04710913423532115, -0.06733992638322726, 0.027225177279501293, -0.05865808129907808, -0.17319867323034163, -0.032713159647835235, 0.12320081430246589, 0.0930708231358151, 0.03590632176050499, -0.04549232019443345, -0.07041828833389396, 0.025169562201192725, 0.006004224527738879, 0.09536947238125798, -0.03128004909510154, -0.05583058920169762, -0.04979775996532203, -0.07365583571518039, -0.0586603585660354, -0.16354336180525553, -0.12377722694101545], [0.0347368561243827, 0.024114873078245523, 0.06246866339009628, -0.054514868354282556, 0.010588765860976158, 0.13949068910927473, 0.11401674188614991, 0.04449521534700012, -0.04436523025753572, -0.04822218611795145, -0.06375384406623572, 0.042986990693319606, 0.11982386590471146, -0.041078847424098175, 0.006014174280559555, -0.061584478280335433, -0.017541319042728945, 0.062266698630939504, 0.14086368151054027, -0.2062611167567265, -0.06182192831723363, 0.07840366285897526, -0.2999983932754162, -0.05109367793676403, -0.08483247576392688], [0.014389328388907555, 0.022998064193940466, 0.21794677681699512, 0.026141516563015048, 0.10875148172883808, -0.13504032765518342, -0.09271388436273083, -0.13438766174003733, -0.025820460147058157, 0.0012505607629186876, 0.2634544918449641, -0.035334574538265884, -0.1384237380140024, 0.08688045417426123, -0.057741383828016205, 0.042721142688517975, -0.21143763902336174, 0.030430832507033802, 0.03491300737397377, -0.07697068064317304, 0.21752733435586885, 0.06375871598294104, -0.03086551321504512, 0.18382312473484433, 0.126783157908506], [-0.05488060466077967, -0.206447049711018, 0.05671089060880216, -0.31635091918753977, 0.03334593812325284, -0.15646967765135014, -0.04681272502981564, -0.13759403084867533, 0.04214219716912746, 0.1976039272544414, 0.1822705546603897, -0.1798088625165916, -0.18735811725826812, -0.24600095249332732, 0.1970878665650253, 0.09998800352296011, -0.12862720706130998, -0.03715666748158213, -0.0736284413996885, 0.01643412135032863, 0.3387814726563956, 0.08363245536492338, 0.12421330826137142, 0.1563756444006446, 0.06617439090501898], [0.024029812130891847, 0.128390205328818, -0.04311995171313467, -0.12533444936869764, -0.10494465930002904, -0.32859138073479877, -0.05049855485569681, -0.22386004354788097, 0.02238858729947789, -0.03694448409136036, 0.023857320580070708, 0.1909840204136939, -0.008617202392244838, 0.1290613244560475, 0.17863882455588292, 0.03376352979323096, -0.13937097062779918, -0.07771227487855036, 0.1950816589775443, 0.033074439622198845, 0.009287491782166805, 0.08361305936502349, -0.11873548167391149, 0.03404510046318983, -0.013290981565036816], [-0.005582462120563288, -0.0124296464298053, -0.020114119370448443, 0.03414719284870129, 0.04772727024670082, -0.030403010918129976, -0.057955703438010375, 0.01934222822061908, -0.0743322243018664, -0.15250297670870422, 0.19389441049682982, -0.12030587946479646, 0.06822806010902964, -0.07761904712063306, -0.0895659458903067, -0.2639938931004972, -0.18540809477246417, 0.050315925647689975, -0.09764478250136639, 0.0034557241371697828, 0.02518289519816135, -0.11093268007817583, -0.2115101724928013, -0.1299432479635953, 0.05526041589337149], [0.0010007903196366534, -0.02990125003062183, 0.2211653224857737, 0.018015685394053373, 0.005485287271268932, 0.03343048985264398, -0.06215904425492672, 0.03285940671175049, -0.09076710584247644, -0.0172745421094077, 0.13087485943733548, 0.013926903209312154, -0.03975171774089397, -0.21676788025342414, 0.05380176678790678, -0.04511791649082357, -0.1391037285655424, -0.03507925115010685, 0.031818133208542494, -0.21754714986832294, 0.04860273051421227, -0.2634389586937104, 0.040298500854912926, 0.08540557007879701, 0.10539325796744621], [0.15007957911252853, 0.09496290560654494, 0.10502071926824096, 0.02845984824902779, -0.13488366311551822, 0.007708789355467983, -0.06445273320106147, 0.15414926865781464, -0.0090940895671246, 0.014377704479020046, -0.15935209506529643, -0.1155127189765188, 0.004369763442813161, 0.1122507041889711, 0.07286163867328083, 0.001697461258088881, -0.0635180851411828, 0.10815967484042739, -0.037557017119854263, -0.13056354391802666, -0.008208159695657484, 0.10772450364015496, 0.03998477824874161, 0.0703235413549934, -0.03188709815999158], [-0.03627579020749721, 0.1771897354696815, 0.14993192977454958, -0.16515047166707772, 0.1452815283954084, -0.18997854805417225, -0.18668167023406798, -0.17189161718937365, 0.05815576914921378, 0.24814803244353087, 0.047119587722395606, -0.11283303890119618, 0.0058335306518671115, -0.05027657439424113, -0.08598902270355797, -0.12388185583781408, -0.1160043089469299, 0.06509189041769226, 0.13646673409272925, 0.11521825182293832, 0.18616416899957894, -0.04186758474135131, -0.22184151936234203, -0.140470174180996, -0.10102936615768031], [-0.07162653425127669, -0.36614056347043655, 0.07493831542896454, 0.24381993201772387, -0.11644748490957196, 0.10154784741602356, -0.03865509096894622, 0.2620791066851321, 0.12097503029328503, -0.0686835474354278, 0.10260360807891773, -0.3509345891095151, -0.0543087294514966, 0.09221444659926828, -0.015920228019861093, -0.05767972795310325, 0.24872035235378384, 0.06592426018808223, 0.13084557137929997, -0.06595292116888403, 0.0795836399283662, 0.003200266998616727, -0.1649170309726733, -0.04301341738371603, -0.11458695743572866], [0.05918469711976551, 0.045849231987550976, 0.022227587659811723, -0.003970962059636826, 0.04361007574418936, -0.08528580479729572, -0.21697043267467803, -0.25647917730906694, -0.03111715433134406, -0.039282936164298066, 0.018935658657573306, 0.09272323590765796, 0.051484009089257904, -0.03170992619678918, 0.003638358202364019, -0.04268121108310636, -0.03299932761000751, -0.030117717556286103, -0.052787803712633655, 0.15988605268273248, 0.011088927303895477, 0.35680244418817575, 0.018640684673499656, 0.015379155370512897, 0.036457585926138486], [0.23031911493863577, -0.2019919133496248, 0.09500629321304539, 0.0524157620431438, -0.018106708114632268, -0.0895836596989797, -0.07084690962018154, 0.08873143169225058, 0.1970057579300926, -0.04524294539360294, 0.0322364990943678, -0.49387097457636725, -0.034761117161258216, -0.05682360151981766, -0.19512391979641824, -0.10193339826551702, 0.2577916051743227, -0.16817868410672554, 0.12741078040428394, 0.07900919146936895, 0.05030422385970851, -0.14856095896513064, -0.014987102827697643, -0.025181223233525306, 0.013321292544124225], [0.03472334182589963, -0.017392705348726712, -0.014683199099348739, 0.17031062843812306, 0.0731508757290368, -0.1601915682430177, -0.03611169280479373, -0.04319491282548443, -0.10830341983948767, -0.029109680832489826, 0.012158193404380001, -0.17977695744388605, 0.08011562524993582, 0.14438080674919906, 0.0506833916231448, 0.015950879099100413, -0.14383217297216702, 0.06680330790645338, -0.05996465608252041, -0.029196790480426327, -0.07687950980677277, 0.18324235704576508, -0.06690819176817434, 0.08064452953305563, 0.021599490956901675], [-0.023483920501623425, 0.005752243136032483, 0.1193488728979507, -0.18668365198733, 0.14087157058416291, -0.012176846783736529, -0.07752043125364523, -0.18388112146634172, 0.21936446495246567, 0.09761686655623139, -0.038179698115347105, -0.08163529895236397, -0.1354625050382494, -0.0008530733026293202, 0.1398552361257385, -0.0983359618268533, -0.21583757953241797, -0.11235906411289392, 0.13848390350706538, -0.030030524057803612, 0.030465152818567744, 0.043910118240147185, 0.0562025985012277, 0.15319737249411616, 0.11286382892727681], [0.09635977166669063, -0.09149473797938214, -0.13134142448169178, -0.2830150886719265, -0.14567669973714248, -0.10497322243037613, -0.24757592522219504, -0.12673864519363084, -0.13348187325158417, 0.07187080637293035, 0.1869479598782176, -0.15106464562478336, -0.020344718541485056, 0.10614709616952907, 0.20354681198501368, -0.07708684697272127, -0.07915800099546778, 0.2183597496389863, 0.03709628516248967, 0.11474043076430283, 0.18597305059787522, 0.09305725606700664, -0.12673187656685067, -0.03075395116776305, -0.04755585982923216], [-0.09778085410379377, 0.04271451480921888, 0.07693875260739454, 0.04655576593149751, 0.06567781918521019, -0.10721167944980822, 0.04381526087087907, -0.28654326733300567, 0.08712164898021851, -0.020344705956528646, 0.2682710829127689, -0.15265318545272205, 0.04965307991011158, 0.0678736567976889, 0.17643792566185384, -0.02639637191116453, -0.1441060893912485, 0.1609975042879127, 0.16065550321821287, 0.17219742353760653, 0.06722840817155123, 0.20251564399954158, -0.02634581572923822, -0.01443065842771489, 0.00983493951607402], [-0.06330413906355696, -0.11069440868974298, 0.07800891122883583, -0.10313986741531371, 0.1645695482589841, -0.09829851852705711, -0.24234578017334643, -0.23096797468705005, 0.12340302598515862, 0.10568891991124366, -0.030176025066322477, 0.03871459004089464, -0.10121533000627675, 0.12713498353411673, -0.05779661597048032, -0.005230172955767198, -0.06317825888036148, -0.07507617352008782, 0.10758903272017246, 0.11421578848555557, -0.007650840259502071, 0.1866794213544327, 0.008209271993027916, 0.1874501516178224, 0.20705783885867626], [-0.14499758004191612, 0.14917497388674428, -0.07155948497017435, 0.015573635268838114, 0.11686034415750382, 0.07338924078886475, -0.11723734474213852, 0.06155446556016156, -0.20868710413907976, 0.018872777773728783, -0.04931982395318896, -0.11393491229135708, 0.17334058468867142, -0.14910816516391068, 0.01927691249947166, -0.045791632755245115, 0.01023174530620864, 0.08886392931085056, -0.14083367003030337, 0.11003661531645519, -0.0866083968725781, -0.0552140288640295, 0.029330416278015053, 0.07102996532842736, -0.1182263624182231], [0.12229913787948028, -0.3307332396254957, -0.010670702897460308, 0.1425209892221441, -0.019666525977974053, 0.07662957955936797, 0.19721508341189142, 0.20885634246466733, 0.08233921905185791, -0.2038645293084202, 0.0006231365955978441, -0.4468189989093718, -0.041469437014609555, -0.017455910128821344, 0.1171377029655261, 0.19927588931339346, 0.16048370065301318, -0.007567458158033434, -0.03892027703997775, 0.10638453972219733, 0.08128837110963816, -0.0953895137748383, -0.012411004139335673, 0.10998500224022699, -0.08610350564165005], [0.13253595304254703, -0.07358970633432149, -0.05477924535706992, -0.029032094207768568, 0.0033197284068304934, 0.10498318365487591, 0.034826093325406295, -0.053574425108931706, -0.0009960911079494282, 0.03465878032463171, -0.1213400111668374, 0.01231421623541811, -0.1076277094918215, 0.11330939182122766, -0.020803152888887462, -0.12607172327331198, -0.12889796305668563, 0.038978113647466055, -0.12352474847921127, -0.09169922410184787, -0.040670920661304004, 0.14704606944644116, -0.0003079315558096186, 0.012734081080063102, -0.056766260255945236], [0.05042415426847601, -0.008541500156243147, 0.07477107716059497, 0.05857477051740734, -0.16313998089187376, 0.038892816384877654, -0.17189376225167666, -0.04363712571346647, -0.04092423903576112, -0.1626346529960202, -0.11406677483943149, 0.06744958796768519, -0.15306288500043233, -0.06469659456303135, 0.0611626310305914, -0.011937246301165194, -0.055701397638809415, 0.01131967880693691, -0.15237104667114254, -0.08329372066849765, 0.08219481593568477, -0.18865834702221418, 0.02333551904121138, -0.25925335521237036, 0.09212535511406159], [0.05690450986479953, -0.11908289356888146, 0.044631569216722566, -0.03243552812405917, -0.07537931441623275, -0.025307861287670614, -0.15984445371316605, -0.10677669843242213, 0.1528188298506708, 0.17926266128012214, 0.07061968932834646, -0.2664646624155133, -0.21233466067411721, 0.046166505798335325, 0.1079971779341373, 0.008861383434486524, 0.0037389084698914005, 0.028246399364848847, -0.05195589871002484, 0.2404627384554054, 0.09639552115402966, -0.06574169777214918, 0.16958873322475554, -0.02648839739684577, -0.04460592039330058], [-0.10920333678720716, -0.04997354186536826, 0.03636067401317866, 0.011047438242465655, -0.03968404424730465, -0.10627884784317343, 0.17923750207631645, -0.05469602021861041, 0.1540870046486424, -0.16983289121116718, -0.009060321593245617, -0.037783010415992996, -0.08888025492414683, 0.23751489123349884, 0.1732187195820818, 0.0011905545508648192, 0.05061721835738363, 0.028357828075124165, 0.06339272367953286, 0.04610343716735123, 0.2172618280489251, 0.005427211762417395, 0.08807730888724195, 0.15040339075756298, -0.0830427339930796], [0.10656232226243068, 0.16528842408645505, -0.021473045248374973, 0.1825537231693864, -0.09289938964832434, 0.1564587282027296, 0.020792620389890444, 0.41021849967555274, 0.11546218247065444, -0.2195358211321857, 0.025927070177285065, -0.2861896018704023, 0.057842613078436744, 0.14217955233976057, 0.1745878676512132, 0.014978204062559487, 0.21624668584494353, 0.09062428912985479, 0.10795252029609857, -0.03595391463191078, 0.0799949146335759, -0.08862195490534255, -0.05644837659564888, -0.09903522971950603, 0.09076506184876701], [0.28183550998031437, -0.015430426176176237, 0.02574935710956651, -0.23578384217566983, 0.1767879080397309, -0.39289965037061, -0.13115011510504598, -0.40301532408795626, 0.22639475252949062, 0.05408625415151178, -0.0074732404126776255, -0.09021051744412753, 0.04681209324843341, -0.008773776015370622, 0.09844961362749176, -0.0448718675702721, -0.48108486957435836, -0.1371243195225478, 0.055821453960166634, 0.0654202908307728, 0.12804605508851724, -0.13187644314411864, 0.03703291729623442, -0.14973964768663262, 0.011282526591852735], [0.08807076027056092, 0.18397755465154655, 0.013361977862697223, 0.03337405098631515, 0.05134856045421204, -0.17113163681440877, -0.22375091022330112, -0.20840834042265827, 0.15182909608186837, 0.1871090841834314, -0.10122348957215437, 0.09676595399957233, -0.2202899580466342, -0.09059985108985238, 0.2858547850550349, 0.12525861019858983, -0.22549969228171704, 0.2530055420471202, -0.1647824821732452, 0.1189489714938504, -0.016866848330606463, 0.16442482757366955, 0.0491219455562454, 0.15159238317842272, 0.08993483777123021], [-0.047066357091958895, -0.08069154216092692, 0.07441853095704673, 0.260904810160708, -0.0404126931578765, -0.031349212547902156, -0.07214063483536014, 0.04361524132292896, 0.17289510102491779, 0.08990322508839219, 0.04312628571423215, -0.3824745699699154, 0.10583782253675536, -0.12718801299419988, -0.13710010143040838, 0.007532388833897389, 0.1480852490510865, -0.22119959953684254, -0.03352357560745095, -0.22702900000704415, 0.1304406586980046, -0.09063771657977301, 0.027730217058172153, -0.07688251261568335, -0.04019263254520367], [0.02114183812158891, 0.028197946682866525, -0.06716210433072982, -0.1241043531510222, 0.15660014610443565, -0.09661947446533939, 0.09362332477826249, -0.09423615264527352, 0.1279452416241894, -0.02145112395801638, -0.06120769364670186, -0.17372686368071824, -0.035928483699016855, 0.13098404555643015, 0.08298341107994306, 0.07251757842250525, -0.007433563328147328, -0.1132476259052318, 0.18936532296430317, 0.05174563691657315, -0.08931417411908227, 0.14204620066729318, 0.12428161304304097, -0.04387546620153565, 0.03253797768872151], [-0.07093615595744808, -0.0894113386353525, 0.08332741634735177, 0.15690864923855946, 0.19687770191629847, -0.03367858249292274, 0.006057806365984124, 0.12756023210852405, 0.06637368690679996, 0.06629513788796156, -0.14288461853083387, -0.09479341679843627, -0.05388361320351928, 0.07771625220209565, 0.1546706720619773, -0.019974010643918287, -0.1303789132369644, -0.0182382214155396, 0.027161843619659565, -0.12007729860616018, -0.1298836097718672, 0.12718931152809262, -0.05338962663735454, -0.024999423108979592, 0.033873218898121914], [-0.15792937187794664, -0.021751182226865805, 0.11328615216458066, 0.07289242307934539, -0.014728487973230503, -0.2286600204703814, -0.30450945862338546, -0.24371466893778543, 0.03687205317812729, 0.07099712154262378, 0.03678946593804526, -0.036224478110829, -0.03291472480570923, 0.05560678689691766, 0.11777887923097882, -0.121541306369535, -0.2728517684792587, -0.08221426824090905, 0.08824817607357578, 0.1483688504399416, 0.3188140584001084, -0.06538111249285984, 0.04768643159726878, 0.10647914689366612, 0.02569039752954765], [-0.05528904855160364, 0.0745443770430062, 0.1987840039705695, 0.14459109185271776, 0.07326053687084186, -0.005682317997695806, 0.22954245818964103, -0.12177470899676615, -0.13930608657578591, -0.0656468091675022, -0.13200988349145346, -0.14486759046021833, -0.2576120106090944, -0.029609396988402065, -0.1687871170517259, 0.10859652705698881, -0.04047954908610868, 0.0645813482017074, -0.13363618046757272, -0.14723421576395654, -0.06346190772115896, -0.031285818939731556, -0.05843989422889628, -0.06892003621190329, -0.03875120312763125], [0.17798650833429608, -0.04756042301478624, 0.16369849119594587, -0.057017767688256414, 0.14121248639707404, 0.01808707265694974, -0.1700973815052603, -0.04632024836154127, 0.04125975170661013, 0.08214941702387699, 0.2234055731925474, 0.2644120935476306, 0.09351555530498602, -0.027817783572415846, 0.0337510602593346, -0.05333803631943155, -0.1368186076017948, -0.038946492644941995, 0.02008555053900403, 0.04210135520968461, -0.0475200986289236, 0.09573376767136545, 0.03304814395244034, 0.04940363615319838, -0.022437746606350003], [-0.02216507772381639, 0.05904841696405451, -0.035002311172866986, -0.09549096438332239, 0.032284990762117015, 0.23132755057062387, 0.13257006558806037, -0.042319080575397516, -0.07557031744784094, -0.03074493373668585, -0.16883112533873762, -0.007257013520733946, 0.1568444800089701, 0.15194060232286674, -0.006120516300072202, -0.09510458193274046, 0.05150221887641061, 0.103443721127892, -0.06920019003916233, -0.2107869353901112, 0.03427564306348784, 0.019761982807197376, -0.15452602021845102, -0.01258072259146603, -0.16798867652202218], [-0.06598356834696904, -0.19874429755608153, 0.3555234029771513, -0.07337460022456002, 0.130561500915972, -0.20054942438004453, -0.08714431092477068, -0.14883881533838347, 0.11803922188995142, 0.10437327347008626, 0.17516876876183823, -0.10269910997136722, 0.15942437926421046, 0.12804205813013358, 0.179709726314846, -0.028613812602128447, 0.08627755656126665, -0.013074468188628894, 0.037774254278898536, 0.2403803687978638, 0.1688869774940104, 0.25339812669365275, 0.06284605878324319, -0.14899747406809793, 0.023071749826102397], [-0.12204348622255362, -0.09494395078933127, 0.019332652233673978, -0.12019245120462911, -0.026069948909170304, -0.10736751090624673, -0.11214185852373931, 0.13859336826644258, -0.16535853992063798, -0.08118650221782933, 0.005054175906692722, 0.05238289600121642, -0.07361491363928839, -0.07352868072236311, 0.28023924346676227, 0.16096162476756826, -0.13261261125644438, -0.1258949941437553, 0.13177107594478785, 0.0683389197195011, 0.004106442622933909, -0.06766102743400687, -0.08591491342755635, -0.0404098518237872, -0.07454259630636888], [-0.1012999677747237, -0.20276588906575407, 0.11033432428541823, 0.018258496159904592, 0.04767993659943708, -0.07512953272963659, -0.07558911629031305, 0.026851197154758224, 0.05345481085536828, -0.020841175573498665, 0.022824606184087496, -0.02746709296941342, 0.0012287044276566277, -0.11718464294806169, -0.11987876407770855, -0.07712300055084487, 0.03319629676334512, 0.015684005416465724, 0.09149726263727427, 0.12736350804109706, 0.027682335576096895, 0.10534256645515021, 0.0037057971055593636, -0.10546359334669701, 0.16438738971351607], [0.12182173030881799, 0.04585386293543165, 0.0900082920604945, -0.11329279148450327, 0.10920245234845705, -0.1672434716653892, 0.022092590946681125, -0.13277714269732754, 0.11806920586164768, 0.25049661028788955, 0.09066866190461771, -0.3104763431055774, -0.08180327127898633, -0.015821210076849942, -0.2016172778366884, -0.061760920982318605, -0.2749672395239907, -0.07420438955236625, 0.03312679212094632, 0.17627214903261992, 0.12594023280179367, 0.15403794939895205, -0.06088337022899607, -0.009177247109822302, 0.15617223187244475], [0.004288411932092028, -0.0879772152348683, 0.14346816768028958, 0.07945117882601352, 0.21084143160300928, -0.16394604413612232, -0.17506694772507198, -0.2753105571568083, 0.17422305331313498, 0.20508993404085651, 0.09867918907380736, -0.15008294450352355, -0.12923562484180506, -0.02741328710359487, 0.0802284433914011, -0.09288286489703643, -0.1152597850923991, 0.07920262118864137, -0.07235802083207522, -0.059235786170651214, 0.2205918364705028, 0.09275958044511676, -0.14567123807160687, -0.08221339190542488, 0.0793951014441781]], "net.4.bias": [-0.002223985973573404, -0.03639904811776532, 0.0, -0.009999990665123689, -0.021368873530158317, -0.004939980477836465, 0.047948157158278576, 0.0, -0.009998824041803413, -0.031857143984903975, 0.047805361987204004, -0.007451080898035765, -0.014656455300660122, 0.0, 0.04541122444193486, 0.04243095071667109, 0.020799888033854474, 0.0, 0.0, 0.0012344949829323916, 0.041713916117004146, 0.04089026714028605, 0.05114216560661316, -0.023986803960393672, -0.022535664892357483, 0.017983153167665397, 0.05242549514100725, 0.06600536227620375, 0.024145148297610188, -0.011277678990700375, -0.004398159876282927, -0.009996949224580217, 0.0, 0.038994179577439135, 0.03567151470021187, -0.014100848621630106, -0.0036349111796110598, 0.02260651892799735, -0.022616461923242244, 0.012417459525053234, -0.009001295156019355, 0.05098524981136228, 0.0, 0.04276153098593903, 0.0, 0.07006424062117879, -0.024545864822090528, -0.016649523840179023, 0.03378345271342795, 0.06600234859714622], "net.6.weight": [[0.16533496332695308, 0.018511879517129952, 0.13719700360726228, -0.19457820770823223, -0.15220536314325087, 0.017661782132085094, -0.07155864949685166, -0.04371897348965804, -0.036420329026302864, -0.02710557531661372, 0.010400300792516009, -0.0007290986334201262, -0.0012420673731515619, -0.06357397436251266, 0.16373449547115984, -0.10108343075926217, 0.18596218704141176, -0.14203278187666044, -0.12122445372649984, -0.06743446951882838, -0.17037733364086016, -0.28242043745701106, -0.10145678368831476, -0.08955463136323367, -0.056918731222901156, -0.10690900869399579, -0.08575295596126396, 0.09398127505477205, 0.11471658481376862, -0.020324490449581102, -0.0749999828924894, 0.01598923603728581, 0.12536372357111217, 0.07355109456647035, 0.0405715100211126, -0.043509336592801866, -0.07862258213743369, -0.08351365292181236, 0.0437469284384735, -0.23036783504948416, -0.17852311059122428, -0.12253672861977272, 0.026442784892038107, -0.04320019294792576, -0.025687660485966962, 0.18339931411708724, 0.06358297473082467, 0.060528325410036964, -0.1237271127856005, -0.14874281652229096], [-0.01943753188149365, 0.17716785037994007, 0.054891583331507836, -0.02150710548138045, 0.07222203725946372, 0.012480876938984812, 0.02742344544336303, -0.16336094730514755, 0.06390085073194728, -0.11102457100260117, -0.1852675162871542, -0.03266446173678755, 0.022903043533395107, 0.0411697347785745, -0.10759771948626405, -0.018784562310150507, -0.03690299829119569, 0.0336159594572668, -0.0378721027588423, -0.07849459213802909, 0.03836168836704017, -0.15103545221870304, -0.2081736502186757, -0.11882271981252633, 0.06447895417532941, 0.10644603365305186, 0.011529104077955148, -0.10638104193040615, -0.01217263282266366, -0.011574392974650365, -0.10765216385151988, -0.05404334553435578, -0.06403555967145844, -0.16448790803201147, 0.009812583215851945, 0.07393589643190061, -0.03895932875211196, -0.073734095181246, -0.0005981628297835888, -0.06371165207095496, 0.08720875259107508, 0.0285391961751421, -0.15142084596966862, -0.08190887443934991, 0.05574829378016787, 0.22675104769468302, -0.0402387396407004, -0.014611907029702054, 0.24688793681510068, -0.01278220377521158], [0.03707361455432422, -0.10737708263882369, -0.11271457657094944, 0.06498868648998103, -0.2527966323596307, -0.10798365705433693, 0.10695269534859422, 0.07025202714789147, 0.07814539989345101, 0.1727384171025906, 0.2807302353221324, -0.0044775633628992345, 0.0020192781197526655, -0.08572133490113476, 0.1027038982438187, 0.16239547917315258, -0.15108154395297899, 0.16678679230252275, 0.022668985597759688, -0.047608036487753934, 0.047948345221151926, 0.08369786684862185, 0.04944950701841183, 0.12208677911083268, 0.03543648012401578, 0.28472313035921915, 0.14613850357268784, 0.2775022237644047, 0.1311096357508193, 0.10573079229353402, 0.10998889160708747, 0.11303977195391421, 0.20041566193642046, 0.2704411154356297, 0.24966686665806012, -0.05306681363389621, 0.06881006444024951, 0.08264647878865036, 0.09480561768819243, 0.08701038500373981, -0.0019147348890317824, 0.24323423562896207, 0.03290638150120891, 0.00966978397196768, 0.11128005304063138, 0.2142606860290143, -0.06210835651984935, 0.03955024132946339, 0.13689348788813455, 0.20900539693218703], [-0.013696984811983762, 0.14806284995083716, 0.2510104183304302, -0.032850909300673005, 0.05213760819756179, 0.10933619404635658, -0.16823425697094227, 0.03731830806621963, 0.10881361153527017, -0.1404520759790008, -0.10226810285843657, -0.14376619649033082, 0.06203300957241512, 0.1985512575034784, 0.054114134723423246, -0.06588458261166864, -0.10462168988758007, -0.0594513401540637, 0.06984586282018856, 0.09191629583796959, 0.0907368237324023, -0.26953157783218995, -0.03024920751202651, -0.08448572835781087, 0.005472982910492454, -0.06622102763857247, -0.02403739489306765, 0.05571127314296427, 0.011680190599030804, -0.03128385573132778, -0.13211018021526702, -0.04330986794772958, 0.08140704642557542, 0.0035978827202808933, -0.22089262322852785, 0.1420278441122018, -0.1674117792889783, 0.296416939303673, -0.044845909575562184, -0.07510165796828358, -0.015958657823735088, -0.02510491657680343, 0.0862023640686379, -0.033839135820898425, -0.07204961521009132, -0.08901848888933916, -0.13847031875166563, -0.0001982797873491132, -0.0794632839208421, -0.05073928389410279], [-0.148875006926671, -0.19205879460192882, 0.0040184516744466115, -0.1702283035089865, 0.024666641018567862, 0.14181733258796772, -0.1443190502510322, 0.06954082639884099, -0.1685934487278523, -0.07219163424701183, 0.11316441593884877, -0.04821716370405967, 0.11286633337777577, 0.0008632466778703108, -0.1100691781002805, 0.11430240351985221, -0.14907298598491345, -0.0807383403642461, 0.2922639362797558, -0.24908429922526418, -0.16816401340391332, 0.007038237665747243, 0.009587857352728314, 0.08362090778923201, -0.0021412973359400023, -0.08601721583577288, -0.14045388900336836, -0.08585235082690391, 0.010395397741384359, -0.14035632180442367, 0.0022076501363529413, 0.008283936115132404, 0.13869760904723855, -0.14857689420936862, -0.05861795763864436, 0.12302164110908533, -0.19684856333187314, -0.09688852768018424, 0.08449434717737318, -0.20241752510905173, 0.015354064905516399, -0.1202890336671438, 0.1641938984158213, -0.12106867343121529, 0.14856823834119579, -0.12527083899129046, 0.17356338574259705, 0.028019238450905683, -0.009865147250626132, 0.05313621175170871], [0.027050760129076198, -0.22924519261544654, -0.13177531380952168, -0.02144561500279607, -0.18905360563792203, 0.08019269320005862, -0.14628042769642421, 0.1328074296012924, -0.02407816729497261, -0.1052571760097339, 0.12940179057166165, 0.0007455335128548834, -0.10759428775127602, 0.06604271727370571, -0.04528321169029205, -0.10345446549143306, -0.01415168804439935, 0.060353664982900936, -0.02157465396028201, 0.10134610756185641, -0.16955896271894227, -0.023230672404212678, 0.1395395610199823, 0.13267297030237213, -0.1644938952504621, 0.056667861917835675, 0.006331901851731663, 0.0490386287735127, 0.08628964755034654, 0.0032460587443578146, -0.1383149653771206, -0.11253441225307613, 0.09394367198699788, 0.009462242067850159, 0.16985717959059465, 0.0902632144950542, 0.01951177552923737, -0.18821819892879166, 0.015335652585528199, 0.11468202124553475, 0.07296172414847293, 0.14248710987993823, 0.08037658555539917, -0.03195789073259086, 0.0577545018274993, -0.19716604541006688, 0.25022330484806504, -0.17363183477216712, -0.03742934849931092, 0.0669805760933825], [0.0706960821293818, -0.23541352131299853, 0.14282413880287134, 0.035590863556952575, -0.025475722192995362, -0.08837939590500886, -0.048591848853064466, -0.07334363529895449, 0.07678513281856207, 0.043279731856463464, -0.0011702226254096568, 0.0521365910718117, 0.10954284259257455, -0.03172226633891, -0.012865623129363334, 0.1091699316187153, -0.007086679631901509, 0.031283179461997566, -0.020287689717811166, 0.01308303133696664, 0.012935689438156543, -0.029855724119950626, 0.0669457293146728, 0.07153626547664294, -0.12818259607060145, -0.0834005216245063, 0.09309758410896526, 0.03587977920958558, 0.3032593047299399, -0.09256200973326116, 0.04801630381466696, 0.11694586443651019, -0.056358508121148725, -0.027798917049027663, 0.0012690899048474757, 0.020560817031598882, -0.019868201237404518, -0.03013164313805415, 0.07945445644330854, 0.042972628005617415, 0.015108363781005617, 0.0078028265833070785, -0.06328540889203084, -0.23893394160537393, 0.04457374232821454, -0.07342129436815197, -0.056519631361536614, -0.14517702770647947, 0.015116763165958592, -0.08397989775445483], [0.1777286182893214, 0.209758785061717, -0.06310299848755721, -0.018907040740450125, 0.05052119245658543, 0.08002305765079454, 0.04518646555677439, -0.08876431736389877, 0.0332803386774384, 0.012309365982457882, -0.05292377336424032, 0.02832344711662766, 0.027176809401600905, -0.03691101286498828, -0.017996344078650098, 0.027925861526670384, -0.016629460589386844, 0.0980505097894821, -0.10956444748918202, 0.025421085339182373, -0.08568391083928834, -0.041273598249647936, 0.02030146991232691, 0.00018806162400253134, 0.1084152335302528, 0.012572059597163718, -0.12856949470926002, -0.12751993407736123, 0.012951039167939441, 0.14058896389355574, 0.040912643547900335, -0.081444468704648, -0.06504139846197132, -0.06873359519248488, 0.13159733145679328, -0.06371206078487068, -0.019109933686116014, -0.06817030341327332, 0.09174552348017825, 0.024828475807058034, -0.007404502805239747, -0.09538364975948575, 0.029317808482770293, -0.08964198870457235, 0.009460719328772063, 0.05311953389191607, -0.021278150339185974, -0.1399623570475348, 0.04715181008986872, -0.15427261826653504], [0.09842998415394488, -0.1562486005708374, -0.017026828998061946, 0.01511991680651436, 0.07945300986998344, -0.0227525989056027, 0.08764549572115705, 0.19110321208811032, 0.11143955549260763, -0.049192851345314065, -0.03998299527854539, -0.18348560713787612, 0.059095982232681435, 0.1032423471273384, 0.04269052869868619, -0.20665935688021464, -0.06062540575842314, 0.04003051794497844, 0.001393239874558211, 0.045390883630970436, -0.07003308805077661, 0.03465808873545982, -0.10069360260554516, -0.054381673702073696, 0.03839603422529165, -0.010823929442370596, -0.07131060586794073, -0.045222044911034515, 0.09479837083924263, 0.13426639515567512, 0.004677987840651993, 0.003128353297467903, -0.009265995987734664, -0.1256668635342011, 0.028346572828849583, 0.07631058740912486, 0.09913635754891369, -0.013720180986910227, -0.12381435251497547, 0.18765639527079137, -0.12938039062729625, 0.14000620363114866, 0.1886862759861594, 0.18404407582570398, -0.05369838354691201, -0.0455452743552789, -0.06522788990498456, -0.021510615612593313, -0.036065586456879274, -0.26165732018421717], [0.08888794342301962, -0.04601653065989022, -0.09124204968403204, -0.0031451315724334984, -0.04939137569650015, -0.0768475335449435, -0.06413135015501784, 0.15954521331470906, 0.1999380375161855, -0.28205287588646444, 0.011296878396535821, -0.0817167270208424, 0.016466317780882346, 0.0502084286651626, 0.11967943305989907, 0.10019047472095106, 0.14477522435243728, -0.011767706268161378, -0.061105957784503964, 0.08516465649774693, 0.12182642445187945, -0.3468089028725103, 0.25413753130298633, -0.3725884797410892, 0.015235562225277012, 0.1686791044388678, -0.01807344209368826, 0.07184819801486572, 0.21693541119678686, -0.06356829335313202, -0.27343138508302, 0.04481737699612865, -0.05831847092255014, 0.05463281134616951, -0.09249766979406507, -0.4320252143458218, 0.23234945371765478, 0.28117069747112666, -0.2860511412386257, -0.16573061746618642, 0.052684442980170616, 0.21764002570234783, -0.06639253586144105, 0.1847155324075817, -0.07274231296369063, 0.0306123454111407, 0.07038089105082125, -0.07996702159356943, 0.27916257612925627, 0.09457510489419663], [-0.12897886501641317, -0.08963561517025867, -0.20518421378807525, 0.16969334572469652, 0.011914469316145879, -0.04395919657794438, -0.0123121541584596, 0.15485016000042584, -0.10098365812028896, 0.06161321247140942, 0.0025314636076277856, -0.011432802727774017, 0.07189959035055452, -0.028910231469606324, -0.26745417965495794, 0.07360062937197447, -0.05491363407723622, 0.07287700547735841, 0.0020095382419542435, 0.025364263666225267, -0.07432267607674416, 0.12035339706498999, 0.1029025056044452, 0.18999857363633255, 0.006025154143000186, 0.05049982159586831, -0.11762898869346552, -0.23463345843044275, 0.09398459528232922, -0.10925326363680526, -0.1933111469805081, 0.03076259351321782, 0.014652881073630154, -0.014354559669839796, 0.20465537197633987, 0.11706585380523635, 0.08423887134549204, -0.07351840842919855, -0.017854734413269083, -0.1468070641450858, -0.16268312551517058, 0.05979208869843092, -0.01508888870924538, -0.06310988052485737, 0.11788649304814794, -0.1551491798219215, -0.10066304111087312, -0.056518715468951215, 0.0064828683579596265, -0.2219540124851264], [-0.1692755498522498, -0.017996888213998485, 0.029938016281592195, 0.02396784260688118, 0.05279402346443614, -0.10651768691468473, 0.06190978723561682, -0.08603454974052413, -0.0700397065910888, 0.13106145457565188, -0.1633620619956014, -0.1336085673915866, 0.1971197615135982, -0.0022260862034743107, 0.012118143301252807, -0.019497805046252082, -0.13750696548285957, -0.01755272457392891, 0.09874441736846232, -0.04535221600091865, 0.0069845894175777756, -0.06852394308670669, -0.050302848491915894, 0.03223007930784595, 0.05551675952223283, -0.224431920059839, 0.03801857896268547, -0.014606808265124135, -0.1668356906465689, 0.1858308993194187, 0.12728239568926517, 0.02719512407468748, -0.09438646872937739, 0.07969627870353051, -0.018224122662743855, 0.1599399066396578, 0.23436226727678813, -0.1434841142178684, -0.051056149741247905, 0.07807713640397067, 0.0947118107908309, -0.07181079463798162, -0.13225618049230492, -0.14137786751044087, -0.022761735418544343, -0.030229482549752693, -0.05664070011221977, 0.09297636625600668, -0.09968663466628958, -0.03743543830535218], [-0.02348173373751532, -0.20838280999227438, 0.11831946805097214, 0.026616174710608714, -0.009807847128415065, 0.06144709108885389, 0.16534736649727705, -0.23527070981428166, -0.018882953860958732, 0.18572867241267857, -0.02006577755155546, -0.2010626707956641, -0.044932017383987374, -0.03193830443498021, 0.3264396830774395, 0.32227416431458034, -0.09358983838922619, 0.1319229402992739, -0.11128712600356605, -0.18923964707133256, -0.01211709094267292, 0.2063485399045703, 0.009782622648962968, 0.06768100697455454, 0.1387874367307768, 0.012426330137502595, -0.051761273445188306, 0.010517588228166546, -0.02309827834587943, 0.12370246000108745, 0.08988821247361653, -0.17259533694762308, -0.049682505526948646, -0.008590699552739547, 0.0337181816288349, 0.07531283004984411, 0.03962206480915527, 0.11033475901116716, 0.02082378888275096, -0.09574187653106851, -0.06573676023396093, 0.12630403863407447, -0.04041307073254874, 0.11133278486127972, 0.08454063347824427, 0.15039105685782073, -0.01843389154841093, 0.08366282784762091, -0.05624517494417903, -0.005790942815634637], [-0.017054185662523987, 0.020831762844422355, -0.020564879233300398, 0.026638419393885976, -0.07485039433019787, 0.02419044701903043, 0.11532133035557174, 0.22340468505291433, -0.11474690085350686, 0.05363926983676093, -0.04679211812479813, 0.04685906894789907, -0.048444537621927415, -0.12219857914588106, 0.036752686099308894, -0.011972692263326772, -0.1660159851035405, -0.11635274010185928, 0.13735792902961938, -0.1945768349473419, 0.0789071760860752, -0.06600270359687384, -0.0820447122225647, -0.04693840338128099, 0.014656708015672738, 0.0911282983394001, -0.002876382491284992, 0.001052701030560977, -0.1230045705381275, -0.028175906650009866, -0.08315095154176372, 0.2212477533760697, -0.013828695707306682, 0.028328154758559543, -0.07812671133861304, -0.06755101160080698, -0.09082132007323002, -0.0813077711174826, 0.12678350450435974, 0.0886833089666407, 0.10641182927047087, 0.027665721478820487, 0.07331960467233141, -0.006772736939090413, 0.008325011952793877, 0.022990748153254033, 0.09517092494901352, -0.09601280314357497, -0.041399114927175365, -0.169432834051975], [-0.020968984681353147, -0.011086694445495779, 0.15775390145264587, -0.10180463480493383, 0.07666943192009655, 0.05629294791244685, 0.15139843735631286, -0.1658576485803882, -0.14468554281257492, -0.15262940047507154, -0.04421683948561511, -0.016578560334377372, 0.09505414877898342, -0.10050248963938142, -0.01708707566504171, 0.015778370031015905, -0.07178245612363116, -0.1120692296118637, 0.1258972112823469, 0.01596263685895615, 0.06326125456225426, -0.026551864715755602, -0.19279819247833727, 0.05894302372371936, 0.021740031502877254, -0.014206402011570493, -0.12433210540334783, -0.06994342677181911, -0.2018019524740907, 0.0029914026384832626, 0.1863076486331718, 0.16442513378529156, -0.05075198930431061, -0.0685380565321788, 0.1790131348054876, 0.18872283356289438, -0.17874062692823184, -0.08414636396383143, -0.014319774345365079, 0.03882220139929102, 0.10447279521007327, -0.010741377958841187, -0.11963272416197156, -0.09717605201804821, 0.2291514156363646, -0.07022383671516227, -0.15595194013524424, -0.0779945325187522, -0.11911582196277266, -0.07333398035426282], [-0.04852674406303139, -0.14649003015692336, -0.10261509025309644, 0.024229566995697102, -0.0998336832264331, -0.020199105682376525, -0.0001862136489142914, 0.1410629420265492, 0.13969991692802924, -0.0476501870002009, 0.06607268016179636, -0.0839848919270189, 0.1340472672425754, -0.09860099682493595, -0.13041172840900095, 0.023224137813740407, -0.02248526736715425, 0.009042609692090921, 0.06633517119235531, 0.007201837422147789, -0.08275845934680458, 0.10491527086191528, -0.024660925806142747, -0.0236632694993497, 0.07211829349659904, -0.04472623124180938, 0.13233603987059206, -0.029952302085490115, 0.060786217654394875, 0.10869786745667864, -0.12600520981095406, 0.13278728533780845, -0.07725987471952772, 0.05060779891925707, -0.05191828049105909, -0.06153366168699063, 0.03756735384143041, -0.06786680333274708, 0.06176955181075813, -0.014508175425328531, 0.01988776320295984, 0.0028571451455519656, -0.08345999920293588, 0.03931247040837119, 0.01303719484942826, 0.06690527908680538, 0.019384143478806695, -0.13410697698783747, -0.2971761785701911, 0.12464416591851582], [-0.1649880406776869, -0.11196209622100801, 0.2530108462067564, -0.01844691608116869, 0.033403216236133494, -0.058939889513380694, 0.1800792061155255, 0.17405618572563025, -0.06359972121360336, -0.019278085434437927, -0.035238143379542196, 0.0066178587737726795, -0.028806991112670065, -0.042541028692288735, -0.013960094387348326, 0.1859743218736305, -0.08999563813275023, -0.04069752406633237, -0.06320254352809762, 0.06104796455551818, 0.17214004400272376, -0.07910176131842499, 0.07112304730115018, 0.014009431147712016, -0.21234393969188828, 0.028938247512165994, 0.1391911723601375, 0.14137214199288, -0.04469798530584112, 0.04044404726974525, 0.06966023691667189, -0.0614669574285607, 0.01608838706387525, -0.11017369919215257, -0.04479021209848682, -0.11876914964979662, -0.03974744035468342, -0.0691671767512155, -0.040535127265615624, 0.18184190901418545, -0.020919316499044334, 0.1846680697074063, -0.25290777926618985, 0.15175020553536764, -0.09240994754611613, 0.22301741709128445, 0.10397151552785583, 0.022870026714731397, 0.2125934665721804, 0.15343748248918315], [0.08176670206340775, 0.09594816670710145, 0.010543312292883699, 0.12795970544687293, 0.12044254206100505, -0.010168019676577683, -0.07423581120639566, -0.1546446117513367, 0.04569668857625898, -0.21415894899924817, 0.0037635835400386198, -0.03587535449828578, -0.04047467100447049, 0.06652491736012155, -0.08854248430727277, -0.010517780809383608, -0.097594405241443, -0.07308240722881576, 0.028863563214293255, -0.08707224600607584, 0.007738211780543508, 0.014914834481049445, -0.0042686160443964555, 0.03414884269762858, -0.05076818971872972, -0.009891718097631685, 0.07230156592444252, 0.14947771839560728, -0.201014671234111, 0.03965073376614045, -0.1726130591041087, 0.019951579275927615, 0.119122671126215, -0.0012681310174549598, 0.03718322258673923, 0.07420794146818716, -0.04848359089989692, -0.003728398845666587, -0.05421118884421709, 0.10691810588264761, -0.18708746806237272, 0.0839526288333646, 0.05891283954445834, -0.23271595646942467, -0.05763056801600567, -0.03401783943025786, 0.008052594558211548, -0.01789934149569904, -0.034951101413792346, 0.017363185071550522], [-0.0948303273535749, 0.016827297146530095, -0.13890254451250067, 0.02108135433051095, -0.13874203847029104, 0.2841102915782888, 0.17575207796073722, 0.011268254872089753, 0.00027948368167170836, -0.15813745892129696, 0.06512014553048398, 0.05919456756062661, 0.12730116495840377, -0.010898218250581073, -0.12294551477772077, -0.14617830900384687, -0.16903349640973817, -0.03572549894579624, 0.054069549854427135, 0.16818894740516502, 0.11227774155252222, -0.0893881523058905, -0.058368446481183424, 0.09116825533575366, 0.0816153972288258, 0.184074465816796, -0.14874576398898365, -0.12633463380755078, 0.00488151303769779, -0.08502681171469983, -0.04313520803894204, 0.10453301173095796, 0.17178459769778665, -0.05620322780271843, -0.004714191215960547, -0.028097283291047867, -0.08400032997118154, 0.08699063927619992, -0.10564208022733898, -0.10703418658253254, 0.09175448975618467, -0.159014597389102, 0.032172233512322825, 0.10750710811221892, 0.10406342891379727, 0.062113624624535596, 0.26032691495633115, -0.027114093666445578, -0.07754589286887123, -0.033129052780538445], [-0.10226824970144217, -0.007780178588490322, 0.08315436765016458, 0.1392941674019464, 0.03380577072249198, 0.18110773863505894, -0.07625284624786483, -0.05992985064430555, -0.017220224170560305, 0.0868991063644488, 0.08782946975805152, -0.08520687208947746, -0.1422188142796393, 0.022159684663752274, -0.10306084581030588, 0.019484447874342004, 0.039147568609582406, 0.057572626562571165, 0.05628438819760431, -0.0307856757353234, -0.2823458309177642, -0.15621265748491425, -0.11983671364273264, 0.19849163394388541, -0.03299687989946476, -0.10622249530394, -0.13328366818696905, -0.10208903187038372, 0.012295529442218341, 0.059557888026300805, -0.11343796565768277, 0.14469042954403266, 0.06257392474980408, -0.08173170682520278, 0.03428984348909783, -0.007271817633798481, 0.06064609071436997, 0.06366068462883218, -0.007932895818178265, -0.07758269853299792, -0.21877705722997895, 0.03875045035678086, 0.09312247965192623, 0.00013976692001298717, -0.025497142451542235, -0.0848262848770131, 0.07473144226749341, 0.1307922011513625, -0.08502841195813275, 0.045848369148144996], [0.13856536921294055, 0.04293974259161668, 0.02826749843915064, 0.21635782136822237, -0.006721957624054412, 0.2708735182602008, -0.1341788008905134, 0.04008135278726177, -0.021880641118245323, -0.1809570729490374, -0.04484827623397186, 0.10841373631609763, -0.017093960590595158, 0.022865656794573704, 0.18278062206061688, -0.009006403165758762, 0.04110390690925865, 0.11494915966886028, -0.05697953752440296, -0.014268984990691878, 0.060337876351026346, 0.06897293495678682, -0.13266054075118358, 0.16738682107532735, 0.11501833111540004, 0.05659547007243178, -0.04888554994223259, 0.08222373734111409, -0.10965113660725843, 0.06433424019645481, 0.0014441189085775993, 0.1448315384260496, -0.0574503670366383, -0.05873261299249238, 0.011394400403394159, 0.09023415907620189, 0.0146249419265638, -0.06918698062431249, -0.022595362366442707, -0.17767638397876073, 0.023639767450607363, -0.15417407831269078, 0.03283658059637297, -0.09700520130748859, -0.018880995234755525, -0.07175433516202144, 0.05502732818364334, -0.13205417634884808, -0.18712442032750887, -0.018654170629623885], [-0.19868370331753785, -0.1745867534405688, -0.009640758793827524, 0.024763685041129142, 0.08144567835334149, -0.08688690330634101, 0.024086590487015874, 0.15279797662014236, 0.14418442807423879, 0.023010045478145207, 0.039670107036377814, -0.023794431274476748, 0.11215324262778423, 0.22453593924815457, 0.16040665618940766, 0.017684151324198875, -0.004999695782780567, 0.017018209668822174, 0.1326615814022028, 0.0382960223457009, 0.15558407811647182, -0.15588361342181223, 0.09394486238797777, 0.03176715987095968, -0.06405346579989538, 0.11642316190554311, 0.2654912760668829, 0.15423327597194103, 0.01431146261646734, 0.0006602268728584174, 0.041109515828665746, 0.13402544831103388, 0.13080322550210122, 0.19078447646954816, 0.1355386902440576, -0.005767736098685474, -0.10864819373459846, 0.09969079650500416, 0.03049464161375492, 0.07738751767698007, 0.032975044778585226, 0.06709785252844062, 0.010794811444697306, 0.08728716631687385, -0.09276970111616206, 0.24631269679995746, -0.05757826739874937, 0.11236526945726823, 0.15757696686427097, 0.15485934215992192], [-0.18199138672618645, -0.009612409942245116, 0.016733499852932376, -0.1505533858405731, 0.1430751406044555, -0.011175751575893775, 0.2748398699472555, 0.10682378525332331, -0.30061323059603073, 0.0003728377581708256, -0.09164003556477618, 0.11539939779316916, -0.12807305946020495, 0.002514238364516918, -0.01104274629009556, -0.05664255317937029, 0.020011773695396598, -0.01563931911311783, -0.0440771765692446, 0.016165696493493763, -0.10313687240213314, 0.020704248816886935, 0.013623458530540648, -0.025895982693630998, 0.09283540471431705, -0.18658263751905915, -0.09053092039667388, -0.015023567191842342, -0.059304963492859186, 0.15510220825326876, 0.024838912467811468, 0.007301714183992224, 0.061417147246239936, -0.00622621073848735, -0.0039353058892194915, -0.06477104645446165, -0.25880541943187385, -0.05451885335272376, 0.11984363378704158, -0.07003840639278618, -0.0032570305467463675, 0.10860796209177889, -0.04304508958036843, -0.07438144296630635, -0.07694807508120592, -0.20030702901631214, 0.0071868797697834125, -0.07161960144668325, 0.08800612184176315, -0.010751554363971867], [-0.12899684517830073, -0.0007326107768400094, 0.04380259323015598, -0.010071853647041638, 0.009739911278072567, 0.05618130635095228, 0.020247589556414286, 0.048383592685986465, 0.0712273717567896, 0.15869451728202663, 0.03092964465102942, -0.07294941201550378, 0.09227939049100137, 0.037072635752810834, -0.17802702400431653, -0.08300798748893488, -0.03193664592615813, 0.09739377742806256, -0.07246134706756627, 0.025318053149523206, -0.03019969532254695, 0.042025084691192906, -0.2828661987952312, 0.10899586389034391, -0.00017559794157934357, -0.045061394344331894, 0.025995837842743504, 0.017333235606109478, -0.1695798692163083, -0.09135797492860885, 0.14637552303595533, -0.0666272373154162, -0.11985843115468026, -0.08778174435565284, 0.1694935731265645, -0.006479296456079316, -0.04358013387397345, -0.0910050399715415, 0.02801608210391785, -0.022139541667029316, 0.03503510712319951, -0.03405885585957495, -0.047040076246900424, 0.17822407925836448, -0.018750316404372722, -0.19770455632922368, 0.08140629976029301, 0.12536545451831907, -0.1036977028095309, -0.17263714991853463], [0.061016665641506235, 0.06794277076055248, 0.11087666110506667, -0.12632574025936352, -0.0050957296003750945, -0.10298653997642579, -0.1803411862031774, -0.020218415174448754, 0.1721994666933516, 0.02865279690670531, -0.22975358468589482, -0.01683070448745857, -0.09190458620827478, -0.10290838214680648, 0.11757512999259237, -0.06520368047171096, 0.1725462236420911, -0.11036306773838062, -0.1841807256378489, -0.25254357142775674, 0.005061316047887826, -0.06998983313652513, 0.11210252345018208, -0.1105638684678243, 0.17102480915813875, 0.05562852073844353, -0.11624146820115454, 0.006614810627044955, 0.09814603092822052, -0.027714270039557964, -0.07309465434018048, -0.06818856786037787, 0.036616627156907486, -0.10851789021028195, -0.07596921163389705, -0.016671703217890157, -0.0579583481102977, 0.057049764800077826, 0.045192682042636934, 0.026048599190344347, 0.006391464826562213, -0.0026063977938440433, -0.011318259338933871, -0.0834407972551876, 0.021572012458698622, -0.11491032435802166, -0.07192626725125717, -0.09778146096570761, 0.004828025916418786, -0.042949608509142985]], "net.6.bias": [-0.016213709689544605, 0.0, 0.1061829247277451, -0.021705530923547905, -0.02661306373535361, 0.0, 0.001815827774292659, -0.010001077989681287, 0.0, 0.026986621811325558, 0.0047541441376152075, -0.025253892063949526, 0.038254700874100066, -0.009999996615965744, -0.012871194838427295, -0.0020272025036194127, 0.04757872614637184, 0.00011350410018083797, -0.009999997970744173, 0.00041578495700359333, 0.0007535351345427884, 0.03172877768113307, -0.007501168509663539, -0.028600569609866903, 0.00480911669297766], "net.8.weight": [[0.04213986266840079, 0.0014527085561174928, 0.00507913581212113, 0.08445069417469367, -0.10447316843278219, 0.012037877059440497, -0.11993844889788809, 0.3100225580770157, -0.025707355705214815, -0.17165348751301598, -0.1023418868538088, -0.09133892616931086, -0.07861754755817948, 0.13397081182882495, -0.006021289947503875, -0.0275769987882302, -0.07357429102802192, 0.04168411062579132, 0.04495111748254671, 0.08638918069486184, -0.06819311618317546, 0.0907593802562496, 0.053628962674918325, -0.07850484351031685, -0.07525931938154021], [0.03205371452394097, 0.02239810124862912, 0.152875964392557, -0.09874446558715444, 0.10876329217852955, 0.02720411346814702, 0.04182526625532578, 0.08818493755069588, -0.023161178431079607, 0.21484990883887356, 0.09061957134943471, -0.12503529027167626, -0.015486467025008123, 0.061649674411513894, -0.051680051853547654, -0.08633012060486248, 0.14468461359169646, -0.21339031981504764, 0.05196156332459725, 0.09823385528876405, 0.09866641365899143, 0.09222140765890587, 0.10291734207314063, -0.02896291200817083, -0.3037387996656072], [-0.02976798099029351, -0.14621179947849722, -0.08078104169991798, 0.08491714851750085, 0.04325717362105244, 0.06164304593188785, 0.03704137072908953, 0.04733288747435748, -0.2345097706640946, 0.04309363774292152, 0.01401209016677183, -0.2312985123961538, -0.13462921159687752, 0.19569521311263763, -0.13450055629101637, 0.000552068836025631, -0.08291237315780939, 0.0166930587544653, -0.03433056945029839, 0.021521579364855638, -0.0073982088240544105, -0.04587225675347391, -0.11485891089093288, -0.03934027191223658, 0.005574873851333947], [0.10708305457447437, -0.14522725182076907, -0.16461168102197757, 0.1256369913945092, -0.048029973168632445, -0.0843612929514618, -0.10811551658026215, -0.037739487526977845, 0.1105315254022221, -0.11947604414041886, 0.05481451150770379, -0.13686049323253963, -0.08860225225216081, 0.11121266053231392, -0.0016045123894083927, 0.12550385025587393, 0.10363007113157621, 0.027960157104401036, -0.17079502979807304, 0.059681177985856815, 0.03558206630481343, -0.10212541926712587, -0.0709676400400793, 0.011873497824589484, 0.019645076099710876], [0.0643759600762301, 0.10581982533550094, 0.08331179011884494, -0.0011892223745686948, 0.049993918720436986, -0.18769396424929452, 0.07968174000268534, -0.024602238117646134, 0.05572672665519527, 0.014480576689170008, -0.05346426363146443, -0.1297847178800047, -0.07526685789945436, -0.15454870432541376, 0.030992546934357455, -0.17757284505048354, -0.08040923773315262, 0.13558202735588937, 0.01714031130129331, 0.010115860665616155, -0.14770864207717813, -0.04750007425920544, 0.04188859011340957, -0.0042001000222671074, 0.06429779537467586], [0.03112653915319972, -0.09170578840272316, -0.08653065069490395, 0.05572453033351313, -0.014074182216938, 0.08376842246127023, -0.0426734748181684, 0.1840909962263649, 0.102367235144904, -0.011105997052158567, 0.2793065429823833, -0.13873692391863565, -0.05966464652708116, -0.1345663741267147, 0.15465427454240058, 0.13497274213395852, 0.059784539857403556, -0.15453612408802866, 0.005510959231834755, 0.10564103685364486, 0.08744729370504156, -0.11794530218044033, -0.028664563597588306, -0.10380097352787837, 0.23133509396410884], [0.089089046804042, 0.13140319068097214, -0.023859770033231878, -0.006296794174745324, 0.026886647389535546, 0.08717296082679207, 0.00764854087349327, -0.02148844768320487, 0.1416061625141017, 0.3921065963077351, 0.19301924898515552, -0.04724713337167465, -0.08564111562919927, -0.10269284848414366, -0.03762061266999037, -0.0011608608301825803, 0.05255337062610433, -0.06781206399785354, -0.05132081910569837, -0.03251442203857056, 0.16579263991143464, 0.07750563984103678, -0.07974351651201494, -0.057531259320985975, -0.044184254502780664], [0.030989909067447953, -0.052450656315221326, -0.07210375167795235, -0.11997516137482178, 0.062300139271522025, 0.004591528521661307, 0.0364412244956008, -0.11980945840791896, -0.08811181833009182, 0.062378682402224585, -0.05990690125102797, 0.09795231229233826, 0.0658254903550789, 0.008489813447907323, -0.021805276937847194, -0.07425135216362155, -0.06841164197284313, 0.1402197239802107, 0.20138113023784224, -0.04603914992892098, -0.09532182340205732, -0.0037659492406444716, 0.006829114837312078, 0.15705768979312495, -0.046180877360774086], [-0.0695926225061336, 0.02331119554004473, 0.2162579026960957, -0.18623586573075623, 0.08384795637414973, -0.03488337659317645, 0.043991595311299536, 0.10680929723033224, 0.0009457653373408609, 0.013444337337527472, -0.09880718259676888, -0.1217536277943836, 0.15254598172703543, -0.014842619257023399, -0.15156797291822452, 0.15478415891010958, 0.1269064531276713, -0.13679263555389298, -0.02045673004102464, -0.05770324219184804, 0.0776141199775565, 0.20665656395913898, -0.11553122082819106, -0.07378487890179102, -0.09753205694718929]], "net.8.bias": [-0.0030440172746718074, 0.024123175212922343, -0.009999999673805236, 0.0, -0.005489186457199779, -0.009999999452787909, -0.0073611205284634775, -0.004182931565114697, 0.042422057623029134], "net.10.weight": [[0.003798068159567736, -0.05132309489262296, 0.11800003750357257, 0.14685736398681154, 0.08947131073414478, -0.17457268920799476, -0.11165789175113927, 0.2571237848693524, -0.09788533314284158], [0.13926598565243764, 0.027575255726127384, -0.04918539066215527, 0.03348041796003676, -0.14619487368349365, 0.03601442351809457, 0.13263394423610733, 0.0971497739978458, -0.07147845601113735], [0.10628793521449224, 0.10170432808798244, -0.0160948583655934, 0.014846429918493519, 0.004105898998111018, -0.008613930214861294, -0.06564067321711978, -0.26076561769352186, 0.1254652918579958]], "net.10.bias": [-0.01221966969702404, 0.00024119676456479998, 0.05695742824659617]}