{"net.0.weight": [[-0.0018909363432215603, 0.11897007791288713, 0.21096449970295889], [-0.00582823927380186, 0.48117506966028056, 0.16506286716272253], [0.11131369099215381, 0.18963233440685978, -0.07167839122753501], [-0.04971096356778141, -0.08504546458864776, -0.09152610305547981], [-0.08393551814452266, -0.08710550918520926, -0.03932096231442905], [0.20580880608904265, 0.23920550176502212, 0.09487211515079681], [0.1140801244624548, -0.10972033260331247, -0.17728498161177472], [-0.1433403381862082, -0.0035009813959812055, 0.2541336086561841], [0.033759495485061505, 0.07595598468665224, 0.06055267390795798]], "net.0.bias": [0.04257784632356525, 0.05352145556023021, 0.09593621149020702, 0.0, 0.0, 0.05076644174434494, 0.016397335077063875, 0.026039620224472083, 0.011279474661295991], "net.2.weight": [[-0.04171117622199161, -0.0616890664830594, 0.0017851923439920353, -0.0015200158598099615, 0.016078467857785616, -0.028559513407245135, 0.008982759470298786, -0.05329363034040821, -0.10283838646038863], [0.004782609999814478, -0.23544033254533722, 0.2054047243748634, -0.011891266625309453, -0.016788834508206018, 0.0852780907854177, 0.11652678711933018, -0.25327026046423434, 0.1259545496651241], [0.0860920670056799, 0.12981823790362065, 0.02853774317475685, -0.041731624284958135, 0.14937014872173565, -0.031771639045411866, -0.09007914523893779, -0.21450158669796646, 0.2514168271490464], [0.1251108707319962, 0.09688507399795046, -0.10892114817881453, -0.10218484755208271, 0.036947534877976855, -0.04344625523008749, -0.0750959751856875, 0.0904531885123967, -0.09694324321043915], [-0.1421137938224985, 0.13576566193352865, -0.11837909572430694, 0.037441774455780515, 0.057957110446716954, -0.08425095800388277, 0.06859336457688274, -0.01462619535782945, 0.020791432219531846], [0.175380653711026, -0.03659000222651551, -0.2808917499775728, 0.07186329726147199, -0.1272549559297873, -0.049860212042371406, 0.0029895807073985255, 0.2531203295632594, 0.0707523901724898], [-0.329984641024124, -0.05236513726239569, 0.0694250531415291, -0.1116072566216374, -0.1535850977024802, -0.008543300255137101, 0.12037637812561795, 0.09686343620395377, -0.0629993111460754], [0.23659985413980664, 0.18182625221488444, -0.14113157656276765, 0.11536511963510648, 0.13089266581963396, -0.06554886203555525, -0.3246360925766632, 0.2351066983459475, 0.021075878212866283], [0.30201940190463356, 0.13865390875907715, -0.04460952131890239, -0.10752787825281024, -0.040218468097427434, 0.18021304368866703, -0.2877341057527974, -0.035036164788251334, 0.0836210732600968], [0.09089780430166812, 0.03468089814284427, 0.22248277070615935, 0.06222617863944559, 0.07076478748871194, 0.10490619209266147, 0.11696055889223066, -0.23306957112779242, -0.09420577060756363], [0.015930754577949607, 0.09038317621435651, 0.21640717115045888, 0.03965964967724529, -0.1178389144413234, 0.14080333696022784, -0.24298822805208467, 0.08136042973392346, 0.08411366225764257], [0.0053195722557380035, -0.125486583009056, 0.20456722327946375, 0.24467055354726372, 0.04246892142090779, -0.0071846793653208415, 0.3260008395488257, -0.14166147394752157, 0.07622770078648854], [-0.13189819711143289, -0.0022899196713311388, -0.011311668574900909, 0.006181522136824415, -0.14015318375940952, -0.0384340524170495, -0.026051266078331616, 0.0552252100013121, -0.11011495283353728], [-0.0519756555786016, -0.002661645425917934, 0.05857752193805067, -0.01096378584699581, 0.05381518033504548, -0.0007312891381469485, -0.030975180606252185, -0.033297750311227996, -0.16147255498447055], [0.18879262164496868, 0.15861504595789472, 0.03091587430268075, -0.10268130418334234, -0.23599802972572614, 0.027855557949888577, -0.05725881178113739, -0.16114004875822263, -0.04402330919269479], [0.060933530656695746, -0.20298056023548786, 0.1204782821857128, -0.011963080324557035, -0.14260364002894968, -0.2554510960164859, -0.06819996326813221, 0.07842816314961985, -0.10667544701341075], [0.08842382794733476, 0.1318399658661519, -0.0392588068770275, 0.01673802206716382, 0.012876758355771775, -0.06219083627365088, -0.19734475710612848, 0.30585436764136076, 0.10525876337780106], [0.047614904106271914, 0.05007816959628513, 0.042148268528308545, -0.011870850797937928, 0.019790150580839286, -0.29696150050068093, -0.05436011206285566, -0.16635876614053505, -0.08431084711110662], [-0.07600574124323597, 0.014753768132741263, -0.05716497960089487, 0.0378514730941964, 0.17283947437603853, -0.009242888222857844, -0.006561208661720295, 0.16250216563959338, -0.1915619198330815], [0.09451324463807986, 0.18511456174507446, 0.08342517489131969, -0.02494942587620976, -0.05315459686943408, 0.13054191334717818, 0.1211615051265011, -0.10152474860586062, 0.03166555870029045], [0.2297942844295173, 0.2116710599823306, -0.0021507829922842417, -0.11810590024539025, -0.04761912927822194, 0.21855941979543697, -0.16960516917974414, -0.1461359923025786, -0.06153611114101496], [0.044573708069063016, 0.1605420815291161, 0.2151080061916821, 0.14803331336939524, -0.03994201280796183, 0.11191869168205755, -0.0552716830231438, -0.2548177616415581, 0.22204113814957052], [-0.0022632688011252327, -0.04138042231907652, -0.016797238765886964, -0.004585386098467928, -0.17078182556077104, -0.0862178262057616, 0.1531277244286825, -0.04448902651785835, -0.006939884029887849], [-0.1077634203819399, -0.17783942658063265, -0.08773308610358112, 0.030515008718155552, -0.017750192963061007, -0.014873059327589372, 0.034771441615033954, -0.09771540188883779, 0.06616837002142237], [-0.13680162507464685, 0.0728897029168548, -0.010859344836449293, 0.07541266571139175, -0.130365976988737, -0.08444662487571182, -0.021181368366738465, -0.018941893041314564, -0.06780460113548774]], "net.2.bias": [0.0, -0.014351596184114412, 0.034605118371666986, -0.03365616975019871, 0.0, 0.010441315245957173, -0.009254588153571641, 0.05830821941126142, 0.033686220088803696, 0.08569067141454931, 0.06731167654343313, 0.03347067437864185, 0.0, 0.0, 0.038074073482673707, 0.0, 0.04129313257256579, 0.0, -0.01695134146835668, 0.0539848126348205, 0.06782582307725281, 0.05272538087637086, -0.009979100074967285, -0.0006350386686698959, 0.0], "net.4.weight": [[-0.002717321776904928, 0.017326455156018324, -0.03307066619562822, -0.09255540138691665, 0.23501872256447975, 0.023728951150741192, -0.1282479137692203, 0.171115453937848, -0.10165100519048886, 0.00808233977046725, -0.014135405233378577, -0.1524270921604657, 0.03185674465223278, -0.07758493690100088, -0.007107405827052697, 0.039432725463219895, 0.02934546249674582, 0.08103358622549904, 0.03834757548873666, -0.04458509942023558, -0.08059418521673545, 0.09959342201485849, 0.3290403911620081, -0.045906013327832895, 0.03129948168644122], [-0.02649234681040762, 0.009013872281812918, -0.2304545967177769, -0.2127001641073522, 0.0047909337371806245, -0.04725276250235333, 0.007761312536257623, 0.019422323379172508, -0.2293431215050898, 0.03175943067285626, 0.022355425562610113, 0.10993474370526601, -0.12135173458149678, 0.04051072553649318, -0.1066525653259911, 0.08033237484772764, -0.17319532223528744, -0.0802978690495248, -0.04929490096194392, -0.004825952568748475, -0.013790691959814149, 0.024714023014613742, -0.030237137787159214, 0.1687742550761862, -0.025007547381293772], [-0.11214300971135083, -0.06923661294598736, 0.00011176647060916396, -0.06972161296508915, 0.16279297000902793, -0.03274421560968275, 0.03431934568912588, 0.13227086459453552, 0.07300856299667485, 0.044211078489054305, -0.05168161941446036, -0.0055508866969813594, 0.08400850458720849, -0.014929403618771092, 0.16106209341189512, -0.11248037415063512, 0.06131110307875311, 0.005132961045613573, 0.13126006424406866, -0.1287091324609535, -0.16453330590975812, -0.14821137516228577, -0.007328814940371073, -0.008214478506841828, -0.0011997541847947601], [-0.10273533820357633, 0.12888729426659426, 0.12856560378975387, 0.04780309874004845, 0.051982251787480616, -0.12416993481405135, -0.046668497241569094, 0.021512000270537113, -0.05341882054999836, 0.02886516338711182, -0.004146081853811266, -0.021494081764438892, -0.02376372927003287, -0.03661893042548715, -0.010085629413437072, 0.1538960625572876, 0.07774546292434599, -0.14287626933208789, 0.03705535286934307, -0.08555289841492018, 0.10310586319342613, -0.1977948402157812, -0.11673056077315698, -0.07883837156523239, -0.14998056995793987], [-0.011306185935491923, 0.08717336982433332, 0.024122017385042993, 0.04602665399385366, -0.14467089152161997, -0.0043705124490950814, -0.02010783777942493, -0.039579204724128736, -0.019383548280116424, -0.26138627930366903, 0.07813679546046828, -0.0008816827328041171, -0.06287684019115328, -0.051555618428443244, 0.025025391308456966, 0.07242202307430048, -0.0994550931491355, -0.07300575495025069, -0.2505699975006978, -0.073413039030068, -0.0060253743215002735, -0.004374958293374171, 0.055604253110329384, 0.036561678164137607, 0.16221318158867082], [0.0010774514563340546, 0.1005927180109052, 0.14066684777841662, 0.12739551472915886, 0.01212045974719466, 0.010564976162241788, 0.22261777921342413, -0.07687659909776466, -0.06966335949975994, -0.11008021892034432, -0.07027979543160087, -0.25063453588919404, 0.06426370108881173, 0.03938686170662348, -0.12889723904607178, 0.04159663133767339, 0.031579779372802645, -0.020308908104892238, 0.044247812864520474, -0.046981545686255, 0.07917725346990959, 0.049874894297405326, 0.03374141076782818, -0.16296147600037003, 0.03856356333063854], [-0.1633887040434957, -0.08258970119686393, 0.02806553020351459, 0.11553509834991173, -0.09089184721875541, 0.00370670634764387, -0.045627388185584095, -0.12901914214932814, 0.18359491167854539, 0.06562049515159153, 0.20673378362988593, -0.14700617163682342, -0.06647544528934446, -0.009281781962610055, 0.13956153155199233, 0.04488905031388147, 0.07268115680401578, -0.0066791668325581355, 0.02506121923179413, -0.13647830334332742, 0.1626259534664175, 0.02974475683915475, -0.07308408117583733, -0.18692207275928913, 0.07429602822866478], [0.058217918752813805, -0.15856418743515266, -0.03576364080939158, -0.030343637132408913, -0.025558085148067178, 0.038045113485367855, 0.031995157265718104, -0.021885782462820847, -0.24029136932774403, 0.022790788290392827, -0.059876626038888076, -0.010364253561154845, -0.025722429839307434, -0.09332949572511266, 0.2310732368667844, -0.010975728141306547, 0.13623840057140513, -0.07358201139514467, 0.07720178410810162, 0.1121052241301998, -0.09035650545908035, 0.06516746350352738, 0.07894353519283707, 0.06739989634258635, -0.07994140984717385], [-0.0818608164040609, -0.030401317389935005, 0.16619789962048673, 0.030455362216771954, 0.12568814305050552, -0.24296387172703132, -0.1041833758661102, -0.10123761440949214, -0.12555730786146296, 0.06736628396585839, 0.043220172765841, 0.0433459733624597, 0.07053682755485538, 0.05347582600604446, 0.09651597330831418, 0.028481405016878732, -0.30148181510705796, 0.0338948657227762, -0.04621661341288599, -0.016861140544776335, -0.11319123154380772, -0.036647902483353235, -0.02922458910475642, -0.09261291858457991, 0.04134564532973209], [0.048451619278282454, -0.5207473177401531, -0.027617621679789442, -0.039598407447375444, -0.0718295210529023, 0.02322296909758252, 0.15941440269335394, 0.03743368328342886, 0.10290856098713587, 0.05590872107733034, -0.04731056210188271, -0.5457224426446512, -0.0018953121418916364, 0.005076837709789132, 0.15807207211604513, -0.02703914724590281, 0.2669055523182156, 0.16275519982433403, -0.02030815030582798, -0.07594216671118119, 0.0712018434450266, 0.005941064563130958, -0.13730810170955618, -0.1497497611863918, 0.006158506526580977], [-0.009033377002476728, -0.044122867449541116, 0.09370493617403652, -0.07495826405322571, 0.16451986368376914, 0.015343324638063465, 0.05161398230930487, -0.20550270532611695, 0.13349709673397264, -0.020984700617948108, 0.09534139390499288, -0.2557601377087027, -0.0076158192570169835, -0.10738360369029634, 0.027216188894179434, 0.07834970076355982, -0.2600445765314586, -0.08700397313524678, -0.0487988333135621, 0.03188793724670448, 0.23945899508447205, 0.052785426473105336, 0.009869173218430078, 0.09578316614858005, -0.07886995658343093], [0.1840736891685418, -0.14906251558825545, -0.03408828385775539, 0.062276820211780756, -0.10407915540783114, 0.060491863574942524, 0.09338403788420804, -0.0832522766798074, 0.011445129467083048, -0.0165729066426598, 0.053260494433545275, -0.004344572472729845, 0.05806722955855841, 0.04021605379471456, -0.03755831695681715, -0.11165475289094454, -0.06307426735783796, -0.057462417061505955, -0.1060335296400171, -0.04552323072138478, 0.1407752598684702, -0.2243099379931808, -0.23947710122812174, 0.09762897726874953, -0.0045337290169564885], [0.04723490016268237, -0.0028490873201028177, 0.05906804191368958, -0.01640118383194697, 0.04710913423532115, -0.06733992638322726, 0.027225177279501293, -0.05865808129907808, -0.17319867323034163, -0.032713159647835235, 0.12320081430246589, 0.0930708231358151, 0.03590632176050499, -0.04549232019443345, -0.07041828833389396, 0.025169562201192725, 0.006004224527738879, 0.09536947238125798, -0.03128004909510154, -0.05583058920169762, -0.04979775996532203, -0.07365583571518039, -0.0586603585660354, -0.16354336180525553, -0.12377722694101545], [0.0347368561243827, 0.024114873078245523, 0.06246866339009628, -0.054514868354282556, 0.010588765860976158, 0.13949068910927473, 0.11401674188614991, 0.04449521534700012, -0.04436523025753572, -0.04822218611795145, -0.06375384406623572, 0.042986990693319606, 0.11982386590471146, -0.041078847424098175, 0.006014174280559555, -0.061584478280335433, -0.017541319042728945, 0.062266698630939504, 0.14086368151054027, -0.2062611167567265, -0.06182192831723363, 0.07840366285897526, -0.2999983932754162, -0.05109367793676403, -0.08483247576392688], [0.014389328388907555, 0.023620764449889874, 0.21596570022587738, 0.02813244286272023, 0.10875148172883808, -0.13842728434748788, -0.10287256691980208, -0.13397926263753496, -0.025644864701315204, 0.0019267648216489122, 0.26370299606716513, -0.033382529464792705, -0.1384237380140024, 0.08688045417426123, -0.05808039207338987, 0.042721142688517975, -0.21098638009169327, 0.030430832507033802, 0.03491300737397377, -0.07623905356825586, 0.21821738843207125, 0.06436190525790067, -0.03086551321504512, 0.18382312473484433, 0.126783157908506], [-0.05488060466077967, -0.2064966473952313, 0.05416580741314482, -0.31583908766266033, 0.03334593812325284, -0.16112171104375989, -0.05648024525935741, -0.1387946164861049, 0.04177443969833302, 0.19775416768379325, 0.18196019526147672, -0.17884271533878682, -0.18735811725826812, -0.24600095249332732, 0.19624510548004148, 0.09998800352296011, -0.129742717627676, -0.03715666748158213, -0.0736284413996885, 0.016578169320223646, 0.33903458649608365, 0.08379110101552391, 0.12421330826137142, 0.1563756444006446, 0.06617439090501898], [0.024029812130891847, 0.12047876407563207, -0.038684569721555935, -0.15880967027961673, -0.10494465930002904, -0.3574130696485996, -0.04494904270342261, -0.2291801272752205, 0.022477589668858756, -0.04154335320751554, 0.021362832115470277, 0.1807678708713623, -0.008617202392244838, 0.1290613244560475, 0.17931407755202258, 0.03376352979323096, -0.1434054518938708, -0.07771227487855036, 0.1950816589775443, 0.02902819030276753, 0.007440515019663999, 0.08048456460130363, -0.11873548167391149, 0.03404510046318983, -0.013290981565036816], [-0.005582462120563288, -0.0124296464298053, -0.020114119370448443, 0.03414719284870129, 0.04772727024670082, -0.030403010918129976, -0.057955703438010375, 0.01934222822061908, -0.0743322243018664, -0.15250297670870422, 0.19389441049682982, -0.12030587946479646, 0.06822806010902964, -0.07761904712063306, -0.0895659458903067, -0.2639938931004972, -0.18540809477246417, 0.050315925647689975, -0.09764478250136639, 0.0034557241371697828, 0.02518289519816135, -0.11093268007817583, -0.2115101724928013, -0.1299432479635953, 0.05526041589337149], [0.0010007903196366534, -0.02990125003062183, 0.2211653224857737, 0.018015685394053373, 0.005485287271268932, 0.03343048985264398, -0.06215904425492672, 0.03285940671175049, -0.09076710584247644, -0.0172745421094077, 0.13087485943733548, 0.013926903209312154, -0.03975171774089397, -0.21676788025342414, 0.05380176678790678, -0.04511791649082357, -0.1391037285655424, -0.03507925115010685, 0.031818133208542494, -0.21754714986832294, 0.04860273051421227, -0.2634389586937104, 0.040298500854912926, 0.08540557007879701, 0.10539325796744621], [0.15007957911252853, 0.09496290560654494, 0.10233976845428176, 0.02401691087544101, -0.13488366311551822, -0.0022555332045695936, -0.06445273320106147, 0.14415004060004385, -0.012929255270297504, 0.014204251466693648, -0.16544826811465424, -0.1155127189765188, 0.004369763442813161, 0.1122507041889711, 0.06432008839656315, 0.001697461258088881, -0.07351714016750704, 0.10815967484042739, -0.037557017119854263, -0.13310382600528542, -0.012382506808012499, 0.10668507371854677, 0.03998477824874161, 0.0703235413549934, -0.03188709815999158], [-0.03627579020749721, 0.17699026325945522, 0.1476184014574365, -0.1599619921160491, 0.1452815283954084, -0.19133209745840907, -0.19556642546761854, -0.17095557976666476, 0.058622951878507884, 0.24775964217049098, 0.0470179903598344, -0.11222880686153151, 0.0058335306518671115, -0.05027657439424113, -0.08635266239724121, -0.12388185583781408, -0.11455713301328235, 0.06509189041769226, 0.13646673409272925, 0.11544337110491627, 0.18685239637817758, -0.041927543949275545, -0.22184151936234203, -0.140470174180996, -0.10102936615768031], [-0.07162653425127669, -0.38051377632253075, 0.07773603820453197, 0.2404842497582294, -0.11644748490957196, 0.09409830115725865, -0.03865509096894622, 0.26528277085236124, 0.12130534175906044, -0.07014067159501783, 0.10234276461397157, -0.3782852512076155, -0.0543087294514966, 0.09221444659926828, -0.01470623753678901, -0.05767972795310325, 0.2495214399059667, 0.06592426018808223, 0.13084557137929997, -0.06690161216826536, 0.07937765951212633, 0.002795163704672654, -0.1649170309726733, -0.04301341738371603, -0.11458695743572866], [0.05918469711976551, 0.04511500047338145, 0.02036721776876083, 0.0010588683201312773, 0.04361007574418936, -0.08512454998532999, -0.22561041190334294, -0.2554288179219906, -0.030309129323221468, -0.04000347453475732, 0.0188118277953444, 0.0925421248458681, 0.051484009089257904, -0.03170992619678918, 0.0035705626054808575, -0.04268121108310636, -0.031234226437781218, -0.030117717556286103, -0.052787803712633655, 0.15995998289814056, 0.011912731210818907, 0.35661812065151066, 0.018640684673499656, 0.015379155370512897, 0.036457585926138486], [0.23031911493863577, -0.22693143787725797, 0.10001670893873635, 0.051763477550170044, -0.018106708114632268, -0.09840247942094354, -0.07084690962018154, 0.09046408617607894, 0.1997545084331576, -0.0412435007976766, 0.035157500190015435, -0.5418027177746075, -0.034761117161258216, -0.05682360151981766, -0.19139635377037664, -0.10193339826551702, 0.25839221413454916, -0.16817868410672554, 0.12741078040428394, 0.08155085168705954, 0.053649568849366086, -0.14432025093942083, -0.014987102827697643, -0.025181223233525306, 0.013321292544124225], [0.03472334182589963, -0.017392705348726712, -0.014683199099348739, 0.17031062843812306, 0.0731508757290368, -0.1601915682430177, -0.03611169280479373, -0.04319491282548443, -0.10830341983948767, -0.029109680832489826, 0.012158193404380001, -0.17977695744388605, 0.08011562524993582, 0.14438080674919906, 0.0506833916231448, 0.015950879099100413, -0.14383217297216702, 0.06680330790645338, -0.05996465608252041, -0.029196790480426327, -0.07687950980677277, 0.18324235704576508, -0.06690819176817434, 0.08064452953305563, 0.021599490956901675], [-0.023483920501623425, 0.00595896548443476, 0.11712856325824743, -0.1843153948219748, 0.14087157058416291, -0.016266485404678406, -0.08639899340104976, -0.1844220459715757, 0.2195839129293609, 0.09768846992968465, -0.03819605166722025, -0.08058000192565368, -0.1354625050382494, -0.0008530733026293202, 0.13944004929095427, -0.0983359618268533, -0.21605843879348666, -0.11235906411289392, 0.13848390350706538, -0.029650175756556055, 0.031125754248010673, 0.044142985257715824, 0.0562025985012277, 0.15319737249411616, 0.11286382892727681], [0.09635977166669063, -0.09149693393622385, -0.13329925850821867, -0.28141236329627783, -0.14567669973714248, -0.10951092094319949, -0.25682693811911905, -0.1272025017215207, -0.13319720752419967, 0.07215914678474658, 0.1870769573739009, -0.15016068571486232, -0.020344718541485056, 0.10614709616952907, 0.20328101095989057, -0.07708684697272127, -0.07950185206003478, 0.2183597496389863, 0.03709628516248967, 0.11523269165835742, 0.18675344844843314, 0.0935125254351839, -0.12673187656685067, -0.03075395116776305, -0.04755585982923216], [-0.09778085410379377, 0.043492747477178455, 0.07419929605886104, 0.04556597766435519, 0.06567781918521019, -0.11336996579509034, 0.03470661759467821, -0.28911740895194404, 0.08633639551509915, -0.01969087679639126, 0.267886520660851, -0.15079724486378365, 0.04965307991011158, 0.0678736567976889, 0.1753143744208434, -0.02639637191116453, -0.1465447036652444, 0.1609975042879127, 0.16065550321821287, 0.17239360779540625, 0.06729804928851764, 0.20286876350889194, -0.02634581572923822, -0.01443065842771489, 0.00983493951607402], [-0.06330413906355696, -0.11165835284330039, 0.07557156835061857, -0.10061664013854407, 0.1645695482589841, -0.1003081347173853, -0.2510876461526858, -0.23192185763895357, 0.12338088526073919, 0.10461782453169499, -0.030903149577661004, 0.03827352861828122, -0.10121533000627675, 0.12713498353411673, -0.05857259322510763, -0.005230172955767198, -0.063380516828293, -0.07507617352008782, 0.10758903272017246, 0.11373580539146713, -0.0075119179361942305, 0.18602434671988588, 0.008209271993027916, 0.1874501516178224, 0.20705783885867626], [-0.14499758004191612, 0.14917497388674428, -0.07155948497017435, 0.015573635268838114, 0.11686034415750382, 0.07338924078886475, -0.11723734474213852, 0.06155446556016156, -0.20868710413907976, 0.018872777773728783, -0.04931982395318896, -0.11393491229135708, 0.17334058468867142, -0.14910816516391068, 0.01927691249947166, -0.045791632755245115, 0.01023174530620864, 0.08886392931085056, -0.14083367003030337, 0.11003661531645519, -0.0866083968725781, -0.0552140288640295, 0.029330416278015053, 0.07102996532842736, -0.1182263624182231], [0.12229913787948028, -0.35822629714252574, -0.005887306430936219, 0.13310779319748536, -0.019666525977974053, 0.05884650304018806, 0.19721508341189142, 0.20385490277319943, 0.08232762099132916, -0.1990086956659506, 0.0017476560848891584, -0.49484909709289265, -0.041469437014609555, -0.017455910128821344, 0.11965351208384085, 0.19927588931339346, 0.1539504325366311, -0.007567458158033434, -0.03892027703997775, 0.10783338318834254, 0.0826734455835406, -0.09152101978680356, -0.012411004139335673, 0.10998500224022699, -0.08610350564165005], [0.13253595304254703, -0.07358970633432149, -0.05477924535706992, -0.029032094207768568, 0.0033197284068304934, 0.10498318365487591, 0.034826093325406295, -0.053574425108931706, -0.0009960911079494282, 0.03465878032463171, -0.1213400111668374, 0.01231421623541811, -0.1076277094918215, 0.11330939182122766, -0.020803152888887462, -0.12607172327331198, -0.12889796305668563, 0.038978113647466055, -0.12352474847921127, -0.09169922410184787, -0.040670920661304004, 0.14704606944644116, -0.0003079315558096186, 0.012734081080063102, -0.056766260255945236], [0.05042415426847601, -0.008541500156243147, 0.07477107716059497, 0.05857477051740734, -0.16313998089187376, 0.038892816384877654, -0.17189376225167666, -0.04363712571346647, -0.04092423903576112, -0.1626346529960202, -0.11406677483943149, 0.06744958796768519, -0.15306288500043233, -0.06469659456303135, 0.0611626310305914, -0.011937246301165194, -0.055701397638809415, 0.01131967880693691, -0.15237104667114254, -0.08329372066849765, 0.08219481593568477, -0.18865834702221418, 0.02333551904121138, -0.25925335521237036, 0.09212535511406159], [0.05690450986479953, -0.12000476797202983, 0.042573595560969374, -0.031990317653866514, -0.07537931441623275, -0.02990771857798314, -0.17146378753353408, -0.1079148785235783, 0.15274706920496522, 0.17901350445043998, 0.07029699636113322, -0.26658175250518745, -0.21233466067411721, 0.046166505798335325, 0.10748180542065931, 0.008861383434486524, 0.0026982786481295476, 0.028246399364848847, -0.05195589871002484, 0.2404437402922344, 0.09678082184544626, -0.06570375748756441, 0.16958873322475554, -0.02648839739684577, -0.04460592039330058], [-0.10920333678720716, -0.04784383942325615, 0.03350375227938773, 0.01200254774199964, -0.03968404424730465, -0.11231894515076282, 0.17081450505934118, -0.055772666067912105, 0.15373056502815888, -0.16828530859904559, -0.008703639535208791, -0.03419288380155297, -0.08888025492414683, 0.23751489123349884, 0.1724352914221961, 0.0011905545508648192, 0.04942198230865591, 0.028357828075124165, 0.06339272367953286, 0.04719441503531306, 0.21788776028586754, 0.0064649909582407085, 0.08807730888724195, 0.15040339075756298, -0.0830427339930796], [0.10656232226243068, 0.15719470744896685, -0.018176721783285617, 0.18294671897276593, -0.09289938964832434, 0.15978081871672173, 0.020792620389890444, 0.4127258924730512, 0.11680594063716487, -0.22076809051796764, 0.026740121192079927, -0.30601836883118994, 0.057842613078436744, 0.14217955233976057, 0.17656322209668596, 0.014978204062559487, 0.21806634288588014, 0.09062428912985479, 0.10795252029609857, -0.03555066031076383, 0.08068289632456374, -0.08854141992670275, -0.05644837659564888, -0.09903522971950603, 0.09076506184876701], [0.28183550998031437, -0.015947821191254662, 0.024490545085412922, -0.2415902333750577, 0.1767879080397309, -0.3935535960966053, -0.1390699097734605, -0.4139462479384014, 0.2273120138988882, 0.05332097723570949, -0.007801048179537492, -0.090570238804027, 0.04681209324843341, -0.008773776015370622, 0.09876475744282291, -0.0448718675702721, -0.48817727937940547, -0.1371243195225478, 0.055821453960166634, 0.06529260571833971, 0.12885245115033525, -0.1321171379786932, 0.03703291729623442, -0.14973964768663262, 0.011282526591852735], [0.08807076027056092, 0.18385068541690908, 0.011721020544539612, 0.04172880915306766, 0.05134856045421204, -0.16726270393965043, -0.23185335165787146, -0.20452532049583705, 0.15326809580176917, 0.18683068420176913, -0.10072109743699817, 0.09743971093094661, -0.2202899580466342, -0.09059985108985238, 0.2862226063708854, 0.12525861019858983, -0.22095179719166974, 0.2530055420471202, -0.1647824821732452, 0.1196701827781258, -0.015482191903259853, 0.1646945742429511, 0.0491219455562454, 0.15159238317842272, 0.08993483777123021], [-0.047066357091958895, -0.09825632876915658, 0.0793347066287208, 0.25702076448561234, -0.0404126931578765, -0.03999653497519698, -0.07214063483536014, 0.041375578102629915, 0.17341910875221225, 0.09694128386446278, 0.04476107368757214, -0.42096832012369606, 0.10583782253675536, -0.12718801299419988, -0.13475217438336412, 0.007532388833897389, 0.14507069728131142, -0.22119959953684254, -0.03352357560745095, -0.22535294971671088, 0.13232743233781707, -0.08548873996520906, 0.027730217058172153, -0.07688251261568335, -0.04019263254520367], [0.02114183812158891, 0.03553657970209925, -0.07178639846609651, -0.12228829187034007, 0.15660014610443565, -0.10248661444204454, 0.09966035455960515, -0.09507963333018744, 0.12589415596871828, -0.018703742992578445, -0.06140642394820341, -0.16276736004278317, -0.035928483699016855, 0.13098404555643015, 0.08047454668445829, 0.07251757842250525, -0.00854687801635742, -0.1132476259052318, 0.18936532296430317, 0.052831259031437525, -0.09002728678620955, 0.14280249392691277, 0.12428161304304097, -0.04387546620153565, 0.03253797768872151], [-0.07093615595744808, -0.08941683170465395, 0.08263228913587664, 0.1567043036677702, 0.19687770191629847, -0.03371855241402444, 0.006057806365984124, 0.12196597993767319, 0.06570462394680313, 0.06501006228998295, -0.14409951885380465, -0.09479341679843627, -0.05388361320351928, 0.07771625220209565, 0.15352949877130734, -0.019974010643918287, -0.1353376493744638, -0.0182382214155396, 0.027161843619659565, -0.12079170069642194, -0.13070111470553145, 0.1265544077709896, -0.05338962663735454, -0.024999423108979592, 0.033873218898121914], [-0.15792937187794664, -0.021657727373474215, 0.11112211381563138, 0.07495897092325955, -0.014728487973230503, -0.23228233237128643, -0.31331379834609, -0.2442182203780629, 0.03713582180568723, 0.07106163199688785, 0.036794366476405174, -0.035306214303127914, -0.03291472480570923, 0.05560678689691766, 0.11741259607004188, -0.121541306369535, -0.2730628663578431, -0.08221426824090905, 0.08824817607357578, 0.14874756068367773, 0.3195146292067832, -0.0651211759128703, 0.04768643159726878, 0.10647914689366612, 0.02569039752954765], [-0.05528904855160364, 0.0745443770430062, 0.1987840039705695, 0.14459109185271776, 0.07326053687084186, -0.005682317997695806, 0.22954245818964103, -0.12177470899676615, -0.13930608657578591, -0.0656468091675022, -0.13200988349145346, -0.14486759046021833, -0.2576120106090944, -0.029609396988402065, -0.1687871170517259, 0.10859652705698881, -0.04047954908610868, 0.0645813482017074, -0.13363618046757272, -0.14723421576395654, -0.06346190772115896, -0.031285818939731556, -0.05843989422889628, -0.06892003621190329, -0.03875120312763125], [0.17798650833429608, -0.04875578378696201, 0.1605818994538886, -0.06026221505631843, 0.14121248639707404, 0.009040556262955232, -0.17898063135653633, -0.0512635626289383, 0.03982033480677115, 0.08112114965234422, 0.22190668670290895, 0.2637804174646831, 0.09351555530498602, -0.027817783572415846, 0.03202880189964338, -0.05333803631943155, -0.14143561059056434, -0.038946492644941995, 0.02008555053900403, 0.04103627519128513, -0.04829109957642371, 0.0948251009659799, 0.03304814395244034, 0.04940363615319838, -0.022437746606350003], [-0.02216507772381639, 0.05904841696405451, -0.035002311172866986, -0.09549096438332239, 0.032284990762117015, 0.23132755057062387, 0.13257006558806037, -0.042319080575397516, -0.07557031744784094, -0.03074493373668585, -0.16883112533873762, -0.007257013520733946, 0.1568444800089701, 0.15194060232286674, -0.006120516300072202, -0.09510458193274046, 0.05150221887641061, 0.103443721127892, -0.06920019003916233, -0.2107869353901112, 0.03427564306348784, 0.019761982807197376, -0.15452602021845102, -0.01258072259146603, -0.16798867652202218], [-0.06598356834696904, -0.1984304839525971, 0.3534021080467718, -0.07324166159971136, 0.130561500915972, -0.20503488286185828, -0.0963848771371437, -0.15012901014152089, 0.11790347820548289, 0.10503560595027733, 0.17518486720010895, -0.10140618701615799, 0.15942437926421046, 0.12804205813013358, 0.1791741380980382, -0.028613812602128447, 0.0850651720835951, -0.013074468188628894, 0.037774254278898536, 0.2408482247218545, 0.1694409272954991, 0.25399873747308993, 0.06284605878324319, -0.14899747406809793, 0.023071749826102397], [-0.12204348622255362, -0.09494395078933127, 0.019332652233673978, -0.12019245120462911, -0.026069948909170304, -0.10736751090624673, -0.11214185852373931, 0.13859336826644258, -0.16535853992063798, -0.08118650221782933, 0.005054175906692722, 0.05238289600121642, -0.07361491363928839, -0.07352868072236311, 0.28023924346676227, 0.16096162476756826, -0.13261261125644438, -0.1258949941437553, 0.13177107594478785, 0.0683389197195011, 0.004106442622933909, -0.06766102743400687, -0.08591491342755635, -0.0404098518237872, -0.07454259630636888], [-0.1012999677747237, -0.19930671810435924, 0.10625791500179241, 0.010767907133900877, 0.04767993659943708, -0.10358004217464893, -0.07942736328724329, 0.019918995498656326, 0.05044333564287923, -0.01882057744808934, 0.021824154190153145, -0.021751380598566107, 0.0012287044276566277, -0.11718464294806169, -0.12256154487085592, -0.07712300055084487, 0.025517047506832636, 0.015684005416465724, 0.09149726263727427, 0.1276254894258194, 0.026431338548541232, 0.10585602907935605, 0.0037057971055593636, -0.10546359334669701, 0.16438738971351607], [0.12182173030881799, 0.045463568304605226, 0.08813904390015914, -0.11152453863402516, 0.10920245234845705, -0.16998056745458293, 0.013728952095071745, -0.1335097252764061, 0.11850351542079077, 0.2501976813651425, 0.09057305377422663, -0.3102867037497729, -0.08180327127898633, -0.015821210076849942, -0.2018311914587706, -0.061760920982318605, -0.2752704606871414, -0.07420438955236625, 0.03312679212094632, 0.17643659340578996, 0.12666136148271437, 0.15411075974237973, -0.06088337022899607, -0.009177247109822302, 0.15617223187244475], [0.004288411932092028, -0.08795014460032588, 0.1410376435009307, 0.07894793394378366, 0.21084143160300928, -0.16862986669924826, -0.1840577027408303, -0.2773168977964007, 0.1737390503538177, 0.20533733398750115, 0.09830639437899283, -0.14921828331090092, -0.12923562484180506, -0.02741328710359487, 0.07935146179223863, -0.09288286489703643, -0.11710128818025758, 0.07920262118864137, -0.07235802083207522, -0.05916940311710314, 0.22079332775652538, 0.09297638325992094, -0.14567123807160687, -0.08221339190542488, 0.0793951014441781]], "net.4.bias": [-0.002223985973573404, -0.03755155711369705, 0.0, -0.009999990665123689, -0.021368873530158317, -0.004939980477836465, 0.05005203697072239, 0.0, -0.009998824041803413, -0.03037849279528464, 0.049595625713356836, -0.007451080898035765, -0.014656455300660122, 0.0, 0.04702649817164081, 0.04375198305680013, 0.015880698290519597, 0.0, 0.0, 0.00041189016021964543, 0.04341828813033068, 0.037743917271911565, 0.05271175332515362, -0.02162907545215066, -0.022535664892357483, 0.01975338352313472, 0.054212272654116725, 0.06745584980489411, 0.025179387822307227, -0.011277678990700375, -0.005256998403407034, -0.009996949224580217, 0.0, 0.04013102716702391, 0.037927322150182755, -0.015568653140492775, -0.0024220935981258194, 0.024846223280756998, -0.021927097610029336, 0.014731888525220444, -0.009208749422872302, 0.05275396755442358, 0.0, 0.042908391595551335, 0.0, 0.07170955547885864, -0.024545864822090528, -0.01610200037302798, 0.03538983090692719, 0.06733233103999915], "net.6.weight": [[0.16533496332695308, 0.018511879517129952, 0.13719700360726228, -0.19457820770823223, -0.15220536314325087, 0.017661782132085094, -0.07155864949685166, -0.04371897348965804, -0.036420329026302864, -0.02710557531661372, 0.010400300792516009, -0.0007290986334201262, -0.0012420673731515619, -0.06357397436251266, 0.16373449547115984, -0.10108343075926217, 0.18596218704141176, -0.14203278187666044, -0.12122445372649984, -0.06743446951882838, -0.17037733364086016, -0.28242043745701106, -0.10145678368831476, -0.08955463136323367, -0.056918731222901156, -0.10690900869399579, -0.08575295596126396, 0.09398127505477205, 0.11471658481376862, -0.020324490449581102, -0.0749999828924894, 0.01598923603728581, 0.12536372357111217, 0.07355109456647035, 0.0405715100211126, -0.043509336592801866, -0.07862258213743369, -0.08351365292181236, 0.0437469284384735, -0.23036783504948416, -0.17852311059122428, -0.12253672861977272, 0.026442784892038107, -0.04320019294792576, -0.025687660485966962, 0.18339931411708724, 0.06358297473082467, 0.060528325410036964, -0.1237271127856005, -0.14874281652229096], [-0.01943753188149365, 0.17716785037994007, 0.054891583331507836, -0.02150710548138045, 0.07222203725946372, 0.012480876938984812, 0.02742344544336303, -0.16336094730514755, 0.06390085073194728, -0.11102457100260117, -0.1852675162871542, -0.03266446173678755, 0.022903043533395107, 0.0411697347785745, -0.10759771948626405, -0.018784562310150507, -0.03690299829119569, 0.0336159594572668, -0.0378721027588423, -0.07849459213802909, 0.03836168836704017, -0.15103545221870304, -0.2081736502186757, -0.11882271981252633, 0.06447895417532941, 0.10644603365305186, 0.011529104077955148, -0.10638104193040615, -0.01217263282266366, -0.011574392974650365, -0.10765216385151988, -0.05404334553435578, -0.06403555967145844, -0.16448790803201147, 0.009812583215851945, 0.07393589643190061, -0.03895932875211196, -0.073734095181246, -0.0005981628297835888, -0.06371165207095496, 0.08720875259107508, 0.0285391961751421, -0.15142084596966862, -0.08190887443934991, 0.05574829378016787, 0.22675104769468302, -0.0402387396407004, -0.014611907029702054, 0.24688793681510068, -0.01278220377521158], [0.03707361455432422, -0.11704888736818203, -0.11271457657094944, 0.06498868648998103, -0.2527966323596307, -0.10798365705433693, 0.10555779553885715, 0.07025202714789147, 0.07814539989345101, 0.1720555446166985, 0.27876404115834924, -0.0044775633628992345, 0.0020192781197526655, -0.08572133490113476, 0.10242261948999369, 0.16229548838240965, -0.14834745021214413, 0.16678679230252275, 0.022668985597759688, -0.047654612410307114, 0.04818690001049436, 0.08430196683198775, 0.05008615618673764, 0.12172036146975461, 0.03543648012401578, 0.28202596860666707, 0.14588514858860369, 0.2775645475299852, 0.1306826681451339, 0.10573079229353402, 0.1100174337350211, 0.11303977195391421, 0.20041566193642046, 0.26952776354667474, 0.24795242451992697, -0.05292939460136409, 0.062136873904655776, 0.08342757753006501, 0.09412077288748474, 0.07912464847802601, -0.0019973138701374696, 0.24361736699440828, 0.03290638150120891, 0.00953689410495407, 0.11128005304063138, 0.2144636656676598, -0.06210835651984935, 0.03766429219665046, 0.13705199405264346, 0.20880894770416256], [-0.013696984811983762, 0.15652737486951773, 0.2510104183304302, -0.032850909300673005, 0.05213760819756179, 0.10933619404635658, -0.18763907056177972, 0.03731830806621963, 0.10881361153527017, -0.1404520759790008, -0.12175501578053773, -0.14376619649033082, 0.06203300957241512, 0.1985512575034784, 0.055244847133889684, -0.0677169270249905, -0.10292643094824745, -0.0594513401540637, 0.06984586282018856, 0.09191629583796959, 0.0932812363031874, -0.26953157783218995, -0.02720602403743938, -0.08448572835781087, 0.005472982910492454, -0.06798028753784349, -0.02372876725138465, 0.0571004141404955, 0.0136815011431968, -0.03128385573132778, -0.13211018021526702, -0.04330986794772958, 0.08140704642557542, -0.0017614748470285567, -0.23835449891549754, 0.1420278441122018, -0.19134704582184348, 0.29918822427812863, -0.044845909575562184, -0.07658133219637309, -0.015958657823735088, -0.025803749750928008, 0.0862023640686379, -0.030476184224716575, -0.07204961521009132, -0.08903690548928386, -0.13847031875166563, -0.013627664678120665, -0.07748963778066471, -0.052691451024861384], [-0.148875006926671, -0.19205879460192882, 0.0040184516744466115, -0.1702283035089865, 0.024666641018567862, 0.14181733258796772, -0.1443190502510322, 0.06954082639884099, -0.1685934487278523, -0.07219163424701183, 0.11316441593884877, -0.04821716370405967, 0.11286633337777577, 0.0008632466778703108, -0.1100691781002805, 0.11430240351985221, -0.14907298598491345, -0.0807383403642461, 0.2922639362797558, -0.24908429922526418, -0.16816401340391332, 0.007038237665747243, 0.009587857352728314, 0.08362090778923201, -0.0021412973359400023, -0.08601721583577288, -0.14045388900336836, -0.08585235082690391, 0.010395397741384359, -0.14035632180442367, 0.0022076501363529413, 0.008283936115132404, 0.13869760904723855, -0.14857689420936862, -0.05861795763864436, 0.12302164110908533, -0.19684856333187314, -0.09688852768018424, 0.08449434717737318, -0.20241752510905173, 0.015354064905516399, -0.1202890336671438, 0.1641938984158213, -0.12106867343121529, 0.14856823834119579, -0.12527083899129046, 0.17356338574259705, 0.028019238450905683, -0.009865147250626132, 0.05313621175170871], [0.027050760129076198, -0.22924519261544654, -0.13177531380952168, -0.02144561500279607, -0.18905360563792203, 0.08019269320005862, -0.14628042769642421, 0.1328074296012924, -0.02407816729497261, -0.1052571760097339, 0.12940179057166165, 0.0007455335128548834, -0.10759428775127602, 0.06604271727370571, -0.04528321169029205, -0.10345446549143306, -0.01415168804439935, 0.060353664982900936, -0.02157465396028201, 0.10134610756185641, -0.16955896271894227, -0.023230672404212678, 0.1395395610199823, 0.13267297030237213, -0.1644938952504621, 0.056667861917835675, 0.006331901851731663, 0.0490386287735127, 0.08628964755034654, 0.0032460587443578146, -0.1383149653771206, -0.11253441225307613, 0.09394367198699788, 0.009462242067850159, 0.16985717959059465, 0.0902632144950542, 0.01951177552923737, -0.18821819892879166, 0.015335652585528199, 0.11468202124553475, 0.07296172414847293, 0.14248710987993823, 0.08037658555539917, -0.03195789073259086, 0.0577545018274993, -0.19716604541006688, 0.25022330484806504, -0.17363183477216712, -0.03742934849931092, 0.0669805760933825], [0.0706960821293818, -0.23541352131299853, 0.14282413880287134, 0.035590863556952575, -0.025475722192995362, -0.08837939590500886, -0.0506914425427202, -0.07334363529895449, 0.07678513281856207, 0.04068182907457481, -0.0017795867615439565, 0.0521365910718117, 0.10954284259257455, -0.03172226633891, -0.012865623129363334, 0.1085465496199783, -0.007086679631901509, 0.031283179461997566, -0.020287689717811166, 0.013079951318392418, 0.012935689438156543, -0.03330501770384541, 0.0669457293146728, 0.06780123142738842, -0.12818259607060145, -0.0834005216245063, 0.09309758410896526, 0.035315640310053756, 0.3032593047299399, -0.09256200973326116, 0.0446323937073021, 0.11694586443651019, -0.056358508121148725, -0.02934975733998018, -0.0009384126718878299, 0.016627529351136712, -0.019868201237404518, -0.03013164313805415, 0.07610957109792661, 0.042972628005617415, 0.015108363781005617, 0.0078028265833070785, -0.06328540889203084, -0.23932695052773686, 0.04457374232821454, -0.07469210886867761, -0.056519631361536614, -0.14634867922799152, 0.015116763165958592, -0.08444768270457655], [0.1777286182893214, 0.209758785061717, -0.06310299848755721, -0.018907040740450125, 0.05052119245658543, 0.08002305765079454, 0.04518646555677439, -0.08876431736389877, 0.0332803386774384, 0.012309365982457882, -0.05292377336424032, 0.02832344711662766, 0.027176809401600905, -0.03691101286498828, -0.017996344078650098, 0.027925861526670384, -0.016629460589386844, 0.0980505097894821, -0.10956444748918202, 0.025421085339182373, -0.08568391083928834, -0.041273598249647936, 0.02030146991232691, 0.00018806162400253134, 0.1084152335302528, 0.012572059597163718, -0.12856949470926002, -0.12751993407736123, 0.012951039167939441, 0.14058896389355574, 0.040912643547900335, -0.081444468704648, -0.06504139846197132, -0.06873359519248488, 0.13159733145679328, -0.06371206078487068, -0.019109933686116014, -0.06817030341327332, 0.09174552348017825, 0.024828475807058034, -0.007404502805239747, -0.09538364975948575, 0.029317808482770293, -0.08964198870457235, 0.009460719328772063, 0.05311953389191607, -0.021278150339185974, -0.1399623570475348, 0.04715181008986872, -0.15427261826653504], [0.09842998415394488, -0.1562486005708374, -0.017026828998061946, 0.01511991680651436, 0.07945300986998344, -0.0227525989056027, 0.08764549572115705, 0.19110321208811032, 0.11143955549260763, -0.049192851345314065, -0.03998299527854539, -0.18348560713787612, 0.059095982232681435, 0.1032423471273384, 0.04269052869868619, -0.20665935688021464, -0.06062540575842314, 0.04003051794497844, 0.001393239874558211, 0.045390883630970436, -0.07003308805077661, 0.03465808873545982, -0.10069360260554516, -0.054381673702073696, 0.03839603422529165, -0.010823929442370596, -0.07131060586794073, -0.045222044911034515, 0.09479837083924263, 0.13426639515567512, 0.004677987840651993, 0.003128353297467903, -0.009265995987734664, -0.1256668635342011, 0.028346572828849583, 0.07631058740912486, 0.09913635754891369, -0.013720180986910227, -0.12381435251497547, 0.18765639527079137, -0.12938039062729625, 0.14000620363114866, 0.1886862759861594, 0.18404407582570398, -0.05369838354691201, -0.0455452743552789, -0.06522788990498456, -0.021510615612593313, -0.036065586456879274, -0.26165732018421717], [0.08888794342301962, -0.05081333098398881, -0.09124204968403204, -0.0031451315724334984, -0.04939137569650015, -0.0768475335449435, -0.0650316220139585, 0.15954521331470906, 0.1999380375161855, -0.3000813165417295, 0.01067202928579662, -0.0817167270208424, 0.016466317780882346, 0.0502084286651626, 0.11865792976142779, 0.09952849664083321, 0.1460081297028129, -0.011767706268161378, -0.061105957784503964, 0.08516465649774693, 0.12049657243637284, -0.35542069283997973, 0.2527609727192451, -0.3873906207136636, 0.015235562225277012, 0.1668743499174463, -0.019435576036597922, 0.0708953389137765, 0.21527624392328196, -0.06356829335313202, -0.2875309454164576, 0.04481737699612865, -0.05831847092255014, 0.053478094736419554, -0.09344859562477188, -0.4380281936901566, 0.23216959950541993, 0.2800902237858685, -0.3003209646063785, -0.1710774481373119, 0.05266203056077515, 0.21713649252382566, -0.06639253586144105, 0.18290458262155315, -0.07274231296369063, 0.02988149164552941, 0.07038089105082125, -0.0821018954281182, 0.2778229191310648, 0.09383779210296558], [-0.12897886501641317, -0.08963561517025867, -0.20518421378807525, 0.16969334572469652, 0.011914469316145879, -0.04395919657794438, -0.007114927009462362, 0.15485016000042584, -0.10098365812028896, 0.06895183634104064, 0.0009190302345169147, -0.011432802727774017, 0.07189959035055452, -0.028910231469606324, -0.27841438974894905, 0.07357313667615173, -0.05491363407723622, 0.07287700547735841, 0.0020095382419542435, 0.02504818220859441, -0.15184399811081273, 0.12806955657323157, 0.009843054541520551, 0.19666213086188244, 0.006025154143000186, -0.011590390206377746, -0.14469529404729867, -0.23491063164149675, 0.08374111394086341, -0.10925326363680526, -0.18556285922673252, 0.03076259351321782, 0.014652881073630154, -0.010096770731156508, 0.20955213150567548, 0.12487250364357232, 0.08423887134549204, -0.1440089339451549, -0.010175063728992854, -0.1468070641450858, -0.16268312551517058, 0.031395659823518426, -0.01508888870924538, -0.06453492174797812, 0.11788649304814794, -0.15174915455653623, -0.10066304111087312, -0.0511442844681911, -0.02264105618125827, -0.22374863791247057], [-0.1692755498522498, -0.017996888213998485, 0.029938016281592195, 0.02396784260688118, 0.05279402346443614, -0.10651768691468473, 0.06382990874228427, -0.08603454974052413, -0.0700397065910888, 0.1335633559511437, -0.1606816176640245, -0.1336085673915866, 0.1971197615135982, -0.0022260862034743107, 0.012502447482664904, -0.018612927495783697, -0.13750696548285957, -0.01755272457392891, 0.09874441736846232, -0.04409212336655304, 0.007091580107100372, -0.06774747485578135, -0.050941167903434365, 0.03443530048364156, 0.05551675952223283, -0.2197278514931489, 0.03885296038099346, -0.013333828526303711, -0.16728969087106177, 0.1858308993194187, 0.1289449905763549, 0.02719512407468748, -0.09438646872937739, 0.08158516233788779, -0.015857353375937036, 0.160990359540574, 0.23436226727678813, -0.14438907533175338, -0.04885390031147772, 0.08500270559324923, 0.0947118107908309, -0.07171897680427866, -0.13225618049230492, -0.13733424817684722, -0.022761735418544343, -0.029125935853549924, -0.05664070011221977, 0.09517572810395947, -0.10111140594741012, -0.036399006804068254], [-0.02348173373751532, -0.21855987026764967, 0.11831946805097214, 0.026616174710608714, -0.009807847128415065, 0.06144709108885389, 0.16469496603033393, -0.23527070981428166, -0.018882953860958732, 0.18698758054495093, -0.021095656212176395, -0.2010626707956641, -0.044932017383987374, -0.03193830443498021, 0.325372130257919, 0.3224273574174626, -0.09307811100793757, 0.1319229402992739, -0.11128712600356605, -0.18923809752854384, -0.011842833511866588, 0.20787958112141616, 0.010267862888149137, 0.0698671792361716, 0.1387874367307768, 0.010164670519195465, -0.05163366232521531, 0.010871989114650116, -0.023407694640371783, 0.12370246000108745, 0.09129523296825694, -0.17259533694762308, -0.049682505526948646, -0.008805012280595638, 0.03300201771334601, 0.07640075039198937, 0.0318842693811515, 0.11061688848237207, 0.02142472242721149, -0.09977117796959978, -0.06583671537062756, 0.12666409125531383, -0.04041307073254874, 0.11187618330847239, 0.08454063347824427, 0.1509316062301523, -0.01843389154841093, 0.08174727696047791, -0.055684247584827144, -0.005640886715864925], [-0.017054185662523987, 0.020831762844422355, -0.020564879233300398, 0.026638419393885976, -0.07485039433019787, 0.02419044701903043, 0.11532133035557174, 0.22340468505291433, -0.11474690085350686, 0.05363926983676093, -0.04679211812479813, 0.04685906894789907, -0.048444537621927415, -0.12219857914588106, 0.036752686099308894, -0.011972692263326772, -0.1660159851035405, -0.11635274010185928, 0.13735792902961938, -0.1945768349473419, 0.0789071760860752, -0.06600270359687384, -0.0820447122225647, -0.04693840338128099, 0.014656708015672738, 0.0911282983394001, -0.002876382491284992, 0.001052701030560977, -0.1230045705381275, -0.028175906650009866, -0.08315095154176372, 0.2212477533760697, -0.013828695707306682, 0.028328154758559543, -0.07812671133861304, -0.06755101160080698, -0.09082132007323002, -0.0813077711174826, 0.12678350450435974, 0.0886833089666407, 0.10641182927047087, 0.027665721478820487, 0.07331960467233141, -0.006772736939090413, 0.008325011952793877, 0.022990748153254033, 0.09517092494901352, -0.09601280314357497, -0.041399114927175365, -0.169432834051975], [-0.020968984681353147, -0.011086694445495779, 0.15775390145264587, -0.10180463480493383, 0.07666943192009655, 0.05629294791244685, 0.1530626159371668, -0.1658576485803882, -0.14468554281257492, -0.1488017468481526, -0.045356683877117936, -0.016578560334377372, 0.09505414877898342, -0.10050248963938142, -0.02316840497497877, 0.01323285223968294, -0.07178245612363116, -0.1120692296118637, 0.1258972112823469, 0.015983335706717, 0.05094227958109657, -0.024413119482090108, -0.2050798734682518, 0.062262464191577084, 0.021740031502877254, -0.019597692533872085, -0.1327882850890585, -0.07202576588241658, -0.2135186418832915, 0.0029914026384832626, 0.18968005026198562, 0.16442513378529156, -0.05075198930431061, -0.06764456050383642, 0.18107668771705038, 0.19145459486294897, -0.17874062692823184, -0.0960519288683857, -0.010496880347828757, 0.03264555043936941, 0.10447279521007327, -0.020216327903069202, -0.11963272416197156, -0.09652521344764063, 0.2291514156363646, -0.07071357006285806, -0.15595194013524424, -0.07600109351043498, -0.1301928336928183, -0.07639347432929078], [-0.04852674406303139, -0.14649003015692336, -0.10261509025309644, 0.024229566995697102, -0.0998336832264331, -0.020199105682376525, -0.0001862136489142914, 0.1410629420265492, 0.13969991692802924, -0.0476501870002009, 0.06607268016179636, -0.0839848919270189, 0.1340472672425754, -0.09860099682493595, -0.13041172840900095, 0.023224137813740407, -0.02248526736715425, 0.009042609692090921, 0.06633517119235531, 0.007201837422147789, -0.08275845934680458, 0.10491527086191528, -0.024660925806142747, -0.0236632694993497, 0.07211829349659904, -0.04472623124180938, 0.13233603987059206, -0.029952302085490115, 0.060786217654394875, 0.10869786745667864, -0.12600520981095406, 0.13278728533780845, -0.07725987471952772, 0.05060779891925707, -0.05191828049105909, -0.06153366168699063, 0.03756735384143041, -0.06786680333274708, 0.06176955181075813, -0.014508175425328531, 0.01988776320295984, 0.0028571451455519656, -0.08345999920293588, 0.03931247040837119, 0.01303719484942826, 0.06690527908680538, 0.019384143478806695, -0.13410697698783747, -0.2971761785701911, 0.12464416591851582], [-0.1649880406776869, -0.12010556013980205, 0.2530108462067564, -0.01844691608116869, 0.033403216236133494, -0.058939889513380694, 0.17770092124414397, 0.17405618572563025, -0.06359972121360336, -0.021861022727189865, -0.03789855175171153, 0.0066178587737726795, -0.028806991112670065, -0.042541028692288735, -0.014853485249814533, 0.18491398619006577, -0.08798496549343907, -0.04069752406633237, -0.06320254352809762, 0.05197477700887562, 0.1714649121230001, -0.08028228230689531, 0.07079401362027589, 0.011492198674789284, -0.21234393969188828, 0.025914405410379718, 0.1380228278891964, 0.14043985740408746, -0.04589145838555876, 0.04044404726974525, 0.06785945749843024, -0.0614669574285607, 0.01608838706387525, -0.11210892457750288, -0.04752377721913057, -0.12034357607197864, -0.04525579633231643, -0.06929070101770689, -0.042932186514338846, 0.17370519808886753, -0.021213105144924697, 0.1841705853814778, -0.25290777926618985, 0.15053561328337756, -0.09240994754611613, 0.22211296722763538, 0.10397151552785583, 0.020309897957740998, 0.2117459161858791, 0.15230202570059584], [0.08176670206340775, 0.09594816670710145, 0.010543312292883699, 0.12795970544687293, 0.12044254206100505, -0.010168019676577683, -0.07423581120639566, -0.1546446117513367, 0.04569668857625898, -0.21415894899924817, 0.0037635835400386198, -0.03587535449828578, -0.04047467100447049, 0.06652491736012155, -0.08854248430727277, -0.010517780809383608, -0.097594405241443, -0.07308240722881576, 0.028863563214293255, -0.08707224600607584, 0.007738211780543508, 0.014914834481049445, -0.0042686160443964555, 0.03414884269762858, -0.05076818971872972, -0.009891718097631685, 0.07230156592444252, 0.14947771839560728, -0.201014671234111, 0.03965073376614045, -0.1726130591041087, 0.019951579275927615, 0.119122671126215, -0.0012681310174549598, 0.03718322258673923, 0.07420794146818716, -0.04848359089989692, -0.003728398845666587, -0.05421118884421709, 0.10691810588264761, -0.18708746806237272, 0.0839526288333646, 0.05891283954445834, -0.23271595646942467, -0.05763056801600567, -0.03401783943025786, 0.008052594558211548, -0.01789934149569904, -0.034951101413792346, 0.017363185071550522], [-0.0948303273535749, 0.016827297146530095, -0.13890254451250067, 0.02108135433051095, -0.13874203847029104, 0.2841102915782888, 0.17575207796073722, 0.011268254872089753, 0.00027948368167170836, -0.15813745892129696, 0.06512014553048398, 0.05919456756062661, 0.12730116495840377, -0.010898218250581073, -0.12294551477772077, -0.14617830900384687, -0.16903349640973817, -0.03572549894579624, 0.054069549854427135, 0.16818894740516502, 0.11227774155252222, -0.0893881523058905, -0.058368446481183424, 0.09116825533575366, 0.0816153972288258, 0.184074465816796, -0.14874576398898365, -0.12633463380755078, 0.00488151303769779, -0.08502681171469983, -0.04313520803894204, 0.10453301173095796, 0.17178459769778665, -0.05620322780271843, -0.004714191215960547, -0.028097283291047867, -0.08400032997118154, 0.08699063927619992, -0.10564208022733898, -0.10703418658253254, 0.09175448975618467, -0.159014597389102, 0.032172233512322825, 0.10750710811221892, 0.10406342891379727, 0.062113624624535596, 0.26032691495633115, -0.027114093666445578, -0.07754589286887123, -0.033129052780538445], [-0.10226824970144217, -0.007780178588490322, 0.08315436765016458, 0.1392941674019464, 0.03380577072249198, 0.18110773863505894, -0.07625284624786483, -0.05992985064430555, -0.017220224170560305, 0.0868991063644488, 0.08782946975805152, -0.08520687208947746, -0.1422188142796393, 0.022159684663752274, -0.10306084581030588, 0.019484447874342004, 0.039147568609582406, 0.057572626562571165, 0.05628438819760431, -0.0307856757353234, -0.2823458309177642, -0.15621265748491425, -0.11983671364273264, 0.19849163394388541, -0.03299687989946476, -0.10622249530394, -0.13328366818696905, -0.10208903187038372, 0.012295529442218341, 0.059557888026300805, -0.11343796565768277, 0.14469042954403266, 0.06257392474980408, -0.08173170682520278, 0.03428984348909783, -0.007271817633798481, 0.06064609071436997, 0.06366068462883218, -0.007932895818178265, -0.07758269853299792, -0.21877705722997895, 0.03875045035678086, 0.09312247965192623, 0.00013976692001298717, -0.025497142451542235, -0.0848262848770131, 0.07473144226749341, 0.1307922011513625, -0.08502841195813275, 0.045848369148144996], [0.13856536921294055, 0.04293974259161668, 0.02826749843915064, 0.21635782136822237, -0.006721957624054412, 0.2708735182602008, -0.13899319409174116, 0.04008135278726177, -0.021880641118245323, -0.18592168175556503, -0.04987433523770094, 0.10841373631609763, -0.017093960590595158, 0.022865656794573704, 0.18278062206061688, -0.013851012041512335, 0.04110390690925865, 0.11494915966886028, -0.05697953752440296, -0.014268984990691878, 0.060337876351026346, 0.06450504152359343, -0.13266054075118358, 0.1625356493278736, 0.11501833111540004, 0.05659547007243178, -0.04888554994223259, 0.07749801177457354, -0.10965113660725843, 0.06433424019645481, -0.0031016254376738175, 0.1448315384260496, -0.0574503670366383, -0.0636528017459797, 0.006522669229608138, 0.08577961711166858, 0.0146249419265638, -0.06918698062431249, -0.027496261154676068, -0.17767638397876073, 0.023639767450607363, -0.15417407831269078, 0.03283658059637297, -0.10239230317837063, -0.018880995234755525, -0.07646128012194384, 0.05502732818364334, -0.13674835635331348, -0.18712442032750887, -0.023397578255008756], [-0.19868370331753785, -0.1832830430908032, -0.009640758793827524, 0.024763685041129142, 0.08144567835334149, -0.08688690330634101, 0.023280102055206416, 0.15279797662014236, 0.14418442807423879, 0.02227249429934947, 0.03868152119853582, -0.023794431274476748, 0.11215324262778423, 0.22453593924815457, 0.15990054540784163, 0.017963309425887832, -0.002992195844607815, 0.017018209668822174, 0.1326615814022028, 0.038284539981287904, 0.15573913214681837, -0.15510729259810185, 0.09423651850891604, 0.03179987325171331, -0.06405346579989538, 0.11436464892984544, 0.26546578986891367, 0.1544875121390568, 0.013923049734507096, 0.0006602268728584174, 0.04114595632188765, 0.13402544831103388, 0.13080322550210122, 0.1903560768853264, 0.13450334288314866, -0.005417054238151929, -0.11366286333700566, 0.10007903908300925, 0.02968582401647211, 0.07209013931903949, 0.03291597472914046, 0.06769811492649733, 0.010794811444697306, 0.08703903957926364, -0.09276970111616206, 0.24679497022200514, -0.05757826739874937, 0.11042757361893904, 0.1579124606055948, 0.15507406539499127], [-0.18199138672618645, -0.009612409942245116, 0.016733499852932376, -0.1505533858405731, 0.1430751406044555, -0.011175751575893775, 0.2748398699472555, 0.10682378525332331, -0.30061323059603073, 0.0003728377581708256, -0.09164003556477618, 0.11539939779316916, -0.12807305946020495, 0.002514238364516918, -0.01104274629009556, -0.05664255317937029, 0.020011773695396598, -0.01563931911311783, -0.0440771765692446, 0.016165696493493763, -0.10313687240213314, 0.020704248816886935, 0.013623458530540648, -0.025895982693630998, 0.09283540471431705, -0.18658263751905915, -0.09053092039667388, -0.015023567191842342, -0.059304963492859186, 0.15510220825326876, 0.024838912467811468, 0.007301714183992224, 0.061417147246239936, -0.00622621073848735, -0.0039353058892194915, -0.06477104645446165, -0.25880541943187385, -0.05451885335272376, 0.11984363378704158, -0.07003840639278618, -0.0032570305467463675, 0.10860796209177889, -0.04304508958036843, -0.07438144296630635, -0.07694807508120592, -0.20030702901631214, 0.0071868797697834125, -0.07161960144668325, 0.08800612184176315, -0.010751554363971867], [-0.12899684517830073, -0.0007326107768400094, 0.04380259323015598, -0.010071853647041638, 0.009739911278072567, 0.05618130635095228, 0.018459698596826758, 0.048383592685986465, 0.0712273717567896, 0.15790625440462377, 0.029300874710572637, -0.07294941201550378, 0.09227939049100137, 0.037072635752810834, -0.18068505047124594, -0.08616752074107963, -0.03193664592615813, 0.09739377742806256, -0.07246134706756627, 0.026964853872273164, -0.03771252447471062, 0.03973067056947028, -0.2893841740614823, 0.10738441860032479, -0.00017559794157934357, -0.04269104332641752, 0.019250353919012215, 0.014526293594621232, -0.17240815312002752, -0.09135797492860885, 0.14472399030364988, -0.0666272373154162, -0.11985843115468026, -0.0896935980571864, 0.1678820697734204, -0.008774946013225333, -0.04358013387397345, -0.09787914078936294, 0.026967317023422678, -0.022002967901789378, 0.03503510712319951, -0.042549734642023045, -0.047040076246900424, 0.1781063742325955, -0.018750316404372722, -0.20044194568804174, 0.08140629976029301, 0.124835148064415, -0.11476127587453291, -0.17584015432585737], [0.061016665641506235, 0.07489204189117804, 0.11087666110506667, -0.12632574025936352, -0.0050957296003750945, -0.10298653997642579, -0.19548917597743964, -0.020218415174448754, 0.1721994666933516, 0.02865279690670531, -0.24430120946733688, -0.01683070448745857, -0.09190458620827478, -0.10290838214680648, 0.11904712468613955, -0.06561446735908612, 0.17479896975393447, -0.11036306773838062, -0.1841807256378489, -0.25254357142775674, 0.008298866983759656, -0.06998983313652513, 0.1156802812364715, -0.1105638684678243, 0.17102480915813875, 0.05571086155755757, -0.1146793600120196, 0.008851744970967976, 0.10105488861564085, -0.027714270039557964, -0.07309465434018048, -0.06818856786037787, 0.036616627156907486, -0.11165901548094287, -0.09009473856487593, -0.016671703217890157, -0.07440001792774853, 0.06033064142632281, 0.045192682042636934, 0.03088181358903183, 0.006391464826562213, -0.0018795712341954226, -0.011318259338933871, -0.07963359178240985, 0.021572012458698622, -0.11386743631603741, -0.07192626725125717, -0.11326931960862796, 0.007655287600650223, -0.04325408846305244]], "net.6.bias": [-0.016213709689544605, 0.0, 0.10903056333115749, -0.020293661114934036, -0.02661306373535361, 0.0, -1.0226468218864891e-05, -0.010001077989681287, 0.0, 0.027959446314266462, 0.011841997783866276, -0.026329803507371345, 0.03973864373138155, -0.009999996615965744, -0.013755500458871533, -0.0020272025036194127, 0.04922800793778911, 0.00011350410018083797, -0.009999997970744173, 0.00041578495700359333, -0.0034026068321562656, 0.03418029557251738, -0.007501168509663539, -0.03232981818363649, 0.006898280394314033], "net.8.weight": [[0.04213986266840079, 0.0014527085561174928, 0.00507913581212113, 0.08445069417469367, -0.10447316843278219, 0.012037877059440497, -0.11993844889788809, 0.3100225580770157, -0.025707355705214815, -0.17165348751301598, -0.1023418868538088, -0.09133892616931086, -0.07861754755817948, 0.13397081182882495, -0.006021289947503875, -0.0275769987882302, -0.07357429102802192, 0.04168411062579132, 0.04495111748254671, 0.08638918069486184, -0.06819311618317546, 0.0907593802562496, 0.053628962674918325, -0.07850484351031685, -0.07525931938154021], [0.03205371452394097, 0.02239810124862912, 0.1508174254433912, -0.10491741372213163, 0.10876329217852955, 0.02720411346814702, 0.04188536889791801, 0.08818493755069588, -0.023161178431079607, 0.21434532754158603, 0.08925977675837246, -0.1257803322687549, -0.016514898790342528, 0.061649674411513894, -0.05441052562508918, -0.08633012060486248, 0.1425936590082472, -0.21339031981504764, 0.05196156332459725, 0.09823385528876405, 0.09618301915067659, 0.09091444024186944, 0.10291734207314063, -0.028191954304218968, -0.30939270393918433], [-0.02976798099029351, -0.14621179947849722, -0.08078104169991798, 0.08491714851750085, 0.04325717362105244, 0.06164304593188785, 0.03704137072908953, 0.04733288747435748, -0.2345097706640946, 0.04309363774292152, 0.01401209016677183, -0.2312985123961538, -0.13462921159687752, 0.19569521311263763, -0.13450055629101637, 0.000552068836025631, -0.08291237315780939, 0.0166930587544653, -0.03433056945029839, 0.021521579364855638, -0.0073982088240544105, -0.04587225675347391, -0.11485891089093288, -0.03934027191223658, 0.005574873851333947], [0.10708305457447437, -0.14522725182076907, -0.16461168102197757, 0.1256369913945092, -0.048029973168632445, -0.0843612929514618, -0.10811551658026215, -0.037739487526977845, 0.1105315254022221, -0.11947604414041886, 0.05481451150770379, -0.13686049323253963, -0.08860225225216081, 0.11121266053231392, -0.0016045123894083927, 0.12550385025587393, 0.10363007113157621, 0.027960157104401036, -0.17079502979807304, 0.059681177985856815, 0.03558206630481343, -0.10212541926712587, -0.0709676400400793, 0.011873497824589484, 0.019645076099710876], [0.0643759600762301, 0.10581982533550094, 0.08331179011884494, -0.0011892223745686948, 0.049993918720436986, -0.18769396424929452, 0.07968174000268534, -0.024602238117646134, 0.05572672665519527, 0.014480576689170008, -0.05346426363146443, -0.1297847178800047, -0.07526685789945436, -0.15454870432541376, 0.030992546934357455, -0.17757284505048354, -0.08040923773315262, 0.13558202735588937, 0.01714031130129331, 0.010115860665616155, -0.14770864207717813, -0.04750007425920544, 0.04188859011340957, -0.0042001000222671074, 0.06429779537467586], [0.03112653915319972, -0.09170578840272316, -0.08653065069490395, 0.05572453033351313, -0.014074182216938, 0.08376842246127023, -0.0426734748181684, 0.1840909962263649, 0.102367235144904, -0.011105997052158567, 0.2793065429823833, -0.13873692391863565, -0.05966464652708116, -0.1345663741267147, 0.15465427454240058, 0.13497274213395852, 0.059784539857403556, -0.15453612408802866, 0.005510959231834755, 0.10564103685364486, 0.08744729370504156, -0.11794530218044033, -0.028664563597588306, -0.10380097352787837, 0.23133509396410884], [0.089089046804042, 0.13140319068097214, -0.02375169279981829, -0.008343980345019505, 0.026886647389535546, 0.08717296082679207, 0.00764854087349327, -0.02148844768320487, 0.1416061625141017, 0.3917412087874505, 0.19301924898515552, -0.04724713337167465, -0.08682853663208573, -0.10269284848414366, -0.03762061266999037, -0.0011608608301825803, 0.05247483591087033, -0.06781206399785354, -0.05132081910569837, -0.03251442203857056, 0.16579263991143464, 0.07692267372228173, -0.07974351651201494, -0.057531259320985975, -0.04327819276261327], [0.030989909067447953, -0.052450656315221326, -0.0757875506093021, -0.11997516137482178, 0.062300139271522025, 0.004591528521661307, 0.03374839566065934, -0.11980945840791896, -0.08811181833009182, 0.062378682402224585, -0.06577743514170174, 0.09268841525138123, 0.062397518455963426, 0.008489813447907323, -0.02795344378936334, -0.07425135216362155, -0.0714355614812936, 0.1402197239802107, 0.20138113023784224, -0.04603914992892098, -0.09080161649749216, -0.006640205083528993, 0.006829114837312078, 0.1532162682205681, -0.046180877360774086], [-0.0695926225061336, 0.02331119554004473, 0.21772630191072845, -0.19892528337523058, 0.08384795637414973, -0.03488337659317645, 0.044422965018153245, 0.10680929723033224, 0.0009457653373408609, 0.012363971326274335, -0.11374981585905024, -0.12622363008456683, 0.15343266344001352, -0.014842619257023399, -0.15487636654004608, 0.15478415891010958, 0.1283811632598912, -0.13679263555389298, -0.02045673004102464, -0.05770324219184804, 0.0716209204561659, 0.20766061330580093, -0.11553122082819106, -0.08223514631604685, -0.11034110141097811]], "net.8.bias": [-0.0030440172746718074, 0.024119448108477354, -0.009999999673805236, 0.0, -0.005489186457199779, -0.009999999452787909, -0.0076750134171896245, -0.009702459971232933, 0.04584157814391154], "net.10.weight": [[0.003798068159567736, -0.05358942147322467, 0.11800003750357257, 0.14685736398681154, 0.08947131073414478, -0.17457268920799476, -0.11246675962451115, 0.24914591718736082, -0.09839629528755063], [0.13926598565243764, 0.02591442580335359, -0.04918539066215527, 0.03348041796003676, -0.14619487368349365, 0.03601442351809457, 0.1346367004220913, 0.10864972658459979, -0.07236519666002586], [0.10628793521449224, 0.10186398115814727, -0.0160948583655934, 0.014846429918493519, 0.004105898998111018, -0.008613930214861294, -0.06381003906317756, -0.2582258218565729, 0.1271859936223496]], "net.10.bias": [-0.013458200046161502, -0.000597389390117679, 0.05948057638512917]}