{"net.0.weight": [[-0.0024688563595128927, 0.12313024699662209, 0.2096250744841292], [-0.0062169144734532215, 0.4849173038423176, 0.1637588060030488], [0.11087915096908653, 0.1915967040148619, -0.07235326427610397], [-0.04971096356778141, -0.08504546458864776, -0.09152610305547981], [-0.08393551814452266, -0.08710550918520926, -0.03932096231442905], [0.20514702133407348, 0.24168116825946775, 0.09338571680923569], [0.11389770995331673, -0.11382178167537368, -0.17663986209485635], [-0.14613416221072556, -0.008147685475819497, 0.25405587867835105], [0.03167132946215573, 0.07733866085595033, 0.056750110824929534]], "net.0.bias": [0.04209674955229908, 0.05310519378971142, 0.09541907659366178, 0.0, 0.0, 0.049958775091637805, 0.016129373406679692, 0.024626198582427164, 0.00889290341171597], "net.2.weight": [[-0.04171117622199161, -0.0616890664830594, 0.0017851923439920353, -0.0015200158598099615, 0.016078467857785616, -0.028559513407245135, 0.008982759470298786, -0.05329363034040821, -0.10283838646038863], [0.0068714697689358836, -0.23573345432789167, 0.20553183307642708, -0.011891266625309453, -0.016788834508206018, 0.08548909839526263, 0.1148672032822365, -0.2635225549938557, 0.12750205945300755], [0.08474733497119011, 0.13014324723618262, 0.029170548213721642, -0.041731624284958135, 0.14937014872173565, -0.031366508334107736, -0.08872256939048838, -0.21761873361282474, 0.25031367042135094], [0.12573625947700653, 0.09717908234822399, -0.10925422139652693, -0.10218484755208271, 0.036947534877976855, -0.04387071640395773, -0.08935357280329793, 0.09091465956053772, -0.09604371559787903], [-0.1421137938224985, 0.13576566193352865, -0.11837909572430694, 0.037441774455780515, 0.057957110446716954, -0.08425095800388277, 0.06859336457688274, -0.01462619535782945, 0.020791432219531846], [0.17446684974538607, -0.03899046197964942, -0.2910209294339875, 0.07186329726147199, -0.1272549559297873, -0.05368629911236257, 0.0029895807073985255, 0.25509312704130616, 0.06918659307438245], [-0.3395085112715217, -0.06293610436787014, 0.06819261610125377, -0.1116072566216374, -0.1535850977024802, -0.01056542559631002, 0.11995075341095882, 0.09686343620395377, -0.06456204100415405], [0.23888614557312582, 0.1837214489318587, -0.13903991131751836, 0.11536511963510648, 0.13089266581963396, -0.06402953379768558, -0.3286877631603149, 0.23673055322279732, 0.02378972512011109], [0.3005645248253672, 0.13896205866580572, -0.0448719020238834, -0.10752787825281024, -0.040218468097427434, 0.17999003710816827, -0.28779453569417823, -0.038532123584944435, 0.08207967662624371], [0.08974852288919243, 0.03500885224933635, 0.22256316858699068, 0.06222617863944559, 0.07076478748871194, 0.10505463118963623, 0.11755650896702184, -0.23555090140540277, -0.09543325877258589], [0.01422374130988646, 0.09036132328597361, 0.21625184295850639, 0.03965964967724529, -0.1178389144413234, 0.14055905321236606, -0.24274942144932793, 0.07795301866547016, 0.08244919936216726], [0.007340530882469022, -0.12592703080663303, 0.20484773347076188, 0.24467055354726372, 0.04246892142090779, -0.006952984251744752, 0.32486627359462983, -0.16983834365912998, 0.07779100916039698], [-0.13189819711143289, -0.0022899196713311388, -0.011311668574900909, 0.006181522136824415, -0.14015318375940952, -0.0384340524170495, -0.026051266078331616, 0.0552252100013121, -0.11011495283353728], [-0.0519756555786016, -0.002661645425917934, 0.05857752193805067, -0.01096378584699581, 0.05381518033504548, -0.0007312891381469485, -0.030975180606252185, -0.033297750311227996, -0.16147255498447055], [0.18714651516535813, 0.15862769331849808, 0.030424358393771275, -0.10268130418334234, -0.23599802972572614, 0.027415602239788107, -0.05744481084379722, -0.16437149691204633, -0.04579454889257772], [0.060933530656695746, -0.20298056023548786, 0.1204782821857128, -0.011963080324557035, -0.14260364002894968, -0.2554510960164859, -0.06819996326813221, 0.07842816314961985, -0.10667544701341075], [0.09030071876487744, 0.1333192914121885, -0.03827522011293884, 0.01673802206716382, 0.012876758355771775, -0.06141940240355373, -0.2063344736496705, 0.30705062045943005, 0.10737450105078501], [0.047614904106271914, 0.05007816959628513, 0.042148268528308545, -0.011870850797937928, 0.019790150580839286, -0.29696150050068093, -0.05436011206285566, -0.16635876614053505, -0.08431084711110662], [-0.07600574124323597, 0.014753768132741263, -0.05716497960089487, 0.0378514730941964, 0.17283947437603853, -0.009242888222857844, -0.006561208661720295, 0.16250216563959338, -0.1915619198330815], [0.09313879642107784, 0.18531216275501264, 0.0833211261955816, -0.02494942587620976, -0.05315459686943408, 0.13049298890777358, 0.12152895393658876, -0.10458962865994333, 0.030244977674962193], [0.22856365698267697, 0.21211475396909416, -0.002046477370525204, -0.11810590024539025, -0.04761912927822194, 0.2186603566518345, -0.1691493147149086, -0.1490677211434077, -0.06281826134951969], [0.043126535679792764, 0.16061622074438386, 0.2152161824985867, 0.14803331336939524, -0.03994201280796183, 0.11199007008598653, -0.054460189937377626, -0.2576575652615895, 0.220663852984702], [-0.0022632688011252327, -0.04138042231907652, -0.016797238765886964, -0.004585386098467928, -0.17078182556077104, -0.0862178262057616, 0.1531277244286825, -0.04448902651785835, -0.006939884029887849], [-0.1077634203819399, -0.17783942658063265, -0.08773308610358112, 0.030515008718155552, -0.017750192963061007, -0.014873059327589372, 0.034771441615033954, -0.09771540188883779, 0.06616837002142237], [-0.13680162507464685, 0.0728897029168548, -0.010859344836449293, 0.07541266571139175, -0.130365976988737, -0.08444662487571182, -0.021181368366738465, -0.018941893041314564, -0.06780460113548774]], "net.2.bias": [0.0, -0.01418222191092036, 0.035025448873269305, -0.03414372197825976, 0.0, 0.007276734407056518, -0.011892157995756141, 0.05970035289599504, 0.033595449573262784, 0.08598278627176405, 0.06712597842031352, 0.03354348430360949, 0.0, 0.0, 0.037742724894686906, 0.0, 0.04197313708347837, 0.0, -0.01695134146835668, 0.05407890591280633, 0.0680247847784876, 0.05289277836448918, -0.009979100074967285, -0.0006350386686698959, 0.0], "net.4.weight": [[-0.002717321776904928, 0.017326455156018324, -0.03307066619562822, -0.09255540138691665, 0.23501872256447975, 0.023728951150741192, -0.1282479137692203, 0.171115453937848, -0.10165100519048886, 0.00808233977046725, -0.014135405233378577, -0.1524270921604657, 0.03185674465223278, -0.07758493690100088, -0.007107405827052697, 0.039432725463219895, 0.02934546249674582, 0.08103358622549904, 0.03834757548873666, -0.04458509942023558, -0.08059418521673545, 0.09959342201485849, 0.3290403911620081, -0.045906013327832895, 0.03129948168644122], [-0.02649234681040762, 0.009557573248228602, -0.2437784058196776, -0.2127001641073522, 0.0047909337371806245, -0.04725276250235333, 0.012043332513717074, 0.019422323379172508, -0.23582313352716458, 0.03194195573144814, 0.021338575321618366, 0.1105076723172268, -0.12135173458149678, 0.04051072553649318, -0.11197273611831708, 0.08033237484772764, -0.17319532223528744, -0.0802978690495248, -0.04929490096194392, -0.0055877991642235255, -0.016848488445951684, 0.023928983217144633, -0.030237137787159214, 0.1687742550761862, -0.025007547381293772], [-0.11214300971135083, -0.06923661294598736, 0.00011176647060916396, -0.06972161296508915, 0.16279297000902793, -0.03274421560968275, 0.03431934568912588, 0.13227086459453552, 0.07300856299667485, 0.044211078489054305, -0.05168161941446036, -0.0055508866969813594, 0.08400850458720849, -0.014929403618771092, 0.16106209341189512, -0.11248037415063512, 0.06131110307875311, 0.005132961045613573, 0.13126006424406866, -0.1287091324609535, -0.16453330590975812, -0.14821137516228577, -0.007328814940371073, -0.008214478506841828, -0.0011997541847947601], [-0.10273533820357633, 0.12888729426659426, 0.12856560378975387, 0.04780309874004845, 0.051982251787480616, -0.12416993481405135, -0.046668497241569094, 0.021512000270537113, -0.05341882054999836, 0.02886516338711182, -0.004146081853811266, -0.021494081764438892, -0.02376372927003287, -0.03661893042548715, -0.010085629413437072, 0.1538960625572876, 0.07774546292434599, -0.14287626933208789, 0.03705535286934307, -0.08555289841492018, 0.10310586319342613, -0.1977948402157812, -0.11673056077315698, -0.07883837156523239, -0.14998056995793987], [-0.011306185935491923, 0.08717336982433332, 0.024122017385042993, 0.04602665399385366, -0.14467089152161997, -0.0043705124490950814, -0.02010783777942493, -0.039579204724128736, -0.019383548280116424, -0.26138627930366903, 0.07813679546046828, -0.0008816827328041171, -0.06287684019115328, -0.051555618428443244, 0.025025391308456966, 0.07242202307430048, -0.0994550931491355, -0.07300575495025069, -0.2505699975006978, -0.073413039030068, -0.0060253743215002735, -0.004374958293374171, 0.055604253110329384, 0.036561678164137607, 0.16221318158867082], [0.0010774514563340546, 0.1005927180109052, 0.14066684777841662, 0.12739551472915886, 0.01212045974719466, 0.010564976162241788, 0.22261777921342413, -0.07687659909776466, -0.06966335949975994, -0.11008021892034432, -0.07027979543160087, -0.25063453588919404, 0.06426370108881173, 0.03938686170662348, -0.12889723904607178, 0.04159663133767339, 0.031579779372802645, -0.020308908104892238, 0.044247812864520474, -0.046981545686255, 0.07917725346990959, 0.049874894297405326, 0.03374141076782818, -0.16296147600037003, 0.03856356333063854], [-0.1633887040434957, -0.08298143565630473, 0.024557355282960602, 0.11506953349102382, -0.09089184721875541, -0.0029221543916818, -0.05514935208232125, -0.13125091082454413, 0.18196582301813397, 0.0647865414056635, 0.2053407024203352, -0.14658461392732292, -0.06647544528934446, -0.009281781962610055, 0.1376241571111254, 0.04488905031388147, 0.07045577892185821, -0.0066791668325581355, 0.02506121923179413, -0.13734425405045111, 0.16162415102671318, 0.028803691477827107, -0.07308408117583733, -0.18692207275928913, 0.07429602822866478], [0.058217918752813805, -0.15856418743515266, -0.03576364080939158, -0.030343637132408913, -0.025558085148067178, 0.038045113485367855, 0.031995157265718104, -0.021885782462820847, -0.24029136932774403, 0.022790788290392827, -0.059876626038888076, -0.010364253561154845, -0.025722429839307434, -0.09332949572511266, 0.2310732368667844, -0.010975728141306547, 0.13623840057140513, -0.07358201139514467, 0.07720178410810162, 0.1121052241301998, -0.09035650545908035, 0.06516746350352738, 0.07894353519283707, 0.06739989634258635, -0.07994140984717385], [-0.0818608164040609, -0.030401317389935005, 0.16619789962048673, 0.030455362216771954, 0.12568814305050552, -0.24296387172703132, -0.1041833758661102, -0.10123761440949214, -0.12555730786146296, 0.06736628396585839, 0.043220172765841, 0.0433459733624597, 0.07053682755485538, 0.05347582600604446, 0.09651597330831418, 0.028481405016878732, -0.30148181510705796, 0.0338948657227762, -0.04621661341288599, -0.016861140544776335, -0.11319123154380772, -0.036647902483353235, -0.02922458910475642, -0.09261291858457991, 0.04134564532973209], [0.048451619278282454, -0.5413069036040298, -0.027278588555547004, -0.04123825712734007, -0.0718295210529023, 0.012241232051512726, 0.15941440269335394, 0.036499287656967534, 0.10260568205264115, 0.05781556666868717, -0.04731683617927152, -0.5812761754439645, -0.0018953121418916364, 0.005076837709789132, 0.15816594798006736, -0.02703914724590281, 0.2655850392217311, 0.16275519982433403, -0.02030815030582798, -0.07572939353719169, 0.07154382310209965, 0.00722276516845946, -0.13730810170955618, -0.1497497611863918, 0.006158506526580977], [-0.009033377002476728, -0.04429597867669104, 0.09117573274497567, -0.07536465563346115, 0.16451986368376914, 0.011695379726751278, 0.042821162915400036, -0.20720014119971222, 0.13264891369971296, -0.021299018679623798, 0.09460355892713129, -0.2553449043853413, -0.0076158192570169835, -0.10738360369029634, 0.0260717597223231, 0.07834970076355982, -0.26162842638204437, -0.08700397313524678, -0.0487988333135621, 0.031524638310655696, 0.23913468085395964, 0.05246370037067152, 0.009869173218430078, 0.09578316614858005, -0.07886995658343093], [0.1840736891685418, -0.14906251558825545, -0.03408828385775539, 0.062276820211780756, -0.10407915540783114, 0.060491863574942524, 0.09338403788420804, -0.0832522766798074, 0.011445129467083048, -0.0165729066426598, 0.053260494433545275, -0.004344572472729845, 0.05806722955855841, 0.04021605379471456, -0.03755831695681715, -0.11165475289094454, -0.06307426735783796, -0.057462417061505955, -0.1060335296400171, -0.04552323072138478, 0.1407752598684702, -0.2243099379931808, -0.23947710122812174, 0.09762897726874953, -0.0045337290169564885], [0.04723490016268237, -0.0028490873201028177, 0.05906804191368958, -0.01640118383194697, 0.04710913423532115, -0.06733992638322726, 0.027225177279501293, -0.05865808129907808, -0.17319867323034163, -0.032713159647835235, 0.12320081430246589, 0.0930708231358151, 0.03590632176050499, -0.04549232019443345, -0.07041828833389396, 0.025169562201192725, 0.006004224527738879, 0.09536947238125798, -0.03128004909510154, -0.05583058920169762, -0.04979775996532203, -0.07365583571518039, -0.0586603585660354, -0.16354336180525553, -0.12377722694101545], [0.0347368561243827, 0.024114873078245523, 0.06246866339009628, -0.054514868354282556, 0.010588765860976158, 0.13949068910927473, 0.11401674188614991, 0.04449521534700012, -0.04436523025753572, -0.04822218611795145, -0.06375384406623572, 0.042986990693319606, 0.11982386590471146, -0.041078847424098175, 0.006014174280559555, -0.061584478280335433, -0.017541319042728945, 0.062266698630939504, 0.14086368151054027, -0.2062611167567265, -0.06182192831723363, 0.07840366285897526, -0.2999983932754162, -0.05109367793676403, -0.08483247576392688], [0.014389328388907555, 0.024644984874725474, 0.21352808642000015, 0.028430251919183594, 0.10875148172883808, -0.1428863520004968, -0.1077284925964027, -0.13500307899577407, -0.026341990504945467, 0.0022150627778720405, 0.26326813864639903, -0.03142560082238091, -0.1384237380140024, 0.08688045417426123, -0.059136917670171325, 0.042721142688517975, -0.21188332225324336, 0.030430832507033802, 0.03491300737397377, -0.07613784981378283, 0.2181162123890875, 0.06440284849848148, -0.03086551321504512, 0.18382312473484433, 0.126783157908506], [-0.05488060466077967, -0.20613308790578888, 0.051484036842490075, -0.31564243084145377, 0.03334593812325284, -0.16521141875929535, -0.06211316754113555, -0.14015220651060384, 0.040933130431528145, 0.19760227822078485, 0.18128061374873974, -0.177743425644703, -0.18735811725826812, -0.24600095249332732, 0.19501741493339245, 0.09998800352296011, -0.13095804700879432, -0.03715666748158213, -0.0736284413996885, 0.016388381803747683, 0.3387658412554668, 0.08353287809035624, 0.12421330826137142, 0.1563756444006446, 0.06617439090501898], [0.024029812130891847, 0.11944974806191394, -0.03453355424125055, -0.18601120892834969, -0.10494465930002904, -0.3685830016727585, -0.03159637683300249, -0.23384374147990067, 0.02388971220569597, -0.04117811558185567, 0.022240691538808578, 0.1783698651963059, -0.008617202392244838, 0.1290613244560475, 0.1812411036749075, 0.03376352979323096, -0.1474321159651976, -0.07771227487855036, 0.1950816589775443, 0.029120646744686684, 0.008169243303190611, 0.08115346745205908, -0.11873548167391149, 0.03404510046318983, -0.013290981565036816], [-0.005582462120563288, -0.0124296464298053, -0.020114119370448443, 0.03414719284870129, 0.04772727024670082, -0.030403010918129976, -0.057955703438010375, 0.01934222822061908, -0.0743322243018664, -0.15250297670870422, 0.19389441049682982, -0.12030587946479646, 0.06822806010902964, -0.07761904712063306, -0.0895659458903067, -0.2639938931004972, -0.18540809477246417, 0.050315925647689975, -0.09764478250136639, 0.0034557241371697828, 0.02518289519816135, -0.11093268007817583, -0.2115101724928013, -0.1299432479635953, 0.05526041589337149], [0.0010007903196366534, -0.02990125003062183, 0.2211653224857737, 0.018015685394053373, 0.005485287271268932, 0.03343048985264398, -0.06215904425492672, 0.03285940671175049, -0.09076710584247644, -0.0172745421094077, 0.13087485943733548, 0.013926903209312154, -0.03975171774089397, -0.21676788025342414, 0.05380176678790678, -0.04511791649082357, -0.1391037285655424, -0.03507925115010685, 0.031818133208542494, -0.21754714986832294, 0.04860273051421227, -0.2634389586937104, 0.040298500854912926, 0.08540557007879701, 0.10539325796744621], [0.15007957911252853, 0.09496290560654494, 0.10233976845428176, 0.02401691087544101, -0.13488366311551822, -0.0022555332045695936, -0.06445273320106147, 0.14415004060004385, -0.012929255270297504, 0.014204251466693648, -0.16544826811465424, -0.1155127189765188, 0.004369763442813161, 0.1122507041889711, 0.06432008839656315, 0.001697461258088881, -0.07351714016750704, 0.10815967484042739, -0.037557017119854263, -0.13310382600528542, -0.012382506808012499, 0.10668507371854677, 0.03998477824874161, 0.0703235413549934, -0.03188709815999158], [-0.03627579020749721, 0.1782418242865066, 0.14528099255831883, -0.15764475090590044, 0.1452815283954084, -0.19451054220449432, -0.19845185593870454, -0.17184147023756963, 0.058440250793899945, 0.24809892635734304, 0.04695697385637947, -0.110306556257105, 0.0058335306518671115, -0.05027657439424113, -0.08705291998829402, -0.12388185583781408, -0.1149636759379624, 0.06509189041769226, 0.13646673409272925, 0.11590030936977026, 0.18721718439826984, -0.041697617827400876, -0.22184151936234203, -0.140470174180996, -0.10102936615768031], [-0.07162653425127669, -0.39376349003082056, 0.0791975813849714, 0.2387045164956253, -0.11644748490957196, 0.08616310049582984, -0.03865509096894622, 0.2684273244390954, 0.1210403788265251, -0.07224759943317234, 0.10132319245910723, -0.40294311665427174, -0.0543087294514966, 0.09221444659926828, -0.014375760492224023, -0.05767972795310325, 0.2507161482027047, 0.06592426018808223, 0.13084557137929997, -0.06840425231424352, 0.07864534743597605, 0.001712138429477135, -0.1649170309726733, -0.04301341738371603, -0.11458695743572866], [0.05918469711976551, 0.04678036972382544, 0.018729709758890028, 0.003748563721734638, 0.04361007574418936, -0.08642773992399701, -0.22650360797717192, -0.2558404934318195, -0.029775710052524825, -0.03918392113081183, 0.019345501066730313, 0.09473239283801435, 0.051484009089257904, -0.03170992619678918, 0.003540655264146499, -0.04268121108310636, -0.031011313965453077, -0.030117717556286103, -0.052787803712633655, 0.16095686029738213, 0.012927088893316003, 0.3573932396583961, 0.018640684673499656, 0.015379155370512897, 0.036457585926138486], [0.23031911493863577, -0.24647057901290959, 0.1024566320366114, 0.0524606049230809, -0.018106708114632268, -0.10483447496176064, -0.07084690962018154, 0.09321923772510406, 0.20111319782602616, -0.040868253989199486, 0.035931071239815725, -0.5802306987072392, -0.034761117161258216, -0.05682360151981766, -0.18955897550616488, -0.10193339826551702, 0.26008598302084057, -0.16817868410672554, 0.12741078040428394, 0.08213158369635153, 0.05508836123929858, -0.14302785512617444, -0.014987102827697643, -0.025181223233525306, 0.013321292544124225], [0.03472334182589963, -0.017392705348726712, -0.014683199099348739, 0.17031062843812306, 0.0731508757290368, -0.1601915682430177, -0.03611169280479373, -0.04319491282548443, -0.10830341983948767, -0.029109680832489826, 0.012158193404380001, -0.17977695744388605, 0.08011562524993582, 0.14438080674919906, 0.0506833916231448, 0.015950879099100413, -0.14383217297216702, 0.06680330790645338, -0.05996465608252041, -0.029196790480426327, -0.07687950980677277, 0.18324235704576508, -0.06690819176817434, 0.08064452953305563, 0.021599490956901675], [-0.023483920501623425, 0.0071742635857511, 0.11475242741299557, -0.18382833401094698, 0.14087157058416291, -0.02163707852036379, -0.0899003271918892, -0.18627647553564783, 0.21910453692578388, 0.09806802744404466, -0.03840674787902037, -0.07870053331929312, -0.1354625050382494, -0.0008530733026293202, 0.13857131309919316, -0.0983359618268533, -0.21758767486664798, -0.11235906411289392, 0.13848390350706538, -0.02931554057503698, 0.03129687198095913, 0.044345382041200164, 0.0562025985012277, 0.15319737249411616, 0.11286382892727681], [0.09635977166669063, -0.09097167753122838, -0.13575740003606632, -0.2813712951555007, -0.14567669973714248, -0.11465144021688317, -0.2621304949095747, -0.12882085455846964, -0.13389740466981553, 0.07218870664258646, 0.18656590843764492, -0.14895794800294307, -0.020344718541485056, 0.10614709616952907, 0.20222751038762832, -0.07708684697272127, -0.08096473978135632, 0.2183597496389863, 0.03709628516248967, 0.11521116070777779, 0.18665743690178851, 0.09343751812059214, -0.12673187656685067, -0.03075395116776305, -0.04755585982923216], [-0.09778085410379377, 0.04459578680510753, 0.07154703962385565, 0.04477944038939346, 0.06567781918521019, -0.11833758500840483, 0.02997324147588395, -0.2912816759153773, 0.08533959305972402, -0.019320687440866003, 0.26731845972778817, -0.14888888386924706, 0.04965307991011158, 0.0678736567976889, 0.17404295533780514, -0.02639637191116453, -0.14855382421831417, 0.1609975042879127, 0.16065550321821287, 0.17239895665860028, 0.06703914325400702, 0.20290514659380823, -0.02634581572923822, -0.01443065842771489, 0.00983493951607402], [-0.06330413906355696, -0.11013223106555195, 0.07344645155054949, -0.10044346267046421, 0.1645695482589841, -0.10409914069557023, -0.25139364827503086, -0.23430985637102572, 0.12313556273484715, 0.10517789346317173, -0.030902983073954796, 0.04031572906247265, -0.10121533000627675, 0.12713498353411673, -0.059243381072421934, -0.005230172955767198, -0.0651260659752551, -0.07507617352008782, 0.10758903272017246, 0.11424929320792548, -0.0071302008655987365, 0.18640220672658575, 0.008209271993027916, 0.1874501516178224, 0.20705783885867626], [-0.14499758004191612, 0.14917497388674428, -0.07155948497017435, 0.015573635268838114, 0.11686034415750382, 0.07338924078886475, -0.11723734474213852, 0.06155446556016156, -0.20868710413907976, 0.018872777773728783, -0.04931982395318896, -0.11393491229135708, 0.17334058468867142, -0.14910816516391068, 0.01927691249947166, -0.045791632755245115, 0.01023174530620864, 0.08886392931085056, -0.14083367003030337, 0.11003661531645519, -0.0866083968725781, -0.0552140288640295, 0.029330416278015053, 0.07102996532842736, -0.1182263624182231], [0.12229913787948028, -0.3755965510460399, -0.004053789014215663, 0.12579963693535132, -0.019666525977974053, 0.03712362930002717, 0.19721508341189142, 0.2003511808403901, 0.08157896928090932, -0.19594713208964404, 0.001670036484265299, -0.5276440942397659, -0.041469437014609555, -0.017455910128821344, 0.12025620293555726, 0.19927588931339346, 0.149372390012804, -0.007567458158033434, -0.03892027703997775, 0.10818368834878443, 0.08297215080929451, -0.0894463289378749, -0.012411004139335673, 0.10998500224022699, -0.08610350564165005], [0.13253595304254703, -0.07358970633432149, -0.05477924535706992, -0.029032094207768568, 0.0033197284068304934, 0.10498318365487591, 0.034826093325406295, -0.053574425108931706, -0.0009960911079494282, 0.03465878032463171, -0.1213400111668374, 0.01231421623541811, -0.1076277094918215, 0.11330939182122766, -0.020803152888887462, -0.12607172327331198, -0.12889796305668563, 0.038978113647466055, -0.12352474847921127, -0.09169922410184787, -0.040670920661304004, 0.14704606944644116, -0.0003079315558096186, 0.012734081080063102, -0.056766260255945236], [0.05042415426847601, -0.008541500156243147, 0.07477107716059497, 0.05857477051740734, -0.16313998089187376, 0.038892816384877654, -0.17189376225167666, -0.04363712571346647, -0.04092423903576112, -0.1626346529960202, -0.11406677483943149, 0.06744958796768519, -0.15306288500043233, -0.06469659456303135, 0.0611626310305914, -0.011937246301165194, -0.055701397638809415, 0.01131967880693691, -0.15237104667114254, -0.08329372066849765, 0.08219481593568477, -0.18865834702221418, 0.02333551904121138, -0.25925335521237036, 0.09212535511406159], [0.05690450986479953, -0.12097147899472856, 0.04028364184856626, -0.03186690472045255, -0.07537931441623275, -0.033958275071516504, -0.18125673942401013, -0.10924967073176353, 0.15213355713854135, 0.1781736361695182, 0.06943914987442279, -0.26704400966340663, -0.21233466067411721, 0.046166505798335325, 0.10650422591706904, 0.008861383434486524, 0.0015161014942064576, 0.028246399364848847, -0.05195589871002484, 0.2398709121282347, 0.09650462358590606, -0.06629818307444947, 0.16958873322475554, -0.02648839739684577, -0.04460592039330058], [-0.10920333678720716, -0.04844056076763935, 0.030100336250887462, 0.012943951358774502, -0.03968404424730465, -0.11708706031795171, 0.16045762636002983, -0.056996453849813375, 0.15234839421010593, -0.16930168802092052, -0.010031258981106746, -0.03397390534664876, -0.08888025492414683, 0.23751489123349884, 0.17063526728637893, 0.0011905545508648192, 0.04822274986637902, 0.028357828075124165, 0.06339272367953286, 0.04633294612994479, 0.21699116597098791, 0.005443361622018965, 0.08807730888724195, 0.15040339075756298, -0.0830427339930796], [0.10656232226243068, 0.1496211552259452, -0.015883797350451558, 0.18310467055178214, -0.09289938964832434, 0.1621892579198558, 0.020792620389890444, 0.41459524627944555, 0.11767541112731976, -0.22187712830675255, 0.027122682887497872, -0.3230549557832153, 0.057842613078436744, 0.14217955233976057, 0.17785197662964775, 0.014978204062559487, 0.21938972670007106, 0.09062428912985479, 0.10795252029609857, -0.03550217224003382, 0.08104736487663494, -0.08866193618489984, -0.05644837659564888, -0.09903522971950603, 0.09076506184876701], [0.28183550998031437, -0.015515265674688352, 0.024856042453031753, -0.24922966226372173, 0.1767879080397309, -0.3920308163694862, -0.14372091884172888, -0.4223205299396375, 0.22913081624440293, 0.053703865996530875, -0.0069976208036956105, -0.09011383767918124, 0.04681209324843341, -0.008773776015370622, 0.10015532359777453, -0.0448718675702721, -0.49363735902415995, -0.1371243195225478, 0.055821453960166634, 0.06614690519919025, 0.13048628240097093, -0.13130708598632726, 0.03703291729623442, -0.14973964768663262, 0.011282526591852735], [0.08807076027056092, 0.18612607006700735, 0.010026804509240173, 0.04522491109701134, 0.05134856045421204, -0.16770679434712368, -0.23052699352359887, -0.20394711359731837, 0.15388726828284213, 0.18793965646150332, -0.10000178571089613, 0.10047471308028044, -0.2202899580466342, -0.09059985108985238, 0.28622125973675694, 0.12525861019858983, -0.2198181818465722, 0.2530055420471202, -0.1647824821732452, 0.12090654849316265, -0.014358016088755905, 0.16565135303074613, 0.0491219455562454, 0.15159238317842272, 0.08993483777123021], [-0.047066357091958895, -0.11229026238417074, 0.08194256520445636, 0.25455297614675737, -0.0404126931578765, -0.0466003582326089, -0.07214063483536014, 0.04028241171966903, 0.17317052987591355, 0.09980767124522158, 0.04482500657410344, -0.452054864733631, 0.10583782253675536, -0.12718801299419988, -0.13382566490336473, 0.007532388833897389, 0.1432881213088341, -0.22119959953684254, -0.03352357560745095, -0.2252194758712483, 0.13282203483876315, -0.08326674862962835, 0.027730217058172153, -0.07688251261568335, -0.04019263254520367], [0.02114183812158891, 0.03377364920435139, -0.0774558502862354, -0.12061678440663325, 0.15660014610443565, -0.10828815978460025, 0.08973899763908817, -0.09584790835466032, 0.12200077614207232, -0.021689597690422936, -0.06495888862490601, -0.16252331741568582, -0.035928483699016855, 0.13098404555643015, 0.07611608005224703, 0.07251757842250525, -0.009635161494463517, -0.1132476259052318, 0.18936532296430317, 0.049840591070583314, -0.09355612549175746, 0.1394111720652435, 0.12428161304304097, -0.04387546620153565, 0.03253797768872151], [-0.07093615595744808, -0.08941683170465395, 0.08263228913587664, 0.1567043036677702, 0.19687770191629847, -0.03371855241402444, 0.006057806365984124, 0.12196597993767319, 0.06570462394680313, 0.06501006228998295, -0.14409951885380465, -0.09479341679843627, -0.05388361320351928, 0.07771625220209565, 0.15352949877130734, -0.019974010643918287, -0.1353376493744638, -0.0182382214155396, 0.027161843619659565, -0.12079170069642194, -0.13070111470553145, 0.1265544077709896, -0.05338962663735454, -0.024999423108979592, 0.033873218898121914], [-0.15792937187794664, -0.020510981565976198, 0.10875359651636077, 0.07495840326628277, -0.014728487973230503, -0.23742634387220904, -0.31693922768513166, -0.24620543744784448, 0.03659807005566962, 0.07145595609200597, 0.036548671235712434, -0.033504564161924794, -0.03291472480570923, 0.05560678689691766, 0.11651919128626825, -0.121541306369535, -0.2747661486168596, -0.08221426824090905, 0.08824817607357578, 0.14904439496688818, 0.3196512190223764, -0.0649109341401583, 0.04768643159726878, 0.10647914689366612, 0.02569039752954765], [-0.05528904855160364, 0.0745443770430062, 0.1987840039705695, 0.14459109185271776, 0.07326053687084186, -0.005682317997695806, 0.22954245818964103, -0.12177470899676615, -0.13930608657578591, -0.0656468091675022, -0.13200988349145346, -0.14486759046021833, -0.2576120106090944, -0.029609396988402065, -0.1687871170517259, 0.10859652705698881, -0.04047954908610868, 0.0645813482017074, -0.13363618046757272, -0.14723421576395654, -0.06346190772115896, -0.031285818939731556, -0.05843989422889628, -0.06892003621190329, -0.03875120312763125], [0.17798650833429608, -0.04800033579420207, 0.15789878167883156, -0.06274369749286285, 0.14121248639707404, 0.001958163089347408, -0.18219146933951683, -0.05518378513494091, 0.038619435780622664, 0.08123815803631468, 0.22115012404742013, 0.265022678733104, 0.09351555530498602, -0.027817783572415846, 0.030633599552335317, -0.05333803631943155, -0.14505062214192355, -0.038946492644941995, 0.02008555053900403, 0.040851487839881614, -0.04867037070179617, 0.09470715721382438, 0.03304814395244034, 0.04940363615319838, -0.022437746606350003], [-0.02216507772381639, 0.05904841696405451, -0.035002311172866986, -0.09549096438332239, 0.032284990762117015, 0.23132755057062387, 0.13257006558806037, -0.042319080575397516, -0.07557031744784094, -0.03074493373668585, -0.16883112533873762, -0.007257013520733946, 0.1568444800089701, 0.15194060232286674, -0.006120516300072202, -0.09510458193274046, 0.05150221887641061, 0.103443721127892, -0.06920019003916233, -0.2107869353901112, 0.03427564306348784, 0.019761982807197376, -0.15452602021845102, -0.01258072259146603, -0.16798867652202218], [-0.06598356834696904, -0.1977514159649779, 0.3510145842816164, -0.07328907864067001, 0.130561500915972, -0.2088846912930608, -0.10169858900775977, -0.15149063154485298, 0.11724393927204423, 0.10525078733258442, 0.1747528014807704, -0.10001089710680386, 0.15942437926421046, 0.12804205813013358, 0.17817777331510506, -0.028613812602128447, 0.08382648233106568, -0.013074468188628894, 0.037774254278898536, 0.24090790505842083, 0.16939610685261552, 0.25405784371461326, 0.06284605878324319, -0.14899747406809793, 0.023071749826102397], [-0.12204348622255362, -0.09494395078933127, 0.019332652233673978, -0.12019245120462911, -0.026069948909170304, -0.10736751090624673, -0.11214185852373931, 0.13859336826644258, -0.16535853992063798, -0.08118650221782933, 0.005054175906692722, 0.05238289600121642, -0.07361491363928839, -0.07352868072236311, 0.28023924346676227, 0.16096162476756826, -0.13261261125644438, -0.1258949941437553, 0.13177107594478785, 0.0683389197195011, 0.004106442622933909, -0.06766102743400687, -0.08591491342755635, -0.0404098518237872, -0.07454259630636888], [-0.1012999677747237, -0.20000344513285784, 0.10189266666173813, 0.006453318833087862, 0.04767993659943708, -0.11861520087731078, -0.08981918695569416, 0.015237271593794614, 0.04706554378144939, -0.020078760375799504, 0.019138276241233588, -0.021223649692251347, 0.0012287044276566277, -0.11718464294806169, -0.12592646138119973, -0.07712300055084487, 0.020590907531617273, 0.015684005416465724, 0.09149726263727427, 0.12562394625775522, 0.023937578700343284, 0.10404746381792251, 0.0037057971055593636, -0.10546359334669701, 0.16438738971351607], [0.12182173030881799, 0.04684554712443149, 0.08615853723629134, -0.11192761580153691, 0.10920245234845705, -0.17445813380940564, 0.011360702766863101, -0.13583690393265727, 0.11826316328292875, 0.25085094094031696, 0.09061269176818917, -0.3083987298717973, -0.08180327127898633, -0.015821210076849942, -0.2024037450799164, -0.061760920982318605, -0.277205797737908, -0.07420438955236625, 0.03312679212094632, 0.17699129475576023, 0.12709941984310938, 0.15460583595206073, -0.06088337022899607, -0.009177247109822302, 0.15617223187244475], [0.004288411932092028, -0.08706081858022584, 0.13866632353014516, 0.07851047212575216, 0.21084143160300928, -0.17248826326980782, -0.18833577960237433, -0.27908865909416075, 0.1730438965307315, 0.20567476364439696, 0.09790782242838587, -0.14768057457903322, -0.12923562484180506, -0.02741328710359487, 0.07834950139444916, -0.09288286489703643, -0.11869624803056983, 0.07920262118864137, -0.07235802083207522, -0.05906056789436256, 0.22076146726109602, 0.09310949711424674, -0.14567123807160687, -0.08221339190542488, 0.0793951014441781]], "net.4.bias": [-0.002223985973573404, -0.038937348546601774, 0.0, -0.009999990665123689, -0.021368873530158317, -0.004939980477836465, 0.04985028793529759, 0.0, -0.009998824041803413, -0.03025599801885509, 0.04998655274584336, -0.007451080898035765, -0.014656455300660122, 0.0, 0.047741505244871814, 0.04430904668778346, 0.015460067654249265, 0.0, 0.0, 0.00041189016021964543, 0.04478260126524897, 0.034950274732395425, 0.05465581994496303, -0.02134956376537054, -0.022535664892357483, 0.020926711536860453, 0.0549630271707814, 0.06821246630148566, 0.026613217056833068, -0.011277678990700375, -0.005967774005182991, -0.009996949224580217, 0.0, 0.04028515483890359, 0.037795484093871005, -0.016555463222511228, -0.0007390269025731328, 0.027028539710867834, -0.02261582366239227, 0.012384775743846003, -0.009208749422872302, 0.05387352523512864, 0.0, 0.04346711191425316, 0.0, 0.07250292201375534, -0.024545864822090528, -0.01782001888726588, 0.03679149465985229, 0.0682060320233319], "net.6.weight": [[0.16533496332695308, 0.018511879517129952, 0.13719700360726228, -0.19457820770823223, -0.15220536314325087, 0.017661782132085094, -0.07155864949685166, -0.04371897348965804, -0.036420329026302864, -0.02710557531661372, 0.010400300792516009, -0.0007290986334201262, -0.0012420673731515619, -0.06357397436251266, 0.16373449547115984, -0.10108343075926217, 0.18596218704141176, -0.14203278187666044, -0.12122445372649984, -0.06743446951882838, -0.17037733364086016, -0.28242043745701106, -0.10145678368831476, -0.08955463136323367, -0.056918731222901156, -0.10690900869399579, -0.08575295596126396, 0.09398127505477205, 0.11471658481376862, -0.020324490449581102, -0.0749999828924894, 0.01598923603728581, 0.12536372357111217, 0.07355109456647035, 0.0405715100211126, -0.043509336592801866, -0.07862258213743369, -0.08351365292181236, 0.0437469284384735, -0.23036783504948416, -0.17852311059122428, -0.12253672861977272, 0.026442784892038107, -0.04320019294792576, -0.025687660485966962, 0.18339931411708724, 0.06358297473082467, 0.060528325410036964, -0.1237271127856005, -0.14874281652229096], [-0.01943753188149365, 0.17716785037994007, 0.054891583331507836, -0.02150710548138045, 0.07222203725946372, 0.012480876938984812, 0.02742344544336303, -0.16336094730514755, 0.06390085073194728, -0.11102457100260117, -0.1852675162871542, -0.03266446173678755, 0.022903043533395107, 0.0411697347785745, -0.10759771948626405, -0.018784562310150507, -0.03690299829119569, 0.0336159594572668, -0.0378721027588423, -0.07849459213802909, 0.03836168836704017, -0.15103545221870304, -0.2081736502186757, -0.11882271981252633, 0.06447895417532941, 0.10644603365305186, 0.011529104077955148, -0.10638104193040615, -0.01217263282266366, -0.011574392974650365, -0.10765216385151988, -0.05404334553435578, -0.06403555967145844, -0.16448790803201147, 0.009812583215851945, 0.07393589643190061, -0.03895932875211196, -0.073734095181246, -0.0005981628297835888, -0.06371165207095496, 0.08720875259107508, 0.0285391961751421, -0.15142084596966862, -0.08190887443934991, 0.05574829378016787, 0.22675104769468302, -0.0402387396407004, -0.014611907029702054, 0.24688793681510068, -0.01278220377521158], [0.03707361455432422, -0.12217206478431059, -0.11271457657094944, 0.06498868648998103, -0.2527966323596307, -0.10798365705433693, 0.10382180183772825, 0.07025202714789147, 0.07814539989345101, 0.1710037812982515, 0.2764389691192748, -0.0044775633628992345, 0.0020192781197526655, -0.08572133490113476, 0.10110106831291685, 0.16132257068421874, -0.14621713420079255, 0.16678679230252275, 0.022668985597759688, -0.047654612410307114, 0.04760719095933417, 0.08432406011597066, 0.049837567991056944, 0.12110094426000322, 0.03543648012401578, 0.27910980204426106, 0.14470115848680348, 0.2768219489103108, 0.12962586887570007, 0.10573079229353402, 0.10927907270714877, 0.11303977195391421, 0.20041566193642046, 0.26806163573364833, 0.2460354166657999, -0.05299675252746897, 0.0574996541917201, 0.0832675657583317, 0.09318604334402757, 0.07212207628151245, -0.0019973138701374696, 0.24303182484255584, 0.03290638150120891, 0.00869889786201259, 0.11128005304063138, 0.2138819277399532, -0.06210835651984935, 0.0349180102031806, 0.13631193331608563, 0.20777896619047165], [-0.013696984811983762, 0.15878257842167884, 0.2510104183304302, -0.032850909300673005, 0.05213760819756179, 0.10933619404635658, -0.1992515193073138, 0.03731830806621963, 0.10881361153527017, -0.1404520759790008, -0.13449063202432346, -0.14376619649033082, 0.06203300957241512, 0.1985512575034784, 0.05584958092626211, -0.06895301267228553, -0.10360450191299928, -0.0594513401540637, 0.06984586282018856, 0.09191629583796959, 0.09419034668284927, -0.26953157783218995, -0.026062371903532163, -0.08448572835781087, 0.005472982910492454, -0.06848900745486525, -0.023470904599136047, 0.05742037347066215, 0.014398551057646878, -0.03128385573132778, -0.13211018021526702, -0.04330986794772958, 0.08140704642557542, -0.004626994566016457, -0.24876577777315806, 0.1420278441122018, -0.20996129561287666, 0.3001222094898923, -0.044845909575562184, -0.06745874736599941, -0.015958657823735088, -0.026671981084265283, 0.0862023640686379, -0.029018489759623733, -0.07204961521009132, -0.08955253297706638, -0.13847031875166563, -0.018105733045694773, -0.07683148673275975, -0.054018321264406914], [-0.148875006926671, -0.19205879460192882, 0.0040184516744466115, -0.1702283035089865, 0.024666641018567862, 0.14181733258796772, -0.1443190502510322, 0.06954082639884099, -0.1685934487278523, -0.07219163424701183, 0.11316441593884877, -0.04821716370405967, 0.11286633337777577, 0.0008632466778703108, -0.1100691781002805, 0.11430240351985221, -0.14907298598491345, -0.0807383403642461, 0.2922639362797558, -0.24908429922526418, -0.16816401340391332, 0.007038237665747243, 0.009587857352728314, 0.08362090778923201, -0.0021412973359400023, -0.08601721583577288, -0.14045388900336836, -0.08585235082690391, 0.010395397741384359, -0.14035632180442367, 0.0022076501363529413, 0.008283936115132404, 0.13869760904723855, -0.14857689420936862, -0.05861795763864436, 0.12302164110908533, -0.19684856333187314, -0.09688852768018424, 0.08449434717737318, -0.20241752510905173, 0.015354064905516399, -0.1202890336671438, 0.1641938984158213, -0.12106867343121529, 0.14856823834119579, -0.12527083899129046, 0.17356338574259705, 0.028019238450905683, -0.009865147250626132, 0.05313621175170871], [0.027050760129076198, -0.22924519261544654, -0.13177531380952168, -0.02144561500279607, -0.18905360563792203, 0.08019269320005862, -0.14628042769642421, 0.1328074296012924, -0.02407816729497261, -0.1052571760097339, 0.12940179057166165, 0.0007455335128548834, -0.10759428775127602, 0.06604271727370571, -0.04528321169029205, -0.10345446549143306, -0.01415168804439935, 0.060353664982900936, -0.02157465396028201, 0.10134610756185641, -0.16955896271894227, -0.023230672404212678, 0.1395395610199823, 0.13267297030237213, -0.1644938952504621, 0.056667861917835675, 0.006331901851731663, 0.0490386287735127, 0.08628964755034654, 0.0032460587443578146, -0.1383149653771206, -0.11253441225307613, 0.09394367198699788, 0.009462242067850159, 0.16985717959059465, 0.0902632144950542, 0.01951177552923737, -0.18821819892879166, 0.015335652585528199, 0.11468202124553475, 0.07296172414847293, 0.14248710987993823, 0.08037658555539917, -0.03195789073259086, 0.0577545018274993, -0.19716604541006688, 0.25022330484806504, -0.17363183477216712, -0.03742934849931092, 0.0669805760933825], [0.0706960821293818, -0.23541352131299853, 0.14282413880287134, 0.035590863556952575, -0.025475722192995362, -0.08837939590500886, -0.05186290173408968, -0.07334363529895449, 0.07678513281856207, 0.03915778700170233, -0.0020498018137201065, 0.0521365910718117, 0.10954284259257455, -0.03172226633891, -0.012865623129363334, 0.108246633106994, -0.007086679631901509, 0.031283179461997566, -0.020287689717811166, 0.013079951318392418, 0.012935689438156543, -0.035262141221316795, 0.0669457293146728, 0.06567593016827213, -0.12818259607060145, -0.0834005216245063, 0.09309758410896526, 0.03506131420031309, 0.3032593047299399, -0.09256200973326116, 0.04273678830262597, 0.11694586443651019, -0.056358508121148725, -0.030211013152021775, -0.002189399362585399, 0.014383271543300614, -0.019868201237404518, -0.03013164313805415, 0.07419649116601557, 0.042972628005617415, 0.015108363781005617, 0.0078028265833070785, -0.06328540889203084, -0.23947516743219452, 0.04457374232821454, -0.07537887008854974, -0.056519631361536614, -0.14693482611796066, 0.015116763165958592, -0.08464322342874166], [0.1777286182893214, 0.209758785061717, -0.06310299848755721, -0.018907040740450125, 0.05052119245658543, 0.08002305765079454, 0.04499119558167322, -0.08876431736389877, 0.0332803386774384, 0.004267835237797637, -0.052925199269876544, 0.02832344711662766, 0.027176809401600905, -0.03691101286498828, -0.017996344078650098, 0.02049933297462613, -0.016629460589386844, 0.0980505097894821, -0.10956444748918202, 0.025421085339182373, -0.08568391083928834, -0.04953943124922104, 0.02030146991232691, 0.00017241141663986313, 0.1084152335302528, 0.012572059597163718, -0.12856949470926002, -0.12752167158510389, 0.012951039167939441, 0.14058896389355574, 0.04055380365930627, -0.081444468704648, -0.06504139846197132, -0.06885931136627993, 0.13157272847128862, -0.06374582612652534, -0.019109933686116014, -0.06817030341327332, 0.0917396234307751, 0.024828475807058034, -0.007404502805239747, -0.09538364975948575, 0.029317808482770293, -0.08975027208605343, 0.009460719328772063, 0.05310855767665546, -0.021278150339185974, -0.13996943000980788, 0.04715181008986872, -0.15427540848420054], [0.09842998415394488, -0.1562486005708374, -0.017026828998061946, 0.01511991680651436, 0.07945300986998344, -0.0227525989056027, 0.08764549572115705, 0.19110321208811032, 0.11143955549260763, -0.049192851345314065, -0.03998299527854539, -0.18348560713787612, 0.059095982232681435, 0.1032423471273384, 0.04269052869868619, -0.20665935688021464, -0.06062540575842314, 0.04003051794497844, 0.001393239874558211, 0.045390883630970436, -0.07003308805077661, 0.03465808873545982, -0.10069360260554516, -0.054381673702073696, 0.03839603422529165, -0.010823929442370596, -0.07131060586794073, -0.045222044911034515, 0.09479837083924263, 0.13426639515567512, 0.004677987840651993, 0.003128353297467903, -0.009265995987734664, -0.1256668635342011, 0.028346572828849583, 0.07631058740912486, 0.09913635754891369, -0.013720180986910227, -0.12381435251497547, 0.18765639527079137, -0.12938039062729625, 0.14000620363114866, 0.1886862759861594, 0.18404407582570398, -0.05369838354691201, -0.0455452743552789, -0.06522788990498456, -0.021510615612593313, -0.036065586456879274, -0.26165732018421717], [0.08888794342301962, -0.04692801807503071, -0.09124204968403204, -0.0031451315724334984, -0.04939137569650015, -0.0768475335449435, -0.06486080761106604, 0.15954521331470906, 0.1999380375161855, -0.3168292203670119, 0.011268712108856778, -0.0817167270208424, 0.016466317780882346, 0.0502084286651626, 0.11945017667690255, 0.10038225736427611, 0.14960147244722152, -0.011767706268161378, -0.061105957784503964, 0.08516465649774693, 0.12162171585813286, -0.36375741899707587, 0.25400870993873226, -0.40064221011744, 0.015235562225277012, 0.166808049458912, -0.018913635227244516, 0.07204449772725738, 0.21595572127030943, -0.06356829335313202, -0.30219878147623147, 0.04481737699612865, -0.05831847092255014, 0.05357272834952496, -0.09341831144619817, -0.44404579503031666, 0.2337226820170087, 0.28150340631346965, -0.3132093251824816, -0.1734497496434169, 0.05266203056077515, 0.21836742393989986, -0.06639253586144105, 0.18379502270341552, -0.07274231296369063, 0.030926999031429536, 0.07038089105082125, -0.08364281296342686, 0.27877898567500115, 0.09466634234158784], [-0.12897886501641317, -0.08963561517025867, -0.20518421378807525, 0.16969334572469652, 0.011914469316145879, -0.04395919657794438, -0.003400889268972221, 0.15485016000042584, -0.10098365812028896, 0.07461915558269518, 7.697908027860106e-05, -0.011432802727774017, 0.07189959035055452, -0.028910231469606324, -0.2853455314721628, 0.0727969012327273, -0.05491363407723622, 0.07287700547735841, 0.0020095382419542435, 0.02504818220859441, -0.18189374321349647, 0.1330822155544118, -0.037720757810883646, 0.20168565097008617, 0.006025154143000186, -0.037479316157968234, -0.16007838991798243, -0.2357353130576699, 0.06253174011111318, -0.10925326363680526, -0.17965223027185243, 0.03076259351321782, 0.014652881073630154, -0.0071661219523392, 0.21329607423822894, 0.1300916881901291, 0.08423887134549204, -0.17082263163454198, -0.0044003132946305815, -0.1468070641450858, -0.16268312551517058, 0.014658578448376852, -0.01508888870924538, -0.0643461521128909, 0.11788649304814794, -0.14997749295756677, -0.10066304111087312, -0.047129101760501585, -0.04192961555449586, -0.225717785844125], [-0.1692755498522498, -0.017996888213998485, 0.029938016281592195, 0.02396784260688118, 0.05279402346443614, -0.10651768691468473, 0.06528918410022429, -0.08603454974052413, -0.0700397065910888, 0.13526184187058754, -0.15778725730769289, -0.1336085673915866, 0.1971197615135982, -0.0022260862034743107, 0.015258186594111217, -0.01704434632187564, -0.13750696548285957, -0.01755272457392891, 0.09874441736846232, -0.04409212336655304, 0.00956298784776456, -0.06732051470556408, -0.04867989975224763, 0.035757834188609186, 0.05551675952223283, -0.2140155182105309, 0.04183482566533553, -0.011539900056558933, -0.16472894053190873, 0.1858308993194187, 0.13023786364135817, 0.02719512407468748, -0.09438646872937739, 0.08317161691448438, -0.014156060126357908, 0.16140600326723745, 0.23436226727678813, -0.14204779561298844, -0.04755860554044016, 0.09066869607196812, 0.0947118107908309, -0.06918020472621382, -0.13225618049230492, -0.13345454364394221, -0.022761735418544343, -0.0279560482750201, -0.05664070011221977, 0.09727682238185681, -0.09942636536677532, -0.03456431140204574], [-0.02348173373751532, -0.227558701678314, 0.11831946805097214, 0.026616174710608714, -0.009807847128415065, 0.06144709108885389, 0.16276241030335237, -0.23527070981428166, -0.018882953860958732, 0.18594914232978876, -0.02343709232422003, -0.2010626707956641, -0.044932017383987374, -0.03193830443498021, 0.32289711157003126, 0.32106731616222683, -0.09291405500682565, 0.1319229402992739, -0.11128712600356605, -0.18923809752854384, -0.013401657278414249, 0.20787930392751736, 0.008803046809340421, 0.06961183157014753, 0.1387874367307768, 0.006533366114685707, -0.053384143804017535, 0.009540879731590981, -0.02548182354031928, 0.12370246000108745, 0.09023541312462798, -0.17259533694762308, -0.049682505526948646, -0.01047073484098193, 0.031023055957238234, 0.07631415716166248, 0.025812067145361658, 0.10916983465569115, 0.020203770804769202, -0.10593604432239993, -0.06583671537062756, 0.12535224923211158, -0.04041307073254874, 0.11023559354256421, 0.08454063347824427, 0.14991068500881327, -0.01843389154841093, 0.07842241400349738, -0.056953670023755835, -0.007048026028980897], [-0.017054185662523987, 0.020831762844422355, -0.020564879233300398, 0.026638419393885976, -0.07485039433019787, 0.02419044701903043, 0.11532133035557174, 0.22340468505291433, -0.11474690085350686, 0.05363926983676093, -0.04679211812479813, 0.04685906894789907, -0.048444537621927415, -0.12219857914588106, 0.036752686099308894, -0.011972692263326772, -0.1660159851035405, -0.11635274010185928, 0.13735792902961938, -0.1945768349473419, 0.0789071760860752, -0.06600270359687384, -0.0820447122225647, -0.04693840338128099, 0.014656708015672738, 0.0911282983394001, -0.002876382491284992, 0.001052701030560977, -0.1230045705381275, -0.028175906650009866, -0.08315095154176372, 0.2212477533760697, -0.013828695707306682, 0.028328154758559543, -0.07812671133861304, -0.06755101160080698, -0.09082132007323002, -0.0813077711174826, 0.12678350450435974, 0.0886833089666407, 0.10641182927047087, 0.027665721478820487, 0.07331960467233141, -0.006772736939090413, 0.008325011952793877, 0.022990748153254033, 0.09517092494901352, -0.09601280314357497, -0.041399114927175365, -0.169432834051975], [-0.020968984681353147, -0.011086694445495779, 0.15775390145264587, -0.10180463480493383, 0.07666943192009655, 0.05629294791244685, 0.15453564528243774, -0.1658576485803882, -0.14468554281257492, -0.14583821795063892, -0.04534513803998993, -0.016578560334377372, 0.09505414877898342, -0.10050248963938142, -0.025390617050423333, 0.012172419136593627, -0.07178245612363116, -0.1120692296118637, 0.1258972112823469, 0.015983335706717, 0.04507737621312851, -0.022804166705575633, -0.2109411526127295, 0.06464235838739886, 0.021740031502877254, -0.020060974501766464, -0.13693303980324426, -0.0728616020149429, -0.21874759725072482, 0.0029914026384832626, 0.19261818400188835, 0.16442513378529156, -0.05075198930431061, -0.06662723093000966, 0.18278339794040166, 0.19328544319388263, -0.17874062692823184, -0.10136938767491194, -0.007710902811822214, 0.029846768655967353, 0.10447279521007327, -0.025141497973876648, -0.11963272416197156, -0.09514323033769173, 0.2291514156363646, -0.07068895464866021, -0.15595194013524424, -0.07392283468570834, -0.13643123236071522, -0.07776768791429188], [-0.04852674406303139, -0.14649003015692336, -0.10261509025309644, 0.024229566995697102, -0.0998336832264331, -0.020199105682376525, -0.0001862136489142914, 0.1410629420265492, 0.13969991692802924, -0.0476501870002009, 0.06607268016179636, -0.0839848919270189, 0.1340472672425754, -0.09860099682493595, -0.13041172840900095, 0.023224137813740407, -0.02248526736715425, 0.009042609692090921, 0.06633517119235531, 0.007201837422147789, -0.08275845934680458, 0.10491527086191528, -0.024660925806142747, -0.0236632694993497, 0.07211829349659904, -0.04472623124180938, 0.13233603987059206, -0.029952302085490115, 0.060786217654394875, 0.10869786745667864, -0.12600520981095406, 0.13278728533780845, -0.07725987471952772, 0.05060779891925707, -0.05191828049105909, -0.06153366168699063, 0.03756735384143041, -0.06786680333274708, 0.06176955181075813, -0.014508175425328531, 0.01988776320295984, 0.0028571451455519656, -0.08345999920293588, 0.03931247040837119, 0.01303719484942826, 0.06690527908680538, 0.019384143478806695, -0.13410697698783747, -0.2971761785701911, 0.12464416591851582], [-0.1649880406776869, -0.12265843835199507, 0.2530108462067564, -0.01844691608116869, 0.033403216236133494, -0.058939889513380694, 0.17560933392931177, 0.17405618572563025, -0.06359972121360336, -0.023939282580555665, -0.040359734788671046, 0.0066178587737726795, -0.028806991112670065, -0.042541028692288735, -0.01609428904452625, 0.18366166755969993, -0.08583297728026669, -0.04069752406633237, -0.06320254352809762, 0.05197477700887562, 0.1708386801487523, -0.08129288663929747, 0.07052258257719095, 0.009683011996359627, -0.21234393969188828, 0.023232236506166737, 0.13669129226090898, 0.1395125806053131, -0.046921787041221096, 0.04044404726974525, 0.066251048108278, -0.0614669574285607, 0.01608838706387525, -0.11394544285858066, -0.04983282819884721, -0.12138810193158811, -0.04885699065077174, -0.06946827663432889, -0.04473288346108643, 0.1671720154724028, -0.021213105144924697, 0.18343309164582336, -0.25290777926618985, 0.14962486936164712, -0.09240994754611613, 0.22118041349639364, 0.10397151552785583, 0.017476017837516063, 0.2108300338080596, 0.15101792224134886], [0.08176670206340775, 0.09594816670710145, 0.010543312292883699, 0.12795970544687293, 0.12044254206100505, -0.010168019676577683, -0.07423581120639566, -0.1546446117513367, 0.04569668857625898, -0.21415894899924817, 0.0037635835400386198, -0.03587535449828578, -0.04047467100447049, 0.06652491736012155, -0.08854248430727277, -0.010517780809383608, -0.097594405241443, -0.07308240722881576, 0.028863563214293255, -0.08707224600607584, 0.007738211780543508, 0.014914834481049445, -0.0042686160443964555, 0.03414884269762858, -0.05076818971872972, -0.009891718097631685, 0.07230156592444252, 0.14947771839560728, -0.201014671234111, 0.03965073376614045, -0.1726130591041087, 0.019951579275927615, 0.119122671126215, -0.0012681310174549598, 0.03718322258673923, 0.07420794146818716, -0.04848359089989692, -0.003728398845666587, -0.05421118884421709, 0.10691810588264761, -0.18708746806237272, 0.0839526288333646, 0.05891283954445834, -0.23271595646942467, -0.05763056801600567, -0.03401783943025786, 0.008052594558211548, -0.01789934149569904, -0.034951101413792346, 0.017363185071550522], [-0.0948303273535749, 0.016827297146530095, -0.13890254451250067, 0.02108135433051095, -0.13874203847029104, 0.2841102915782888, 0.17575207796073722, 0.011268254872089753, 0.00027948368167170836, -0.15813745892129696, 0.06512014553048398, 0.05919456756062661, 0.12730116495840377, -0.010898218250581073, -0.12294551477772077, -0.14617830900384687, -0.16903349640973817, -0.03572549894579624, 0.054069549854427135, 0.16818894740516502, 0.11227774155252222, -0.0893881523058905, -0.058368446481183424, 0.09116825533575366, 0.0816153972288258, 0.184074465816796, -0.14874576398898365, -0.12633463380755078, 0.00488151303769779, -0.08502681171469983, -0.04313520803894204, 0.10453301173095796, 0.17178459769778665, -0.05620322780271843, -0.004714191215960547, -0.028097283291047867, -0.08400032997118154, 0.08699063927619992, -0.10564208022733898, -0.10703418658253254, 0.09175448975618467, -0.159014597389102, 0.032172233512322825, 0.10750710811221892, 0.10406342891379727, 0.062113624624535596, 0.26032691495633115, -0.027114093666445578, -0.07754589286887123, -0.033129052780538445], [-0.10226824970144217, -0.007780178588490322, 0.08315436765016458, 0.1392941674019464, 0.03380577072249198, 0.18110773863505894, -0.07625284624786483, -0.05992985064430555, -0.017220224170560305, 0.0868991063644488, 0.08782946975805152, -0.08520687208947746, -0.1422188142796393, 0.022159684663752274, -0.10306084581030588, 0.019484447874342004, 0.039147568609582406, 0.057572626562571165, 0.05628438819760431, -0.0307856757353234, -0.2823458309177642, -0.15621265748491425, -0.11983671364273264, 0.19849163394388541, -0.03299687989946476, -0.10622249530394, -0.13328366818696905, -0.10208903187038372, 0.012295529442218341, 0.059557888026300805, -0.11343796565768277, 0.14469042954403266, 0.06257392474980408, -0.08173170682520278, 0.03428984348909783, -0.007271817633798481, 0.06064609071436997, 0.06366068462883218, -0.007932895818178265, -0.07758269853299792, -0.21877705722997895, 0.03875045035678086, 0.09312247965192623, 0.00013976692001298717, -0.025497142451542235, -0.0848262848770131, 0.07473144226749341, 0.1307922011513625, -0.08502841195813275, 0.045848369148144996], [0.13856536921294055, 0.04293974259161668, 0.02826749843915064, 0.21635782136822237, -0.006721957624054412, 0.2708735182602008, -0.13696425818251695, 0.04008135278726177, -0.021880641118245323, -0.1831129135477405, -0.05567322676796802, 0.10841373631609763, -0.017093960590595158, 0.022865656794573704, 0.18278062206061688, -0.016455230686695205, 0.04110390690925865, 0.11494915966886028, -0.05697953752440296, -0.014268984990691878, 0.060337876351026346, 0.06814182002233757, -0.13266054075118358, 0.16568165839503776, 0.11501833111540004, 0.05659547007243178, -0.04888554994223259, 0.07441892473364689, -0.10965113660725843, 0.06433424019645481, 0.00017573831182792854, 0.1448315384260496, -0.0574503670366383, -0.062249816500579216, 0.008481032637609395, 0.08963155248771987, 0.0146249419265638, -0.06918698062431249, -0.024300959612773464, -0.17767638397876073, 0.023639767450607363, -0.15417407831269078, 0.03283658059637297, -0.1088812136305147, -0.018880995234755525, -0.07529906547036504, 0.05502732818364334, -0.13622803117776222, -0.18712442032750887, -0.02883953793325787], [-0.19868370331753785, -0.18419797840048147, -0.009640758793827524, 0.024763685041129142, 0.08144567835334149, -0.08688690330634101, 0.021641240562241953, 0.15279797662014236, 0.14418442807423879, 0.019865969416494305, 0.03694951068641648, -0.023794431274476748, 0.11215324262778423, 0.22453593924815457, 0.15879888809678996, 0.017345196898431847, -9.257465480627864e-05, 0.017018209668822174, 0.1326615814022028, 0.038284539981287904, 0.15563163295951338, -0.15581427069785286, 0.09441021707184444, 0.03028256159396382, -0.06405346579989538, 0.11199111237148775, 0.26466735506494177, 0.15418364892881475, 0.013291966687807025, 0.0006602268728584174, 0.039216271350802814, 0.13402544831103388, 0.13080322550210122, 0.18904958645186756, 0.13268432666853813, -0.0060259624207329495, -0.11669953257097862, 0.10031503788861917, 0.027565912821735993, 0.06656343160285147, 0.03291597472914046, 0.06755286010324427, 0.010794811444697306, 0.08661151719076411, -0.09276970111616206, 0.24650443370267217, -0.05757826739874937, 0.10724147466306967, 0.15771307467005635, 0.15444421299171807], [-0.18199138672618645, -0.009612409942245116, 0.016733499852932376, -0.1505533858405731, 0.1430751406044555, -0.011175751575893775, 0.27483799305528017, 0.10682378525332331, -0.30061323059603073, 0.0003708019073104704, -0.09164082957372449, 0.11539939779316916, -0.12807305946020495, 0.002514238364516918, -0.01104274629009556, -0.05664345169345473, 0.020011773695396598, -0.01563931911311783, -0.0440771765692446, 0.016165696493493763, -0.10313687240213314, 0.02070213497937388, 0.013623458530540648, -0.02589845297419991, 0.09283540471431705, -0.18658263751905915, -0.09053092039667388, -0.015024404044428969, -0.059304963492859186, 0.15510220825326876, 0.024836806292374017, 0.007301714183992224, 0.061417147246239936, -0.006227910253208709, -0.00393734720915501, -0.06477336054510915, -0.25880541943187385, -0.05451885335272376, 0.11984145412904681, -0.07003840639278618, -0.0032570305467463675, 0.10860796209177889, -0.04304508958036843, -0.07438183884128675, -0.07694807508120592, -0.20030861992040827, 0.0071868797697834125, -0.07162062944362506, 0.08800612184176315, -0.010752128157394986], [-0.12899684517830073, -0.0007326107768400094, 0.04380259323015598, -0.010071853647041638, 0.009739911278072567, 0.05618130635095228, 0.016655867670708296, 0.048383592685986465, 0.0712273717567896, 0.15662483586793172, 0.028435181535051004, -0.07294941201550378, 0.09227939049100137, 0.037072635752810834, -0.18052684842026182, -0.08841000642556986, -0.03193664592615813, 0.09739377742806256, -0.07246134706756627, 0.026964853872273164, -0.042717521451706666, 0.037402133732062116, -0.29360704789118663, 0.1054820277763722, -0.00017559794157934357, -0.037713443769257136, 0.017442237829033255, 0.01258745966190071, -0.1727580520762818, -0.09135797492860885, 0.14314242210321182, -0.0666272373154162, -0.11985843115468026, -0.09151356260712891, 0.16613688632600923, -0.01122283999131574, -0.04358013387397345, -0.10183736179282617, 0.02543594313343092, -0.022002967901789378, 0.03503510712319951, -0.0454928740607472, -0.047040076246900424, 0.17868544402273642, -0.018750316404372722, -0.20279721311990279, 0.08140629976029301, 0.12432024099433207, -0.11935120977895948, -0.17790848137534052], [0.061016665641506235, 0.07907273475183377, 0.11087666110506667, -0.12632574025936352, -0.0050957296003750945, -0.10298653997642579, -0.20655767114076648, -0.020218415174448754, 0.1721994666933516, 0.02865279690670531, -0.2555601959754182, -0.01683070448745857, -0.09190458620827478, -0.10290838214680648, 0.12029514400326496, -0.06569138934630853, 0.17571108681794667, -0.11036306773838062, -0.1841807256378489, -0.25254357142775674, 0.010410166224226284, -0.06998983313652513, 0.11799228496623403, -0.1105638684678243, 0.17102480915813875, 0.0560229471319277, -0.11339979420355607, 0.010375076688123354, 0.10293327973331581, -0.027714270039557964, -0.07309465434018048, -0.06818856786037787, 0.036616627156907486, -0.1137456935062203, -0.1004250452629952, -0.016671703217890157, -0.08880945449917645, 0.06244159845808063, 0.045192682042636934, 0.039687982915717256, 0.006391464826562213, -0.0013978424342063357, -0.011318259338933871, -0.07713268936039915, 0.021572012458698622, -0.11315444832357716, -0.07192626725125717, -0.12384086496436515, 0.009560969223154471, -0.04335494693233034]], "net.6.bias": [-0.016213709689544605, 0.0, 0.11038303059297684, -0.02054514320141093, -0.02661306373535361, 0.0, -0.0010513011596710222, -0.010002791705451571, 0.0, 0.030806803804811645, 0.015200584132480807, -0.026732555865234837, 0.03980702497906978, -0.009999996615965744, -0.014036378840851405, -0.0020272025036194127, 0.05025320085403243, 0.00011350410018083797, -0.009999997970744173, 0.00041578495700359333, 8.830940926417459e-05, 0.03574677034472558, -0.007502868306668826, -0.03548327820450778, 0.008163556025595825], "net.8.weight": [[0.04213986266840079, 0.0014527085561174928, 0.00507913581212113, 0.08445069417469367, -0.10447316843278219, 0.012037877059440497, -0.11993844889788809, 0.3100225580770157, -0.025707355705214815, -0.17165348751301598, -0.1023418868538088, -0.09133892616931086, -0.07861754755817948, 0.13397081182882495, -0.006021289947503875, -0.0275769987882302, -0.07357429102802192, 0.04168411062579132, 0.04495111748254671, 0.08638918069486184, -0.06819311618317546, 0.0907593802562496, 0.053628962674918325, -0.07850484351031685, -0.07525931938154021], [0.03205371452394097, 0.02239810124862912, 0.149905597022727, -0.11196948512815305, 0.10876329217852955, 0.02720411346814702, 0.04191157473699871, 0.08818494689356089, -0.023161178431079607, 0.213488709299011, 0.09242630350956249, -0.1259315452224426, -0.016806095989772354, 0.061649674411513894, -0.05534750500334387, -0.08633012060486248, 0.1415239923274123, -0.21339031981504764, 0.05196156332459725, 0.09823385528876405, 0.0869188899770793, 0.09034687732439962, 0.10291776794336113, -0.024693435239337303, -0.31631764343454105], [-0.02976798099029351, -0.14621179947849722, -0.08078104169991798, 0.08491714851750085, 0.04325717362105244, 0.06164304593188785, 0.03704137072908953, 0.04733288747435748, -0.2345097706640946, 0.04309363774292152, 0.01401209016677183, -0.2312985123961538, -0.13462921159687752, 0.19569521311263763, -0.13450055629101637, 0.000552068836025631, -0.08291237315780939, 0.0166930587544653, -0.03433056945029839, 0.021521579364855638, -0.0073982088240544105, -0.04587225675347391, -0.11485891089093288, -0.03934027191223658, 0.005574873851333947], [0.10708305457447437, -0.14522725182076907, -0.16461168102197757, 0.1256369913945092, -0.048029973168632445, -0.0843612929514618, -0.10811551658026215, -0.037739487526977845, 0.1105315254022221, -0.11947604414041886, 0.05481451150770379, -0.13686049323253963, -0.08860225225216081, 0.11121266053231392, -0.0016045123894083927, 0.12550385025587393, 0.10363007113157621, 0.027960157104401036, -0.17079502979807304, 0.059681177985856815, 0.03558206630481343, -0.10212541926712587, -0.0709676400400793, 0.011873497824589484, 0.019645076099710876], [0.0643759600762301, 0.10581982533550094, 0.08331179011884494, -0.0011892223745686948, 0.049993918720436986, -0.18769396424929452, 0.07968174000268534, -0.024602238117646134, 0.05572672665519527, 0.014480576689170008, -0.05346426363146443, -0.1297847178800047, -0.07526685789945436, -0.15454870432541376, 0.030992546934357455, -0.17757284505048354, -0.08040923773315262, 0.13558202735588937, 0.01714031130129331, 0.010115860665616155, -0.14770864207717813, -0.04750007425920544, 0.04188859011340957, -0.0042001000222671074, 0.06429779537467586], [0.03112653915319972, -0.09170578840272316, -0.08653065069490395, 0.05572453033351313, -0.014074182216938, 0.08376842246127023, -0.0426734748181684, 0.1840909962263649, 0.102367235144904, -0.011105997052158567, 0.2793065429823833, -0.13873692391863565, -0.05966464652708116, -0.1345663741267147, 0.15465427454240058, 0.13497274213395852, 0.059784539857403556, -0.15453612408802866, 0.005510959231834755, 0.10564103685364486, 0.08744729370504156, -0.11794530218044033, -0.028664563597588306, -0.10380097352787837, 0.23133509396410884], [0.089089046804042, 0.13140319068097214, -0.023158232874961927, 0.0036087295325576267, 0.026886647389535546, 0.08717296082679207, 0.00764854087349327, -0.02148844768320487, 0.1416061625141017, 0.39485841635947927, 0.19301924898515552, -0.04724713337167465, -0.08757099501059189, -0.10269284848414366, -0.03762061266999037, -0.0011608608301825803, 0.053542962718066966, -0.06781206399785354, -0.05132081910569837, -0.03251442203857056, 0.16579263991143464, 0.07764460418063872, -0.07974351651201494, -0.057531259320985975, -0.029634421410342043], [0.030989909067447953, -0.052450656315221326, -0.08013930323983645, -0.11997516137482178, 0.062300139271522025, 0.004591528521661307, 0.03231672672476832, -0.1196043285239566, -0.08811181833009182, 0.062378682402224585, -0.07421294417503745, 0.08694723260566259, 0.05801393737242723, 0.008489813447907323, -0.03426907896817824, -0.07425135216362155, -0.07343390214524119, 0.1402197239802107, 0.20138113023784224, -0.04603914992892098, -0.09539526725989139, -0.010140907646014542, 0.006829085931775122, 0.14875648324325083, -0.046180877360774086], [-0.0695926225061336, 0.02331119554004473, 0.21740118059385433, -0.20050555715185933, 0.08384795637414973, -0.03488337659317645, 0.04470918635940025, 0.10680924348913835, 0.0009457653373408609, 0.011539763579361892, -0.11804213088894386, -0.12814115633561887, 0.15262338306173728, -0.014842619257023399, -0.15604046911140587, 0.15478415891010958, 0.12808181555685294, -0.13679263555389298, -0.02045673004102464, -0.05770324219184804, 0.0589917576844743, 0.2071088548097637, -0.11553109008418172, -0.08852416995385576, -0.11139211250997849]], "net.8.bias": [-0.0030440172746718074, 0.023578750157636115, -0.009999999673805236, 0.0, -0.005489186457199779, -0.009999999452787909, -0.00455381336237159, -0.015436298308337294, 0.04797671557294519], "net.10.weight": [[0.003798068159567736, -0.0546569226031403, 0.11800003750357257, 0.14685736398681154, 0.08947131073414478, -0.17457268920799476, -0.11345408411191753, 0.24575546010948568, -0.09774390659319877], [0.13926598565243764, 0.02560452416159966, -0.04918539066215527, 0.03348041796003676, -0.14619487368349365, 0.03601442351809457, 0.13626153918751108, 0.10867801608297166, -0.07187804830723699], [0.10628793521449224, 0.10246185949059029, -0.0160948583655934, 0.014846429918493519, 0.004105898998111018, -0.008613930214861294, -0.06298494830112629, -0.2587568597637086, 0.12925698260954746]], "net.10.bias": [-0.014962387736854934, -0.0015239009175142208, 0.060701198353500435]}