{"net.0.weight": [[0.004891580373146012, 0.08323415468646225, 0.21633674074523493], [-0.0005428286193207385, 0.4517263847984808, 0.17187976714636252], [0.11279362699275497, 0.1705402214499513, -0.07477005123812588], [-0.04971096356778141, -0.08504546458864776, -0.09152610305547981], [-0.08393551814452266, -0.08710550918520926, -0.03932096231442905], [0.2108583868222359, 0.21761325262758086, 0.10093796187844298], [0.11627427856746313, -0.07177841144599677, -0.16565799477417764], [-0.1222520110025975, 0.02362109461660156, 0.25670375716661176], [0.04834090982605468, 0.05425674131418046, 0.0765368894927579]], "net.0.bias": [0.04615796316157012, 0.0566988127541405, 0.0943128410501257, 0.0, 0.0, 0.05419708905653909, 0.022256268660328343, 0.03873077424549773, 0.023804877114898038], "net.2.weight": [[-0.04171117622199161, -0.0616890664830594, 0.0017851923439920353, -0.0015200158598099615, 0.016078467857785616, -0.028559513407245135, 0.008982759470298786, -0.05329363034040821, -0.10283838646038863], [-0.018823169751878116, -0.24256206455360832, 0.20208097675121894, -0.011891266625309453, -0.016788834508206018, 0.08047963427822144, 0.12876737097189841, -0.14611465958645192, 0.11149074977292531], [0.09037047472517436, 0.12253492536372464, 0.026895423607911778, -0.041731624284958135, 0.14937014872173565, -0.034288621653622946, -0.0866844595475315, -0.19648812500475155, 0.25680804606672714], [0.12575716258228378, 0.10007715249111628, -0.09475824274963938, -0.10218484755208271, 0.036947534877976855, -0.032743608265998876, 0.026411533998923147, 0.08963590676718192, -0.09563895751244225], [-0.1421137938224985, 0.13576566193352865, -0.11837909572430694, 0.037441774455780515, 0.057957110446716954, -0.08425095800388277, 0.06859336457688274, -0.01462619535782945, 0.020791432219531846], [0.1859141238954822, -0.01831261463438172, -0.22288297934033155, 0.07186329726147199, -0.1272549559297873, -0.020842380439210148, 0.023577090734671086, 0.24871565994042888, 0.08599349335429272], [-0.2532435201504675, 0.0318398902422897, 0.0698703270789936, -0.1116072566216374, -0.1535850977024802, 0.0008605749249399051, 0.10881182675822931, 0.09686343620395377, -0.05259847574170692], [0.22435740705279772, 0.17127891098627365, -0.1526450727129915, 0.11536511963510648, 0.13089266581963396, -0.0722859433357385, -0.3571590839839755, 0.22778614085628818, 0.006962603666236308], [0.3082925780706542, 0.13232927174405013, -0.04455395692171953, -0.10752787825281024, -0.040218468097427434, 0.17952215375927252, -0.2825360449605894, -0.012162176632934632, 0.09080962841772486], [0.09391595578156953, 0.02848869861923273, 0.2274088077834254, 0.06222617863944559, 0.07076478748871194, 0.10595304367844009, 0.12700429769513596, -0.22129290760728615, -0.08672852074742529], [0.02330261732895215, 0.0859126420410002, 0.21732649752394687, 0.03965964967724529, -0.1178389144413234, 0.14108130474503433, -0.23611672097164685, 0.10244146212163689, 0.09241203439663455], [-0.019323608389030193, -0.13161987937797814, 0.19837886154135936, 0.24467055354726372, 0.04246892142090779, -0.013964785108986084, 0.33153464487266254, -0.04464207490333042, 0.06018829387942972], [-0.13189819711143289, -0.0022899196713311388, -0.011311668574900909, 0.006181522136824415, -0.14015318375940952, -0.0384340524170495, -0.026051266078331616, 0.0552252100013121, -0.11011495283353728], [-0.0519756555786016, -0.002661645425917934, 0.05857752193805067, -0.01096378584699581, 0.05381518033504548, -0.0007312891381469485, -0.030975180606252185, -0.033297750311227996, -0.16147255498447055], [0.196959160857869, 0.1546146216355907, 0.03317840637915773, -0.10268130418334234, -0.23599802972572614, 0.02924402288162432, -0.05031168435934497, -0.1382467750942098, -0.034778093082986766], [0.060933530656695746, -0.20298056023548786, 0.1204782821857128, -0.011963080324557035, -0.14260364002894968, -0.2554510960164859, -0.06819996326813221, 0.07842816314961985, -0.10667544701341075], [0.07944385195125947, 0.12365697241297641, -0.04683199529118968, 0.01673802206716382, 0.012876758355771775, -0.0652032429873216, -0.15777070251070174, 0.30362503964245596, 0.09469445519616959], [0.047614904106271914, 0.05007816959628513, 0.042148268528308545, -0.011870850797937928, 0.019790150580839286, -0.29696150050068093, -0.05436011206285566, -0.16635876614053505, -0.08431084711110662], [-0.07600574124323597, 0.014753768132741263, -0.05716497960089487, 0.0378514730941964, 0.17283947437603853, -0.009242888222857844, -0.006561208661720295, 0.16250216563959338, -0.1915619198330815], [0.09870071772243534, 0.17901508871203037, 0.08922018896023735, -0.02494942587620976, -0.05315459686943408, 0.13278848789949202, 0.1322626189609783, -0.08524027283029675, 0.04036489761902688], [0.2339813783515365, 0.2041999890569261, -0.0029556801115075337, -0.11810590024539025, -0.04761912927822194, 0.21651485567981646, -0.16515226907533698, -0.1289236801932536, -0.055798974339978616], [0.04891633082841412, 0.15501947702045232, 0.2186592439025275, 0.14803331336939524, -0.03994201280796183, 0.11254210403511472, -0.04680242791385024, -0.2398850020837076, 0.2296422540965175], [-0.0022632688011252327, -0.04138042231907652, -0.016797238765886964, -0.004585386098467928, -0.17078182556077104, -0.0862178262057616, 0.1531277244286825, -0.04448902651785835, -0.006939884029887849], [-0.1077634203819399, -0.17783942658063265, -0.08773308610358112, 0.030515008718155552, -0.017750192963061007, -0.014873059327589372, 0.034771441615033954, -0.09771540188883779, 0.06616837002142237], [-0.13680162507464685, 0.0728897029168548, -0.010859344836449293, 0.07541266571139175, -0.130365976988737, -0.08444662487571182, -0.021181368366738465, -0.018941893041314564, -0.06780460113548774]], "net.2.bias": [0.0, -0.01821434305171788, 0.03019821557519646, -0.02171005666319066, 0.0, 0.03747231713264659, 0.006420382613314384, 0.053820727300551284, 0.03087517540180442, 0.08368038120640357, 0.0657804952796944, 0.028388742170886303, 0.0, 0.0, 0.03750766104840604, 0.0, 0.04071939095408184, 0.0, -0.01695134146835668, 0.053145805481527905, 0.06366581603463708, 0.05065349012968031, -0.009979100074967285, -0.0006350386686698959, 0.0], "net.4.weight": [[-0.002717321776904928, 0.017326455156018324, -0.03307066619562822, -0.09255540138691665, 0.23501872256447975, 0.023728951150741192, -0.1282479137692203, 0.171115453937848, -0.10165100519048886, 0.00808233977046725, -0.014135405233378577, -0.1524270921604657, 0.03185674465223278, -0.07758493690100088, -0.007107405827052697, 0.039432725463219895, 0.02934546249674582, 0.08103358622549904, 0.03834757548873666, -0.04458509942023558, -0.08059418521673545, 0.09959342201485849, 0.3290403911620081, -0.045906013327832895, 0.03129948168644122], [-0.02649234681040762, 0.009778926982333071, -0.1358170642183232, -0.2127001641073522, 0.0047909337371806245, -0.04725276250235333, -0.032932144344382464, 0.019422323379172508, -0.15914339476558273, 0.04310738497115767, 0.049459180790362565, 0.10893292772611164, -0.12135173458149678, 0.04051072553649318, -0.04333820112628377, 0.08033237484772764, -0.17319532223528744, -0.0802978690495248, -0.04929490096194392, 0.01649454573235106, 0.0308507436022502, 0.0474617325465957, -0.030237137787159214, 0.1687742550761862, -0.025007547381293772], [-0.11214300971135083, -0.06923661294598736, 0.00011176647060916396, -0.06972161296508915, 0.16279297000902793, -0.03274421560968275, 0.03431934568912588, 0.13227086459453552, 0.07300856299667485, 0.044211078489054305, -0.05168161941446036, -0.0055508866969813594, 0.08400850458720849, -0.014929403618771092, 0.16106209341189512, -0.11248037415063512, 0.06131110307875311, 0.005132961045613573, 0.13126006424406866, -0.1287091324609535, -0.16453330590975812, -0.14821137516228577, -0.007328814940371073, -0.008214478506841828, -0.0011997541847947601], [-0.10273533820357633, 0.12888729426659426, 0.12856560378975387, 0.04780309874004845, 0.051982251787480616, -0.12416993481405135, -0.046668497241569094, 0.021512000270537113, -0.05341882054999836, 0.02886516338711182, -0.004146081853811266, -0.021494081764438892, -0.02376372927003287, -0.03661893042548715, -0.010085629413437072, 0.1538960625572876, 0.07774546292434599, -0.14287626933208789, 0.03705535286934307, -0.08555289841492018, 0.10310586319342613, -0.1977948402157812, -0.11673056077315698, -0.07883837156523239, -0.14998056995793987], [-0.011306185935491923, 0.08717336982433332, 0.024122017385042993, 0.04602665399385366, -0.14467089152161997, -0.0043705124490950814, -0.02010783777942493, -0.039579204724128736, -0.019383548280116424, -0.26138627930366903, 0.07813679546046828, -0.0008816827328041171, -0.06287684019115328, -0.051555618428443244, 0.025025391308456966, 0.07242202307430048, -0.0994550931491355, -0.07300575495025069, -0.2505699975006978, -0.073413039030068, -0.0060253743215002735, -0.004374958293374171, 0.055604253110329384, 0.036561678164137607, 0.16221318158867082], [0.0010774514563340546, 0.1005927180109052, 0.14066684777841662, 0.12739551472915886, 0.01212045974719466, 0.010564976162241788, 0.22261777921342413, -0.07687659909776466, -0.06966335949975994, -0.11008021892034432, -0.07027979543160087, -0.25063453588919404, 0.06426370108881173, 0.03938686170662348, -0.12889723904607178, 0.04159663133767339, 0.031579779372802645, -0.020308908104892238, 0.044247812864520474, -0.046981545686255, 0.07917725346990959, 0.049874894297405326, 0.03374141076782818, -0.16296147600037003, 0.03856356333063854], [-0.1633887040434957, -0.12867037571197973, 0.0422811750008534, 0.12009536809111704, -0.09089184721875541, 0.03294124659361524, -0.11246549142419698, -0.11729999919029294, 0.18529216939416962, 0.038246516940713786, 0.19740608806173227, -0.20778125718097895, -0.06647544528934446, -0.009281781962610055, 0.14210728692259952, 0.04488905031388147, 0.08549579969273477, -0.0066791668325581355, 0.02506121923179413, -0.1533024207552164, 0.15473312209285672, 0.012136766286773177, -0.07308408117583733, -0.18692207275928913, 0.07429602822866478], [0.058217918752813805, -0.15856418743515266, -0.03576364080939158, -0.030343637132408913, -0.025558085148067178, 0.038045113485367855, 0.031995157265718104, -0.021885782462820847, -0.24029136932774403, 0.022790788290392827, -0.059876626038888076, -0.010364253561154845, -0.025722429839307434, -0.09332949572511266, 0.2310732368667844, -0.010975728141306547, 0.13623840057140513, -0.07358201139514467, 0.07720178410810162, 0.1121052241301998, -0.09035650545908035, 0.06516746350352738, 0.07894353519283707, 0.06739989634258635, -0.07994140984717385], [-0.0818608164040609, -0.030401317389935005, 0.16619789962048673, 0.030455362216771954, 0.12568814305050552, -0.24296387172703132, -0.1041833758661102, -0.10123761440949214, -0.12555730786146296, 0.06736628396585839, 0.043220172765841, 0.0433459733624597, 0.07053682755485538, 0.05347582600604446, 0.09651597330831418, 0.028481405016878732, -0.30148181510705796, 0.0338948657227762, -0.04621661341288599, -0.016861140544776335, -0.11319123154380772, -0.036647902483353235, -0.02922458910475642, -0.09261291858457991, 0.04134564532973209], [0.048451619278282454, -0.3160455472496378, -0.002310624653445821, -0.009517227785476654, -0.0718295210529023, 0.1191989734904355, 0.15927263300210545, 0.052677596246998526, 0.13243858521105176, 0.08423003405907731, -0.019149897837971608, -0.3095915302506964, -0.0018953121418916364, 0.005076837709789132, 0.18661856333474386, -0.02703914724590281, 0.28953834580108523, 0.16275519982433403, -0.02030815030582798, -0.042920232517351865, 0.09917663087145048, 0.03166626077198146, -0.13730810170955618, -0.1497497611863918, 0.006158506526580977], [-0.009033377002476728, -0.06426989168628262, 0.10358474982440707, -0.0716909034816426, 0.16451986368376914, 0.03198052559682534, 0.05579947646182344, -0.19593873886858892, 0.13362541494319058, -0.0368688842225793, 0.09059291567684694, -0.2829160299901526, -0.0076158192570169835, -0.10738360369029634, 0.028740094762939348, 0.07834970076355982, -0.2509715866367699, -0.08700397313524678, -0.0487988333135621, 0.023111199528034577, 0.23353815101570685, 0.04170437885513521, 0.009869173218430078, 0.09578316614858005, -0.07886995658343093], [0.1840736891685418, -0.14906251558825545, -0.03408828385775539, 0.062276820211780756, -0.10407915540783114, 0.060491863574942524, 0.09338403788420804, -0.0832522766798074, 0.011445129467083048, -0.0165729066426598, 0.053260494433545275, -0.004344572472729845, 0.05806722955855841, 0.04021605379471456, -0.03755831695681715, -0.11165475289094454, -0.06307426735783796, -0.057462417061505955, -0.1060335296400171, -0.04552323072138478, 0.1407752598684702, -0.2243099379931808, -0.23947710122812174, 0.09762897726874953, -0.0045337290169564885], [0.04723490016268237, 0.0008746554507097857, 0.06962290530975464, -0.01640118383194697, 0.04710913423532115, -0.06733992638322726, 0.02814455221153518, -0.05865808129907808, -0.15866497048958478, -0.027622027020399426, 0.1299815585863164, 0.09650348881401599, 0.03590632176050499, -0.04549232019443345, -0.05580227893051553, 0.025169562201192725, 0.006004224527738879, 0.09536947238125798, -0.03128004909510154, -0.05024524978401985, -0.042321651907696406, -0.06766332514005789, -0.0586603585660354, -0.16354336180525553, -0.12377722694101545], [0.0347368561243827, 0.024114873078245523, 0.06246866339009628, -0.054514868354282556, 0.010588765860976158, 0.13949068910927473, 0.11401674188614991, 0.04449521534700012, -0.04436523025753572, -0.04822218611795145, -0.06375384406623572, 0.042986990693319606, 0.11982386590471146, -0.041078847424098175, 0.006014174280559555, -0.061584478280335433, -0.017541319042728945, 0.062266698630939504, 0.14086368151054027, -0.2062611167567265, -0.06182192831723363, 0.07840366285897526, -0.2999983932754162, -0.05109367793676403, -0.08483247576392688], [0.014389328388907555, 0.03037224245454558, 0.22466631620876298, 0.023039625754517533, 0.10875148172883808, -0.1274331726878197, -0.05015363464943822, -0.13300503972223365, -0.025994156405680157, 0.002849446896561049, 0.2642198138580373, -0.03197895628680473, -0.1384237380140024, 0.08688045417426123, -0.05596728982613168, 0.042721142688517975, -0.21016919186614777, 0.030430832507033802, 0.03491300737397377, -0.0769184105785979, 0.21586915783934196, 0.06346355136071236, -0.03086551321504512, 0.18382312473484433, 0.126783157908506], [-0.05488060466077967, -0.1989617493155953, 0.06674245750427478, -0.3113379704443358, 0.03334593812325284, -0.13951103044892532, -0.008066198560387376, -0.12713105010555958, 0.04541773027996333, 0.20046405218514354, 0.1859482976151333, -0.17609517026070107, -0.18735811725826812, -0.24600095249332732, 0.20191389045564825, 0.09998800352296011, -0.11839397116467038, -0.03715666748158213, -0.0736284413996885, 0.018926461018241445, 0.33955263885400205, 0.08508019598389469, 0.12421330826137142, 0.1563756444006446, 0.06617439090501898], [0.024029812130891847, 0.14208759438970345, -0.0823917520876282, -0.00889114502332122, -0.10494465930002904, -0.18135948684863426, -0.06235843672884322, -0.18062649693919394, 0.0023593860173125444, -0.03850434023044251, 0.014635350215763654, 0.21450868376725796, -0.008617202392244838, 0.1290613244560475, 0.15566388025259975, 0.03376352979323096, -0.11680500044300902, -0.07771227487855036, 0.1950816589775443, 0.030233755529921247, -0.0026113893902680657, 0.07691907863671377, -0.11873548167391149, 0.03404510046318983, -0.013290981565036816], [-0.005582462120563288, -0.0124296464298053, -0.020114119370448443, 0.03414719284870129, 0.04772727024670082, -0.030403010918129976, -0.057955703438010375, 0.01934222822061908, -0.0743322243018664, -0.15250297670870422, 0.19389441049682982, -0.12030587946479646, 0.06822806010902964, -0.07761904712063306, -0.0895659458903067, -0.2639938931004972, -0.18540809477246417, 0.050315925647689975, -0.09764478250136639, 0.0034557241371697828, 0.02518289519816135, -0.11093268007817583, -0.2115101724928013, -0.1299432479635953, 0.05526041589337149], [0.0010007903196366534, -0.02990125003062183, 0.2211653224857737, 0.018015685394053373, 0.005485287271268932, 0.03343048985264398, -0.06215904425492672, 0.03285940671175049, -0.09076710584247644, -0.0172745421094077, 0.13087485943733548, 0.013926903209312154, -0.03975171774089397, -0.21676788025342414, 0.05380176678790678, -0.04511791649082357, -0.1391037285655424, -0.03507925115010685, 0.031818133208542494, -0.21754714986832294, 0.04860273051421227, -0.2634389586937104, 0.040298500854912926, 0.08540557007879701, 0.10539325796744621], [0.15007957911252853, 0.09496290560654494, 0.10502071926824096, 0.02845984824902779, -0.13488366311551822, 0.007708789355467983, -0.06445273320106147, 0.15414926865781464, -0.0090940895671246, 0.014377704479020046, -0.15935209506529643, -0.1155127189765188, 0.004369763442813161, 0.1122507041889711, 0.07286163867328083, 0.001697461258088881, -0.0635180851411828, 0.10815967484042739, -0.037557017119854263, -0.13056354391802666, -0.008208159695657484, 0.10772450364015496, 0.03998477824874161, 0.0703235413549934, -0.03188709815999158], [-0.03627579020749721, 0.18308025685273285, 0.15608373693209948, -0.18894165761715592, 0.1452815283954084, -0.20507093512071115, -0.1499842573359243, -0.17949094298013615, 0.053694128851440794, 0.25250221766644354, 0.04742081001020865, -0.10946450692715431, 0.0058335306518671115, -0.05027657439424113, -0.08672703344954868, -0.12388185583781408, -0.12519075327668483, 0.06509189041769226, 0.13646673409272925, 0.11504907914350526, 0.1820235481124411, -0.04099094263466935, -0.22184151936234203, -0.140470174180996, -0.10102936615768031], [-0.07162653425127669, -0.2644011171314669, 0.06133000503999335, 0.24909756405751862, -0.11644748490957196, 0.12271081276946351, -0.03865509096894622, 0.24686507583865888, 0.11673408325717526, -0.061609939057616116, 0.09998729883104669, -0.20516351179563172, -0.0543087294514966, 0.09221444659926828, -0.022998819462557014, -0.05767972795310325, 0.2417009622108032, 0.06592426018808223, 0.13084557137929997, -0.06294474983255152, 0.07759247225429892, 0.0031229757526706385, -0.1649170309726733, -0.04301341738371603, -0.11458695743572866], [0.05918469711976551, 0.0516964629780677, 0.021633556881661034, -0.04195468954700705, 0.04361007574418936, -0.12085610157353704, -0.17932973185086376, -0.27588367662377183, -0.04278685136784621, -0.03616800537738508, 0.015119084553942846, 0.09741755265577036, 0.051484009089257904, -0.03170992619678918, -0.003456923543746957, -0.04268121108310636, -0.05514334396651543, -0.030117717556286103, -0.052787803712633655, 0.15654558466199983, 0.0016641760531063555, 0.3548365213909465, 0.018640684673499656, 0.015379155370512897, 0.036457585926138486], [0.23031911493863577, -0.031226158545040496, 0.0911967455589013, 0.05572958207060152, -0.018106708114632268, -0.048553495525781774, -0.07084690962018154, 0.07778741190044185, 0.19830653203327486, -0.04056088842117189, 0.03154874163275682, -0.26111128404876716, -0.034761117161258216, -0.05682360151981766, -0.19419013075598915, -0.10193339826551702, 0.25514179516130364, -0.16817868410672554, 0.12741078040428394, 0.08680565121809419, 0.05047497034448694, -0.1497849832370812, -0.014987102827697643, -0.025181223233525306, 0.013321292544124225], [0.03472334182589963, -0.017392705348726712, -0.014683199099348739, 0.17031062843812306, 0.0731508757290368, -0.1601915682430177, -0.03611169280479373, -0.04319491282548443, -0.10830341983948767, -0.029109680832489826, 0.012158193404380001, -0.17977695744388605, 0.08011562524993582, 0.14438080674919906, 0.0506833916231448, 0.015950879099100413, -0.14383217297216702, 0.06680330790645338, -0.05996465608252041, -0.029196790480426327, -0.07687950980677277, 0.18324235704576508, -0.06690819176817434, 0.08064452953305563, 0.021599490956901675], [-0.023483920501623425, 0.009486281932084326, 0.12486525148038402, -0.19129511158256368, 0.14087157058416291, -0.005872046031838854, -0.04153543341531436, -0.18038795899927276, 0.2168991098507208, 0.09817662646701282, -0.038803638513178876, -0.0806889441345382, -0.1354625050382494, -0.0008530733026293202, 0.1396683262567022, -0.0983359618268533, -0.21329517036675272, -0.11235906411289392, 0.13848390350706538, -0.03156341095758536, 0.026426279597873154, 0.042175433468407256, 0.0562025985012277, 0.15319737249411616, 0.11286382892727681], [0.09635977166669063, -0.08508707369181923, -0.12578308400497396, -0.2907085750974443, -0.14567669973714248, -0.10032482545287688, -0.2114286919353257, -0.1271418531568876, -0.13635932171720547, 0.07377054915083436, 0.18642813263591315, -0.14805606518158512, -0.020344718541485056, 0.10614709616952907, 0.20331643676152597, -0.07708684697272127, -0.07983606532361699, 0.2183597496389863, 0.03709628516248967, 0.11388287523777856, 0.18198478586438274, 0.09203870670096533, -0.12673187656685067, -0.03075395116776305, -0.04755585982923216], [-0.09778085410379377, 0.04631577945468014, 0.0862212310895864, 0.050442583297092274, 0.06567781918521019, -0.0924743811122995, 0.07914871068304653, -0.2767999327520372, 0.08943475268546466, -0.020132152209457264, 0.27032840343765796, -0.15297398837408105, 0.04965307991011158, 0.0678736567976889, 0.18038084107149657, -0.02639637191116453, -0.13492124128549732, 0.1609975042879127, 0.16065550321821287, 0.1728315242643543, 0.06671474701640191, 0.20200717773761429, -0.02634581572923822, -0.01443065842771489, 0.00983493951607402], [-0.06330413906355696, -0.10421240328716566, 0.08512215512896967, -0.11304062727853978, 0.1645695482589841, -0.10288975126736397, -0.20588807991609528, -0.2289648976731422, 0.12196267473367357, 0.11099143812874969, -0.027905035460518986, 0.043585380439128296, -0.10121533000627675, 0.12713498353411673, -0.05627306447531825, -0.005230172955767198, -0.06350427753603044, -0.07507617352008782, 0.10758903272017246, 0.11590799209315436, -0.009294799101253484, 0.18898578057419754, 0.008209271993027916, 0.1874501516178224, 0.20705783885867626], [-0.14499758004191612, 0.15341946909165616, -0.07128462038818124, 0.015573635268838114, 0.11686034415750382, 0.07338924078886475, -0.12144658232474416, 0.06155446556016156, -0.20717033252741543, 0.023566667759813358, -0.043424092196296664, -0.11195017179988592, 0.17334058468867142, -0.14910816516391068, 0.02633749632832091, -0.045791632755245115, 0.01023174530620864, 0.08886392931085056, -0.14083367003030337, 0.11535457212989846, -0.0823229284513147, -0.050511856639267876, 0.029330416278015053, 0.07102996532842736, -0.1182263624182231], [0.12229913787948028, -0.17610132252957314, 0.010381276624045283, 0.1516506614765336, -0.019666525977974053, 0.09865141812654804, 0.19721508341189142, 0.2108487843268172, 0.10644861618403864, -0.17614095274343025, 0.02806818392174841, -0.2829677602083416, -0.041469437014609555, -0.017455910128821344, 0.14266256120956217, 0.19927588931339346, 0.16681012454831348, -0.007567458158033434, -0.03892027703997775, 0.14279489603542173, 0.11009650178702445, -0.06556740040247355, -0.012411004139335673, 0.10998500224022699, -0.08610350564165005], [0.13253595304254703, -0.07358970633432149, -0.05477924535706992, -0.029032094207768568, 0.0033197284068304934, 0.10498318365487591, 0.034826093325406295, -0.053574425108931706, -0.0009960911079494282, 0.03465878032463171, -0.1213400111668374, 0.01231421623541811, -0.1076277094918215, 0.11330939182122766, -0.020803152888887462, -0.12607172327331198, -0.12889796305668563, 0.038978113647466055, -0.12352474847921127, -0.09169922410184787, -0.040670920661304004, 0.14704606944644116, -0.0003079315558096186, 0.012734081080063102, -0.056766260255945236], [0.05042415426847601, -0.008541500156243147, 0.07477107716059497, 0.05857477051740734, -0.16313998089187376, 0.038892816384877654, -0.17189376225167666, -0.04363712571346647, -0.04092423903576112, -0.1626346529960202, -0.11406677483943149, 0.06744958796768519, -0.15306288500043233, -0.06469659456303135, 0.0611626310305914, -0.011937246301165194, -0.055701397638809415, 0.01131967880693691, -0.15237104667114254, -0.08329372066849765, 0.08219481593568477, -0.18865834702221418, 0.02333551904121138, -0.25925335521237036, 0.09212535511406159], [0.05690450986479953, -0.11143009586659203, 0.05116896075934976, -0.029944581506163147, -0.07537931441623275, -0.011945210433110368, -0.11975535261397181, -0.09928284249100337, 0.15304724035612935, 0.1807448098362143, 0.07192557795240409, -0.2619480597087104, -0.21233466067411721, 0.046166505798335325, 0.1097414854842079, 0.008861383434486524, 0.010859380063987047, 0.028246399364848847, -0.05195589871002484, 0.24094776357926986, 0.09446522292369584, -0.06642381745635909, 0.16958873322475554, -0.02648839739684577, -0.04460592039330058], [-0.10920333678720716, -0.059657226013007374, 0.04653161833807783, 0.014385497599410055, -0.03968404424730465, -0.0836541540718915, 0.1893792051159663, -0.046297890420300254, 0.15579667561341642, -0.1778460629384715, -0.011361685980968159, -0.054479305044910435, -0.08888025492414683, 0.23751489123349884, 0.1761072736880527, 0.0011905545508648192, 0.060378189363037855, 0.028357828075124165, 0.06339272367953286, 0.04075394024430213, 0.21403292302425217, -0.0005668994703843287, 0.08807730888724195, 0.15040339075756298, -0.0830427339930796], [0.10656232226243068, 0.22972604094706708, -0.037970919155899764, 0.17988648019371795, -0.09289938964832434, 0.14983113843567833, 0.020792620389890444, 0.39887442601920675, 0.10767289691416827, -0.21656100171306092, 0.019945352144114668, -0.15961221047887367, 0.057842613078436744, 0.14217955233976057, 0.1636706128726401, 0.014978204062559487, 0.20767880795018842, 0.09062428912985479, 0.10795252029609857, -0.03981113383887448, 0.07454346371615059, -0.09160569329957274, -0.05644837659564888, -0.09903522971950603, 0.09076506184876701], [0.28183550998031437, -0.018875060422562016, 0.035243133256939875, -0.15114870927244034, 0.1767879080397309, -0.3260638561471714, -0.10720773548197834, -0.29096246708741713, 0.22875017480738372, 0.05497104496075943, -0.003933288533504076, -0.09420502359119835, 0.04681209324843341, -0.008773776015370622, 0.10100592629623337, -0.0448718675702721, -0.38776059015235437, -0.1371243195225478, 0.055821453960166634, 0.06546783315283529, 0.12725385346159374, -0.13142802525350633, 0.03703291729623442, -0.14973964768663262, 0.011282526591852735], [0.08807076027056092, 0.191264110471878, 0.018800973522215037, 0.005414266381645255, 0.05134856045421204, -0.19505390572688228, -0.18305188558356553, -0.22039634364095592, 0.14598914512156974, 0.19266339128773496, -0.10131783397927945, 0.10237069482006456, -0.2202899580466342, -0.09059985108985238, 0.284305863109245, 0.12525861019858983, -0.2400383462930252, 0.2530055420471202, -0.1647824821732452, 0.11858391225741471, -0.02168536900202666, 0.1656414899447605, 0.0491219455562454, 0.15159238317842272, 0.08993483777123021], [-0.047066357091958895, 0.06787406619612296, 0.07622106034656975, 0.2696313345888291, -0.0404126931578765, -0.006458460246122522, -0.07214063483536014, 0.04894525579764944, 0.17819289908742575, 0.08422900154934077, 0.04554475816971118, -0.177214923282276, 0.10583782253675536, -0.12718801299419988, -0.13207138304612231, 0.007532388833897389, 0.1557530831902436, -0.22119959953684254, -0.03352357560745095, -0.2203847247305664, 0.13306919086329141, -0.09382194283370061, 0.027730217058172153, -0.07688251261568335, -0.04019263254520367], [0.02114183812158891, 0.010903725615630019, -0.050328386761762114, -0.12422140039900076, 0.15660014610443565, -0.08209306999843381, 0.07072961553313331, -0.08890742515997245, 0.13581853640633815, -0.02788110658025368, -0.05874726351061971, -0.20351862432281834, -0.035928483699016855, 0.13098404555643015, 0.09275951469003423, 0.07251757842250525, -0.0010252944008317716, -0.1132476259052318, 0.18936532296430317, 0.050646426113019116, -0.08602025411379063, 0.1408228802416811, 0.12428161304304097, -0.04387546620153565, 0.03253797768872151], [-0.07093615595744808, -0.0894113386353525, 0.08332741634735177, 0.15690864923855946, 0.19687770191629847, -0.03367858249292274, 0.006057806365984124, 0.12756023210852405, 0.06637368690679996, 0.06629513788796156, -0.14288461853083387, -0.09479341679843627, -0.05388361320351928, 0.07771625220209565, 0.1546706720619773, -0.019974010643918287, -0.1303789132369644, -0.0182382214155396, 0.027161843619659565, -0.12007729860616018, -0.1298836097718672, 0.12718931152809262, -0.05338962663735454, -0.024999423108979592, 0.033873218898121914], [-0.15792937187794664, -0.017361019087767687, 0.11896085536343735, 0.06521141912669844, -0.014728487973230503, -0.22580270383226375, -0.26930373871508784, -0.24261706711007805, 0.03377982888493901, 0.07259883317912531, 0.03627381544561723, -0.0346187995722417, -0.03291472480570923, 0.05560678689691766, 0.11735979864757874, -0.121541306369535, -0.2726942039257525, -0.08221426824090905, 0.08824817607357578, 0.14714341516279858, 0.3146032716558184, -0.06651521771827615, 0.04768643159726878, 0.10647914689366612, 0.02569039752954765], [-0.05528904855160364, 0.0745443770430062, 0.1987840039705695, 0.14459109185271776, 0.07326053687084186, -0.005682317997695806, 0.22954245818964103, -0.12177470899676615, -0.13930608657578591, -0.0656468091675022, -0.13200988349145346, -0.14486759046021833, -0.2576120106090944, -0.029609396988402065, -0.1687871170517259, 0.10859652705698881, -0.04047954908610868, 0.0645813482017074, -0.13363618046757272, -0.14723421576395654, -0.06346190772115896, -0.031285818939731556, -0.05843989422889628, -0.06892003621190329, -0.03875120312763125], [0.17798650833429608, -0.039221057620866175, 0.17220728791220288, -0.0386214921552444, 0.14121248639707404, 0.04686259841353224, -0.13262032445330266, -0.020786619183988695, 0.04534345618863319, 0.08682315045549428, 0.22913214241681584, 0.271634900437775, 0.09351555530498602, -0.027817783572415846, 0.03827137993057382, -0.05333803631943155, -0.1130107804121073, -0.038946492644941995, 0.02008555053900403, 0.04625779660665389, -0.04607313973010768, 0.09849236149685597, 0.03304814395244034, 0.04940363615319838, -0.022437746606350003], [-0.02216507772381639, 0.05904841696405451, -0.035002311172866986, -0.09549096438332239, 0.032284990762117015, 0.23132755057062387, 0.13257006558806037, -0.042319080575397516, -0.07557031744784094, -0.03074493373668585, -0.16883112533873762, -0.007257013520733946, 0.1568444800089701, 0.15194060232286674, -0.006120516300072202, -0.09510458193274046, 0.05150221887641061, 0.103443721127892, -0.06920019003916233, -0.2107869353901112, 0.03427564306348784, 0.019761982807197376, -0.15452602021845102, -0.01258072259146603, -0.16798867652202218], [-0.06598356834696904, -0.19330816830482597, 0.36098921261563455, -0.07335617082625735, 0.130561500915972, -0.190395793259794, -0.0504390528077755, -0.14406362035741796, 0.1169000623820712, 0.1033535340060234, 0.17451770952447843, -0.1007620318525572, 0.15942437926421046, 0.12804205813013358, 0.18026753946809357, -0.028613812602128447, 0.09070351907408128, -0.013074468188628894, 0.037774254278898536, 0.238928905713965, 0.1653978339427315, 0.2506054410575593, 0.06284605878324319, -0.14899747406809793, 0.023071749826102397], [-0.12204348622255362, -0.09014045615698375, 0.030416099982111415, -0.11291869611061268, -0.026069948909170304, -0.10620271554959189, -0.11214185852373931, 0.1531724863416684, -0.1550678248718824, -0.06979213829758306, 0.01604118120097677, 0.0759322984909003, -0.07361491363928839, -0.07352868072236311, 0.2918044139139504, 0.16096162476756826, -0.11682367713318356, -0.1258949941437553, 0.13177107594478785, 0.07854724605468433, 0.014496192283064766, -0.05703424781970929, -0.08591491342755635, -0.0404098518237872, -0.07454259630636888], [-0.1012999677747237, -0.19266635505993496, 0.1241964128560731, 0.047800851725958084, 0.04767993659943708, -0.009686180496684217, -0.037429723371251784, 0.05140150085937129, 0.06616866345168712, -0.01670791773198399, 0.03209668829408034, -0.02387565240161047, 0.0012287044276566277, -0.11718464294806169, -0.10843263197496415, -0.07712300055084487, 0.06090836436395968, 0.015684005416465724, 0.09149726263727427, 0.13459629458097702, 0.03641786294846214, 0.11095175578770194, 0.0037057971055593636, -0.10546359334669701, 0.16438738971351607], [0.12182173030881799, 0.0499323055982883, 0.09294696822451315, -0.11969337472327903, 0.10920245234845705, -0.1657893466994072, 0.05585230053753398, -0.1301446256805171, 0.11312443730839299, 0.2516724108697329, 0.08920317685524629, -0.30792949361198757, -0.08180327127898633, -0.015821210076849942, -0.20407282303742982, -0.061760920982318605, -0.2739862082394662, -0.07420438955236625, 0.03312679212094632, 0.17429897432548758, 0.12025087964441963, 0.15201012384486226, -0.06088337022899607, -0.009177247109822302, 0.15617223187244475], [0.004288411932092028, -0.08316997350937394, 0.14989661105163346, 0.08046120274793124, 0.21084143160300928, -0.15407727472914756, -0.1395773782917877, -0.2689223310900759, 0.17385751276309214, 0.20478329673724746, 0.09891074002943266, -0.1481767814793444, -0.12923562484180506, -0.02741328710359487, 0.08163384644244842, -0.09288286489703643, -0.10958569033405935, 0.07920262118864137, -0.07235802083207522, -0.05994231740277287, 0.21786838654392668, 0.09077699622010599, -0.14567123807160687, -0.08221339190542488, 0.0793951014441781]], "net.4.bias": [-0.002223985973573404, -0.012167318327786098, 0.0, -0.009999990665123689, -0.021368873530158317, -0.004939980477836465, 0.027490890308727124, 0.0, -0.009998824041803413, 0.0030251401659245223, 0.034069503352430315, -0.007451080898035765, -0.009998125301101281, 0.0, 0.04200063916468197, 0.03991555952193858, 0.022738166074543792, 0.0, 0.0, 0.0012344949829323916, 0.03512032455175196, 0.05168641118778976, 0.0412043458087516, -0.020066204063767364, -0.022535664892357483, 0.010628966310825463, 0.0456524186656513, 0.060900309231978825, 0.019493656187952672, -0.009335284566897225, 0.03333438599087684, -0.009996949224580217, 0.0, 0.03459527188811062, 0.02547009603137326, -0.010123984937860145, -0.008701339003331492, 0.016083706548039207, -0.01981086591949236, 0.005564649157676548, -0.009001295156019355, 0.04369685109573454, 0.0, 0.04210112565633558, 0.0, 0.06342752511510959, -0.01769568030345797, -0.009180471710791015, 0.025612771813920722, 0.05961309058953114], "net.6.weight": [[0.16533496332695308, 0.018511879517129952, 0.13719700360726228, -0.19457820770823223, -0.15220536314325087, 0.017661782132085094, -0.07155864949685166, -0.04371897348965804, -0.036420329026302864, -0.02710557531661372, 0.010400300792516009, -0.0007290986334201262, -0.0012420673731515619, -0.06357397436251266, 0.16373449547115984, -0.10108343075926217, 0.18596218704141176, -0.14203278187666044, -0.12122445372649984, -0.06743446951882838, -0.17037733364086016, -0.28242043745701106, -0.10145678368831476, -0.08955463136323367, -0.056918731222901156, -0.10690900869399579, -0.08575295596126396, 0.09398127505477205, 0.11471658481376862, -0.020324490449581102, -0.0749999828924894, 0.01598923603728581, 0.12536372357111217, 0.07355109456647035, 0.0405715100211126, -0.043509336592801866, -0.07862258213743369, -0.08351365292181236, 0.0437469284384735, -0.23036783504948416, -0.17852311059122428, -0.12253672861977272, 0.026442784892038107, -0.04320019294792576, -0.025687660485966962, 0.18339931411708724, 0.06358297473082467, 0.060528325410036964, -0.1237271127856005, -0.14874281652229096], [-0.01943753188149365, 0.17716785037994007, 0.054891583331507836, -0.02150710548138045, 0.07222203725946372, 0.012480876938984812, 0.02742344544336303, -0.16336094730514755, 0.06390085073194728, -0.11102457100260117, -0.1852675162871542, -0.03266446173678755, 0.022903043533395107, 0.0411697347785745, -0.10759771948626405, -0.018784562310150507, -0.03690299829119569, 0.0336159594572668, -0.0378721027588423, -0.07849459213802909, 0.03836168836704017, -0.15103545221870304, -0.2081736502186757, -0.11882271981252633, 0.06447895417532941, 0.10644603365305186, 0.011529104077955148, -0.10638104193040615, -0.01217263282266366, -0.011574392974650365, -0.10765216385151988, -0.05404334553435578, -0.06403555967145844, -0.16448790803201147, 0.009812583215851945, 0.07393589643190061, -0.03895932875211196, -0.073734095181246, -0.0005981628297835888, -0.06371165207095496, 0.08720875259107508, 0.0285391961751421, -0.15142084596966862, -0.08190887443934991, 0.05574829378016787, 0.22675104769468302, -0.0402387396407004, -0.014611907029702054, 0.24688793681510068, -0.01278220377521158], [0.03707361455432422, -0.08659502351442709, -0.11271457657094944, 0.06498868648998103, -0.2527966323596307, -0.10798365705433693, 0.11342057217791414, 0.07025202714789147, 0.07814539989345101, 0.17579851422742343, 0.28791210792032723, -0.0044775633628992345, 0.019222646528102624, -0.08572133490113476, 0.10513243856831939, 0.1624003436482929, -0.1585809350747113, 0.16678679230252275, 0.022668985597759688, -0.047608036487753934, 0.051715511572436326, 0.08016707176993232, 0.05198804072741138, 0.12663369112077424, 0.03543648012401578, 0.2972390112290357, 0.14899343895395373, 0.2779554494055415, 0.13566437753632707, 0.11017558452776252, 0.10902724785388147, 0.11303977195391421, 0.20041566193642046, 0.2731809722819962, 0.25570799920190673, -0.055839906058565585, 0.10519458375575355, 0.08425679412221672, 0.10151504036133896, 0.12407376905858453, -0.0019147348890317824, 0.24387163441664816, 0.03290638150120891, 0.012484792103872256, 0.11128005304063138, 0.21321320550655679, -0.06208113214367186, 0.0419188034745912, 0.13810579153157287, 0.20988874604629512], [-0.013696984811983762, 0.12113456424718216, 0.2510104183304302, -0.032850909300673005, 0.05213760819756179, 0.10933619404635658, -0.07452826288625472, 0.03731830806621963, 0.10881361153527017, -0.13985857836149415, -0.015590351565401249, -0.14376619649033082, 0.04664216394095751, 0.1985512575034784, 0.06361784933440483, -0.043116080665504736, -0.10351274784536858, -0.0594513401540637, 0.06984586282018856, 0.09191629583796959, 0.09126378215013405, -0.26953157783218995, -0.03330408169448857, -0.08448572835781087, 0.005472982910492454, -0.04234808647194656, -0.010732084680226232, 0.06362989588457015, 0.016387353178347417, -0.032437396692228664, -0.13201922782551564, -0.04330986794772958, 0.08140704642557542, 0.037502930642390915, -0.14318720137805724, 0.1420278441122018, -0.08690210811586362, 0.29486995024812823, -0.044845909575562184, -0.04475058714463239, -0.015958657823735088, -0.007331073968798911, 0.0862023640686379, -0.037934665152021506, -0.07204961521009132, -0.07440859684723279, -0.13847031875166563, 0.04331637567239043, -0.07439110345718931, -0.026931333199155666], [-0.148875006926671, -0.19205879460192882, 0.0040184516744466115, -0.1702283035089865, 0.024666641018567862, 0.14181733258796772, -0.13772822499865348, 0.06954082639884099, -0.1685934487278523, -0.06538248136329054, 0.12109246807721634, -0.04821716370405967, 0.11286633337777577, 0.0008632466778703108, -0.1000774719733838, 0.12275327834269127, -0.14907298598491345, -0.0807383403642461, 0.2922639362797558, -0.24908429922526418, -0.16816401340391332, 0.012812597771180684, 0.009587857352728314, 0.08976836041579353, -0.0021412973359400023, -0.08601721583577288, -0.14045388900336836, -0.07746013252087733, 0.010395397741384359, -0.14035632180442367, 0.00886589034085063, 0.008283936115132404, 0.13869760904723855, -0.1411023394923031, -0.05221032767141518, 0.12886819982348605, -0.19684856333187314, -0.09688852768018424, 0.09129311775393378, -0.20241752510905173, 0.015354064905516399, -0.1202890336671438, 0.1641938984158213, -0.1125759133007884, 0.14856823834119579, -0.11778597581402712, 0.17356338574259705, 0.03523147302795262, -0.009865147250626132, 0.06192741033866699], [0.027050760129076198, -0.22924519261544654, -0.13177531380952168, -0.02144561500279607, -0.18905360563792203, 0.08019269320005862, -0.14628042769642421, 0.1328074296012924, -0.02407816729497261, -0.1052571760097339, 0.12940179057166165, 0.0007455335128548834, -0.10759428775127602, 0.06604271727370571, -0.04528321169029205, -0.10345446549143306, -0.01415168804439935, 0.060353664982900936, -0.02157465396028201, 0.10134610756185641, -0.16955896271894227, -0.023230672404212678, 0.1395395610199823, 0.13267297030237213, -0.1644938952504621, 0.056667861917835675, 0.006331901851731663, 0.0490386287735127, 0.08628964755034654, 0.0032460587443578146, -0.1383149653771206, -0.11253441225307613, 0.09394367198699788, 0.009462242067850159, 0.16985717959059465, 0.0902632144950542, 0.01951177552923737, -0.18821819892879166, 0.015335652585528199, 0.11468202124553475, 0.07296172414847293, 0.14248710987993823, 0.08037658555539917, -0.03195789073259086, 0.0577545018274993, -0.19716604541006688, 0.25022330484806504, -0.17363183477216712, -0.03742934849931092, 0.0669805760933825], [0.0706960821293818, -0.2261194864188544, 0.14282413880287134, 0.035590863556952575, -0.025475722192995362, -0.08837939590500886, -0.026904383323789752, -0.07334363529895449, 0.07678513281856207, 0.06251755643260305, 0.016549453692778982, 0.0521365910718117, 0.11954268251623387, -0.03172226633891, -0.002738535766360562, 0.1232573916775982, -0.001735140386430371, 0.031283179461997566, -0.020287689717811166, 0.01308303133696664, 0.024510823849320275, -0.008665369248913002, 0.07769383110571376, 0.09630936358016183, -0.12818259607060145, -0.06865537199194457, 0.10581159824605556, 0.049871232488589864, 0.3155184242469445, -0.09256200973326116, 0.07097008396884467, 0.11694586443651019, -0.056358508121148725, -0.010413745122148231, 0.022137747561727573, 0.04335127544171932, 0.003985952472002579, -0.020290547556763412, 0.10247672085613066, 0.06967319611199999, 0.015108363781005617, 0.019374988833630202, -0.06328540889203084, -0.22588365418480702, 0.04457374232821454, -0.057870801571062, -0.05651498740111375, -0.1306312477706322, 0.027099847279327936, -0.0699300218951686], [0.1777286182893214, 0.209758785061717, -0.06310299848755721, -0.018907040740450125, 0.05052119245658543, 0.08002305765079454, 0.045319046911858424, -0.08876431736389877, 0.0332803386774384, 0.022184970437155862, -0.05292237606619802, 0.02832344711662766, 0.027176809401600905, -0.03691101286498828, -0.017996344078650098, 0.037466487184945975, -0.016629460589386844, 0.0980505097894821, -0.10956444748918202, 0.025421085339182373, -0.08568391083928834, -0.031335149883830286, 0.02030146991232691, 0.00019773921898066926, 0.1084152335302528, 0.012572059597163718, -0.12856949470926002, -0.12751850469272297, 0.012951039167939441, 0.14058896389355574, 0.04115571822990934, -0.081444468704648, -0.06504139846197132, -0.06865029430047481, 0.13161322252664745, -0.0636908818560291, -0.019109933686116014, -0.06817030341327332, 0.09174948327815484, 0.024828475807058034, -0.007404502805239747, -0.09538364975948575, 0.029317808482770293, -0.08947619814709694, 0.009460719328772063, 0.053126687855775644, -0.021278150339185974, -0.13995533303914884, 0.04715181008986872, -0.15427027509396918], [0.09842998415394488, -0.1562486005708374, -0.017026828998061946, 0.01511991680651436, 0.07945300986998344, -0.0227525989056027, 0.08764549572115705, 0.19110321208811032, 0.11143955549260763, -0.049192851345314065, -0.03998299527854539, -0.18348560713787612, 0.059095982232681435, 0.1032423471273384, 0.04269052869868619, -0.20665935688021464, -0.06062540575842314, 0.04003051794497844, 0.001393239874558211, 0.045390883630970436, -0.07003308805077661, 0.03465808873545982, -0.10069360260554516, -0.054381673702073696, 0.03839603422529165, -0.010823929442370596, -0.07131060586794073, -0.045222044911034515, 0.09479837083924263, 0.13426639515567512, 0.004677987840651993, 0.003128353297467903, -0.009265995987734664, -0.1256668635342011, 0.028346572828849583, 0.07631058740912486, 0.09913635754891369, -0.013720180986910227, -0.12381435251497547, 0.18765639527079137, -0.12938039062729625, 0.14000620363114866, 0.1886862759861594, 0.18404407582570398, -0.05369838354691201, -0.0455452743552789, -0.06522788990498456, -0.021510615612593313, -0.036065586456879274, -0.26165732018421717], [0.08888794342301962, -0.028009166167891945, -0.09124204968403204, -0.0031451315724334984, -0.04939137569650015, -0.0768475335449435, -0.05255292282850245, 0.15954521331470906, 0.1999380375161855, -0.18736802760093438, 0.008574636450642763, -0.0817167270208424, 0.02549301343379952, 0.0502084286651626, 0.11930483998002532, 0.10014090332460247, 0.1316446955474795, -0.011767706268161378, -0.061105957784503964, 0.08516465649774693, 0.1228562138939603, -0.24936751045454283, 0.25561398144568015, -0.2561814785585778, 0.015235562225277012, 0.16835249304838534, -0.01679500297541659, 0.07307740015611339, 0.21824269776274155, -0.06258141170558164, -0.17686490963541646, 0.04481737699612865, -0.05831847092255014, 0.0586567164863552, -0.08572352828758874, -0.33339284373612116, 0.21081006306404668, 0.28099711127103255, -0.17373739176804823, -0.1484369987285348, 0.052684442980170616, 0.21389323846892658, -0.06639253586144105, 0.19062805582145484, -0.07274231296369063, 0.0323792855232188, 0.07165537067361738, -0.07147566184779283, 0.2806687525478311, 0.09383767627329806], [-0.12897886501641317, -0.08963561517025867, -0.20518421378807525, 0.16969334572469652, 0.011914469316145879, -0.04395919657794438, -0.020016930740035098, 0.15485016000042584, -0.10098365812028896, 0.0492985830434107, 0.01573222352934484, -0.011432802727774017, 0.07189959035055452, -0.028910231469606324, -0.2035697024967697, 0.08504079254575082, -0.05491363407723622, 0.07287700547735841, 0.0020095382419542435, 0.025364263666225267, -0.033867233916950304, 0.10366616912101986, 0.1301851035004216, 0.18013934408560772, 0.006025154143000186, 0.08626118534053352, 0.0025693631064471084, -0.22571939809145875, 0.09739731084242141, -0.10925326363680526, -0.20705596801994078, 0.03076259351321782, 0.014652881073630154, -0.01888208983406345, 0.1985980886722453, 0.09997445697022617, 0.08423887134549204, -0.06120613865980633, -0.029828315258550335, -0.14564479369660294, -0.16268312551517058, 0.14657694505136107, -0.01508888870924538, -0.052329310441513455, 0.11788649304814794, -0.15771110176868752, -0.10066304111087312, -0.06647071258685087, 0.08159242637301545, -0.20316672820796478], [-0.1692755498522498, -0.017996888213998485, 0.029938016281592195, 0.02396784260688118, 0.05279402346443614, -0.10651768691468473, 0.05938255261218628, -0.08603454974052413, -0.0700397065910888, 0.1277114623064612, -0.1672114218797041, -0.1336085673915866, 0.1971197615135982, -0.0022260862034743107, 0.015188757357314633, -0.016778823073401058, -0.13750696548285957, -0.01755272457392891, 0.09874441736846232, -0.04535221600091865, 0.021447546007404485, -0.06681521594708838, -0.02703389599098704, 0.026271511656277047, 0.05551675952223283, -0.23724767372298755, 0.04215246936805074, -0.01309230905973363, -0.1558835771307426, 0.1858308993194187, 0.1261488732457026, 0.02719512407468748, -0.09438646872937739, 0.07799981480604819, -0.022835613093501714, 0.1606611040255574, 0.23436226727678813, -0.1232640261952021, -0.05811265681740046, 0.04001121850530464, 0.0947118107908309, -0.06464034153229717, -0.13225618049230492, -0.14833304770837133, -0.022761735418544343, -0.028498130874150398, -0.05664070011221977, 0.09214279204222575, -0.08298756513406509, -0.035098225769216354], [-0.02348173373751532, -0.18081082364408294, 0.11831946805097214, 0.026616174710608714, -0.009807847128415065, 0.06144709108885389, 0.1727507940649533, -0.23527070981428166, -0.018882953860958732, 0.19015514566105576, -0.014847702442581162, -0.2010626707956641, -0.04610843122205367, -0.03193830443498021, 0.33461433621093006, 0.3246761189659863, -0.08465591460386272, 0.1319229402992739, -0.11128712600356605, -0.18923964707133256, -0.0054247296344560325, 0.2095681524078575, 0.01664881666999788, 0.06863878294677667, 0.1387874367307768, 0.023219772987109692, -0.0491000921659554, 0.013328192585938406, -0.01765506169143273, 0.12499401747931005, 0.08961338501211373, -0.17259533694762308, -0.049682505526948646, -0.0040251235256101746, 0.040510531944461116, 0.08030612658254507, 0.07782310621291633, 0.11828753115663632, 0.02690608211631548, -0.0825101087005114, -0.06573676023396093, 0.1293345890575883, -0.04041307073254874, 0.11557965867761458, 0.08454063347824427, 0.15276196561136998, -0.01839632573818282, 0.09402087243109866, -0.05364313258844618, -0.003158269673356221], [-0.017054185662523987, 0.020831762844422355, -0.020564879233300398, 0.026638419393885976, -0.07485039433019787, 0.02419044701903043, 0.11532133035557174, 0.22340468505291433, -0.11474690085350686, 0.05363926983676093, -0.04679211812479813, 0.04685906894789907, -0.048444537621927415, -0.12219857914588106, 0.036752686099308894, -0.011972692263326772, -0.1660159851035405, -0.11635274010185928, 0.13735792902961938, -0.1945768349473419, 0.0789071760860752, -0.06600270359687384, -0.0820447122225647, -0.04693840338128099, 0.014656708015672738, 0.0911282983394001, -0.002876382491284992, 0.001052701030560977, -0.1230045705381275, -0.028175906650009866, -0.08315095154176372, 0.2212477533760697, -0.013828695707306682, 0.028328154758559543, -0.07812671133861304, -0.06755101160080698, -0.09082132007323002, -0.0813077711174826, 0.12678350450435974, 0.0886833089666407, 0.10641182927047087, 0.027665721478820487, 0.07331960467233141, -0.006772736939090413, 0.008325011952793877, 0.022990748153254033, 0.09517092494901352, -0.09601280314357497, -0.041399114927175365, -0.169432834051975], [-0.020968984681353147, -0.011086694445495779, 0.15775390145264587, -0.10180463480493383, 0.07666943192009655, 0.05629294791244685, 0.1433219564398371, -0.1658576485803882, -0.14468554281257492, -0.1668446657120032, -0.038330127681476076, -0.016578560334377372, 0.09505414877898342, -0.10050248963938142, 0.011448170131979768, 0.02757882351810928, -0.07178245612363116, -0.1120692296118637, 0.1258972112823469, 0.01596263685895615, 0.12241279588686571, -0.038001063344918415, -0.11078527551629441, 0.041492401574198506, 0.021740031502877254, 0.016399591482634403, -0.08045192544180509, -0.06054311056135334, -0.14129943193662242, 0.0029914026384832626, 0.17327439897971378, 0.16442513378529156, -0.05075198930431061, -0.07221317835219054, 0.16923428584922745, 0.17460314167725313, -0.17874062692823184, -0.02534084999003172, -0.03429324282122044, 0.06483040081196188, 0.10447279521007327, 0.03542629328977864, -0.11963272416197156, -0.09970674146670745, 0.2291514156363646, -0.06769532102688557, -0.15595194013524424, -0.08579973209979797, -0.06412827697941809, -0.059055660081814974], [-0.04852674406303139, -0.14649003015692336, -0.10261509025309644, 0.024229566995697102, -0.0998336832264331, -0.020199105682376525, 0.0017559586894791267, 0.1410629420265492, 0.13969991692802924, -0.045257109800870755, 0.06715129304136089, -0.0839848919270189, 0.1340472672425754, -0.09860099682493595, -0.1299724706156269, 0.024352200946528457, -0.012485269607233175, 0.009042609692090921, 0.06633517119235531, 0.007201837422147789, -0.08267999321290817, 0.10766715256644802, -0.014660926573037213, -0.0207375798267055, 0.07211829349659904, -0.044725675499833806, 0.1326261536558446, -0.028847856852020105, 0.07078621679378033, 0.10869786745667864, -0.12305517290323996, 0.13278728533780845, -0.07725987471952772, 0.05229844022839898, -0.04993342691438423, -0.05849016846336183, 0.04756735194271109, -0.05786679631761859, 0.06457421127859818, -0.004508177436523207, 0.01988776320295984, 0.003119293655755538, -0.08345999920293588, 0.04035183690328937, 0.01303719484942826, 0.06846188108754579, 0.019384143478806695, -0.1324211523096291, -0.29688078675517815, 0.125659176405849], [-0.1649880406776869, -0.09305146528494135, 0.2530108462067564, -0.01844691608116869, 0.033403216236133494, -0.058939889513380694, 0.18980033972711988, 0.17405618572563025, -0.06359972121360336, -0.011065358003998427, -0.025506091527179493, 0.0066178587737726795, -0.014102802887073364, -0.042541028692288735, -0.01035437489758464, 0.18932617505861535, -0.09762767538683287, -0.04069752406633237, -0.06320254352809762, 0.06104796455551818, 0.17734639176713785, -0.07681896529007161, 0.07512338657890905, 0.025421649636750306, -0.21234393969188828, 0.04153370643358686, 0.144974001954458, 0.1450594608458106, -0.03843679036935365, 0.043006026832303694, 0.0752271246855155, -0.0614669574285607, 0.01608838706387525, -0.10411406182487395, -0.03545008473828896, -0.11619967925480139, -0.013547076217473138, -0.06653254908764245, -0.028525499688963, 0.2200831299377772, -0.020919316499044334, 0.18761740266537633, -0.25290777926618985, 0.15758563999973602, -0.09240994754611613, 0.22566738269140732, 0.10434257720562998, 0.027379807353895773, 0.2167618174581035, 0.15746783513168944], [0.08176670206340775, 0.09594816670710145, 0.010543312292883699, 0.12795970544687293, 0.12044254206100505, -0.010168019676577683, -0.07423581120639566, -0.1546446117513367, 0.04569668857625898, -0.21415894899924817, 0.0037635835400386198, -0.03587535449828578, -0.04047467100447049, 0.06652491736012155, -0.08854248430727277, -0.010517780809383608, -0.097594405241443, -0.07308240722881576, 0.028863563214293255, -0.08707224600607584, 0.007738211780543508, 0.014914834481049445, -0.0042686160443964555, 0.03414884269762858, -0.05076818971872972, -0.009891718097631685, 0.07230156592444252, 0.14947771839560728, -0.201014671234111, 0.03965073376614045, -0.1726130591041087, 0.019951579275927615, 0.119122671126215, -0.0012681310174549598, 0.03718322258673923, 0.07420794146818716, -0.04848359089989692, -0.003728398845666587, -0.05421118884421709, 0.10691810588264761, -0.18708746806237272, 0.0839526288333646, 0.05891283954445834, -0.23271595646942467, -0.05763056801600567, -0.03401783943025786, 0.008052594558211548, -0.01789934149569904, -0.034951101413792346, 0.017363185071550522], [-0.0948303273535749, 0.016827297146530095, -0.13890254451250067, 0.02108135433051095, -0.13874203847029104, 0.2841102915782888, 0.17575207796073722, 0.011268254872089753, 0.00027948368167170836, -0.15813745892129696, 0.06512014553048398, 0.05919456756062661, 0.12730116495840377, -0.010898218250581073, -0.12294551477772077, -0.14617830900384687, -0.16903349640973817, -0.03572549894579624, 0.054069549854427135, 0.16818894740516502, 0.11227774155252222, -0.0893881523058905, -0.058368446481183424, 0.09116825533575366, 0.0816153972288258, 0.184074465816796, -0.14874576398898365, -0.12633463380755078, 0.00488151303769779, -0.08502681171469983, -0.04313520803894204, 0.10453301173095796, 0.17178459769778665, -0.05620322780271843, -0.004714191215960547, -0.028097283291047867, -0.08400032997118154, 0.08699063927619992, -0.10564208022733898, -0.10703418658253254, 0.09175448975618467, -0.159014597389102, 0.032172233512322825, 0.10750710811221892, 0.10406342891379727, 0.062113624624535596, 0.26032691495633115, -0.027114093666445578, -0.07754589286887123, -0.033129052780538445], [-0.10226824970144217, -0.007780178588490322, 0.08315436765016458, 0.1392941674019464, 0.03380577072249198, 0.18110773863505894, -0.07625284624786483, -0.05992985064430555, -0.017220224170560305, 0.0868991063644488, 0.08782946975805152, -0.08520687208947746, -0.1422188142796393, 0.022159684663752274, -0.10306084581030588, 0.019484447874342004, 0.039147568609582406, 0.057572626562571165, 0.05628438819760431, -0.0307856757353234, -0.2823458309177642, -0.15621265748491425, -0.11983671364273264, 0.19849163394388541, -0.03299687989946476, -0.10622249530394, -0.13328366818696905, -0.10208903187038372, 0.012295529442218341, 0.059557888026300805, -0.11343796565768277, 0.14469042954403266, 0.06257392474980408, -0.08173170682520278, 0.03428984348909783, -0.007271817633798481, 0.06064609071436997, 0.06366068462883218, -0.007932895818178265, -0.07758269853299792, -0.21877705722997895, 0.03875045035678086, 0.09312247965192623, 0.00013976692001298717, -0.025497142451542235, -0.0848262848770131, 0.07473144226749341, 0.1307922011513625, -0.08502841195813275, 0.045848369148144996], [0.13856536921294055, 0.04293974259161668, 0.02826749843915064, 0.21635782136822237, -0.006721957624054412, 0.2708735182602008, -0.13491987069024639, 0.04008135278726177, -0.021880641118245323, -0.18176182907248883, -0.04520537081732171, 0.10841373631609763, -0.017093960590595158, 0.022865656794573704, 0.19278054536910247, -0.009420474312056183, 0.04110390690925865, 0.11494915966886028, -0.05697953752440296, -0.014268984990691878, 0.060337876351026346, 0.06812039282340127, -0.13266054075118358, 0.16655266621326043, 0.11501833111540004, 0.05659547007243178, -0.03888568128210812, 0.08178833991818772, -0.10965113660725843, 0.06433424019645481, 0.0005850517570118321, 0.1448315384260496, -0.0574503670366383, -0.05941654330605847, 0.010653285713932946, 0.08935660779749575, 0.0146249419265638, -0.06918698062431249, -0.023428179019758424, -0.17767638397876073, 0.023639767450607363, -0.14417420104397372, 0.03283658059637297, -0.09739361670785682, -0.018880995234755525, -0.07240770625788978, 0.05502732818364334, -0.13270896419615633, -0.17712451529863793, -0.018953249450888943], [-0.19868370331753785, -0.1486636493561368, -0.009640758793827524, 0.024763685041129142, 0.08144567835334149, -0.08688690330634101, 0.028842882136034406, 0.15279797662014236, 0.14418442807423879, 0.031567418125380935, 0.04041388591004194, -0.023794431274476748, 0.1248314462286641, 0.22453593924815457, 0.16221122185910258, 0.015297703628697864, -0.010568413228105077, 0.017018209668822174, 0.1326615814022028, 0.0382960223457009, 0.15736382889230488, -0.1534712850896685, 0.09586816974160087, 0.040567686589014156, -0.06405346579989538, 0.12241129423584426, 0.264700843848867, 0.15299759776344699, 0.015452347796092364, 0.0033203632768006378, 0.04414920978261536, 0.13402544831103388, 0.13080322550210122, 0.19174474905767483, 0.13979321548455242, -0.0027108379165231024, -0.09023277004865006, 0.10124327948520132, 0.04291549912165585, 0.09624175177024182, 0.032975044778585226, 0.06411802557016104, 0.010794811444697306, 0.09011910386497354, -0.09276970111616206, 0.24425486510331695, -0.05677379526662795, 0.11729815388035368, 0.15623787297929573, 0.15266756717914165], [-0.18199138672618645, -0.009612409942245116, 0.016733499852932376, -0.1505533858405731, 0.1430751406044555, -0.011175751575893775, 0.2749152427070156, 0.10682378525332331, -0.30061323059603073, 0.0004544607959173375, -0.09106933200303724, 0.11539939779316916, -0.12807305946020495, 0.002514238364516918, -0.0010427838456753577, -0.056334950559858044, 0.020011773695396598, -0.01563931911311783, -0.0440771765692446, 0.016165696493493763, -0.09313716729640738, 0.020744820982810545, 0.023621741736207253, -0.025824669140725287, 0.09283540471431705, -0.1765837731275205, -0.08053096693929357, -0.014717597132344993, -0.059304963492859186, 0.15510220825326876, 0.0248900157424909, 0.007301714183992224, 0.061417147246239936, -0.006122371490532728, -0.0038434614255878317, -0.06473521493478479, -0.25880541943187385, -0.04451948223246851, 0.11993259092618022, -0.07003840639278618, -0.0032570305467463675, 0.1186079221704462, -0.04304508958036843, -0.07391447639761504, -0.07694807508120592, -0.2002350685823449, 0.0071868797697834125, -0.0714367162659205, 0.09800608972794793, -0.010163833465383621], [-0.12899684517830073, -0.0007326107768400094, 0.04380259323015598, -0.010071853647041638, 0.009739911278072567, 0.05618130635095228, 0.026795763303306724, 0.048383592685986465, 0.0712273717567896, 0.162460717472772, 0.03911212738083137, -0.07294941201550378, 0.09227939049100137, 0.037072635752810834, -0.16889549354573327, -0.06952872561117684, -0.03193664592615813, 0.09739377742806256, -0.07246134706756627, 0.025318053149523206, 0.021327433029798937, 0.05064767868777844, -0.21646923834703977, 0.11297644156922385, -0.00017559794157934357, -0.040365847321248274, 0.05410026345244322, 0.030041797089056035, -0.135772202809592, -0.09135797492860885, 0.15412179283802158, -0.0666272373154162, -0.11985843115468026, -0.08024669464378932, 0.1746621001208557, 0.00178899732116633, -0.043578966073601955, -0.05139565850459809, 0.029466989923593125, -0.02164396630039485, 0.03503510712319951, -0.002886078711951926, -0.047040076246900424, 0.18161045486562108, -0.018750316404372722, -0.18622156131037224, 0.08140629976029301, 0.13076986753350328, -0.05901484925305562, -0.15874086908715393], [0.061016665641506235, 0.04879759605352767, 0.11087666110506667, -0.12632574025936352, -0.0050957296003750945, -0.10298653997642579, -0.061313425555738, -0.020218415174448754, 0.1721994666933516, 0.02865279690670531, -0.14438460400346723, -0.01683070448745857, -0.10414866781127004, -0.10290838214680648, 0.12077128656130429, -0.054049866212923334, 0.1682500601483357, -0.11036306773838062, -0.1841807256378489, -0.25254357142775674, -0.002218932927399152, -0.06998983313652513, 0.10269497418375087, -0.1105638684678243, 0.17102480915813875, 0.066471676247473, -0.11474051658143955, 0.0050892975230371435, 0.09290959270977521, -0.028340474209462417, -0.07309465434018048, -0.06818856786037787, 0.036616627156907486, -0.08668057310142992, 0.000837811562314363, -0.016671703217890157, 0.013382945101190598, 0.04955352056901138, 0.045192682042636934, 0.03258147762458473, 0.006391464826562213, 0.0029847963342232286, -0.011318259338933871, -0.09323087718852624, 0.021572012458698622, -0.11073060083998898, -0.07192626725125717, -0.04468048836949192, 0.0004788141174530249, -0.03178214104386937]], "net.6.bias": [-0.016213709689544605, 0.0, 0.09498062954259676, -0.017370192209283444, -0.019400529251157733, 0.0, 0.014318546341747777, -0.009999999571389737, 0.0, 0.022683540123617382, -0.01236522448471136, -0.014637842350285507, 0.04020356051523223, -0.009999996615965744, -0.009793246299709263, 0.0, 0.039993125536723184, 0.00011350410018083797, -0.009999997970744173, 0.00041578495700359333, 0.0, 0.023695677516345236, -0.00685321762642488, -0.01191530359112937, 0.0023645247755734585], "net.8.weight": [[0.04213986266840079, 0.0014527085561174928, 0.00507913581212113, 0.08445069417469367, -0.10447316843278219, 0.012037877059440497, -0.11993844889788809, 0.3100225580770157, -0.025707355705214815, -0.17165348751301598, -0.1023418868538088, -0.09133892616931086, -0.07861754755817948, 0.13397081182882495, -0.006021289947503875, -0.0275769987882302, -0.07357429102802192, 0.04168411062579132, 0.04495111748254671, 0.08638918069486184, -0.06819311618317546, 0.0907593802562496, 0.053628962674918325, -0.07850484351031685, -0.07525931938154021], [0.03205371452394097, 0.02239810124862912, 0.15908865527212349, -0.09110695451187288, 0.11537973089766548, 0.02720411346814702, 0.07154905618141356, 0.08818486530155852, -0.023161178431079607, 0.21959229283346604, 0.11225355066351603, -0.13640305195603394, -0.015613123649165863, 0.061649674411513894, -0.05165483833131603, -0.08641775181541328, 0.15319896856568083, -0.21339031981504764, 0.05196156332459725, 0.09823385528876405, 0.10095579415508522, 0.09594872447526287, 0.11315205995832454, -0.029833374514501267, -0.2922201131593007], [-0.02976798099029351, -0.14621179947849722, -0.08078104169991798, 0.08491714851750085, 0.04325717362105244, 0.06164304593188785, 0.03704137072908953, 0.04733288747435748, -0.2345097706640946, 0.04309363774292152, 0.01401209016677183, -0.2312985123961538, -0.13462921159687752, 0.19569521311263763, -0.13450055629101637, 0.000552068836025631, -0.08291237315780939, 0.0166930587544653, -0.03433056945029839, 0.021521579364855638, -0.0073982088240544105, -0.04587225675347391, -0.11485891089093288, -0.03934027191223658, 0.005574873851333947], [0.10708305457447437, -0.14522725182076907, -0.16461168102197757, 0.1256369913945092, -0.048029973168632445, -0.0843612929514618, -0.10811551658026215, -0.037739487526977845, 0.1105315254022221, -0.11947604414041886, 0.05481451150770379, -0.13686049323253963, -0.08860225225216081, 0.11121266053231392, -0.0016045123894083927, 0.12550385025587393, 0.10363007113157621, 0.027960157104401036, -0.17079502979807304, 0.059681177985856815, 0.03558206630481343, -0.10212541926712587, -0.0709676400400793, 0.011873497824589484, 0.019645076099710876], [0.0643759600762301, 0.10581982533550094, 0.08331179011884494, -0.0011892223745686948, 0.049993918720436986, -0.18769396424929452, 0.07968174000268534, -0.024602238117646134, 0.05572672665519527, 0.014480576689170008, -0.05346426363146443, -0.1297847178800047, -0.07526685789945436, -0.15454870432541376, 0.030992546934357455, -0.17757284505048354, -0.08040923773315262, 0.13558202735588937, 0.01714031130129331, 0.010115860665616155, -0.14770864207717813, -0.04750007425920544, 0.04188859011340957, -0.0042001000222671074, 0.06429779537467586], [0.03112653915319972, -0.09170578840272316, -0.08653065069490395, 0.05572453033351313, -0.014074182216938, 0.08376842246127023, -0.0426734748181684, 0.1840909962263649, 0.102367235144904, -0.011105997052158567, 0.2793065429823833, -0.13873692391863565, -0.05966464652708116, -0.1345663741267147, 0.15465427454240058, 0.13497274213395852, 0.059784539857403556, -0.15453612408802866, 0.005510959231834755, 0.10564103685364486, 0.08744729370504156, -0.11794530218044033, -0.028664563597588306, -0.10380097352787837, 0.23133509396410884], [0.089089046804042, 0.13140319068097214, -0.02986464351183653, 0.007382682284208824, 0.026886647389535546, 0.08717296082679207, -0.008945203751116215, -0.02148844768320487, 0.1416061625141017, 0.3771553923410027, 0.19301924898515552, -0.04724713337167465, -0.0824539399349812, -0.10269284848414366, -0.03762061266999037, 0.008839130993337696, 0.04484723374177815, -0.06781206399785354, -0.05132081910569837, -0.03251442203857056, 0.16579263991143464, 0.07352530114332118, -0.07974351651201494, -0.057531259320985975, -0.03361470628787021], [0.030989909067447953, -0.052450656315221326, -0.06442295103776899, -0.1177780256150732, 0.06096387341605393, 0.004591528521661307, 0.0489184905401614, -0.11913530872439737, -0.08811181833009182, 0.06635762130320812, -0.09222026728570423, 0.11598114317552413, 0.07265745738689874, 0.008489813447907323, 0.004303526380826952, -0.07424427205083141, -0.060259702736156086, 0.1402197239802107, 0.20138113023784224, -0.04603914992892098, -0.09751489205128262, 0.0011149541142319343, 0.018502733347060773, 0.169844304546539, -0.042548223439531935], [-0.0695926225061336, 0.02331119554004473, 0.21148855633737712, -0.14628842861517058, 0.09392124845764033, -0.03488337659317645, 0.031942505738256216, 0.10680925607914592, 0.0009457653373408609, 0.019806003050116493, -0.013043404969320016, -0.09036253159752511, 0.15159412501503225, -0.014842619257023399, -0.12521552120117163, 0.1547895992504149, 0.12100886192761028, -0.13679263555389298, -0.02045673004102464, -0.05770324219184804, 0.08154892683462281, 0.20386978140691958, -0.1264079432896475, -0.04318155760836948, -0.01074764017837771]], "net.8.bias": [-0.0030440172746718074, 0.020554296817816686, -0.009999999673805236, 0.0, -0.005489186457199779, -0.009999999452787909, -0.008250021726203333, 0.013305185596763696, 0.03282206694219186], "net.10.weight": [[0.003798068159567736, -0.04318312824273484, 0.11800003750357257, 0.14685736398681154, 0.08947131073414478, -0.17457268920799476, -0.10500276828768453, 0.2824696488238167, -0.10005700170040323], [0.13926598565243764, 0.03488014835138819, -0.04918539066215527, 0.03348041796003676, -0.14619487368349365, 0.03601442351809457, 0.12237229656313647, 0.03333827568619652, -0.06869878875112266], [0.10628793521449224, 0.099703732592478, -0.0160948583655934, 0.014846429918493519, 0.004105898998111018, -0.008613930214861294, -0.07062650607787968, -0.2691415101545728, 0.11392428170231922]], "net.10.bias": [-0.013484926849196647, 0.0006316109110104538, 0.04013124342156553]}