{"net.0.weight": [[0.001592205577440372, 0.0946225028675397, 0.21698488967848228], [-0.003976436607915232, 0.4598755293798389, 0.17005752065779595], [0.11046975846344703, 0.17444110789521142, -0.07483257041282744], [-0.04971096356778141, -0.08504546458864776, -0.09152610305547981], [-0.08393551814452266, -0.08710550918520926, -0.03932096231442905], [0.20795415813201137, 0.22329466020566496, 0.09876458698753297], [0.11763862207148545, -0.08212404335567858, -0.16988516480680613], [-0.12399387417034981, 0.021336066196436302, 0.25862052031741684], [0.043233742054960646, 0.0619871976024546, 0.07371345848096794]], "net.0.bias": [0.044583012359832454, 0.05445044672422642, 0.09331116074122789, 0.0, 0.0, 0.05216066736523529, 0.022022332023732206, 0.038629846935672826, 0.02017036655451072], "net.2.weight": [[-0.04171117622199161, -0.0616890664830594, 0.0017851923439920353, -0.0015200158598099615, 0.016078467857785616, -0.028559513407245135, 0.008982759470298786, -0.05329363034040821, -0.10283838646038863], [-0.010546182360317406, -0.23873547928369035, 0.2055179322616144, -0.011891266625309453, -0.016788834508206018, 0.08427500837573998, 0.12844300745362405, -0.1728928109870168, 0.11763975480866436], [0.08915216826175561, 0.12458068123297163, 0.025016578152346876, -0.041731624284958135, 0.14937014872173565, -0.03525249826118349, -0.09253104594162116, -0.20198478920213922, 0.2543319768072727], [0.12807014319201274, 0.10184629148173552, -0.0959867549045214, -0.10218484755208271, 0.036947534877976855, -0.033056776402300835, 0.0034787202670263015, 0.09191671288963653, -0.09375900189069643], [-0.1421137938224985, 0.13576566193352865, -0.11837909572430694, 0.037441774455780515, 0.057957110446716954, -0.08425095800388277, 0.06859336457688274, -0.01462619535782945, 0.020791432219531846], [0.18772229845837834, -0.017454068157185705, -0.22609078997118, 0.07186329726147199, -0.1272549559297873, -0.02193872211557024, 0.01877375278638252, 0.2510922008676604, 0.0873076796125502], [-0.27566258657388537, 0.007507371131639154, 0.07199339258592491, -0.1116072566216374, -0.1535850977024802, -0.00031606646148981993, 0.11581356065300133, 0.09686343620395377, -0.054780549050352983], [0.22872148836208656, 0.17519476267915587, -0.14932237693441028, 0.11536511963510648, 0.13089266581963396, -0.06965105934997007, -0.34662321208986024, 0.23101816998639477, 0.011437382902988746], [0.30618509713734454, 0.13382527016430953, -0.045401630162128954, -0.10752787825281024, -0.040218468097427434, 0.17891023578162285, -0.2863096738206412, -0.01931786082291758, 0.088317126568778], [0.09265774281146154, 0.02972433512184151, 0.22364918920932322, 0.06222617863944559, 0.07076478748871194, 0.10387612833935862, 0.11979125460784708, -0.22543220053728524, -0.08994973886823765], [0.021212855615063798, 0.08715636347892874, 0.21558568045227247, 0.03965964967724529, -0.1178389144413234, 0.13990436037666484, -0.24164471974821858, 0.09624419430130425, 0.08951438713584899], [-0.011853610032475839, -0.12912310890734238, 0.20207365818547024, 0.24467055354726372, 0.04246892142090779, -0.01021536299905158, 0.3326791667695994, -0.04796110601125868, 0.06609320556070404], [-0.13189819711143289, -0.0022899196713311388, -0.011311668574900909, 0.006181522136824415, -0.14015318375940952, -0.0384340524170495, -0.026051266078331616, 0.0552252100013121, -0.11011495283353728], [-0.0519756555786016, -0.002661645425917934, 0.05857752193805067, -0.01096378584699581, 0.05381518033504548, -0.0007312891381469485, -0.030975180606252185, -0.033297750311227996, -0.16147255498447055], [0.19439504764919668, 0.1555812340558409, 0.031410009206433616, -0.10268130418334234, -0.23599802972572614, 0.027878075869409467, -0.0551001705282402, -0.14556144813444924, -0.037953398350693314], [0.060933530656695746, -0.20298056023548786, 0.1204782821857128, -0.011963080324557035, -0.14260364002894968, -0.2554510960164859, -0.06819996326813221, 0.07842816314961985, -0.10667544701341075], [0.0827647306042029, 0.1267562271766086, -0.04533611173311812, 0.01673802206716382, 0.012876758355771775, -0.06396173073803017, -0.17555308002677134, 0.30586160634197856, 0.09788950977786483], [0.047614904106271914, 0.05007816959628513, 0.042148268528308545, -0.011870850797937928, 0.019790150580839286, -0.29696150050068093, -0.05436011206285566, -0.16635876614053505, -0.08431084711110662], [-0.07600574124323597, 0.014753768132741263, -0.05716497960089487, 0.0378514730941964, 0.17283947437603853, -0.009242888222857844, -0.006561208661720295, 0.16250216563959338, -0.1915619198330815], [0.09711489191129344, 0.1803408551043342, 0.08530137065886098, -0.02494942587620976, -0.05315459686943408, 0.13035662455580538, 0.12501162322946469, -0.09087327707975974, 0.036745950859296383], [0.23258930518508888, 0.2060920385033547, -0.00417503186295064, -0.11810590024539025, -0.04761912927822194, 0.21594315900334876, -0.16961711285809505, -0.13416402935064925, -0.05806948353511154], [0.04755785165428125, 0.15643112008535742, 0.21583641664065156, 0.14803331336939524, -0.03994201280796183, 0.11101738196546428, -0.05309765920248819, -0.2448618892486619, 0.22675449990301733], [-0.0022632688011252327, -0.04138042231907652, -0.016797238765886964, -0.004585386098467928, -0.17078182556077104, -0.0862178262057616, 0.1531277244286825, -0.04448902651785835, -0.006939884029887849], [-0.1077634203819399, -0.17783942658063265, -0.08773308610358112, 0.030515008718155552, -0.017750192963061007, -0.014873059327589372, 0.034771441615033954, -0.09771540188883779, 0.06616837002142237], [-0.13680162507464685, 0.0728897029168548, -0.010859344836449293, 0.07541266571139175, -0.130365976988737, -0.08444662487571182, -0.021181368366738465, -0.018941893041314564, -0.06780460113548774]], "net.2.bias": [0.0, -0.014770322667975438, 0.02998243198574412, -0.02240100972171627, 0.0, 0.03622668229618936, 0.0030999064792415674, 0.05593416852360212, 0.030893809416069225, 0.08264012357650911, 0.06524582466084095, 0.03155710895447388, 0.0, 0.0, 0.03677193142364559, 0.0, 0.04146256419901146, 0.0, -0.01695134146835668, 0.05175953785346162, 0.06380862148142111, 0.05004370725457671, -0.009979100074967285, -0.0006350386686698959, 0.0], "net.4.weight": [[-0.002717321776904928, 0.017326455156018324, -0.03307066619562822, -0.09255540138691665, 0.23501872256447975, 0.023728951150741192, -0.1282479137692203, 0.171115453937848, -0.10165100519048886, 0.00808233977046725, -0.014135405233378577, -0.1524270921604657, 0.03185674465223278, -0.07758493690100088, -0.007107405827052697, 0.039432725463219895, 0.02934546249674582, 0.08103358622549904, 0.03834757548873666, -0.04458509942023558, -0.08059418521673545, 0.09959342201485849, 0.3290403911620081, -0.045906013327832895, 0.03129948168644122], [-0.02649234681040762, 0.008530462555279972, -0.15872228789160905, -0.2127001641073522, 0.0047909337371806245, -0.04725276250235333, -0.0212778143080123, 0.019422323379172508, -0.18127192831404235, 0.03704178033949415, 0.03799783547299261, 0.1086282404459667, -0.12135173458149678, 0.04051072553649318, -0.06378139623389643, 0.08033237484772764, -0.17319532223528744, -0.0802978690495248, -0.04929490096194392, 0.007089839961869635, 0.014397926236150514, 0.03750254586675192, -0.030237137787159214, 0.1687742550761862, -0.025007547381293772], [-0.11214300971135083, -0.06923661294598736, 0.00011176647060916396, -0.06972161296508915, 0.16279297000902793, -0.03274421560968275, 0.03431934568912588, 0.13227086459453552, 0.07300856299667485, 0.044211078489054305, -0.05168161941446036, -0.0055508866969813594, 0.08400850458720849, -0.014929403618771092, 0.16106209341189512, -0.11248037415063512, 0.06131110307875311, 0.005132961045613573, 0.13126006424406866, -0.1287091324609535, -0.16453330590975812, -0.14821137516228577, -0.007328814940371073, -0.008214478506841828, -0.0011997541847947601], [-0.10273533820357633, 0.12888729426659426, 0.12856560378975387, 0.04780309874004845, 0.051982251787480616, -0.12416993481405135, -0.046668497241569094, 0.021512000270537113, -0.05341882054999836, 0.02886516338711182, -0.004146081853811266, -0.021494081764438892, -0.02376372927003287, -0.03661893042548715, -0.010085629413437072, 0.1538960625572876, 0.07774546292434599, -0.14287626933208789, 0.03705535286934307, -0.08555289841492018, 0.10310586319342613, -0.1977948402157812, -0.11673056077315698, -0.07883837156523239, -0.14998056995793987], [-0.011306185935491923, 0.08717336982433332, 0.024122017385042993, 0.04602665399385366, -0.14467089152161997, -0.0043705124490950814, -0.02010783777942493, -0.039579204724128736, -0.019383548280116424, -0.26138627930366903, 0.07813679546046828, -0.0008816827328041171, -0.06287684019115328, -0.051555618428443244, 0.025025391308456966, 0.07242202307430048, -0.0994550931491355, -0.07300575495025069, -0.2505699975006978, -0.073413039030068, -0.0060253743215002735, -0.004374958293374171, 0.055604253110329384, 0.036561678164137607, 0.16221318158867082], [0.0010774514563340546, 0.1005927180109052, 0.14066684777841662, 0.12739551472915886, 0.01212045974719466, 0.010564976162241788, 0.22261777921342413, -0.07687659909776466, -0.06966335949975994, -0.11008021892034432, -0.07027979543160087, -0.25063453588919404, 0.06426370108881173, 0.03938686170662348, -0.12889723904607178, 0.04159663133767339, 0.031579779372802645, -0.020308908104892238, 0.044247812864520474, -0.046981545686255, 0.07917725346990959, 0.049874894297405326, 0.03374141076782818, -0.16296147600037003, 0.03856356333063854], [-0.1633887040434957, -0.10475705330400342, 0.03961626498663554, 0.11713474202915918, -0.09089184721875541, 0.025590785675390016, -0.05295722323862489, -0.12115293057003601, 0.18536047355358554, 0.05145366121457551, 0.2023056708757313, -0.17736589129198924, -0.06647544528934446, -0.009281781962610055, 0.14233828575464347, 0.04488905031388147, 0.08125464901354047, -0.0066791668325581355, 0.02506121923179413, -0.14548348407124967, 0.15834726013820774, 0.020457305551869663, -0.07308408117583733, -0.18692207275928913, 0.07429602822866478], [0.058217918752813805, -0.15856418743515266, -0.03576364080939158, -0.030343637132408913, -0.025558085148067178, 0.038045113485367855, 0.031995157265718104, -0.021885782462820847, -0.24029136932774403, 0.022790788290392827, -0.059876626038888076, -0.010364253561154845, -0.025722429839307434, -0.09332949572511266, 0.2310732368667844, -0.010975728141306547, 0.13623840057140513, -0.07358201139514467, 0.07720178410810162, 0.1121052241301998, -0.09035650545908035, 0.06516746350352738, 0.07894353519283707, 0.06739989634258635, -0.07994140984717385], [-0.0818608164040609, -0.030401317389935005, 0.16619789962048673, 0.030455362216771954, 0.12568814305050552, -0.24296387172703132, -0.1041833758661102, -0.10123761440949214, -0.12555730786146296, 0.06736628396585839, 0.043220172765841, 0.0433459733624597, 0.07053682755485538, 0.05347582600604446, 0.09651597330831418, 0.028481405016878732, -0.30148181510705796, 0.0338948657227762, -0.04621661341288599, -0.016861140544776335, -0.11319123154380772, -0.036647902483353235, -0.02922458910475642, -0.09261291858457991, 0.04134564532973209], [0.048451619278282454, -0.3628587840525584, -0.01729081965907703, -0.016129558943561984, -0.0718295210529023, 0.10379035563358609, 0.15941440269335394, 0.05125190223861512, 0.11777300021666236, 0.06474616881843347, -0.03447998078280436, -0.3513487476296023, -0.0018953121418916364, 0.005076837709789132, 0.1710493771406953, -0.02703914724590281, 0.28550952821948544, 0.16275519982433403, -0.02030815030582798, -0.06096309654507329, 0.08360600945051366, 0.014760525657567575, -0.13730810170955618, -0.1497497611863918, 0.006158506526580977], [-0.009033377002476728, -0.05230611994085997, 0.10184115016287983, -0.0735379276065553, 0.16451986368376914, 0.027784319165824713, 0.07232050988194796, -0.1991210048200014, 0.13389797096297953, -0.02851548933684151, 0.09329920815071069, -0.26839660058386994, -0.0076158192570169835, -0.10738360369029634, 0.02892852894958633, 0.07834970076355982, -0.25400631327872447, -0.08700397313524678, -0.0487988333135621, 0.027486159453236274, 0.23605714502740469, 0.047110899264071575, 0.009869173218430078, 0.09578316614858005, -0.07886995658343093], [0.1840736891685418, -0.14906251558825545, -0.03408828385775539, 0.062276820211780756, -0.10407915540783114, 0.060491863574942524, 0.09338403788420804, -0.0832522766798074, 0.011445129467083048, -0.0165729066426598, 0.053260494433545275, -0.004344572472729845, 0.05806722955855841, 0.04021605379471456, -0.03755831695681715, -0.11165475289094454, -0.06307426735783796, -0.057462417061505955, -0.1060335296400171, -0.04552323072138478, 0.1407752598684702, -0.2243099379931808, -0.23947710122812174, 0.09762897726874953, -0.0045337290169564885], [0.04723490016268237, 0.0006504750065756734, 0.059623489127497, -0.01640118383194697, 0.04710913423532115, -0.06733992638322726, 0.028146762357590387, -0.05865808129907808, -0.1608232460689424, -0.027967358764405384, 0.12948329312569173, 0.09631611804490714, 0.03590632176050499, -0.04549232019443345, -0.05767181258530353, 0.025169562201192725, 0.006004224527738879, 0.09536947238125798, -0.03128004909510154, -0.05061979226687309, -0.04287786549938274, -0.06806535205404646, -0.0586603585660354, -0.16354336180525553, -0.12377722694101545], [0.0347368561243827, 0.024114873078245523, 0.06246866339009628, -0.054514868354282556, 0.010588765860976158, 0.13949068910927473, 0.11401674188614991, 0.04449521534700012, -0.04436523025753572, -0.04822218611795145, -0.06375384406623572, 0.042986990693319606, 0.11982386590471146, -0.041078847424098175, 0.006014174280559555, -0.061584478280335433, -0.017541319042728945, 0.062266698630939504, 0.14086368151054027, -0.2062611167567265, -0.06182192831723363, 0.07840366285897526, -0.2999983932754162, -0.05109367793676403, -0.08483247576392688], [0.014389328388907555, 0.024219972752129018, 0.2233195405583616, 0.023807148069766505, 0.10875148172883808, -0.1291647985321588, -0.06559159944643432, -0.133239768506435, -0.025627116210756747, 0.000833845723771472, 0.26366403648091796, -0.03742223199742239, -0.1384237380140024, 0.08688045417426123, -0.05623063741700246, 0.042721142688517975, -0.2103855075153776, 0.030430832507033802, 0.03491300737397377, -0.07774157455549437, 0.21632891126728868, 0.06287573911918298, -0.03086551321504512, 0.18382312473484433, 0.126783157908506], [-0.05488060466077967, -0.20475667826635624, 0.06394269046019169, -0.3145426642718362, 0.03334593812325284, -0.14576632037788592, -0.022219153413232072, -0.13176266652294163, 0.04406225620483508, 0.19788148762522645, 0.18391087778019313, -0.181079917324287, -0.18735811725826812, -0.24600095249332732, 0.20017446573517456, 0.09998800352296011, -0.12294246317565256, -0.03715666748158213, -0.0736284413996885, 0.016879847339994338, 0.3387273625565236, 0.08358443890443976, 0.12421330826137142, 0.1563756444006446, 0.06617439090501898], [0.024029812130891847, 0.14213275004340947, -0.06676585695545667, -0.04156189618312563, -0.10494465930002904, -0.23099071388439954, -0.06267659963416033, -0.20507640287589435, 0.012180489196354052, -0.03393773539645994, 0.02114255086471477, 0.21138045198729252, -0.008617202392244838, 0.1290613244560475, 0.16647579718438701, 0.03376352979323096, -0.12999233296458895, -0.07771227487855036, 0.1950816589775443, 0.034978696811099046, 0.004834872191161369, 0.08285804267238074, -0.11873548167391149, 0.03404510046318983, -0.013290981565036816], [-0.005582462120563288, -0.0124296464298053, -0.020114119370448443, 0.03414719284870129, 0.04772727024670082, -0.030403010918129976, -0.057955703438010375, 0.01934222822061908, -0.0743322243018664, -0.15250297670870422, 0.19389441049682982, -0.12030587946479646, 0.06822806010902964, -0.07761904712063306, -0.0895659458903067, -0.2639938931004972, -0.18540809477246417, 0.050315925647689975, -0.09764478250136639, 0.0034557241371697828, 0.02518289519816135, -0.11093268007817583, -0.2115101724928013, -0.1299432479635953, 0.05526041589337149], [0.0010007903196366534, -0.02990125003062183, 0.2211653224857737, 0.018015685394053373, 0.005485287271268932, 0.03343048985264398, -0.06215904425492672, 0.03285940671175049, -0.09076710584247644, -0.0172745421094077, 0.13087485943733548, 0.013926903209312154, -0.03975171774089397, -0.21676788025342414, 0.05380176678790678, -0.04511791649082357, -0.1391037285655424, -0.03507925115010685, 0.031818133208542494, -0.21754714986832294, 0.04860273051421227, -0.2634389586937104, 0.040298500854912926, 0.08540557007879701, 0.10539325796744621], [0.15007957911252853, 0.09496290560654494, 0.10502071926824096, 0.02845984824902779, -0.13488366311551822, 0.007708789355467983, -0.06445273320106147, 0.15414926865781464, -0.0090940895671246, 0.014377704479020046, -0.15935209506529643, -0.1155127189765188, 0.004369763442813161, 0.1122507041889711, 0.07286163867328083, 0.001697461258088881, -0.0635180851411828, 0.10815967484042739, -0.037557017119854263, -0.13056354391802666, -0.008208159695657484, 0.10772450364015496, 0.03998477824874161, 0.0703235413549934, -0.03188709815999158], [-0.03627579020749721, 0.17702213065668115, 0.15388904791957095, -0.1844157511397835, 0.1452815283954084, -0.20208897306689202, -0.16570309692702856, -0.1797282012558606, 0.05413824439749732, 0.24835684410963152, 0.04546069929562331, -0.1152955226875294, 0.0058335306518671115, -0.05027657439424113, -0.08735366341925697, -0.12388185583781408, -0.12490410576592467, 0.06509189041769226, 0.13646673409272925, 0.11286246519301263, 0.18191210955013998, -0.04334053093841612, -0.22184151936234203, -0.140470174180996, -0.10102936615768031], [-0.07162653425127669, -0.30900104152435054, 0.06877618402122847, 0.25568612094170823, -0.11644748490957196, 0.12649037087910286, -0.03865509096894622, 0.25972633754372787, 0.12244314406238543, -0.06400242804518637, 0.10455819304708576, -0.2589340120911272, -0.0543087294514966, 0.09221444659926828, -0.017169993897603517, -0.05767972795310325, 0.2520494761592422, 0.06592426018808223, 0.13084557137929997, -0.06134609114877601, 0.08188677833292263, 0.0052256284731594166, -0.1649170309726733, -0.04301341738371603, -0.11458695743572866], [0.05918469711976551, 0.04639933354300363, 0.023007982423275255, -0.02975381931564862, 0.04361007574418936, -0.1081682445368839, -0.19601819704480866, -0.2699783847743282, -0.03849380494452354, -0.03901413218709061, 0.015687604979405922, 0.09181009756629899, 0.051484009089257904, -0.03170992619678918, -0.0006014765292041283, -0.04268121108310636, -0.04836319611333605, -0.030117717556286103, -0.052787803712633655, 0.15649857551226484, 0.004575385054977186, 0.35445739933438886, 0.018640684673499656, 0.015379155370512897, 0.036457585926138486], [0.23031911493863577, -0.0723467478138804, 0.08763785082544569, 0.05719465824870529, -0.018106708114632268, -0.05763887036324558, -0.07084690962018154, 0.08592224770587316, 0.19461221020305638, -0.04984525137617239, 0.027827477769586197, -0.3066784544499632, -0.034761117161258216, -0.05682360151981766, -0.1990261189337255, -0.10193339826551702, 0.2592513096773124, -0.16817868410672554, 0.12741078040428394, 0.0786304196978848, 0.04604871872156667, -0.1554594375470533, -0.014987102827697643, -0.025181223233525306, 0.013321292544124225], [0.03472334182589963, -0.017392705348726712, -0.014683199099348739, 0.17031062843812306, 0.0731508757290368, -0.1601915682430177, -0.03611169280479373, -0.04319491282548443, -0.10830341983948767, -0.029109680832489826, 0.012158193404380001, -0.17977695744388605, 0.08011562524993582, 0.14438080674919906, 0.0506833916231448, 0.015950879099100413, -0.14383217297216702, 0.06680330790645338, -0.05996465608252041, -0.029196790480426327, -0.07687950980677277, 0.18324235704576508, -0.06690819176817434, 0.08064452953305563, 0.021599490956901675], [-0.023483920501623425, 0.005053929416234712, 0.12363530974533839, -0.1915178754117838, 0.14087157058416291, -0.008392705659746444, -0.05574305065963675, -0.18267100898021468, 0.2174330474475156, 0.0965250139500778, -0.039351139276725594, -0.08475799377977698, -0.1354625050382494, -0.0008530733026293202, 0.13961633413944155, -0.0983359618268533, -0.21525890725706714, -0.11235906411289392, 0.13848390350706538, -0.03218613748621602, 0.027204274623368226, 0.04185562886809852, 0.0562025985012277, 0.15319737249411616, 0.11286382892727681], [0.09635977166669063, -0.09054995051697863, -0.126766790968538, -0.28777760539595204, -0.14567669973714248, -0.10017176331663778, -0.22474158360825489, -0.1263736083043974, -0.13503372126799223, 0.07135025823396376, 0.18610649676738994, -0.15281689838838527, -0.020344718541485056, 0.10614709616952907, 0.20370589271885123, -0.07708684697272127, -0.0790086684737954, 0.2183597496389863, 0.03709628516248967, 0.11313852942581858, 0.18312235610862845, 0.0914100658239629, -0.12673187656685067, -0.03075395116776305, -0.04755585982923216], [-0.09778085410379377, 0.04135868461027648, 0.08312758015702035, 0.047625260574703975, 0.06567781918521019, -0.0978995524898341, 0.06565653128549069, -0.2813028265859788, 0.08793493069891349, -0.022326565893204885, 0.26838027306545936, -0.15714183582356916, 0.04965307991011158, 0.0678736567976889, 0.17842282505941007, -0.02639637191116453, -0.13920673081597928, 0.1609975042879127, 0.16065550321821287, 0.1709602109728223, 0.06583122498594428, 0.2006811344350968, -0.02634581572923822, -0.01443065842771489, 0.00983493951607402], [-0.06330413906355696, -0.10974245670125632, 0.08258930350435564, -0.11279644866898683, 0.1645695482589841, -0.10381432803224314, -0.22215336544800243, -0.2320164881172614, 0.12136522688189273, 0.10723060798231754, -0.0301143496383165, 0.03799926010140137, -0.10121533000627675, 0.12713498353411673, -0.057619690005802776, -0.005230172955767198, -0.06588381917720132, -0.07507617352008782, 0.10758903272017246, 0.11360661466321942, -0.010038077945154864, 0.18668251137158046, 0.008209271993027916, 0.1874501516178224, 0.20705783885867626], [-0.14499758004191612, 0.15317345951620415, -0.07128462038818124, 0.015573635268838114, 0.11686034415750382, 0.07338924078886475, -0.12164801847659419, 0.06155446556016156, -0.20724521782837915, 0.02243243560942866, -0.04404009498919104, -0.11388481350373983, 0.17334058468867142, -0.14910816516391068, 0.025522553567790058, -0.045791632755245115, 0.01023174530620864, 0.08886392931085056, -0.14083367003030337, 0.1149619606112312, -0.08256746401570171, -0.05080804832995155, 0.029330416278015053, 0.07102996532842736, -0.1182263624182231], [0.12229913787948028, -0.21644948663300664, -0.013611684354711849, 0.15056977731047727, -0.019666525977974053, 0.09592776189584638, 0.19721508341189142, 0.21218260487547033, 0.08828093866926885, -0.20075976448859148, 0.005046001253010738, -0.31568723656586833, -0.041469437014609555, -0.017455910128821344, 0.11952377696089757, 0.19927588931339346, 0.16655833680741625, -0.007567458158033434, -0.03892027703997775, 0.11483682760813427, 0.08641077903172499, -0.09303696159566105, -0.012411004139335673, 0.10998500224022699, -0.08610350564165005], [0.13253595304254703, -0.07358970633432149, -0.05477924535706992, -0.029032094207768568, 0.0033197284068304934, 0.10498318365487591, 0.034826093325406295, -0.053574425108931706, -0.0009960911079494282, 0.03465878032463171, -0.1213400111668374, 0.01231421623541811, -0.1076277094918215, 0.11330939182122766, -0.020803152888887462, -0.12607172327331198, -0.12889796305668563, 0.038978113647466055, -0.12352474847921127, -0.09169922410184787, -0.040670920661304004, 0.14704606944644116, -0.0003079315558096186, 0.012734081080063102, -0.056766260255945236], [0.05042415426847601, -0.008541500156243147, 0.07477107716059497, 0.05857477051740734, -0.16313998089187376, 0.038892816384877654, -0.17189376225167666, -0.04363712571346647, -0.04092423903576112, -0.1626346529960202, -0.11406677483943149, 0.06744958796768519, -0.15306288500043233, -0.06469659456303135, 0.0611626310305914, -0.011937246301165194, -0.055701397638809415, 0.01131967880693691, -0.15237104667114254, -0.08329372066849765, 0.08219481593568477, -0.18865834702221418, 0.02333551904121138, -0.25925335521237036, 0.09212535511406159], [0.05690450986479953, -0.11734551365239747, 0.04953086997495468, -0.032027888014225056, -0.07537931441623275, -0.016693780630262042, -0.13424425411309293, -0.10265310479850932, 0.15273024658636658, 0.17869862694245964, 0.07075653322981063, -0.26725995198678754, -0.21233466067411721, 0.046166505798335325, 0.10903711666924384, 0.008861383434486524, 0.007630890689145809, 0.028246399364848847, -0.05195589871002484, 0.23965517585238827, 0.0945831791362416, -0.06712633440391484, 0.16958873322475554, -0.02648839739684577, -0.04460592039330058], [-0.10920333678720716, -0.05413479337068324, 0.04412493253006107, 0.010410716957630205, -0.03968404424730465, -0.09300721257409454, 0.19700296026618103, -0.05091096760974573, 0.15544665857191586, -0.1734331123826233, -0.009703653845322688, -0.04639855623062633, -0.08888025492414683, 0.23751489123349884, 0.17572865221456113, 0.0011905545508648192, 0.05518497159084383, 0.028357828075124165, 0.06339272367953286, 0.04361268411437984, 0.21575166883311583, 0.0027351035943148478, 0.08807730888724195, 0.15040339075756298, -0.0830427339930796], [0.10656232226243068, 0.19851965299383706, -0.030854086227646554, 0.18297835250686637, -0.09289938964832434, 0.15380700678486892, 0.020792620389890444, 0.4048113696581976, 0.11220375482568819, -0.21625119056867528, 0.023899619427356585, -0.213058294782168, 0.057842613078436744, 0.14217955233976057, 0.16916007433735886, 0.014978204062559487, 0.2127152214950412, 0.09062428912985479, 0.10795252029609857, -0.03672534610488606, 0.07832825507064431, -0.08883094643369384, -0.05644837659564888, -0.09903522971950603, 0.09076506184876701], [0.28183550998031437, -0.01740339637603544, 0.03174735101636458, -0.18837891955687314, 0.1767879080397309, -0.36639233779817154, -0.11373236533337505, -0.33811672587371894, 0.2266239051416058, 0.05477097870600619, -0.00587273138252149, -0.09283762640069425, 0.04681209324843341, -0.008773776015370622, 0.09941592047210913, -0.0448718675702721, -0.42887710680049107, -0.1371243195225478, 0.055821453960166634, 0.06512525685348342, 0.12675678449934974, -0.13177025930867464, 0.03703291729623442, -0.14973964768663262, 0.011282526591852735], [0.08807076027056092, 0.18203700474880805, 0.01656953297509003, 0.011982638268075382, 0.05134856045421204, -0.18890150138395365, -0.20518499195168002, -0.21850960620140372, 0.1466890960924903, 0.1865577173642041, -0.10381994159343291, 0.09261135433291917, -0.2202899580466342, -0.09059985108985238, 0.28361618727321936, 0.12525861019858983, -0.2373218235563352, 0.2530055420471202, -0.1647824821732452, 0.11551883247114537, -0.02206355114382561, 0.1621815763287342, 0.0491219455562454, 0.15159238317842272, 0.08993483777123021], [-0.047066357091958895, 0.026410515066871247, 0.0715298485905008, 0.2690446099822269, -0.0404126931578765, -0.01128638174086681, -0.07214063483536014, 0.049535001283995704, 0.17510489806335197, 0.07603594530773763, 0.04245214761035225, -0.22217466590220342, 0.10583782253675536, -0.12718801299419988, -0.13654100265150476, 0.007532388833897389, 0.15546259360618117, -0.22119959953684254, -0.03352357560745095, -0.22619533843854217, 0.12975587409364242, -0.09817917404888696, 0.027730217058172153, -0.07688251261568335, -0.04019263254520367], [0.02114183812158891, 0.020442127870818894, -0.05559338328134789, -0.12755775567786448, 0.15660014610443565, -0.08846301566611055, 0.09724883375324661, -0.09321259082514109, 0.1327578953009058, -0.023919189534032007, -0.05934968018335054, -0.18916658654788235, -0.035928483699016855, 0.13098404555643015, 0.08940763673626309, 0.07251757842250525, -0.005526444741094448, -0.1132476259052318, 0.18936532296430317, 0.05149508208446719, -0.08715657191390068, 0.14212468587568533, 0.12428161304304097, -0.04387546620153565, 0.03253797768872151], [-0.07093615595744808, -0.0894113386353525, 0.08332741634735177, 0.15690864923855946, 0.19687770191629847, -0.03367858249292274, 0.006057806365984124, 0.12756023210852405, 0.06637368690679996, 0.06629513788796156, -0.14288461853083387, -0.09479341679843627, -0.05388361320351928, 0.07771625220209565, 0.1546706720619773, -0.019974010643918287, -0.1303789132369644, -0.0182382214155396, 0.027161843619659565, -0.12007729860616018, -0.1298836097718672, 0.12718931152809262, -0.05338962663735454, -0.024999423108979592, 0.033873218898121914], [-0.15792937187794664, -0.022203743825538604, 0.11773346393549358, 0.06720754014683439, -0.014728487973230503, -0.2259941526808067, -0.2833535814844906, -0.24325705804636663, 0.03480983562672025, 0.07018733104398209, 0.035658328666813344, -0.039080001085495746, -0.03291472480570923, 0.05560678689691766, 0.11753541744369919, -0.121541306369535, -0.27302059001390616, -0.08221426824090905, 0.08824817607357578, 0.14630666965091815, 0.315518639591871, -0.06727817008620032, 0.04768643159726878, 0.10647914689366612, 0.02569039752954765], [-0.05528904855160364, 0.0745443770430062, 0.1987840039705695, 0.14459109185271776, 0.07326053687084186, -0.005682317997695806, 0.22954245818964103, -0.12177470899676615, -0.13930608657578591, -0.0656468091675022, -0.13200988349145346, -0.14486759046021833, -0.2576120106090944, -0.029609396988402065, -0.1687871170517259, 0.10859652705698881, -0.04047954908610868, 0.0645813482017074, -0.13363618046757272, -0.14723421576395654, -0.06346190772115896, -0.031285818939731556, -0.05843989422889628, -0.06892003621190329, -0.03875120312763125], [0.17798650833429608, -0.04513451992876502, 0.1705638264305251, -0.04694574033898273, 0.14121248639707404, 0.0362050404226768, -0.14820947249574487, -0.031162733552454414, 0.04396535312272448, 0.08383225509874653, 0.22646209307556767, 0.26542312561960657, 0.09351555530498602, -0.027817783572415846, 0.03705058753139951, -0.05333803631943155, -0.12270910074762295, -0.038946492644941995, 0.02008555053900403, 0.04376996075206609, -0.04693267954419046, 0.09673765719890923, 0.03304814395244034, 0.04940363615319838, -0.022437746606350003], [-0.02216507772381639, 0.05904841696405451, -0.035002311172866986, -0.09549096438332239, 0.032284990762117015, 0.23132755057062387, 0.13257006558806037, -0.042319080575397516, -0.07557031744784094, -0.03074493373668585, -0.16883112533873762, -0.007257013520733946, 0.1568444800089701, 0.15194060232286674, -0.006120516300072202, -0.09510458193274046, 0.05150221887641061, 0.103443721127892, -0.06920019003916233, -0.2107869353901112, 0.03427564306348784, 0.019761982807197376, -0.15452602021845102, -0.01258072259146603, -0.16798867652202218], [-0.06598356834696904, -0.198284596058657, 0.36002286151265656, -0.07424827283523805, 0.130561500915972, -0.19379919635933843, -0.06376311498498122, -0.1461969458325158, 0.1173405017021838, 0.10244219706465617, 0.1743364468958752, -0.10504029225987029, 0.15942437926421046, 0.12804205813013358, 0.18026122584694843, -0.028613812602128447, 0.0886991943007132, -0.013074468188628894, 0.037774254278898536, 0.2386026273911281, 0.16634284286528356, 0.2509287165829918, 0.06284605878324319, -0.14899747406809793, 0.023071749826102397], [-0.12204348622255362, -0.09014045615698375, 0.030416099982111415, -0.11291869611061268, -0.026069948909170304, -0.10620271554959189, -0.11214185852373931, 0.1531724863416684, -0.1550678248718824, -0.06979213829758306, 0.01604118120097677, 0.0759322984909003, -0.07361491363928839, -0.07352868072236311, 0.2918044139139504, 0.16096162476756826, -0.11682367713318356, -0.1258949941437553, 0.13177107594478785, 0.07854724605468433, 0.014496192283064766, -0.05703424781970929, -0.08591491342755635, -0.0404098518237872, -0.07454259630636888], [-0.1012999677747237, -0.20068557158489628, 0.12110493273996122, 0.041857132966693474, 0.04767993659943708, -0.01899496867335695, -0.05001420225829266, 0.047436849703481825, 0.06278023086067364, -0.020070975109061782, 0.028720037728722916, -0.03037063724080959, 0.0012287044276566277, -0.11718464294806169, -0.11152220018020789, -0.07712300055084487, 0.05614021563034069, 0.015684005416465724, 0.09149726263727427, 0.1310898036397726, 0.033406669119503754, 0.10800985487825829, 0.0037057971055593636, -0.10546359334669701, 0.16438738971351607], [0.12182173030881799, 0.04547979401788199, 0.09233124615458409, -0.11911542610309914, 0.10920245234845705, -0.16680259615891396, 0.04166719186034248, -0.13241970459549932, 0.1143340726912713, 0.24947520252249647, 0.08864099313071848, -0.3124498964020282, -0.08180327127898633, -0.015821210076849942, -0.20353968422397217, -0.061760920982318605, -0.2756854708962391, -0.07420438955236625, 0.03312679212094632, 0.17357921120287043, 0.12136190136110829, 0.15145223655777848, -0.06088337022899607, -0.009177247109822302, 0.15617223187244475], [0.004288411932092028, -0.08795394533115203, 0.14836391838713014, 0.07913640561126814, 0.21084143160300928, -0.1575579411997576, -0.15321198369769834, -0.2717939632908526, 0.1738130874524911, 0.20346406516044063, 0.0982125002871572, -0.15251415897046852, -0.12923562484180506, -0.02741328710359487, 0.08111145285183641, -0.09288286489703643, -0.11219494536939864, 0.07920262118864137, -0.07235802083207522, -0.06070475092192768, 0.21833345655670114, 0.09062730380360669, -0.14567123807160687, -0.08221339190542488, 0.0793951014441781]], "net.4.bias": [-0.002223985973573404, -0.022748150110835724, 0.0, -0.009999990665123689, -0.021368873530158317, -0.004939980477836465, 0.03667150621164948, 0.0, -0.009998824041803413, -0.014925622927665853, 0.04013667543378693, -0.007451080898035765, -0.01028862339491768, 0.0, 0.042254398007573774, 0.03951352427456154, 0.025860344330356482, 0.0, 0.0, 0.0012344949829323916, 0.034973824786709, 0.05128311168997516, 0.04325873616640234, -0.025771340661269647, -0.022535664892357483, 0.01184047988518403, 0.04692568903471978, 0.06092834469481674, 0.019239671313535232, -0.009427671300872773, 0.006725519645809407, -0.009996949224580217, 0.0, 0.03487401591278729, 0.029792675970986386, -0.00947779799214028, -0.007509099763764463, 0.015010114899409325, -0.023048739473267355, 0.008141624695181052, -0.009001295156019355, 0.04485389338881181, 0.0, 0.04097538521965877, 0.0, 0.06477527211865587, -0.01769568030345797, -0.01327767204451387, 0.02688229215056473, 0.060704318202052125], "net.6.weight": [[0.16533496332695308, 0.018511879517129952, 0.13719700360726228, -0.19457820770823223, -0.15220536314325087, 0.017661782132085094, -0.07155864949685166, -0.04371897348965804, -0.036420329026302864, -0.02710557531661372, 0.010400300792516009, -0.0007290986334201262, -0.0012420673731515619, -0.06357397436251266, 0.16373449547115984, -0.10108343075926217, 0.18596218704141176, -0.14203278187666044, -0.12122445372649984, -0.06743446951882838, -0.17037733364086016, -0.28242043745701106, -0.10145678368831476, -0.08955463136323367, -0.056918731222901156, -0.10690900869399579, -0.08575295596126396, 0.09398127505477205, 0.11471658481376862, -0.020324490449581102, -0.0749999828924894, 0.01598923603728581, 0.12536372357111217, 0.07355109456647035, 0.0405715100211126, -0.043509336592801866, -0.07862258213743369, -0.08351365292181236, 0.0437469284384735, -0.23036783504948416, -0.17852311059122428, -0.12253672861977272, 0.026442784892038107, -0.04320019294792576, -0.025687660485966962, 0.18339931411708724, 0.06358297473082467, 0.060528325410036964, -0.1237271127856005, -0.14874281652229096], [-0.01943753188149365, 0.17716785037994007, 0.054891583331507836, -0.02150710548138045, 0.07222203725946372, 0.012480876938984812, 0.02742344544336303, -0.16336094730514755, 0.06390085073194728, -0.11102457100260117, -0.1852675162871542, -0.03266446173678755, 0.022903043533395107, 0.0411697347785745, -0.10759771948626405, -0.018784562310150507, -0.03690299829119569, 0.0336159594572668, -0.0378721027588423, -0.07849459213802909, 0.03836168836704017, -0.15103545221870304, -0.2081736502186757, -0.11882271981252633, 0.06447895417532941, 0.10644603365305186, 0.011529104077955148, -0.10638104193040615, -0.01217263282266366, -0.011574392974650365, -0.10765216385151988, -0.05404334553435578, -0.06403555967145844, -0.16448790803201147, 0.009812583215851945, 0.07393589643190061, -0.03895932875211196, -0.073734095181246, -0.0005981628297835888, -0.06371165207095496, 0.08720875259107508, 0.0285391961751421, -0.15142084596966862, -0.08190887443934991, 0.05574829378016787, 0.22675104769468302, -0.0402387396407004, -0.014611907029702054, 0.24688793681510068, -0.01278220377521158], [0.03707361455432422, -0.0895601836041794, -0.11271457657094944, 0.06498868648998103, -0.2527966323596307, -0.10798365705433693, 0.1100681218581513, 0.07025202714789147, 0.07814539989345101, 0.17339007748409377, 0.2855130137217646, -0.0044775633628992345, 0.016923567086298174, -0.08572133490113476, 0.10385166743946969, 0.16199757248666535, -0.1582624106716857, 0.16678679230252275, 0.022668985597759688, -0.047608036487753934, 0.048905176312258616, 0.08023275264608948, 0.04908447094022261, 0.12390509210273695, 0.03543648012401578, 0.293168083992138, 0.14733958494448213, 0.27703531640972945, 0.13306763701411212, 0.11070869284321089, 0.10804285093409262, 0.11303977195391421, 0.20041566193642046, 0.2719489435871895, 0.2534712081994637, -0.05601597253474211, 0.09357294122243198, 0.08194550876532618, 0.09779847773231404, 0.11240123364808266, -0.0019147348890317824, 0.24284808053629536, 0.03290638150120891, 0.01033993665985346, 0.11128005304063138, 0.21284522088935448, -0.06208113214367186, 0.041941413762546294, 0.13682807016409915, 0.20920369125255034], [-0.013696984811983762, 0.1259470137340191, 0.2510104183304302, -0.032850909300673005, 0.05213760819756179, 0.10933619404635658, -0.0955923313671875, 0.03731830806621963, 0.10881361153527017, -0.1404520759790008, -0.04217177116197525, -0.14376619649033082, 0.048415712559418886, 0.1985512575034784, 0.05423828265560165, -0.055872453387213486, -0.10876091429408831, -0.0594513401540637, 0.06984586282018856, 0.09191629583796959, 0.08520144931867424, -0.26953157783218995, -0.037986213490976486, -0.08448572835781087, 0.005472982910492454, -0.05563315612589169, -0.021133530896782056, 0.05491131587036586, 0.008811070480007475, -0.0325366474518678, -0.13211018021526702, -0.04330986794772958, 0.08140704642557542, 0.02272889100541703, -0.16914168105729024, 0.1420278441122018, -0.10850879959649597, 0.2896955429552935, -0.044845909575562184, -0.061081400659522084, -0.015958657823735088, -0.018901734946866356, 0.0862023640686379, -0.04243024429621775, -0.07204961521009132, -0.08508539489303961, -0.13847031875166563, 0.02875778254602558, -0.08224699761297621, -0.040097369024911206], [-0.148875006926671, -0.19205879460192882, 0.0040184516744466115, -0.1702283035089865, 0.024666641018567862, 0.14181733258796772, -0.13772822499865348, 0.06954082639884099, -0.1685934487278523, -0.06538248136329054, 0.12109246807721634, -0.04821716370405967, 0.11286633337777577, 0.0008632466778703108, -0.1000774719733838, 0.12275327834269127, -0.14907298598491345, -0.0807383403642461, 0.2922639362797558, -0.24908429922526418, -0.16816401340391332, 0.012812597771180684, 0.009587857352728314, 0.08976836041579353, -0.0021412973359400023, -0.08601721583577288, -0.14045388900336836, -0.07746013252087733, 0.010395397741384359, -0.14035632180442367, 0.00886589034085063, 0.008283936115132404, 0.13869760904723855, -0.1411023394923031, -0.05221032767141518, 0.12886819982348605, -0.19684856333187314, -0.09688852768018424, 0.09129311775393378, -0.20241752510905173, 0.015354064905516399, -0.1202890336671438, 0.1641938984158213, -0.1125759133007884, 0.14856823834119579, -0.11778597581402712, 0.17356338574259705, 0.03523147302795262, -0.009865147250626132, 0.06192741033866699], [0.027050760129076198, -0.22924519261544654, -0.13177531380952168, -0.02144561500279607, -0.18905360563792203, 0.08019269320005862, -0.14628042769642421, 0.1328074296012924, -0.02407816729497261, -0.1052571760097339, 0.12940179057166165, 0.0007455335128548834, -0.10759428775127602, 0.06604271727370571, -0.04528321169029205, -0.10345446549143306, -0.01415168804439935, 0.060353664982900936, -0.02157465396028201, 0.10134610756185641, -0.16955896271894227, -0.023230672404212678, 0.1395395610199823, 0.13267297030237213, -0.1644938952504621, 0.056667861917835675, 0.006331901851731663, 0.0490386287735127, 0.08628964755034654, 0.0032460587443578146, -0.1383149653771206, -0.11253441225307613, 0.09394367198699788, 0.009462242067850159, 0.16985717959059465, 0.0902632144950542, 0.01951177552923737, -0.18821819892879166, 0.015335652585528199, 0.11468202124553475, 0.07296172414847293, 0.14248710987993823, 0.08037658555539917, -0.03195789073259086, 0.0577545018274993, -0.19716604541006688, 0.25022330484806504, -0.17363183477216712, -0.03742934849931092, 0.0669805760933825], [0.0706960821293818, -0.23052372129000684, 0.14282413880287134, 0.035590863556952575, -0.025475722192995362, -0.08837939590500886, -0.03458712072396574, -0.07334363529895449, 0.07678513281856207, 0.05630007211502987, 0.00933088908010017, 0.0521365910718117, 0.10954284259257455, -0.03172226633891, -0.0070904152335639495, 0.11767626423528169, -0.004303095662937393, 0.031283179461997566, -0.020287689717811166, 0.01308303133696664, 0.018778207849708756, -0.014416261083437944, 0.07208795736838908, 0.08889050310367462, -0.12818259607060145, -0.07516542664029202, 0.09974881158155237, 0.0441130329847665, 0.30941952181396803, -0.09256200973326116, 0.06440185670840866, 0.11694586443651019, -0.056358508121148725, -0.016374691271675016, 0.015271636241993918, 0.03742732250024276, -0.00558846366914122, -0.025188079677683266, 0.09573652192894673, 0.057091745742833745, 0.015108363781005617, 0.013942377759659905, -0.06328540889203084, -0.2315030333023403, 0.04457374232821454, -0.06354533471737413, -0.05651498740111375, -0.13465078966010532, 0.02130068002376314, -0.0756304470843277], [0.1777286182893214, 0.209758785061717, -0.06310299848755721, -0.018907040740450125, 0.05052119245658543, 0.08002305765079454, 0.045319046911858424, -0.08876431736389877, 0.0332803386774384, 0.022184970437155862, -0.05292237606619802, 0.02832344711662766, 0.027176809401600905, -0.03691101286498828, -0.017996344078650098, 0.037466487184945975, -0.016629460589386844, 0.0980505097894821, -0.10956444748918202, 0.025421085339182373, -0.08568391083928834, -0.031335149883830286, 0.02030146991232691, 0.00019773921898066926, 0.1084152335302528, 0.012572059597163718, -0.12856949470926002, -0.12751850469272297, 0.012951039167939441, 0.14058896389355574, 0.04115571822990934, -0.081444468704648, -0.06504139846197132, -0.06865029430047481, 0.13161322252664745, -0.0636908818560291, -0.019109933686116014, -0.06817030341327332, 0.09174948327815484, 0.024828475807058034, -0.007404502805239747, -0.09538364975948575, 0.029317808482770293, -0.08947619814709694, 0.009460719328772063, 0.053126687855775644, -0.021278150339185974, -0.13995533303914884, 0.04715181008986872, -0.15427027509396918], [0.09842998415394488, -0.1562486005708374, -0.017026828998061946, 0.01511991680651436, 0.07945300986998344, -0.0227525989056027, 0.08764549572115705, 0.19110321208811032, 0.11143955549260763, -0.049192851345314065, -0.03998299527854539, -0.18348560713787612, 0.059095982232681435, 0.1032423471273384, 0.04269052869868619, -0.20665935688021464, -0.06062540575842314, 0.04003051794497844, 0.001393239874558211, 0.045390883630970436, -0.07003308805077661, 0.03465808873545982, -0.10069360260554516, -0.054381673702073696, 0.03839603422529165, -0.010823929442370596, -0.07131060586794073, -0.045222044911034515, 0.09479837083924263, 0.13426639515567512, 0.004677987840651993, 0.003128353297467903, -0.009265995987734664, -0.1256668635342011, 0.028346572828849583, 0.07631058740912486, 0.09913635754891369, -0.013720180986910227, -0.12381435251497547, 0.18765639527079137, -0.12938039062729625, 0.14000620363114866, 0.1886862759861594, 0.18404407582570398, -0.05369838354691201, -0.0455452743552789, -0.06522788990498456, -0.021510615612593313, -0.036065586456879274, -0.26165732018421717], [0.08888794342301962, -0.03745852754879082, -0.09124204968403204, -0.0031451315724334984, -0.04939137569650015, -0.0768475335449435, -0.06067141162475139, 0.15954521331470906, 0.1999380375161855, -0.21886491675628425, 0.010240844420475544, -0.0817167270208424, 0.024615487821039103, 0.0502084286651626, 0.11894611339960927, 0.09934687458369476, 0.13490000582759004, -0.011767706268161378, -0.061105957784503964, 0.08516465649774693, 0.12157344946755777, -0.2946352449454945, 0.2538322198017481, -0.3004265426622891, 0.015235562225277012, 0.16950498373700065, -0.017576174736714426, 0.07132421113273156, 0.2172547094911248, -0.062188081820751306, -0.21086852981950707, 0.04481737699612865, -0.05831847092255014, 0.056328205551889, -0.0897391727504365, -0.38330412915884454, 0.2233471090426831, 0.2798900528428569, -0.2147784733652105, -0.1520376423077444, 0.052684442980170616, 0.21509416988437757, -0.06639253586144105, 0.1864524974808027, -0.07274231296369063, 0.030220843411314164, 0.07165537067361738, -0.07509881581847942, 0.2793238565968466, 0.09366442251586517], [-0.12897886501641317, -0.08963561517025867, -0.20518421378807525, 0.16969334572469652, 0.011914469316145879, -0.04395919657794438, -0.026260016450460236, 0.15485016000042584, -0.10098365812028896, 0.0441506808322486, 0.009610031977761207, -0.011432802727774017, 0.07189959035055452, -0.028910231469606324, -0.2039605743999815, 0.0772189248990582, -0.05491363407723622, 0.07287700547735841, 0.0020095382419542435, 0.025364263666225267, -0.033867233916950304, 0.09921494842336658, 0.1301851035004216, 0.17433602919306262, 0.006025154143000186, 0.08626118534053352, 0.0025693631064471084, -0.2319770886383306, 0.09739731084242141, -0.10925326363680526, -0.21205483566224964, 0.03076259351321782, 0.014652881073630154, -0.025504514245478966, 0.19208454257526827, 0.09530926779789822, 0.08423887134549204, -0.06120613865980633, -0.03532514289091013, -0.14564479369660294, -0.16268312551517058, 0.14657694505136107, -0.01508888870924538, -0.06040694370602068, 0.11788649304814794, -0.16431623394126374, -0.10066304111087312, -0.0713552237388544, 0.08159242637301545, -0.2116635779564763], [-0.1692755498522498, -0.017996888213998485, 0.029938016281592195, 0.02396784260688118, 0.05279402346443614, -0.10651768691468473, 0.0598105418586754, -0.08603454974052413, -0.0700397065910888, 0.12782250709180085, -0.16721219683125202, -0.1336085673915866, 0.1971197615135982, -0.0022260862034743107, 0.012094899390404165, -0.01858497210556266, -0.13750696548285957, -0.01755272457392891, 0.09874441736846232, -0.04535221600091865, 0.013379234259920386, -0.06755196018420484, -0.040495343824789524, 0.027891865619541885, 0.05551675952223283, -0.2371693941010518, 0.03847486689042274, -0.014550818921842994, -0.16285869787654544, 0.1858308993194187, 0.1261175367381195, 0.02719512407468748, -0.09438646872937739, 0.07789894831397573, -0.021749730452218823, 0.16046499009558346, 0.23436226727678813, -0.13292356357230373, -0.05593420463160922, 0.04568927359430949, 0.0947118107908309, -0.06906864513497592, -0.13225618049230492, -0.14763016917587168, -0.022761735418544343, -0.02972110955114219, -0.05664070011221977, 0.09111220670433974, -0.09019035424951874, -0.03700843586929216], [-0.02348173373751532, -0.18310615234887034, 0.11831946805097214, 0.026616174710608714, -0.009807847128415065, 0.06144709108885389, 0.17168498647074568, -0.23527070981428166, -0.018882953860958732, 0.1898296476453838, -0.014852139101602251, -0.2010626707956641, -0.04593304129118792, -0.03193830443498021, 0.3327221383797306, 0.3251255618883311, -0.08976647647711024, 0.1319229402992739, -0.11128712600356605, -0.18923964707133256, -0.007849686546121845, 0.21035577506763245, 0.013599998119032149, 0.07036031393730506, 0.1387874367307768, 0.02083759962581947, -0.049078180294357135, 0.013294020242692925, -0.01900159955468464, 0.12492405957200674, 0.09128848958086762, -0.17259533694762308, -0.049682505526948646, -0.004071259678119158, 0.04025627531295015, 0.08061261173509397, 0.06540533822858144, 0.11508729673673121, 0.027081719613971857, -0.08442756302834703, -0.06573676023396093, 0.1288961594746804, -0.04041307073254874, 0.11455233963462112, 0.08454063347824427, 0.15305238418187816, -0.01839632573818282, 0.09247058139210068, -0.053955812460256644, -0.002933882710435102], [-0.017054185662523987, 0.020831762844422355, -0.020564879233300398, 0.026638419393885976, -0.07485039433019787, 0.02419044701903043, 0.11532133035557174, 0.22340468505291433, -0.11474690085350686, 0.05363926983676093, -0.04679211812479813, 0.04685906894789907, -0.048444537621927415, -0.12219857914588106, 0.036752686099308894, -0.011972692263326772, -0.1660159851035405, -0.11635274010185928, 0.13735792902961938, -0.1945768349473419, 0.0789071760860752, -0.06600270359687384, -0.0820447122225647, -0.04693840338128099, 0.014656708015672738, 0.0911282983394001, -0.002876382491284992, 0.001052701030560977, -0.1230045705381275, -0.028175906650009866, -0.08315095154176372, 0.2212477533760697, -0.013828695707306682, 0.028328154758559543, -0.07812671133861304, -0.06755101160080698, -0.09082132007323002, -0.0813077711174826, 0.12678350450435974, 0.0886833089666407, 0.10641182927047087, 0.027665721478820487, 0.07331960467233141, -0.006772736939090413, 0.008325011952793877, 0.022990748153254033, 0.09517092494901352, -0.09601280314357497, -0.041399114927175365, -0.169432834051975], [-0.020968984681353147, -0.011086694445495779, 0.15775390145264587, -0.10180463480493383, 0.07666943192009655, 0.05629294791244685, 0.1447641844997658, -0.1658576485803882, -0.14468554281257492, -0.1642465639041745, -0.041914903111770874, -0.016578560334377372, 0.09505414877898342, -0.10050248963938142, 0.0012573432910955513, 0.02250024531707701, -0.07178245612363116, -0.1120692296118637, 0.1258972112823469, 0.01596263685895615, 0.1083168384114861, -0.035212716981763564, -0.13507622524527615, 0.045768139989369176, 0.021740031502877254, 0.00587068332490572, -0.09595667332643866, -0.06488147924054134, -0.15667479348422983, 0.0029914026384832626, 0.17583513495742534, 0.16442513378529156, -0.05075198930431061, -0.07244852511924774, 0.1711358532714583, 0.17840120768268172, -0.17874062692823184, -0.03960558554834971, -0.029055206117486496, 0.05775279039629368, 0.10447279521007327, 0.020014256882144057, -0.11963272416197156, -0.10032301040230009, 0.2291514156363646, -0.06991673257632629, -0.15595194013524424, -0.08504777310911406, -0.08189631182969338, -0.06507548205942239], [-0.04852674406303139, -0.14649003015692336, -0.10261509025309644, 0.024229566995697102, -0.0998336832264331, -0.020199105682376525, 0.0017559586894791267, 0.1410629420265492, 0.13969991692802924, -0.045257109800870755, 0.06715129304136089, -0.0839848919270189, 0.1340472672425754, -0.09860099682493595, -0.1299724706156269, 0.024352200946528457, -0.012485269607233175, 0.009042609692090921, 0.06633517119235531, 0.007201837422147789, -0.08267999321290817, 0.10766715256644802, -0.014660926573037213, -0.0207375798267055, 0.07211829349659904, -0.044725675499833806, 0.1326261536558446, -0.028847856852020105, 0.07078621679378033, 0.10869786745667864, -0.12305517290323996, 0.13278728533780845, -0.07725987471952772, 0.05229844022839898, -0.04993342691438423, -0.05849016846336183, 0.04756735194271109, -0.05786679631761859, 0.06457421127859818, -0.004508177436523207, 0.01988776320295984, 0.003119293655755538, -0.08345999920293588, 0.04035183690328937, 0.01303719484942826, 0.06846188108754579, 0.019384143478806695, -0.1324211523096291, -0.29688078675517815, 0.125659176405849], [-0.1649880406776869, -0.09732131077206302, 0.2530108462067564, -0.01844691608116869, 0.033403216236133494, -0.058939889513380694, 0.18504333435501036, 0.17405618572563025, -0.06359972121360336, -0.01539468022920652, -0.029033780284574515, 0.0066178587737726795, -0.015905588509289994, -0.042541028692288735, -0.012093031033499662, 0.18756354988290008, -0.09679302354959628, -0.04069752406633237, -0.06320254352809762, 0.06104796455551818, 0.17427222680947255, -0.0792409022766573, 0.07204862812686869, 0.01997241068311889, -0.21234393969188828, 0.03745363779027289, 0.1422565508846862, 0.14286763655720522, -0.04157100063555654, 0.043455367554827644, 0.07176517768086234, -0.0614669574285607, 0.01608838706387525, -0.10670451701549735, -0.039181022638880354, -0.11867656174960169, -0.02088402922743897, -0.06891313282575874, -0.03445399239371401, 0.2079437777813267, -0.020919316499044334, 0.18583738982058712, -0.25290777926618985, 0.15433551615356608, -0.09240994754611613, 0.22382319452042354, 0.10434257720562998, 0.02633886185672376, 0.2144550216961103, 0.15555828608269148], [0.08176670206340775, 0.09594816670710145, 0.010543312292883699, 0.12795970544687293, 0.12044254206100505, -0.010168019676577683, -0.07423581120639566, -0.1546446117513367, 0.04569668857625898, -0.21415894899924817, 0.0037635835400386198, -0.03587535449828578, -0.04047467100447049, 0.06652491736012155, -0.08854248430727277, -0.010517780809383608, -0.097594405241443, -0.07308240722881576, 0.028863563214293255, -0.08707224600607584, 0.007738211780543508, 0.014914834481049445, -0.0042686160443964555, 0.03414884269762858, -0.05076818971872972, -0.009891718097631685, 0.07230156592444252, 0.14947771839560728, -0.201014671234111, 0.03965073376614045, -0.1726130591041087, 0.019951579275927615, 0.119122671126215, -0.0012681310174549598, 0.03718322258673923, 0.07420794146818716, -0.04848359089989692, -0.003728398845666587, -0.05421118884421709, 0.10691810588264761, -0.18708746806237272, 0.0839526288333646, 0.05891283954445834, -0.23271595646942467, -0.05763056801600567, -0.03401783943025786, 0.008052594558211548, -0.01789934149569904, -0.034951101413792346, 0.017363185071550522], [-0.0948303273535749, 0.016827297146530095, -0.13890254451250067, 0.02108135433051095, -0.13874203847029104, 0.2841102915782888, 0.17575207796073722, 0.011268254872089753, 0.00027948368167170836, -0.15813745892129696, 0.06512014553048398, 0.05919456756062661, 0.12730116495840377, -0.010898218250581073, -0.12294551477772077, -0.14617830900384687, -0.16903349640973817, -0.03572549894579624, 0.054069549854427135, 0.16818894740516502, 0.11227774155252222, -0.0893881523058905, -0.058368446481183424, 0.09116825533575366, 0.0816153972288258, 0.184074465816796, -0.14874576398898365, -0.12633463380755078, 0.00488151303769779, -0.08502681171469983, -0.04313520803894204, 0.10453301173095796, 0.17178459769778665, -0.05620322780271843, -0.004714191215960547, -0.028097283291047867, -0.08400032997118154, 0.08699063927619992, -0.10564208022733898, -0.10703418658253254, 0.09175448975618467, -0.159014597389102, 0.032172233512322825, 0.10750710811221892, 0.10406342891379727, 0.062113624624535596, 0.26032691495633115, -0.027114093666445578, -0.07754589286887123, -0.033129052780538445], [-0.10226824970144217, -0.007780178588490322, 0.08315436765016458, 0.1392941674019464, 0.03380577072249198, 0.18110773863505894, -0.07625284624786483, -0.05992985064430555, -0.017220224170560305, 0.0868991063644488, 0.08782946975805152, -0.08520687208947746, -0.1422188142796393, 0.022159684663752274, -0.10306084581030588, 0.019484447874342004, 0.039147568609582406, 0.057572626562571165, 0.05628438819760431, -0.0307856757353234, -0.2823458309177642, -0.15621265748491425, -0.11983671364273264, 0.19849163394388541, -0.03299687989946476, -0.10622249530394, -0.13328366818696905, -0.10208903187038372, 0.012295529442218341, 0.059557888026300805, -0.11343796565768277, 0.14469042954403266, 0.06257392474980408, -0.08173170682520278, 0.03428984348909783, -0.007271817633798481, 0.06064609071436997, 0.06366068462883218, -0.007932895818178265, -0.07758269853299792, -0.21877705722997895, 0.03875045035678086, 0.09312247965192623, 0.00013976692001298717, -0.025497142451542235, -0.0848262848770131, 0.07473144226749341, 0.1307922011513625, -0.08502841195813275, 0.045848369148144996], [0.13856536921294055, 0.04293974259161668, 0.02826749843915064, 0.21635782136822237, -0.006721957624054412, 0.2708735182602008, -0.13491987069024639, 0.04008135278726177, -0.021880641118245323, -0.18176182907248883, -0.04520537081732171, 0.10841373631609763, -0.017093960590595158, 0.022865656794573704, 0.19278054536910247, -0.009420474312056183, 0.04110390690925865, 0.11494915966886028, -0.05697953752440296, -0.014268984990691878, 0.060337876351026346, 0.06812039282340127, -0.13266054075118358, 0.16655266621326043, 0.11501833111540004, 0.05659547007243178, -0.03888568128210812, 0.08178833991818772, -0.10965113660725843, 0.06433424019645481, 0.0005850517570118321, 0.1448315384260496, -0.0574503670366383, -0.05941654330605847, 0.010653285713932946, 0.08935660779749575, 0.0146249419265638, -0.06918698062431249, -0.023428179019758424, -0.17767638397876073, 0.023639767450607363, -0.14417420104397372, 0.03283658059637297, -0.09739361670785682, -0.018880995234755525, -0.07240770625788978, 0.05502732818364334, -0.13270896419615633, -0.17712451529863793, -0.018953249450888943], [-0.19868370331753785, -0.1556411347711646, -0.009640758793827524, 0.024763685041129142, 0.08144567835334149, -0.08688690330634101, 0.02700979591498789, 0.15279797662014236, 0.14418442807423879, 0.028262146313770012, 0.04156376575918096, -0.023794431274476748, 0.12314359123730649, 0.22453593924815457, 0.16186095786500135, 0.016589597312884452, -0.011032298363096025, 0.017018209668822174, 0.1326615814022028, 0.0382960223457009, 0.15598480042528023, -0.15500189006713652, 0.09382295808079594, 0.03707125705489444, -0.06405346579989538, 0.12155395701155457, 0.2653322800470335, 0.15336866076242697, 0.014967778791390806, 0.003589676997817277, 0.04256925595584223, 0.13402544831103388, 0.13080322550210122, 0.19200098062333307, 0.13915684714081855, -0.0045051237230533045, -0.09445158207831961, 0.09953076839808528, 0.03804930821452675, 0.09234496606225608, 0.032975044778585226, 0.06534246407429882, 0.010794811444697306, 0.08833798967346011, -0.09276970111616206, 0.24499381569162781, -0.05677379526662795, 0.11696551834575375, 0.15661253738028535, 0.15393631349896958], [-0.18199138672618645, -0.009612409942245116, 0.016733499852932376, -0.1505533858405731, 0.1430751406044555, -0.011175751575893775, 0.2749152427070156, 0.10682378525332331, -0.30061323059603073, 0.0004544607959173375, -0.09106933200303724, 0.11539939779316916, -0.12807305946020495, 0.002514238364516918, -0.0010427838456753577, -0.056334950559858044, 0.020011773695396598, -0.01563931911311783, -0.0440771765692446, 0.016165696493493763, -0.09313716729640738, 0.020744820982810545, 0.023621741736207253, -0.025824669140725287, 0.09283540471431705, -0.1765837731275205, -0.08053096693929357, -0.014717597132344993, -0.059304963492859186, 0.15510220825326876, 0.0248900157424909, 0.007301714183992224, 0.061417147246239936, -0.006122371490532728, -0.0038434614255878317, -0.06473521493478479, -0.25880541943187385, -0.04451948223246851, 0.11993259092618022, -0.07003840639278618, -0.0032570305467463675, 0.1186079221704462, -0.04304508958036843, -0.07391447639761504, -0.07694807508120592, -0.2002350685823449, 0.0071868797697834125, -0.0714367162659205, 0.09800608972794793, -0.010163833465383621], [-0.12899684517830073, -0.0007326107768400094, 0.04380259323015598, -0.010071853647041638, 0.009739911278072567, 0.05618130635095228, 0.02456136115343672, 0.048383592685986465, 0.0712273717567896, 0.16052442162588798, 0.035613926185575365, -0.07294941201550378, 0.09227939049100137, 0.037072635752810834, -0.17364632107781539, -0.0744665482049445, -0.03193664592615813, 0.09739377742806256, -0.07246134706756627, 0.025318053149523206, 0.0031111275932073374, 0.04778927233655534, -0.2502073159824575, 0.11163903812249186, -0.00017559794157934357, -0.045427218065687086, 0.04373496995140545, 0.02534772697755354, -0.1535529856676286, -0.09135797492860885, 0.1514911361363887, -0.0666272373154162, -0.11985843115468026, -0.0830326786359049, 0.17289216145127265, -0.0007528690716929074, -0.04358013387397345, -0.06882967864835042, 0.029045633411980697, -0.025103735104673668, 0.03503510712319951, -0.01343849517708743, -0.047040076246900424, 0.1796763843985259, -0.018750316404372722, -0.19033106551302906, 0.08140629976029301, 0.1280533566757067, -0.0733347920105114, -0.16393480967778268], [0.061016665641506235, 0.054832904993723126, 0.11087666110506667, -0.12632574025936352, -0.0050957296003750945, -0.10298653997642579, -0.10114476563149083, -0.020218415174448754, 0.1721994666933516, 0.02865279690670531, -0.17546661748451325, -0.01683070448745857, -0.10414000153321677, -0.10290838214680648, 0.11878605696753672, -0.05832411004083741, 0.1702736222590453, -0.11036306773838062, -0.1841807256378489, -0.25254357142775674, 2.2834860282019455e-05, -0.06998983313652513, 0.10583803015342004, -0.1105638684678243, 0.17102480915813875, 0.06130730992732109, -0.11594419651003467, 0.005154569518859181, 0.09431144890786003, -0.028603538250687493, -0.07309465434018048, -0.06818856786037787, 0.036616627156907486, -0.09448581213008816, -0.026571889533961925, -0.016671703217890157, -0.007213726606627995, 0.05188703411173492, 0.045192682042636934, 0.02182347611506609, 0.006391464826562213, 0.0005258417483362973, -0.011318259338933871, -0.09017999775826187, 0.021572012458698622, -0.11260135773094877, -0.07192626725125717, -0.05848094685278218, 0.0014972886789428636, -0.03634063915538604]], "net.6.bias": [-0.016213709689544605, 0.0, 0.09722276710720211, -0.024162920570988972, -0.019400529251157733, 0.0, 0.010378411886143723, -0.009999999571389737, 0.0, 0.021352476813265416, -0.013999512845121123, -0.018447598356498097, 0.03986863935915978, -0.009999996615965744, -0.01192458524167221, 0.0, 0.04080797586858652, 0.00011350410018083797, -0.009999997970744173, 0.00041578495700359333, 0.0, 0.025324877591482126, -0.00685321762642488, -0.017752233383981342, 0.0033813509515775554], "net.8.weight": [[0.04213986266840079, 0.0014527085561174928, 0.00507913581212113, 0.08445069417469367, -0.10447316843278219, 0.012037877059440497, -0.11993844889788809, 0.3100225580770157, -0.025707355705214815, -0.17165348751301598, -0.1023418868538088, -0.09133892616931086, -0.07861754755817948, 0.13397081182882495, -0.006021289947503875, -0.0275769987882302, -0.07357429102802192, 0.04168411062579132, 0.04495111748254671, 0.08638918069486184, -0.06819311618317546, 0.0907593802562496, 0.053628962674918325, -0.07850484351031685, -0.07525931938154021], [0.03205371452394097, 0.02239810124862912, 0.15591712406771577, -0.0915904067313514, 0.11537973089766548, 0.02720411346814702, 0.05712447313828445, 0.08818486530155852, -0.023161178431079607, 0.2177048590724462, 0.10766306404705847, -0.13336584803255597, -0.016799820944373097, 0.061649674411513894, -0.052797053108868, -0.08641775181541328, 0.1493540716588601, -0.21339031981504764, 0.05196156332459725, 0.09823385528876405, 0.10095579415508522, 0.09367555379175377, 0.11315205995832454, -0.031161922975070463, -0.2960004784267966], [-0.02976798099029351, -0.14621179947849722, -0.08078104169991798, 0.08491714851750085, 0.04325717362105244, 0.06164304593188785, 0.03704137072908953, 0.04733288747435748, -0.2345097706640946, 0.04309363774292152, 0.01401209016677183, -0.2312985123961538, -0.13462921159687752, 0.19569521311263763, -0.13450055629101637, 0.000552068836025631, -0.08291237315780939, 0.0166930587544653, -0.03433056945029839, 0.021521579364855638, -0.0073982088240544105, -0.04587225675347391, -0.11485891089093288, -0.03934027191223658, 0.005574873851333947], [0.10708305457447437, -0.14522725182076907, -0.16461168102197757, 0.1256369913945092, -0.048029973168632445, -0.0843612929514618, -0.10811551658026215, -0.037739487526977845, 0.1105315254022221, -0.11947604414041886, 0.05481451150770379, -0.13686049323253963, -0.08860225225216081, 0.11121266053231392, -0.0016045123894083927, 0.12550385025587393, 0.10363007113157621, 0.027960157104401036, -0.17079502979807304, 0.059681177985856815, 0.03558206630481343, -0.10212541926712587, -0.0709676400400793, 0.011873497824589484, 0.019645076099710876], [0.0643759600762301, 0.10581982533550094, 0.08331179011884494, -0.0011892223745686948, 0.049993918720436986, -0.18769396424929452, 0.07968174000268534, -0.024602238117646134, 0.05572672665519527, 0.014480576689170008, -0.05346426363146443, -0.1297847178800047, -0.07526685789945436, -0.15454870432541376, 0.030992546934357455, -0.17757284505048354, -0.08040923773315262, 0.13558202735588937, 0.01714031130129331, 0.010115860665616155, -0.14770864207717813, -0.04750007425920544, 0.04188859011340957, -0.0042001000222671074, 0.06429779537467586], [0.03112653915319972, -0.09170578840272316, -0.08653065069490395, 0.05572453033351313, -0.014074182216938, 0.08376842246127023, -0.0426734748181684, 0.1840909962263649, 0.102367235144904, -0.011105997052158567, 0.2793065429823833, -0.13873692391863565, -0.05966464652708116, -0.1345663741267147, 0.15465427454240058, 0.13497274213395852, 0.059784539857403556, -0.15453612408802866, 0.005510959231834755, 0.10564103685364486, 0.08744729370504156, -0.11794530218044033, -0.028664563597588306, -0.10380097352787837, 0.23133509396410884], [0.089089046804042, 0.13140319068097214, -0.026707443092024465, -0.0005353173389590375, 0.026886647389535546, 0.08717296082679207, 0.001297547138569008, -0.02148844768320487, 0.1416061625141017, 0.3832447625701758, 0.19301924898515552, -0.04724713337167465, -0.08242598865149217, -0.10269284848414366, -0.03762061266999037, 0.008839130993337696, 0.04851894560456239, -0.06781206399785354, -0.05132081910569837, -0.03251442203857056, 0.16579263991143464, 0.0759031387996091, -0.07974351651201494, -0.057531259320985975, -0.044101662520734004], [0.030989909067447953, -0.052450656315221326, -0.06542445918249383, -0.11997516137482178, 0.06096387341605393, 0.004591528521661307, 0.04490075385548765, -0.11913530872439737, -0.08811181833009182, 0.062378682402224585, -0.07194169530284619, 0.11122944916964582, 0.07170966543306996, 0.008489813447907323, -0.0035509414554375134, -0.07424427205083141, -0.06133747194820009, 0.1402197239802107, 0.20138113023784224, -0.04603914992892098, -0.09751489205128262, 0.0008842725460220869, 0.018502733347060773, 0.16670301683495542, -0.046180877360774086], [-0.0695926225061336, 0.02331119554004473, 0.2138933522508151, -0.15199652187199714, 0.09392124845764033, -0.03488337659317645, 0.03950989857400155, 0.10680925607914592, 0.0009457653373408609, 0.017506838298849817, -0.022094790033049233, -0.09986646882694387, 0.1526415097526679, -0.014842619257023399, -0.13285097540210683, 0.1547895992504149, 0.12370746892605711, -0.13679263555389298, -0.02045673004102464, -0.05770324219184804, 0.08154892683462281, 0.2054332087561727, -0.1264079432896475, -0.050416014182349034, -0.04471549776113359]], "net.8.bias": [-0.0030440172746718074, 0.020469529506693975, -0.009999999673805236, 0.0, -0.005489186457199779, -0.009999999452787909, -0.008155213068063634, 0.008829806604875055, 0.03576556758453089], "net.10.weight": [[0.003798068159567736, -0.046445447637647144, 0.11800003750357257, 0.14685736398681154, 0.08947131073414478, -0.17457268920799476, -0.10757139608412658, 0.2775598474566868, -0.10018659909065106], [0.13926598565243764, 0.03130511560139076, -0.04918539066215527, 0.03348041796003676, -0.14619487368349365, 0.03601442351809457, 0.12551187735823321, 0.05145691296836919, -0.07112252570819227], [0.10628793521449224, 0.09924000279092997, -0.0160948583655934, 0.014846429918493519, 0.004105898998111018, -0.008613930214861294, -0.06977000967476836, -0.2669060668634783, 0.1163312556238178]], "net.10.bias": [-0.013518654227585995, -0.0006536276550232284, 0.044311723840479926]}