{"net.0.weight": [[0.0007950286556791886, 0.09826545788576681, 0.2164101317788192], [-0.004719877455009915, 0.4628509708470538, 0.16932228639783245], [0.11080651396097282, 0.17745355612971658, -0.07372594669899402], [-0.04971096356778141, -0.08504546458864776, -0.09152610305547981], [-0.08393551814452266, -0.08710550918520926, -0.03932096231442905], [0.2075513041822293, 0.22606675574245677, 0.09854671982724136], [0.1178651856381649, -0.08535257744928285, -0.17016400085498196], [-0.12634170094784433, 0.01766455507845167, 0.2579128482910879], [0.042107638439459395, 0.06504380568646327, 0.07276471330377067]], "net.0.bias": [0.04406526284433355, 0.05389344674109684, 0.09402553606444296, 0.0, 0.0, 0.05195116214008826, 0.021995262685040602, 0.037074371573884, 0.019286527326046167], "net.2.weight": [[-0.04171117622199161, -0.0616890664830594, 0.0017851923439920353, -0.0015200158598099615, 0.016078467857785616, -0.028559513407245135, 0.008982759470298786, -0.05329363034040821, -0.10283838646038863], [-0.007235112742120059, -0.23702461784335627, 0.20694360431551853, -0.011891266625309453, -0.016788834508206018, 0.08584346569348802, 0.12840396976763982, -0.1865845569164368, 0.1200908819625934], [0.08897745504809809, 0.12560742378574327, 0.025104030997493327, -0.041731624284958135, 0.14937014872173565, -0.03504597439802304, -0.09342075298358882, -0.20330567350362444, 0.25392327138841664], [0.12743153306618607, 0.10086332427017976, -0.09778255617601042, -0.10218484755208271, 0.036947534877976855, -0.034497731886224715, -0.0007501043481849049, 0.09126995183699547, -0.094463573976353], [-0.1421137938224985, 0.13576566193352865, -0.11837909572430694, 0.037441774455780515, 0.057957110446716954, -0.08425095800388277, 0.06859336457688274, -0.01462619535782945, 0.020791432219531846], [0.18663660480093133, -0.019258528271873177, -0.23048835763648642, 0.07186329726147199, -0.1272549559297873, -0.024436279306783354, 0.017540108735147115, 0.2508580197067032, 0.08588383852776199], [-0.28242808410601894, -1.8026475709046136e-05, 0.07225145684975992, -0.1116072566216374, -0.1535850977024802, -0.0008945099848395471, 0.11737797279812284, 0.09686343620395377, -0.05559895777934862], [0.2291535044414808, 0.17526090934979993, -0.14946543661449938, 0.11536511963510648, 0.13089266581963396, -0.06982249129473683, -0.3404256861084691, 0.2311425001180599, 0.01194167584196241], [0.3059236577222038, 0.13486229127837948, -0.04519541586095962, -0.10752787825281024, -0.040218468097427434, 0.17916032135435442, -0.2869642768573385, -0.02091402650742235, 0.08791812826852853], [0.09282618515296161, 0.030793618036614807, 0.22312033091326852, 0.06222617863944559, 0.07076478748871194, 0.10381343504210246, 0.11829135865997237, -0.22578658285755626, -0.09041875080481776], [0.020744984964676617, 0.08793615770758392, 0.21552282773120818, 0.03965964967724529, -0.1178389144413234, 0.13990854639987146, -0.24277755102824153, 0.09460053491057901, 0.08886292643767639], [-0.008273903428074703, -0.12749105589220333, 0.2032061654100289, 0.24467055354726372, 0.04246892142090779, -0.008861228278400454, 0.33253520381781043, -0.05121148335219235, 0.06835648640702059], [-0.13189819711143289, -0.0022899196713311388, -0.011311668574900909, 0.006181522136824415, -0.14015318375940952, -0.0384340524170495, -0.026051266078331616, 0.0552252100013121, -0.11011495283353728], [-0.0519756555786016, -0.002661645425917934, 0.05857752193805067, -0.01096378584699581, 0.05381518033504548, -0.0007312891381469485, -0.030975180606252185, -0.033297750311227996, -0.16147255498447055], [0.19392846746294895, 0.1563945887934723, 0.03135745878008021, -0.10268130418334234, -0.23599802972572614, 0.027894285701461068, -0.05601813426619453, -0.1472735343105844, -0.03858939688913649], [0.060933530656695746, -0.20298056023548786, 0.1204782821857128, -0.011963080324557035, -0.14260364002894968, -0.2554510960164859, -0.06819996326813221, 0.07842816314961985, -0.10667544701341075], [0.0829820637718728, 0.12680504763552425, -0.045146645491582815, 0.01673802206716382, 0.012876758355771775, -0.06417112657433383, -0.17691715028756946, 0.3054113750113329, 0.09825391024450822], [0.047614904106271914, 0.05007816959628513, 0.042148268528308545, -0.011870850797937928, 0.019790150580839286, -0.29696150050068093, -0.05436011206285566, -0.16635876614053505, -0.08431084711110662], [-0.07600574124323597, 0.014753768132741263, -0.05716497960089487, 0.0378514730941964, 0.17283947437603853, -0.009242888222857844, -0.006561208661720295, 0.16250216563959338, -0.1915619198330815], [0.09724329889191691, 0.1814828458683543, 0.08465747050328758, -0.02494942587620976, -0.05315459686943408, 0.13016686701705307, 0.12331128702000935, -0.09157316612135621, 0.03616521362574608], [0.23248450287963143, 0.2071990094856505, -0.004038658368463387, -0.11810590024539025, -0.04761912927822194, 0.21621175630882825, -0.17043850667122756, -0.13528874793131918, -0.05842275838282096], [0.047611608395889765, 0.1574940962120815, 0.21555303328868491, 0.14803331336939524, -0.03994201280796183, 0.11107735061250916, -0.05434482006801497, -0.2456208901561341, 0.22632429374897173], [-0.0022632688011252327, -0.04138042231907652, -0.016797238765886964, -0.004585386098467928, -0.17078182556077104, -0.0862178262057616, 0.1531277244286825, -0.04448902651785835, -0.006939884029887849], [-0.1077634203819399, -0.17783942658063265, -0.08773308610358112, 0.030515008718155552, -0.017750192963061007, -0.014873059327589372, 0.034771441615033954, -0.09771540188883779, 0.06616837002142237], [-0.13680162507464685, 0.0728897029168548, -0.010859344836449293, 0.07541266571139175, -0.130365976988737, -0.08444662487571182, -0.021181368366738465, -0.018941893041314564, -0.06780460113548774]], "net.2.bias": [0.0, -0.01322210518052958, 0.030296054831248243, -0.023847353602404635, 0.0, 0.03394113103404733, 0.001988769112765764, 0.05572699908754062, 0.0312504967725396, 0.08281060700726761, 0.06534003968316461, 0.03287991543784176, 0.0, 0.0, 0.03688764429986835, 0.0, 0.04114324910224872, 0.0, -0.01695134146835668, 0.05181503632919515, 0.06419751909149472, 0.050295523444874514, -0.009979100074967285, -0.0006350386686698959, 0.0], "net.4.weight": [[-0.002717321776904928, 0.017326455156018324, -0.03307066619562822, -0.09255540138691665, 0.23501872256447975, 0.023728951150741192, -0.1282479137692203, 0.171115453937848, -0.10165100519048886, 0.00808233977046725, -0.014135405233378577, -0.1524270921604657, 0.03185674465223278, -0.07758493690100088, -0.007107405827052697, 0.039432725463219895, 0.02934546249674582, 0.08103358622549904, 0.03834757548873666, -0.04458509942023558, -0.08059418521673545, 0.09959342201485849, 0.3290403911620081, -0.045906013327832895, 0.03129948168644122], [-0.02649234681040762, 0.008451793330733306, -0.16660898489164094, -0.2127001641073522, 0.0047909337371806245, -0.04725276250235333, -0.016863723704913458, 0.019422323379172508, -0.188067788175771, 0.03577440429720907, 0.035096881191084714, 0.10879788242935258, -0.12135173458149678, 0.04051072553649318, -0.06999464630148948, 0.08033237484772764, -0.17319532223528744, -0.0802978690495248, -0.04929490096194392, 0.004824108657577332, 0.009843636035068291, 0.035068829446606546, -0.030237137787159214, 0.1687742550761862, -0.025007547381293772], [-0.11214300971135083, -0.06923661294598736, 0.00011176647060916396, -0.06972161296508915, 0.16279297000902793, -0.03274421560968275, 0.03431934568912588, 0.13227086459453552, 0.07300856299667485, 0.044211078489054305, -0.05168161941446036, -0.0055508866969813594, 0.08400850458720849, -0.014929403618771092, 0.16106209341189512, -0.11248037415063512, 0.06131110307875311, 0.005132961045613573, 0.13126006424406866, -0.1287091324609535, -0.16453330590975812, -0.14821137516228577, -0.007328814940371073, -0.008214478506841828, -0.0011997541847947601], [-0.10273533820357633, 0.12888729426659426, 0.12856560378975387, 0.04780309874004845, 0.051982251787480616, -0.12416993481405135, -0.046668497241569094, 0.021512000270537113, -0.05341882054999836, 0.02886516338711182, -0.004146081853811266, -0.021494081764438892, -0.02376372927003287, -0.03661893042548715, -0.010085629413437072, 0.1538960625572876, 0.07774546292434599, -0.14287626933208789, 0.03705535286934307, -0.08555289841492018, 0.10310586319342613, -0.1977948402157812, -0.11673056077315698, -0.07883837156523239, -0.14998056995793987], [-0.011306185935491923, 0.08717336982433332, 0.024122017385042993, 0.04602665399385366, -0.14467089152161997, -0.0043705124490950814, -0.02010783777942493, -0.039579204724128736, -0.019383548280116424, -0.26138627930366903, 0.07813679546046828, -0.0008816827328041171, -0.06287684019115328, -0.051555618428443244, 0.025025391308456966, 0.07242202307430048, -0.0994550931491355, -0.07300575495025069, -0.2505699975006978, -0.073413039030068, -0.0060253743215002735, -0.004374958293374171, 0.055604253110329384, 0.036561678164137607, 0.16221318158867082], [0.0010774514563340546, 0.1005927180109052, 0.14066684777841662, 0.12739551472915886, 0.01212045974719466, 0.010564976162241788, 0.22261777921342413, -0.07687659909776466, -0.06966335949975994, -0.11008021892034432, -0.07027979543160087, -0.25063453588919404, 0.06426370108881173, 0.03938686170662348, -0.12889723904607178, 0.04159663133767339, 0.031579779372802645, -0.020308908104892238, 0.044247812864520474, -0.046981545686255, 0.07917725346990959, 0.049874894297405326, 0.03374141076782818, -0.16296147600037003, 0.03856356333063854], [-0.1633887040434957, -0.09688377416065934, 0.03887366062776845, 0.11728676141556024, -0.09089184721875541, 0.02392410595763863, -0.03850893463647075, -0.12138191717784125, 0.1859082445506081, 0.05634426922218408, 0.2045131180120143, -0.1674852144399431, -0.06647544528934446, -0.009281781962610055, 0.14285748946845225, 0.04488905031388147, 0.08082408354691653, -0.0066791668325581355, 0.02506121923179413, -0.1422490484236937, 0.1601307702146684, 0.023779568171480758, -0.07308408117583733, -0.18692207275928913, 0.07429602822866478], [0.058217918752813805, -0.15856418743515266, -0.03576364080939158, -0.030343637132408913, -0.025558085148067178, 0.038045113485367855, 0.031995157265718104, -0.021885782462820847, -0.24029136932774403, 0.022790788290392827, -0.059876626038888076, -0.010364253561154845, -0.025722429839307434, -0.09332949572511266, 0.2310732368667844, -0.010975728141306547, 0.13623840057140513, -0.07358201139514467, 0.07720178410810162, 0.1121052241301998, -0.09035650545908035, 0.06516746350352738, 0.07894353519283707, 0.06739989634258635, -0.07994140984717385], [-0.0818608164040609, -0.030401317389935005, 0.16619789962048673, 0.030455362216771954, 0.12568814305050552, -0.24296387172703132, -0.1041833758661102, -0.10123761440949214, -0.12555730786146296, 0.06736628396585839, 0.043220172765841, 0.0433459733624597, 0.07053682755485538, 0.05347582600604446, 0.09651597330831418, 0.028481405016878732, -0.30148181510705796, 0.0338948657227762, -0.04621661341288599, -0.016861140544776335, -0.11319123154380772, -0.036647902483353235, -0.02922458910475642, -0.09261291858457991, 0.04134564532973209], [0.048451619278282454, -0.38723038920406105, -0.022537389415553485, -0.01810415117521398, -0.0718295210529023, 0.09606275517221542, 0.15941440269335394, 0.05063445895927662, 0.11275580651120738, 0.058068938926135204, -0.03960605590846954, -0.3740834548909619, -0.0018953121418916364, 0.005076837709789132, 0.16573420141893705, -0.02703914724590281, 0.28380834641208336, 0.16275519982433403, -0.02030815030582798, -0.06702885443995257, 0.0784493793452369, 0.009207831578257539, -0.13730810170955618, -0.1497497611863918, 0.006158506526580977], [-0.009033377002476728, -0.05001457538310191, 0.10141453931805038, -0.0739010195751895, 0.16451986368376914, 0.02643358658101788, 0.07290651444884026, -0.19985998572739935, 0.1341320849462669, -0.026406408756584603, 0.09413768114156319, -0.2654078982774875, -0.0076158192570169835, -0.10738360369029634, 0.029122810899117803, 0.07834970076355982, -0.25475348729197383, -0.08700397313524678, -0.0487988333135621, 0.028735692425481168, 0.23692470775523164, 0.048658619151243164, 0.009869173218430078, 0.09578316614858005, -0.07886995658343093], [0.1840736891685418, -0.14906251558825545, -0.03408828385775539, 0.062276820211780756, -0.10407915540783114, 0.060491863574942524, 0.09338403788420804, -0.0832522766798074, 0.011445129467083048, -0.0165729066426598, 0.053260494433545275, -0.004344572472729845, 0.05806722955855841, 0.04021605379471456, -0.03755831695681715, -0.11165475289094454, -0.06307426735783796, -0.057462417061505955, -0.1060335296400171, -0.04552323072138478, 0.1407752598684702, -0.2243099379931808, -0.23947710122812174, 0.09762897726874953, -0.0045337290169564885], [0.04723490016268237, 0.0017780204887477993, 0.059623489127497, -0.01640118383194697, 0.04710913423532115, -0.06733992638322726, 0.02935764145828191, -0.05865808129907808, -0.16040813825353673, -0.02697500960906564, 0.1303447204545536, 0.09745580813869106, 0.03590632176050499, -0.04549232019443345, -0.05726316258864531, 0.025169562201192725, 0.006004224527738879, 0.09536947238125798, -0.03128004909510154, -0.04968654985686024, -0.042101951090495866, -0.06715347488759878, -0.0586603585660354, -0.16354336180525553, -0.12377722694101545], [0.0347368561243827, 0.024114873078245523, 0.06246866339009628, -0.054514868354282556, 0.010588765860976158, 0.13949068910927473, 0.11401674188614991, 0.04449521534700012, -0.04436523025753572, -0.04822218611795145, -0.06375384406623572, 0.042986990693319606, 0.11982386590471146, -0.041078847424098175, 0.006014174280559555, -0.061584478280335433, -0.017541319042728945, 0.062266698630939504, 0.14086368151054027, -0.2062611167567265, -0.06182192831723363, 0.07840366285897526, -0.2999983932754162, -0.05109367793676403, -0.08483247576392688], [0.014389328388907555, 0.02311490831707735, 0.22247967609220284, 0.024625113414145514, 0.10875148172883808, -0.12954109564482974, -0.06961949486271296, -0.13286620342254393, -0.025545989883172148, 0.00051251492220981, 0.2635861745858464, -0.03798114313234874, -0.1384237380140024, 0.08688045417426123, -0.056454119964577894, 0.042721142688517975, -0.21004027367470043, 0.030430832507033802, 0.03491300737397377, -0.07777795730911123, 0.21653813769080785, 0.06285962568897321, -0.03086551321504512, 0.18382312473484433, 0.126783157908506], [-0.05488060466077967, -0.2060230819436695, 0.06308369929935546, -0.3149858474803012, 0.03334593812325284, -0.1475413764839517, -0.027349803587970657, -0.1326503133722794, 0.04384045616435337, 0.1975099553496489, 0.1835821983291583, -0.1819190199207149, -0.18735811725826812, -0.24600095249332732, 0.1997927629132386, 0.09998800352296011, -0.12387454640293026, -0.03715666748158213, -0.0736284413996885, 0.016616683422347903, 0.3387393688631567, 0.08347618073508689, 0.12421330826137142, 0.1563756444006446, 0.06617439090501898], [0.024029812130891847, 0.1417040990839862, -0.06178700215566116, -0.055182002820291225, -0.10494465930002904, -0.24928116950427928, -0.05934729730543503, -0.21072286581876934, 0.014971502578202987, -0.032858225030323096, 0.02289405246271052, 0.2099104549440461, -0.008617202392244838, 0.1290613244560475, 0.169638364559487, 0.03376352979323096, -0.13296280847233757, -0.07771227487855036, 0.1950816589775443, 0.036074584984235644, 0.0068220485652293675, 0.08438721322407004, -0.11873548167391149, 0.03404510046318983, -0.013290981565036816], [-0.005582462120563288, -0.0124296464298053, -0.020114119370448443, 0.03414719284870129, 0.04772727024670082, -0.030403010918129976, -0.057955703438010375, 0.01934222822061908, -0.0743322243018664, -0.15250297670870422, 0.19389441049682982, -0.12030587946479646, 0.06822806010902964, -0.07761904712063306, -0.0895659458903067, -0.2639938931004972, -0.18540809477246417, 0.050315925647689975, -0.09764478250136639, 0.0034557241371697828, 0.02518289519816135, -0.11093268007817583, -0.2115101724928013, -0.1299432479635953, 0.05526041589337149], [0.0010007903196366534, -0.02990125003062183, 0.2211653224857737, 0.018015685394053373, 0.005485287271268932, 0.03343048985264398, -0.06215904425492672, 0.03285940671175049, -0.09076710584247644, -0.0172745421094077, 0.13087485943733548, 0.013926903209312154, -0.03975171774089397, -0.21676788025342414, 0.05380176678790678, -0.04511791649082357, -0.1391037285655424, -0.03507925115010685, 0.031818133208542494, -0.21754714986832294, 0.04860273051421227, -0.2634389586937104, 0.040298500854912926, 0.08540557007879701, 0.10539325796744621], [0.15007957911252853, 0.09496290560654494, 0.10502071926824096, 0.02845984824902779, -0.13488366311551822, 0.007708789355467983, -0.06445273320106147, 0.15414926865781464, -0.0090940895671246, 0.014377704479020046, -0.15935209506529643, -0.1155127189765188, 0.004369763442813161, 0.1122507041889711, 0.07286163867328083, 0.001697461258088881, -0.0635180851411828, 0.10815967484042739, -0.037557017119854263, -0.13056354391802666, -0.008208159695657484, 0.10772450364015496, 0.03998477824874161, 0.0703235413549934, -0.03188709815999158], [-0.03627579020749721, 0.17605549766705386, 0.15401779575886776, -0.17961296647351066, 0.1452815283954084, -0.19780749638843353, -0.17070862641861656, -0.1765041053034284, 0.055407522009195936, 0.2479217323973596, 0.04590283092990175, -0.11600612383789824, 0.0058335306518671115, -0.05027657439424113, -0.08658167050952882, -0.12388185583781408, -0.12168452522034359, 0.06509189041769226, 0.13646673409272925, 0.1131844131119117, 0.18289408027033552, -0.0431714092783089, -0.22184151936234203, -0.140470174180996, -0.10102936615768031], [-0.07162653425127669, -0.32073759545282393, 0.06941534629737992, 0.2553039994618258, -0.11644748490957196, 0.12451736448647968, -0.03865509096894622, 0.2608921096886838, 0.12242363725486229, -0.06504661094739968, 0.10445134141820121, -0.27508234254318553, -0.0543087294514966, 0.09221444659926828, -0.01702618249252095, -0.05767972795310325, 0.2525448038265847, 0.06592426018808223, 0.13084557137929997, -0.062032162123563966, 0.08170685203434759, 0.0048747354302991625, -0.1649170309726733, -0.04301341738371603, -0.11458695743572866], [0.05918469711976551, 0.04562254746159507, 0.023965665784530285, -0.022715635827743802, 0.04361007574418936, -0.1009051129948985, -0.2007728317143971, -0.2649318851528536, -0.03629417477936679, -0.0392070928882221, 0.01670036400520492, 0.09114445925921502, 0.051484009089257904, -0.03170992619678918, 0.000976976733750134, -0.04268121108310636, -0.043170660378591026, -0.030117717556286103, -0.052787803712633655, 0.15728526023480707, 0.006252955356247581, 0.3550372549566488, 0.018640684673499656, 0.015379155370512897, 0.036457585926138486], [0.23031911493863577, -0.09626036307333419, 0.08759197105218725, 0.05738411698617365, -0.018106708114632268, -0.06187099975265781, -0.07084690962018154, 0.08751370431199249, 0.194384817533078, -0.05119767575058378, 0.027863257938037712, -0.33353395267139274, -0.034761117161258216, -0.05682360151981766, -0.19939481500784298, -0.10193339826551702, 0.2598334676424558, -0.16817868410672554, 0.12741078040428394, 0.0774550171454364, 0.045922780163033, -0.15564703565667767, -0.014987102827697643, -0.025181223233525306, 0.013321292544124225], [0.03472334182589963, -0.017392705348726712, -0.014683199099348739, 0.17031062843812306, 0.0731508757290368, -0.1601915682430177, -0.03611169280479373, -0.04319491282548443, -0.10830341983948767, -0.029109680832489826, 0.012158193404380001, -0.17977695744388605, 0.08011562524993582, 0.14438080674919906, 0.0506833916231448, 0.015950879099100413, -0.14383217297216702, 0.06680330790645338, -0.05996465608252041, -0.029196790480426327, -0.07687950980677277, 0.18324235704576508, -0.06690819176817434, 0.08064452953305563, 0.021599490956901675], [-0.023483920501623425, 0.004282921866148317, 0.12363161178975365, -0.1901263595836655, 0.14087157058416291, -0.007977974738069143, -0.06060211159629576, -0.18195773500572868, 0.21823631550245975, 0.09647033944195582, -0.03894222221716145, -0.08523698055534316, -0.1354625050382494, -0.0008530733026293202, 0.14013191679358572, -0.0983359618268533, -0.21452757353659893, -0.11235906411289392, 0.13848390350706538, -0.03180501598510483, 0.028026475130259014, 0.042245389688527146, 0.0562025985012277, 0.15319737249411616, 0.11286382892727681], [0.09635977166669063, -0.0918598024899589, -0.12670259728480684, -0.2856726753084063, -0.14567669973714248, -0.099269588711423, -0.22995350741357315, -0.12491111183570731, -0.13406934866818462, 0.07103570721629127, 0.1865313868229869, -0.15377214365121872, -0.020344718541485056, 0.10614709616952907, 0.2043055406795296, -0.07708684697272127, -0.07760483499865241, 0.2183597496389863, 0.03709628516248967, 0.11342950673194457, 0.18399827494539173, 0.091687207524317, -0.12673187656685067, -0.03075395116776305, -0.04755585982923216], [-0.09778085410379377, 0.04084819168363224, 0.08263606134965107, 0.047386030130205356, 0.06567781918521019, -0.09926452920698971, 0.061095938753169925, -0.2819990267507014, 0.08803247215229465, -0.022106209236333923, 0.2684731981588282, -0.15721458320176915, 0.04965307991011158, 0.0678736567976889, 0.17838701006624258, -0.02639637191116453, -0.13991303408021666, 0.1609975042879127, 0.16065550321821287, 0.17115962453915828, 0.06621096642046431, 0.20105292965844856, -0.02634581572923822, -0.01443065842771489, 0.00983493951607402], [-0.06330413906355696, -0.10973533869132987, 0.08289323173256657, -0.11011931167001562, 0.1645695482589841, -0.10146777474997071, -0.22589960448757623, -0.23041211779212112, 0.12257236182523913, 0.10746614734233452, -0.029375041110226128, 0.03822896539548722, -0.10121533000627675, 0.12713498353411673, -0.05675646102540721, -0.005230172955767198, -0.06417130160833727, -0.07507617352008782, 0.10758903272017246, 0.11434127257785268, -0.008905419071115455, 0.1873121685575096, 0.008209271993027916, 0.1874501516178224, 0.20705783885867626], [-0.14499758004191612, 0.14917497388674428, -0.07155948497017435, 0.015573635268838114, 0.11686034415750382, 0.07338924078886475, -0.11723734474213852, 0.06155446556016156, -0.20868710413907976, 0.018872777773728783, -0.04931982395318896, -0.11393491229135708, 0.17334058468867142, -0.14910816516391068, 0.01927691249947166, -0.045791632755245115, 0.01023174530620864, 0.08886392931085056, -0.14083367003030337, 0.11003661531645519, -0.0866083968725781, -0.0552140288640295, 0.029330416278015053, 0.07102996532842736, -0.1182263624182231], [0.12229913787948028, -0.23393939962075527, -0.015278830656332775, 0.15137313579713088, -0.019666525977974053, 0.09541828900130529, 0.19721508341189142, 0.2137725939111112, 0.08700203998293461, -0.20408573981281325, 0.0032955640869758366, -0.32940302902748503, -0.041469437014609555, -0.017455910128821344, 0.11767312525728296, 0.19927588931339346, 0.16759757739591188, -0.007567458158033434, -0.03892027703997775, 0.11156305604536998, 0.08437860223109282, -0.09587881243751242, -0.012411004139335673, 0.10998500224022699, -0.08610350564165005], [0.13253595304254703, -0.07358970633432149, -0.05477924535706992, -0.029032094207768568, 0.0033197284068304934, 0.10498318365487591, 0.034826093325406295, -0.053574425108931706, -0.0009960911079494282, 0.03465878032463171, -0.1213400111668374, 0.01231421623541811, -0.1076277094918215, 0.11330939182122766, -0.020803152888887462, -0.12607172327331198, -0.12889796305668563, 0.038978113647466055, -0.12352474847921127, -0.09169922410184787, -0.040670920661304004, 0.14704606944644116, -0.0003079315558096186, 0.012734081080063102, -0.056766260255945236], [0.05042415426847601, -0.008541500156243147, 0.07477107716059497, 0.05857477051740734, -0.16313998089187376, 0.038892816384877654, -0.17189376225167666, -0.04363712571346647, -0.04092423903576112, -0.1626346529960202, -0.11406677483943149, 0.06744958796768519, -0.15306288500043233, -0.06469659456303135, 0.0611626310305914, -0.011937246301165194, -0.055701397638809415, 0.01131967880693691, -0.15237104667114254, -0.08329372066849765, 0.08219481593568477, -0.18865834702221418, 0.02333551904121138, -0.25925335521237036, 0.09212535511406159], [0.05690450986479953, -0.11893209893781831, 0.04908841434497295, -0.03205998151730228, -0.07537931441623275, -0.017928355993004904, -0.13982581353623352, -0.10309412672181818, 0.15287437137181117, 0.17829632737189408, 0.07064364246988071, -0.26851486808895414, -0.21233466067411721, 0.046166505798335325, 0.10900120783207165, 0.008861383434486524, 0.007173120440413192, 0.028246399364848847, -0.05195589871002484, 0.2395217077559883, 0.09487211883901339, -0.06710152859482335, 0.16958873322475554, -0.02648839739684577, -0.04460592039330058], [-0.10920333678720716, -0.05341355380979478, 0.043168464139430776, 0.010463203470226352, -0.03968404424730465, -0.09506856760955804, 0.19554531389204452, -0.05118463613642322, 0.1554227109320101, -0.17258885980691066, -0.009354510176099038, -0.044843413084677285, -0.08888025492414683, 0.23751489123349884, 0.17554584101147008, 0.0011905545508648192, 0.054651669051037265, 0.028357828075124165, 0.06339272367953286, 0.04424673522005843, 0.21622165205245616, 0.0034474718728496148, 0.08807730888724195, 0.15040339075756298, -0.0830427339930796], [0.10656232226243068, 0.19239974054855966, -0.02936434502541154, 0.18351436908614377, -0.09289938964832434, 0.15466444805267215, 0.020792620389890444, 0.40607759117493614, 0.11301526653059328, -0.2167862895802284, 0.024505550362192225, -0.2256196127229676, 0.057842613078436744, 0.14217955233976057, 0.17021013048514083, 0.014978204062559487, 0.21374881864561945, 0.09062428912985479, 0.10795252029609857, -0.03635677753299874, 0.07888259488204966, -0.08864076977296921, -0.05644837659564888, -0.09903522971950603, 0.09076506184876701], [0.28183550998031437, -0.01649777670344297, 0.03122307115970295, -0.19748031799933288, 0.1767879080397309, -0.3747284374900092, -0.11568430418313547, -0.34969487856034814, 0.22664683537661698, 0.055196669010325036, -0.005812339974820579, -0.0918599327256776, 0.04681209324843341, -0.008773776015370622, 0.09950119816730577, -0.0448718675702721, -0.4388594987707387, -0.1371243195225478, 0.055821453960166634, 0.06556892646102422, 0.12715939688607675, -0.13136855326291141, 0.03703291729623442, -0.14973964768663262, 0.011282526591852735], [0.08807076027056092, 0.18108188428929115, 0.01628072647318355, 0.01645765116694698, 0.05134856045421204, -0.1846663117909797, -0.2102135817865162, -0.2157018574727562, 0.1476912911090268, 0.18591147372065048, -0.10360891851101142, 0.09186784055266271, -0.2202899580466342, -0.09059985108985238, 0.28406896132995957, 0.12525861019858983, -0.2343435456281987, 0.2530055420471202, -0.1647824821732452, 0.11567198661135687, -0.02131539538814074, 0.1621272828380197, 0.0491219455562454, 0.15159238317842272, 0.08993483777123021], [-0.047066357091958895, 0.0030794406545777506, 0.07045963640775682, 0.26839926030830635, -0.0404126931578765, -0.013742742816888974, -0.07214063483536014, 0.049168971662910704, 0.17424518666764024, 0.07507856609807181, 0.04185170355589948, -0.24772712240014436, 0.10583782253675536, -0.12718801299419988, -0.13761605864465387, 0.007532388833897389, 0.15478992604671674, -0.22119959953684254, -0.03352357560745095, -0.22739851881668385, 0.12911064718679355, -0.09855605441902579, 0.027730217058172153, -0.07688251261568335, -0.04019263254520367], [0.02114183812158891, 0.023310074051837427, -0.0558691275012852, -0.12558721557378924, 0.15660014610443565, -0.08766585013067447, 0.09955322956686867, -0.09161903987113473, 0.13354880936451444, -0.021930279033264364, -0.05804958273271958, -0.18491581314188008, -0.035928483699016855, 0.13098404555643015, 0.08994205656612606, 0.07251757842250525, -0.004148432121122793, -0.1132476259052318, 0.18936532296430317, 0.05312214213890297, -0.08594077128973417, 0.14369973914830264, 0.12428161304304097, -0.04387546620153565, 0.03253797768872151], [-0.07093615595744808, -0.0894113386353525, 0.08332741634735177, 0.15690864923855946, 0.19687770191629847, -0.03367858249292274, 0.006057806365984124, 0.12756023210852405, 0.06637368690679996, 0.06629513788796156, -0.14288461853083387, -0.09479341679843627, -0.05388361320351928, 0.07771625220209565, 0.1546706720619773, -0.019974010643918287, -0.1303789132369644, -0.0182382214155396, 0.027161843619659565, -0.12007729860616018, -0.1298836097718672, 0.12718931152809262, -0.05338962663735454, -0.024999423108979592, 0.033873218898121914], [-0.15792937187794664, -0.02306382812024764, 0.11782632696687592, 0.06929602788112603, -0.014728487973230503, -0.22486990204382848, -0.28827496025811156, -0.24196673096184096, 0.03581416763466249, 0.07003669966435427, 0.036140539265826235, -0.039657713805310156, -0.03291472480570923, 0.05560678689691766, 0.11818753720439316, -0.121541306369535, -0.2717208588415557, -0.08221426824090905, 0.08824817607357578, 0.14671463276102678, 0.31645432608581664, -0.06690562869908422, 0.04768643159726878, 0.10647914689366612, 0.02569039752954765], [-0.05528904855160364, 0.0745443770430062, 0.1987840039705695, 0.14459109185271776, 0.07326053687084186, -0.005682317997695806, 0.22954245818964103, -0.12177470899676615, -0.13930608657578591, -0.0656468091675022, -0.13200988349145346, -0.14486759046021833, -0.2576120106090944, -0.029609396988402065, -0.1687871170517259, 0.10859652705698881, -0.04047954908610868, 0.0645813482017074, -0.13363618046757272, -0.14723421576395654, -0.06346190772115896, -0.031285818939731556, -0.05843989422889628, -0.06892003621190329, -0.03875120312763125], [0.17798650833429608, -0.047564872018306704, 0.1696555262069023, -0.04902459443039322, 0.14121248639707404, 0.03306710645881241, -0.15448085948844187, -0.033841200687369004, 0.04327495032389775, 0.08233369628676067, 0.22525973051338843, 0.2630262073881864, 0.09351555530498602, -0.027817783572415846, 0.036310818413924945, -0.05333803631943155, -0.12526704962331445, -0.038946492644941995, 0.02008555053900403, 0.04255779936130132, -0.04756283800422597, 0.09571256553401399, 0.03304814395244034, 0.04940363615319838, -0.022437746606350003], [-0.02216507772381639, 0.05904841696405451, -0.035002311172866986, -0.09549096438332239, 0.032284990762117015, 0.23132755057062387, 0.13257006558806037, -0.042319080575397516, -0.07557031744784094, -0.03074493373668585, -0.16883112533873762, -0.007257013520733946, 0.1568444800089701, 0.15194060232286674, -0.006120516300072202, -0.09510458193274046, 0.05150221887641061, 0.103443721127892, -0.06920019003916233, -0.2107869353901112, 0.03427564306348784, 0.019761982807197376, -0.15452602021845102, -0.01258072259146603, -0.16798867652202218], [-0.06598356834696904, -0.19970959763307908, 0.35966891956864905, -0.07414095628931315, 0.130561500915972, -0.19479569086814677, -0.06913993511183356, -0.14647554005999247, 0.11758393347433091, 0.10227552651127009, 0.17439523689865824, -0.10609908532630882, 0.15942437926421046, 0.12804205813013358, 0.18031924727517162, -0.028613812602128447, 0.08840953947442824, -0.013074468188628894, 0.037774254278898536, 0.2386435371021185, 0.16676150361398023, 0.2511529707441373, 0.06284605878324319, -0.14899747406809793, 0.023071749826102397], [-0.12204348622255362, -0.09036353141326145, 0.029940784747205323, -0.11300548179815943, -0.026069948909170304, -0.10620678111512923, -0.11214185852373931, 0.1520867931604319, -0.15541094693098115, -0.07035177365722929, 0.015589865451836401, 0.06127556030336927, -0.07361491363928839, -0.07352868072236311, 0.2912514175722339, 0.16096162476756826, -0.11828293168412762, -0.1258949941437553, 0.13177107594478785, 0.07818956981511589, 0.014133576657263664, -0.05745240892833465, -0.08591491342755635, -0.0404098518237872, -0.07454259630636888], [-0.1012999677747237, -0.2040180481091697, 0.11909645503764867, 0.03974744750759168, 0.04767993659943708, -0.02355249211554169, -0.056458961224041274, 0.045693411227222445, 0.060983888915447426, -0.021885536438059076, 0.026898428648271373, -0.03305570825721321, 0.0012287044276566277, -0.11718464294806169, -0.11332295932653677, -0.07712300055084487, 0.05404273392746064, 0.015684005416465724, 0.09149726263727427, 0.12928340281810535, 0.03180424399062144, 0.10639334038514672, 0.0037057971055593636, -0.10546359334669701, 0.16438738971351607], [0.12182173030881799, 0.04452230391619646, 0.09273740683164318, -0.11732664625443462, 0.10920245234845705, -0.16568165835449658, 0.03667760384888144, -0.13144459648862516, 0.11547623401968146, 0.24924644022141945, 0.08912921709128262, -0.3132884965976509, -0.08180327127898633, -0.015821210076849942, -0.20270935852514735, -0.061760920982318605, -0.27461750486205305, -0.07420438955236625, 0.03312679212094632, 0.17395450719938754, 0.12236566716343684, 0.15181047381854293, -0.06088337022899607, -0.009177247109822302, 0.15617223187244475], [0.004288411932092028, -0.08907898307115787, 0.14810198221080062, 0.07911869554520197, 0.21084143160300928, -0.15851594994204182, -0.1584255101767435, -0.27224878658231383, 0.17408375322771424, 0.20342702703389906, 0.09831701256254526, -0.15335828122743686, -0.12923562484180506, -0.02741328710359487, 0.08122582823794261, -0.09288286489703643, -0.11262234121395862, 0.07920262118864137, -0.07235802083207522, -0.06059268868576132, 0.21879532155223733, 0.09093330015914981, -0.14567123807160687, -0.08221339190542488, 0.0793951014441781]], "net.4.bias": [-0.002223985973573404, -0.025270330366835615, 0.0, -0.009999990665123689, -0.021368873530158317, -0.004939980477836465, 0.04029778690663921, 0.0, -0.009998824041803413, -0.020900838777975137, 0.041796553234115824, -0.007451080898035765, -0.009293884670779554, 0.0, 0.042586724704670766, 0.03967443286557128, 0.026527671733909186, 0.0, 0.0, 0.0012344949829323916, 0.03586782755526507, 0.05003918285346852, 0.044657602959358944, -0.026576619115247807, -0.022535664892357483, 0.0127245992944926, 0.04775093790781123, 0.061590063648949187, 0.020522650886087162, -0.011277678990700375, 0.003666306769147603, -0.009996949224580217, 0.0, 0.03516223976383985, 0.030848099183893914, -0.009703479920955807, -0.00669377378442416, 0.015738929249511965, -0.0237517979138072, 0.01026882908199688, -0.009001295156019355, 0.04579654421543762, 0.0, 0.04013268821417811, 0.0, 0.06526114619778865, -0.017837908062420298, -0.015113820435155079, 0.0277841441525327, 0.06128107684754157], "net.6.weight": [[0.16533496332695308, 0.018511879517129952, 0.13719700360726228, -0.19457820770823223, -0.15220536314325087, 0.017661782132085094, -0.07155864949685166, -0.04371897348965804, -0.036420329026302864, -0.02710557531661372, 0.010400300792516009, -0.0007290986334201262, -0.0012420673731515619, -0.06357397436251266, 0.16373449547115984, -0.10108343075926217, 0.18596218704141176, -0.14203278187666044, -0.12122445372649984, -0.06743446951882838, -0.17037733364086016, -0.28242043745701106, -0.10145678368831476, -0.08955463136323367, -0.056918731222901156, -0.10690900869399579, -0.08575295596126396, 0.09398127505477205, 0.11471658481376862, -0.020324490449581102, -0.0749999828924894, 0.01598923603728581, 0.12536372357111217, 0.07355109456647035, 0.0405715100211126, -0.043509336592801866, -0.07862258213743369, -0.08351365292181236, 0.0437469284384735, -0.23036783504948416, -0.17852311059122428, -0.12253672861977272, 0.026442784892038107, -0.04320019294792576, -0.025687660485966962, 0.18339931411708724, 0.06358297473082467, 0.060528325410036964, -0.1237271127856005, -0.14874281652229096], [-0.01943753188149365, 0.17716785037994007, 0.054891583331507836, -0.02150710548138045, 0.07222203725946372, 0.012480876938984812, 0.02742344544336303, -0.16336094730514755, 0.06390085073194728, -0.11102457100260117, -0.1852675162871542, -0.03266446173678755, 0.022903043533395107, 0.0411697347785745, -0.10759771948626405, -0.018784562310150507, -0.03690299829119569, 0.0336159594572668, -0.0378721027588423, -0.07849459213802909, 0.03836168836704017, -0.15103545221870304, -0.2081736502186757, -0.11882271981252633, 0.06447895417532941, 0.10644603365305186, 0.011529104077955148, -0.10638104193040615, -0.01217263282266366, -0.011574392974650365, -0.10765216385151988, -0.05404334553435578, -0.06403555967145844, -0.16448790803201147, 0.009812583215851945, 0.07393589643190061, -0.03895932875211196, -0.073734095181246, -0.0005981628297835888, -0.06371165207095496, 0.08720875259107508, 0.0285391961751421, -0.15142084596966862, -0.08190887443934991, 0.05574829378016787, 0.22675104769468302, -0.0402387396407004, -0.014611907029702054, 0.24688793681510068, -0.01278220377521158], [0.03707361455432422, -0.09222384569623367, -0.11271457657094944, 0.06498868648998103, -0.2527966323596307, -0.10798365705433693, 0.10985611489054635, 0.07025202714789147, 0.07814539989345101, 0.1731930665999629, 0.2855098102903533, -0.0044775633628992345, 0.01713192835407795, -0.08572133490113476, 0.10404010253908379, 0.16265330078840323, -0.1572999836470189, 0.16678679230252275, 0.022668985597759688, -0.047608036487753934, 0.048997560712033705, 0.08078056815313421, 0.049290189764054984, 0.12350048031971121, 0.03543648012401578, 0.2925248053747369, 0.14779394382775038, 0.2775750604481111, 0.13323215321906534, 0.10573079229353402, 0.10842483930009968, 0.11303977195391421, 0.20041566193642046, 0.2722485840787153, 0.2532816353347768, -0.05553002647767504, 0.08983699960082989, 0.08216321052439408, 0.09709629914103209, 0.10935555972978743, -0.0019147348890317824, 0.2434648062149308, 0.03290638150120891, 0.010568070865236407, 0.11128005304063138, 0.21353652522031796, -0.06210173596592675, 0.04214561912841701, 0.13737630703419135, 0.20979947397121942], [-0.013696984811983762, 0.130730131538385, 0.2510104183304302, -0.032850909300673005, 0.05213760819756179, 0.10933619404635658, -0.1053449130101883, 0.03731830806621963, 0.10881361153527017, -0.1404520759790008, -0.050442649007762415, -0.14376619649033082, 0.04809310100622982, 0.1985512575034784, 0.05441111613597102, -0.05739422096070205, -0.10710600108845698, -0.0594513401540637, 0.06984586282018856, 0.09191629583796959, 0.08645500166392034, -0.26953157783218995, -0.036207655295733304, -0.08448572835781087, 0.005472982910492454, -0.05764451926619818, -0.021679089017563324, 0.055258425187553306, 0.00937872870051412, -0.03128385573132778, -0.13211018021526702, -0.04330986794772958, 0.08140704642557542, 0.019809013337204983, -0.17593764661436276, 0.1420278441122018, -0.11554523631740031, 0.2912979783827177, -0.044845909575562184, -0.06492885102079769, -0.015958657823735088, -0.019881397691939452, 0.0862023640686379, -0.04055694707050501, -0.07204961521009132, -0.08555164066614444, -0.13847031875166563, 0.025745342188774886, -0.08161190624467807, -0.041854377791348235], [-0.148875006926671, -0.19205879460192882, 0.0040184516744466115, -0.1702283035089865, 0.024666641018567862, 0.14181733258796772, -0.1443190502510322, 0.06954082639884099, -0.1685934487278523, -0.07219163424701183, 0.11316441593884877, -0.04821716370405967, 0.11286633337777577, 0.0008632466778703108, -0.1100691781002805, 0.11430240351985221, -0.14907298598491345, -0.0807383403642461, 0.2922639362797558, -0.24908429922526418, -0.16816401340391332, 0.007038237665747243, 0.009587857352728314, 0.08362090778923201, -0.0021412973359400023, -0.08601721583577288, -0.14045388900336836, -0.08585235082690391, 0.010395397741384359, -0.14035632180442367, 0.0022076501363529413, 0.008283936115132404, 0.13869760904723855, -0.14857689420936862, -0.05861795763864436, 0.12302164110908533, -0.19684856333187314, -0.09688852768018424, 0.08449434717737318, -0.20241752510905173, 0.015354064905516399, -0.1202890336671438, 0.1641938984158213, -0.12106867343121529, 0.14856823834119579, -0.12527083899129046, 0.17356338574259705, 0.028019238450905683, -0.009865147250626132, 0.05313621175170871], [0.027050760129076198, -0.22924519261544654, -0.13177531380952168, -0.02144561500279607, -0.18905360563792203, 0.08019269320005862, -0.14628042769642421, 0.1328074296012924, -0.02407816729497261, -0.1052571760097339, 0.12940179057166165, 0.0007455335128548834, -0.10759428775127602, 0.06604271727370571, -0.04528321169029205, -0.10345446549143306, -0.01415168804439935, 0.060353664982900936, -0.02157465396028201, 0.10134610756185641, -0.16955896271894227, -0.023230672404212678, 0.1395395610199823, 0.13267297030237213, -0.1644938952504621, 0.056667861917835675, 0.006331901851731663, 0.0490386287735127, 0.08628964755034654, 0.0032460587443578146, -0.1383149653771206, -0.11253441225307613, 0.09394367198699788, 0.009462242067850159, 0.16985717959059465, 0.0902632144950542, 0.01951177552923737, -0.18821819892879166, 0.015335652585528199, 0.11468202124553475, 0.07296172414847293, 0.14248710987993823, 0.08037658555539917, -0.03195789073259086, 0.0577545018274993, -0.19716604541006688, 0.25022330484806504, -0.17363183477216712, -0.03742934849931092, 0.0669805760933825], [0.0706960821293818, -0.22924522617675658, 0.14282413880287134, 0.035590863556952575, -0.025475722192995362, -0.08837939590500886, -0.036276290247523935, -0.07334363529895449, 0.07678513281856207, 0.05488156538769066, 0.008039651948083253, 0.0521365910718117, 0.10954284259257455, -0.03172226633891, -0.006914974047622281, 0.11718995751819024, -0.002121025983371197, 0.031283179461997566, -0.020287689717811166, 0.01308303133696664, 0.019256240894914147, -0.016103080776404093, 0.07297947703180557, 0.0869703475850877, -0.12818259607060145, -0.07583309191981126, 0.09964407046584096, 0.04389445416739269, 0.30967671459325485, -0.09256200973326116, 0.06263076595721885, 0.11694586443651019, -0.056358508121148725, -0.017363975121354337, 0.013693033452143621, 0.03555559933244646, -0.008167824006507436, -0.02431313252362859, 0.09396441927554268, 0.054249596888664896, 0.015108363781005617, 0.013993207617033127, -0.06328540889203084, -0.2312255720085132, 0.04457374232821454, -0.06403266893718698, -0.056511104887995905, -0.13549276219736944, 0.021449869415475012, -0.07612059656191492], [0.1777286182893214, 0.209758785061717, -0.06310299848755721, -0.018907040740450125, 0.05052119245658543, 0.08002305765079454, 0.045319046911858424, -0.08876431736389877, 0.0332803386774384, 0.022184970437155862, -0.05292237606619802, 0.02832344711662766, 0.027176809401600905, -0.03691101286498828, -0.017996344078650098, 0.037466487184945975, -0.016629460589386844, 0.0980505097894821, -0.10956444748918202, 0.025421085339182373, -0.08568391083928834, -0.031335149883830286, 0.02030146991232691, 0.00019773921898066926, 0.1084152335302528, 0.012572059597163718, -0.12856949470926002, -0.12751850469272297, 0.012951039167939441, 0.14058896389355574, 0.04115571822990934, -0.081444468704648, -0.06504139846197132, -0.06865029430047481, 0.13161322252664745, -0.0636908818560291, -0.019109933686116014, -0.06817030341327332, 0.09174948327815484, 0.024828475807058034, -0.007404502805239747, -0.09538364975948575, 0.029317808482770293, -0.08947619814709694, 0.009460719328772063, 0.053126687855775644, -0.021278150339185974, -0.13995533303914884, 0.04715181008986872, -0.15427027509396918], [0.09842998415394488, -0.1562486005708374, -0.017026828998061946, 0.01511991680651436, 0.07945300986998344, -0.0227525989056027, 0.08764549572115705, 0.19110321208811032, 0.11143955549260763, -0.049192851345314065, -0.03998299527854539, -0.18348560713787612, 0.059095982232681435, 0.1032423471273384, 0.04269052869868619, -0.20665935688021464, -0.06062540575842314, 0.04003051794497844, 0.001393239874558211, 0.045390883630970436, -0.07003308805077661, 0.03465808873545982, -0.10069360260554516, -0.054381673702073696, 0.03839603422529165, -0.010823929442370596, -0.07131060586794073, -0.045222044911034515, 0.09479837083924263, 0.13426639515567512, 0.004677987840651993, 0.003128353297467903, -0.009265995987734664, -0.1256668635342011, 0.028346572828849583, 0.07631058740912486, 0.09913635754891369, -0.013720180986910227, -0.12381435251497547, 0.18765639527079137, -0.12938039062729625, 0.14000620363114866, 0.1886862759861594, 0.18404407582570398, -0.05369838354691201, -0.0455452743552789, -0.06522788990498456, -0.021510615612593313, -0.036065586456879274, -0.26165732018421717], [0.08888794342301962, -0.04143044658291031, -0.09124204968403204, -0.0031451315724334984, -0.04939137569650015, -0.0768475335449435, -0.0613870219434568, 0.15954521331470906, 0.1999380375161855, -0.22871020264741582, 0.011015654995181284, -0.0817167270208424, 0.02482979174226639, 0.0502084286651626, 0.11891625680130352, 0.09945465738705997, 0.13565108467379663, -0.011767706268161378, -0.061105957784503964, 0.08516465649774693, 0.1212873550047168, -0.3063435526824935, 0.25338741358960454, -0.31391780786751444, 0.015235562225277012, 0.16997239167719036, -0.01756893620876047, 0.07107512543221685, 0.2171382214649608, -0.06356829335313202, -0.2218069034704049, 0.04481737699612865, -0.05831847092255014, 0.05622840112281978, -0.09014685307804615, -0.3955568123613043, 0.22659892858652073, 0.2796032872460461, -0.2277264384751753, -0.15298268309303187, 0.052684442980170616, 0.21557139152513688, -0.06639253586144105, 0.18558109373942375, -0.07274231296369063, 0.0299804575630451, 0.07157471850831144, -0.07561721928565533, 0.2790768088251534, 0.09391695543873338], [-0.12897886501641317, -0.08963561517025867, -0.20518421378807525, 0.16969334572469652, 0.011914469316145879, -0.04395919657794438, -0.027733097876361374, 0.15485016000042584, -0.10098365812028896, 0.04291492070105599, 0.007137757991177822, -0.011432802727774017, 0.07189959035055452, -0.028910231469606324, -0.20438305414558594, 0.07485613386890164, -0.05491363407723622, 0.07287700547735841, 0.0020095382419542435, 0.025364263666225267, -0.033867233916950304, 0.09827739694701956, 0.1301851035004216, 0.17280955523203254, 0.006025154143000186, 0.08626118534053352, 0.0025693631064471084, -0.23419833148669783, 0.09739731084242141, -0.10925326363680526, -0.21321293234632901, 0.03076259351321782, 0.014652881073630154, -0.027139933187255064, 0.19047228838562796, 0.09436016227618559, 0.08423887134549204, -0.06120613865980633, -0.036874577303727, -0.14564479369660294, -0.16268312551517058, 0.14657694505136107, -0.01508888870924538, -0.06262899634461053, 0.11788649304814794, -0.1659652708898217, -0.10066304111087312, -0.07257947517279306, 0.08159242637301545, -0.21440436741791344], [-0.1692755498522498, -0.017996888213998485, 0.029938016281592195, 0.02396784260688118, 0.05279402346443614, -0.10651768691468473, 0.06057900671042162, -0.08603454974052413, -0.0700397065910888, 0.12871678570067893, -0.16652616190231204, -0.1336085673915866, 0.1971197615135982, -0.0022260862034743107, 0.01257077202372791, -0.01852018066149165, -0.13750696548285957, -0.01755272457392891, 0.09874441736846232, -0.04535221600091865, 0.011547047302150492, -0.06711155752296316, -0.0432520569131742, 0.02917942191632092, 0.05551675952223283, -0.23586014304635924, 0.038087548961822815, -0.014417504454683412, -0.16438120017799987, 0.1858308993194187, 0.1267473985751781, 0.02719512407468748, -0.09438646872937739, 0.07852894665310155, -0.020787633537491575, 0.1609383889181896, 0.23436226727678813, -0.1350376282846095, -0.054511397901354494, 0.04807449070673753, 0.0947118107908309, -0.06973246048737396, -0.13225618049230492, -0.14667148107007139, -0.022761735418544343, -0.029502471697669456, -0.05664070011221977, 0.09169619722335833, -0.09207390784678972, -0.036949357698722436], [-0.02348173373751532, -0.18442785834633738, 0.11831946805097214, 0.026616174710608714, -0.009807847128415065, 0.06144709108885389, 0.1701802511360332, -0.23527070981428166, -0.018882953860958732, 0.18897875783448106, -0.016284620093003074, -0.2010626707956641, -0.045163810533219245, -0.03193830443498021, 0.33069089066876234, 0.32407308458228085, -0.091699880941446, 0.1319229402992739, -0.11128712600356605, -0.18923964707133256, -0.00981508355382581, 0.20995035392707964, 0.011653131083485287, 0.0698595877802956, 0.1387874367307768, 0.01827524575725864, -0.05042630529875964, 0.012180357403071204, -0.02076233932205619, 0.12370246000108745, 0.09138040432484043, -0.17259533694762308, -0.049682505526948646, -0.005316019672944582, 0.03882302735439531, 0.08017684126406946, 0.05890048389493813, 0.1129646111308074, 0.026022587868439962, -0.0874283374114672, -0.06573676023396093, 0.12748779383249814, -0.04041307073254874, 0.11314889208780678, 0.08454063347824427, 0.15209264993426738, -0.01847487364208477, 0.09058916300796128, -0.05519718420549197, -0.004081452546939529], [-0.017054185662523987, 0.020831762844422355, -0.020564879233300398, 0.026638419393885976, -0.07485039433019787, 0.02419044701903043, 0.11532133035557174, 0.22340468505291433, -0.11474690085350686, 0.05363926983676093, -0.04679211812479813, 0.04685906894789907, -0.048444537621927415, -0.12219857914588106, 0.036752686099308894, -0.011972692263326772, -0.1660159851035405, -0.11635274010185928, 0.13735792902961938, -0.1945768349473419, 0.0789071760860752, -0.06600270359687384, -0.0820447122225647, -0.04693840338128099, 0.014656708015672738, 0.0911282983394001, -0.002876382491284992, 0.001052701030560977, -0.1230045705381275, -0.028175906650009866, -0.08315095154176372, 0.2212477533760697, -0.013828695707306682, 0.028328154758559543, -0.07812671133861304, -0.06755101160080698, -0.09082132007323002, -0.0813077711174826, 0.12678350450435974, 0.0886833089666407, 0.10641182927047087, 0.027665721478820487, 0.07331960467233141, -0.006772736939090413, 0.008325011952793877, 0.022990748153254033, 0.09517092494901352, -0.09601280314357497, -0.041399114927175365, -0.169432834051975], [-0.020968984681353147, -0.011086694445495779, 0.15775390145264587, -0.10180463480493383, 0.07666943192009655, 0.05629294791244685, 0.14582495111610783, -0.1658576485803882, -0.14468554281257492, -0.1623122946288172, -0.042921596406697404, -0.016578560334377372, 0.09505414877898342, -0.10050248963938142, -0.002549085441334418, 0.0207891672745986, -0.07178245612363116, -0.1120692296118637, 0.1258972112823469, 0.01596263685895615, 0.09932833407138555, -0.033504673439660154, -0.14954580389175226, 0.048257907934942806, 0.021740031502877254, 0.0011310944792990402, -0.10269547036140271, -0.06630750471608807, -0.16549247096995268, 0.0029914026384832626, 0.17760569777446597, 0.16442513378529156, -0.05075198930431061, -0.07202561856649198, 0.17237632244427814, 0.18037270671478056, -0.17874062692823184, -0.048164007545932766, -0.026271026672944342, 0.05365007003450775, 0.10447279521007327, 0.013065019841610175, -0.11963272416197156, -0.10018746901430647, 0.2291514156363646, -0.07033870105563908, -0.15595194013524424, -0.0839312113196783, -0.09019256276214338, -0.06717734792300373], [-0.04852674406303139, -0.14649003015692336, -0.10261509025309644, 0.024229566995697102, -0.0998336832264331, -0.020199105682376525, 0.0017559586894791267, 0.1410629420265492, 0.13969991692802924, -0.045257109800870755, 0.06715129304136089, -0.0839848919270189, 0.1340472672425754, -0.09860099682493595, -0.1299724706156269, 0.024352200946528457, -0.012485269607233175, 0.009042609692090921, 0.06633517119235531, 0.007201837422147789, -0.08267999321290817, 0.10766715256644802, -0.014660926573037213, -0.0207375798267055, 0.07211829349659904, -0.044725675499833806, 0.1326261536558446, -0.028847856852020105, 0.07078621679378033, 0.10869786745667864, -0.12305517290323996, 0.13278728533780845, -0.07725987471952772, 0.05229844022839898, -0.04993342691438423, -0.05849016846336183, 0.04756735194271109, -0.05786679631761859, 0.06457421127859818, -0.004508177436523207, 0.01988776320295984, 0.003119293655755538, -0.08345999920293588, 0.04035183690328937, 0.01303719484942826, 0.06846188108754579, 0.019384143478806695, -0.1324211523096291, -0.29688078675517815, 0.125659176405849], [-0.1649880406776869, -0.10034370441781784, 0.2530108462067564, -0.01844691608116869, 0.033403216236133494, -0.058939889513380694, 0.1846032231346756, 0.17405618572563025, -0.06359972121360336, -0.016067449820962604, -0.02909483316108433, 0.0066178587737726795, -0.015737782216264363, -0.042541028692288735, -0.01181994659283019, 0.18798517881112178, -0.09583031206212211, -0.04069752406633237, -0.06320254352809762, 0.06104796455551818, 0.17439911136540015, -0.07939651139414329, 0.07223582602625968, 0.01890795582288218, -0.21234393969188828, 0.037194235076562145, 0.14260173333161716, 0.14314736136016099, -0.041381980606746784, 0.04044404726974525, 0.07138508614088639, -0.0614669574285607, 0.01608838706387525, -0.10662636923824602, -0.0395849208805863, -0.11888095104769784, -0.02284511313985332, -0.06864251160714425, -0.03565541955781024, 0.2053946226967951, -0.020919316499044334, 0.18640696345968724, -0.25290777926618985, 0.15432976625537775, -0.09240994754611613, 0.22418780794193424, 0.10431317448614547, 0.02646519988973899, 0.2148188373931586, 0.15596609148992865], [0.08176670206340775, 0.09594816670710145, 0.010543312292883699, 0.12795970544687293, 0.12044254206100505, -0.010168019676577683, -0.07423581120639566, -0.1546446117513367, 0.04569668857625898, -0.21415894899924817, 0.0037635835400386198, -0.03587535449828578, -0.04047467100447049, 0.06652491736012155, -0.08854248430727277, -0.010517780809383608, -0.097594405241443, -0.07308240722881576, 0.028863563214293255, -0.08707224600607584, 0.007738211780543508, 0.014914834481049445, -0.0042686160443964555, 0.03414884269762858, -0.05076818971872972, -0.009891718097631685, 0.07230156592444252, 0.14947771839560728, -0.201014671234111, 0.03965073376614045, -0.1726130591041087, 0.019951579275927615, 0.119122671126215, -0.0012681310174549598, 0.03718322258673923, 0.07420794146818716, -0.04848359089989692, -0.003728398845666587, -0.05421118884421709, 0.10691810588264761, -0.18708746806237272, 0.0839526288333646, 0.05891283954445834, -0.23271595646942467, -0.05763056801600567, -0.03401783943025786, 0.008052594558211548, -0.01789934149569904, -0.034951101413792346, 0.017363185071550522], [-0.0948303273535749, 0.016827297146530095, -0.13890254451250067, 0.02108135433051095, -0.13874203847029104, 0.2841102915782888, 0.17575207796073722, 0.011268254872089753, 0.00027948368167170836, -0.15813745892129696, 0.06512014553048398, 0.05919456756062661, 0.12730116495840377, -0.010898218250581073, -0.12294551477772077, -0.14617830900384687, -0.16903349640973817, -0.03572549894579624, 0.054069549854427135, 0.16818894740516502, 0.11227774155252222, -0.0893881523058905, -0.058368446481183424, 0.09116825533575366, 0.0816153972288258, 0.184074465816796, -0.14874576398898365, -0.12633463380755078, 0.00488151303769779, -0.08502681171469983, -0.04313520803894204, 0.10453301173095796, 0.17178459769778665, -0.05620322780271843, -0.004714191215960547, -0.028097283291047867, -0.08400032997118154, 0.08699063927619992, -0.10564208022733898, -0.10703418658253254, 0.09175448975618467, -0.159014597389102, 0.032172233512322825, 0.10750710811221892, 0.10406342891379727, 0.062113624624535596, 0.26032691495633115, -0.027114093666445578, -0.07754589286887123, -0.033129052780538445], [-0.10226824970144217, -0.007780178588490322, 0.08315436765016458, 0.1392941674019464, 0.03380577072249198, 0.18110773863505894, -0.07625284624786483, -0.05992985064430555, -0.017220224170560305, 0.0868991063644488, 0.08782946975805152, -0.08520687208947746, -0.1422188142796393, 0.022159684663752274, -0.10306084581030588, 0.019484447874342004, 0.039147568609582406, 0.057572626562571165, 0.05628438819760431, -0.0307856757353234, -0.2823458309177642, -0.15621265748491425, -0.11983671364273264, 0.19849163394388541, -0.03299687989946476, -0.10622249530394, -0.13328366818696905, -0.10208903187038372, 0.012295529442218341, 0.059557888026300805, -0.11343796565768277, 0.14469042954403266, 0.06257392474980408, -0.08173170682520278, 0.03428984348909783, -0.007271817633798481, 0.06064609071436997, 0.06366068462883218, -0.007932895818178265, -0.07758269853299792, -0.21877705722997895, 0.03875045035678086, 0.09312247965192623, 0.00013976692001298717, -0.025497142451542235, -0.0848262848770131, 0.07473144226749341, 0.1307922011513625, -0.08502841195813275, 0.045848369148144996], [0.13856536921294055, 0.04293974259161668, 0.02826749843915064, 0.21635782136822237, -0.006721957624054412, 0.2708735182602008, -0.13491987069024639, 0.04008135278726177, -0.021880641118245323, -0.18176182907248883, -0.04520537081732171, 0.10841373631609763, -0.017093960590595158, 0.022865656794573704, 0.19278054536910247, -0.009420474312056183, 0.04110390690925865, 0.11494915966886028, -0.05697953752440296, -0.014268984990691878, 0.060337876351026346, 0.06812039282340127, -0.13266054075118358, 0.16655266621326043, 0.11501833111540004, 0.05659547007243178, -0.03888568128210812, 0.08178833991818772, -0.10965113660725843, 0.06433424019645481, 0.0005850517570118321, 0.1448315384260496, -0.0574503670366383, -0.05941654330605847, 0.010653285713932946, 0.08935660779749575, 0.0146249419265638, -0.06918698062431249, -0.023428179019758424, -0.17767638397876073, 0.023639767450607363, -0.14417420104397372, 0.03283658059637297, -0.09739361670785682, -0.018880995234755525, -0.07240770625788978, 0.05502732818364334, -0.13270896419615633, -0.17712451529863793, -0.018953249450888943], [-0.19868370331753785, -0.15910963610733644, -0.009640758793827524, 0.024763685041129142, 0.08144567835334149, -0.08688690330634101, 0.026336985975633647, 0.15279797662014236, 0.14418442807423879, 0.02734444264687175, 0.04120787933341051, -0.023794431274476748, 0.1236201917940787, 0.22453593924815457, 0.16091294520228885, 0.016500573143605153, -0.011403748959026322, 0.017018209668822174, 0.1326615814022028, 0.0382960223457009, 0.15496859741905816, -0.1550486486279134, 0.09276268986169428, 0.03610323446163526, -0.06405346579989538, 0.12020857737748088, 0.26488235875608523, 0.15305458770363725, 0.014159170408579346, 0.0006602268728584174, 0.042531145978082274, 0.13402544831103388, 0.13080322550210122, 0.19166305599514558, 0.13850760435127388, -0.004515809265756677, -0.09790472529452748, 0.0984495117882091, 0.0366409085698324, 0.08965494250464213, 0.032975044778585226, 0.06507845643304494, 0.010794811444697306, 0.08744546947730207, -0.09276970111616206, 0.2448955463839768, -0.056869422248075244, 0.11619902375655893, 0.1561952685296758, 0.15379804180653167], [-0.18199138672618645, -0.009612409942245116, 0.016733499852932376, -0.1505533858405731, 0.1430751406044555, -0.011175751575893775, 0.2749152427070156, 0.10682378525332331, -0.30061323059603073, 0.0004544607959173375, -0.09106933200303724, 0.11539939779316916, -0.12807305946020495, 0.002514238364516918, -0.0010427838456753577, -0.056334950559858044, 0.020011773695396598, -0.01563931911311783, -0.0440771765692446, 0.016165696493493763, -0.09313716729640738, 0.020744820982810545, 0.023621741736207253, -0.025824669140725287, 0.09283540471431705, -0.1765837731275205, -0.08053096693929357, -0.014717597132344993, -0.059304963492859186, 0.15510220825326876, 0.0248900157424909, 0.007301714183992224, 0.061417147246239936, -0.006122371490532728, -0.0038434614255878317, -0.06473521493478479, -0.25880541943187385, -0.04451948223246851, 0.11993259092618022, -0.07003840639278618, -0.0032570305467463675, 0.1186079221704462, -0.04304508958036843, -0.07391447639761504, -0.07694807508120592, -0.2002350685823449, 0.0071868797697834125, -0.0714367162659205, 0.09800608972794793, -0.010163833465383621], [-0.12899684517830073, -0.0007326107768400094, 0.04380259323015598, -0.010071853647041638, 0.009739911278072567, 0.05618130635095228, 0.024018887374073924, 0.048383592685986465, 0.0712273717567896, 0.16044954063778888, 0.03462784395480088, -0.07294941201550378, 0.09227939049100137, 0.037072635752810834, -0.17444913637036652, -0.07605274131522838, -0.03193664592615813, 0.09739377742806256, -0.07246134706756627, 0.025318053149523206, -0.00362075912608649, 0.047120940363266514, -0.2600657304413215, 0.11167679681064817, -0.00017559794157934357, -0.04637002358352549, 0.040035069869124015, 0.023821128828668624, -0.15960771573768032, -0.09135797492860885, 0.15089510463305136, -0.0666272373154162, -0.11985843115468026, -0.08375184495725788, 0.1725262736787817, -0.0014324653244441503, -0.04358013387397345, -0.07419388196874521, 0.029345151751556053, -0.02665584607578193, 0.03503510712319951, -0.017335127435899676, -0.047040076246900424, 0.17930969569610805, -0.018750316404372722, -0.1915933568579907, 0.08140629976029301, 0.12767391086034668, -0.07905604359261532, -0.16561991497377035], [0.061016665641506235, 0.06004344566727175, 0.11087666110506667, -0.12632574025936352, -0.0050957296003750945, -0.10298653997642579, -0.11855119091054267, -0.020218415174448754, 0.1721994666933516, 0.02865279690670531, -0.18367224076121544, -0.01683070448745857, -0.10415835822055666, -0.10290838214680648, 0.12077712973431821, -0.05743759954281037, 0.1737929274676302, -0.11036306773838062, -0.1841807256378489, -0.25254357142775674, 0.0033197023215885426, -0.06998983313652513, 0.10946100206310072, -0.1105638684678243, 0.17102480915813875, 0.06150875501644819, -0.11410073266011961, 0.00776579138228306, 0.09714049131943446, -0.027714270039557964, -0.07309465434018048, -0.06818856786037787, 0.036616627156907486, -0.09544873466456728, -0.032834812251019335, -0.016671703217890157, -0.013983910806819915, 0.05532823995448316, 0.045192682042636934, 0.020389217164620766, 0.006391464826562213, 0.0020911817432643764, -0.011318259338933871, -0.08657736436401485, 0.021572012458698622, -0.1106856394835204, -0.07192626725125717, -0.06244886967454928, 0.004359825639030884, -0.035619676025907786]], "net.6.bias": [-0.016213709689544605, 0.0, 0.09872085144153599, -0.023032557355959486, -0.02661306373535361, 0.0, 0.010714526370671485, -0.009999999571389737, 0.0, 0.021181611088709053, -0.014873837035895815, -0.019013711821150282, 0.03917521823097044, -0.009999996615965744, -0.012145786086860138, 0.0, 0.04183525543415376, 0.00011350410018083797, -0.009999997970744173, 0.00041578495700359333, 0.0, 0.025744893278745493, -0.00685321762642488, -0.019529496208472313, 0.0066370461812744735], "net.8.weight": [[0.04213986266840079, 0.0014527085561174928, 0.00507913581212113, 0.08445069417469367, -0.10447316843278219, 0.012037877059440497, -0.11993844889788809, 0.3100225580770157, -0.025707355705214815, -0.17165348751301598, -0.1023418868538088, -0.09133892616931086, -0.07861754755817948, 0.13397081182882495, -0.006021289947503875, -0.0275769987882302, -0.07357429102802192, 0.04168411062579132, 0.04495111748254671, 0.08638918069486184, -0.06819311618317546, 0.0907593802562496, 0.053628962674918325, -0.07850484351031685, -0.07525931938154021], [0.03205371452394097, 0.02239810124862912, 0.15674167331501354, -0.09457623380551086, 0.10876329217852955, 0.02720411346814702, 0.05395380573242057, 0.08818486530155852, -0.023161178431079607, 0.21939012808440203, 0.10422042302976359, -0.13294200918426216, -0.015578694092923367, 0.061649674411513894, -0.053633506944510516, -0.08641775181541328, 0.15019865632054702, -0.21339031981504764, 0.05196156332459725, 0.09823385528876405, 0.10095579415508522, 0.09492989974254025, 0.11315205995832454, -0.03149837708332356, -0.30301655967030555], [-0.02976798099029351, -0.14621179947849722, -0.08078104169991798, 0.08491714851750085, 0.04325717362105244, 0.06164304593188785, 0.03704137072908953, 0.04733288747435748, -0.2345097706640946, 0.04309363774292152, 0.01401209016677183, -0.2312985123961538, -0.13462921159687752, 0.19569521311263763, -0.13450055629101637, 0.000552068836025631, -0.08291237315780939, 0.0166930587544653, -0.03433056945029839, 0.021521579364855638, -0.0073982088240544105, -0.04587225675347391, -0.11485891089093288, -0.03934027191223658, 0.005574873851333947], [0.10708305457447437, -0.14522725182076907, -0.16461168102197757, 0.1256369913945092, -0.048029973168632445, -0.0843612929514618, -0.10811551658026215, -0.037739487526977845, 0.1105315254022221, -0.11947604414041886, 0.05481451150770379, -0.13686049323253963, -0.08860225225216081, 0.11121266053231392, -0.0016045123894083927, 0.12550385025587393, 0.10363007113157621, 0.027960157104401036, -0.17079502979807304, 0.059681177985856815, 0.03558206630481343, -0.10212541926712587, -0.0709676400400793, 0.011873497824589484, 0.019645076099710876], [0.0643759600762301, 0.10581982533550094, 0.08331179011884494, -0.0011892223745686948, 0.049993918720436986, -0.18769396424929452, 0.07968174000268534, -0.024602238117646134, 0.05572672665519527, 0.014480576689170008, -0.05346426363146443, -0.1297847178800047, -0.07526685789945436, -0.15454870432541376, 0.030992546934357455, -0.17757284505048354, -0.08040923773315262, 0.13558202735588937, 0.01714031130129331, 0.010115860665616155, -0.14770864207717813, -0.04750007425920544, 0.04188859011340957, -0.0042001000222671074, 0.06429779537467586], [0.03112653915319972, -0.09170578840272316, -0.08653065069490395, 0.05572453033351313, -0.014074182216938, 0.08376842246127023, -0.0426734748181684, 0.1840909962263649, 0.102367235144904, -0.011105997052158567, 0.2793065429823833, -0.13873692391863565, -0.05966464652708116, -0.1345663741267147, 0.15465427454240058, 0.13497274213395852, 0.059784539857403556, -0.15453612408802866, 0.005510959231834755, 0.10564103685364486, 0.08744729370504156, -0.11794530218044033, -0.028664563597588306, -0.10380097352787837, 0.23133509396410884], [0.089089046804042, 0.13140319068097214, -0.02799488261349328, -0.003405736308529913, 0.026886647389535546, 0.08717296082679207, 0.0027561307039245054, -0.02148844768320487, 0.1416061625141017, 0.3822649042719426, 0.19301924898515552, -0.04724713337167465, -0.08469913592803537, -0.10269284848414366, -0.03762061266999037, 0.008839130993337696, 0.047259567032771864, -0.06781206399785354, -0.05132081910569837, -0.03251442203857056, 0.16579263991143464, 0.07418473896359525, -0.07974351651201494, -0.057531259320985975, -0.04853397085122793], [0.030989909067447953, -0.052450656315221326, -0.06605494050101339, -0.11997516137482178, 0.062300139271522025, 0.004591528521661307, 0.043209305775353105, -0.11913530872439737, -0.08811181833009182, 0.062378682402224585, -0.05946056549728588, 0.10946670928516172, 0.07130997683909322, 0.008489813447907323, -0.006759907400198201, -0.07424427205083141, -0.06232004970628231, 0.1402197239802107, 0.20138113023784224, -0.04603914992892098, -0.09751489205128262, 0.000569913691485708, 0.018502733347060773, 0.16561105932529208, -0.046180877360774086], [-0.0695926225061336, 0.02331119554004473, 0.21353322896874086, -0.1553648468445355, 0.08384795637414973, -0.03488337659317645, 0.04090091910765366, 0.10680925607914592, 0.0009457653373408609, 0.014897776354298568, -0.03042488632930356, -0.10416418105303066, 0.15192048677329748, -0.014842619257023399, -0.13628195386449415, 0.1547895992504149, 0.12333040010407842, -0.13679263555389298, -0.02045673004102464, -0.05770324219184804, 0.08154892683462281, 0.20465173087021138, -0.1264079432896475, -0.05453619228168009, -0.05499757350882396]], "net.8.bias": [-0.0030440172746718074, 0.021689307633364997, -0.009999999673805236, 0.0, -0.005489186457199779, -0.009999999452787909, -0.010232290327068946, 0.006997848126109836, 0.0362128584667257], "net.10.weight": [[0.003798068159567736, -0.045522882833721766, 0.11800003750357257, 0.14685736398681154, 0.08947131073414478, -0.17457268920799476, -0.10566404337134551, 0.27392970261643923, -0.09835452560462954], [0.13926598565243764, 0.03228366008388659, -0.04918539066215527, 0.03348041796003676, -0.14619487368349365, 0.03601442351809457, 0.12907758363772454, 0.05863529475836478, -0.0699006798097433], [0.10628793521449224, 0.10147447008150472, -0.0160948583655934, 0.014846429918493519, 0.004105898998111018, -0.008613930214861294, -0.06669054326592751, -0.2674608886571049, 0.11933368752304788]], "net.10.bias": [-0.012460911110249337, 9.743027101231092e-05, 0.047122585664865754]}