{"net.0.weight": [[-0.20160809015120387, -0.14371913811594322, 0.06721988074281557], [-0.02111474101825641, -0.17435810845592034, -0.035100896433776514], [-0.17876421311966662, 0.4756166491222091, 0.16685322291299634], [0.05134966273258441, 0.19972826449796907, 0.12886497844081732], [-0.011050450194099658, -0.03787561429147362, 0.00288821138951198], [0.07047803509403042, -0.5032663359767805, -0.27556341669202533], [-0.026333489195805505, -0.03328007563136352, -0.15716287912107865], [0.00348115885924883, -0.18732282616604343, -0.45973544256062504], [-0.11384101112792994, -0.45763672809375144, 0.16811757208139705]], "net.0.bias": [-0.04999998226644156, -0.06081037232350361, -0.023835689412933625, 0.04237823644269072, -0.04887822673305577, -0.2176370874029211, -0.049999994459467206, -0.08577172854148318, -0.010631703624454538], "net.2.weight": [[0.0941113329634864, -0.02329849351427926, 0.2517119603478731, -0.12221483944494166, -0.060622874180912285, 0.04520953581093328, 0.026286354485975424, 0.04314161611341272, 0.014369440967596394], [0.06209264291125584, -0.025326947488353548, -0.22208318284555537, 0.01953882119644221, 0.13566907426172636, 0.037195479307384816, 0.00394364078849084, -0.047227557938232544, 0.17711801280717518], [-0.05248222428842548, -0.01834492683454489, -0.04178095265482284, 0.1039449677182269, 0.13866767658492907, -0.07453415684304829, -0.028924141708067362, 0.09267163245307736, -0.15895741864714452]], "net.2.bias": [-0.3201396746067357, 0.1083595332069472, 0.31017716783568317]}