{"net.0.weight": [[-0.20160809015120387, -0.14371913811594322, 0.06721988074281557], [-0.02111474101825641, -0.17435810845592034, -0.035100896433776514], [-0.17906416650203325, 0.5211152566540728, 0.15968721528168398], [0.04462782851468139, 0.21280451954347565, 0.1318871686844976], [-0.011050450194099658, -0.03787561429147362, 0.00288821138951198], [0.06948980984908054, -0.514601073717263, -0.2743114847111342], [-0.026333489195805505, -0.03328007563136352, -0.15716287912107865], [0.00348115885924883, -0.18732282616604343, -0.45973544256062504], [-0.1260706675298886, -0.43390889082618456, 0.17951348683297]], "net.0.bias": [-0.04999998226644156, -0.06081037232350361, -0.02523473057219325, 0.04054896241274314, -0.04887822673305577, -0.21977479632559654, -0.049999994459467206, -0.08577172854148318, -0.008724962299167145], "net.2.weight": [[0.0941113329634864, -0.02329849351427926, 0.25465177672663564, -0.12550179066913292, -0.060622874180912285, 0.04814419023491586, 0.026286354485975424, 0.04314161611341272, 0.04232489139549113], [0.06209264291125584, -0.025326947488353548, -0.2294893270431932, 0.016063525852905082, 0.13566907426172636, 0.030102259991422856, 0.00394364078849084, -0.047227557938232544, 0.15398761574762226], [-0.05248222428842548, -0.01834492683454489, -0.04685888854392787, 0.10496758466854743, 0.13866767658492907, -0.08000653611394233, -0.028924141708067362, 0.09267163245307736, -0.16980441051204087]], "net.2.bias": [-0.34258563308153384, 0.130935648643095, 0.3290908616739008]}