{"net.0.weight": [[-0.20160809015120387, -0.14371913811594322, 0.06721988074281557], [-0.02111474101825641, -0.17435810845592034, -0.035100896433776514], [-0.18289797493350238, 0.6359082089084115, 0.14006907079185146], [0.03473485371807702, 0.25704788239666126, 0.13684129735922695], [-0.011050450194099658, -0.03787561429147362, 0.00288821138951198], [0.06553703350133491, -0.5695176479552655, -0.2776925965277668], [-0.026333489195805505, -0.03328007563136352, -0.15716287912107865], [0.00348115885924883, -0.18732282616604343, -0.45973544256062504], [-0.17058886780797736, -0.3756323069173895, 0.2071323139104228]], "net.0.bias": [-0.04999998226644156, -0.06081037232350361, -0.02915113789671383, 0.03934014381470707, -0.04887822673305577, -0.22731590891583947, -0.049999994459467206, -0.08577172854148318, -0.008680929237528421], "net.2.weight": [[0.0941113329634864, -0.02329849351427926, 0.27761350011858993, -0.12295523112467704, -0.060622874180912285, 0.0428144302685051, 0.026286354485975424, 0.04314161611341272, 0.1054994059692684], [0.06209264291125584, -0.025326947488353548, -0.23451660949120862, 0.016323783998406942, 0.13566907426172636, 0.03525854311378914, 0.00394364078849084, -0.047227557938232544, 0.10757153545143755], [-0.05248222428842548, -0.01834492683454489, -0.03989931792160229, 0.1027735067128528, 0.13866767658492907, -0.07844438486558956, -0.028924141708067362, 0.09267163245307736, -0.19444556386011777]], "net.2.bias": [-0.40387183028358203, 0.20676007820941247, 0.3758838821213073]}