{"net.0.weight": [[-0.20160809015120387, -0.14371913811594322, 0.06721988074281557], [-0.02111474101825641, -0.17435810845592034, -0.035100896433776514], [-0.17949317212392638, 0.6728448204583353, 0.13565294310189457], [0.025343683033160695, 0.26876739125680016, 0.1316011274960949], [-0.011050450194099658, -0.03787561429147362, 0.00288821138951198], [0.06613649248554634, -0.5841915790364715, -0.2687671353624048], [-0.026333489195805505, -0.03328007563136352, -0.15716287912107865], [0.00348115885924883, -0.18732282616604343, -0.45973544256062504], [-0.17513960870795442, -0.33946957552105816, 0.22033113966540605]], "net.0.bias": [-0.04999998226644156, -0.06081037232350361, -0.026948279408114055, 0.03311752944118504, -0.04887822673305577, -0.22763077547711144, -0.049999994459467206, -0.08577172854148318, -0.0014039113157970017], "net.2.weight": [[0.0941113329634864, -0.02329849351427926, 0.27850998660862314, -0.12484340115258008, -0.060622874180912285, 0.05351595341023213, 0.026286354485975424, 0.04314161611341272, 0.13102598505682106], [0.06209264291125584, -0.025326947488353548, -0.2528053252083082, 0.009439964650884654, 0.13566907426172636, 0.03129541076534289, 0.00394364078849084, -0.047227557938232544, 0.08800567558229373], [-0.05248222428842548, -0.01834492683454489, -0.05077175239080679, 0.09969967832591842, 0.13866767658492907, -0.08237321315292175, -0.028924141708067362, 0.09267163245307736, -0.19928084707577134]], "net.2.bias": [-0.4259077615737703, 0.22809732285062692, 0.3904637627148087]}