{"net.0.weight": [[-0.20160809015120387, -0.14371913811594322, 0.06721988074281557], [-0.02111474101825641, -0.17435810845592034, -0.035100896433776514], [-0.14097349814880772, 0.13242956206737222, 0.17245799883313537], [0.09565987136799961, 0.09049905404853674, 0.05635100633398153], [-0.011050450194099658, -0.03787561429147362, 0.00288821138951198], [0.12630147199756447, -0.3507581106834124, -0.2253916191502113], [-0.026333489195805505, -0.03328007563136352, -0.15716287912107865], [0.04308648361498011, -0.12285143925205705, -0.34662384304238997], [-0.011606486499568275, -0.11652615260993655, 0.02017671832653471]], "net.0.bias": [-0.04999998226644156, -0.06081037232350361, -0.012592812628020382, 0.03692363593401303, -0.04887822673305577, -0.14924039905786227, -0.049999994459467206, -0.03879899143182648, -0.028862152301282838], "net.2.weight": [[0.0941113329634864, -0.02329849351427926, 0.1972952960007908, -0.10685871899661284, -0.060622874180912285, 0.022044780962118597, 0.026286354485975424, 0.07304811516174373, -0.03564796765189399], [0.06209264291125584, -0.025326947488353548, -0.08639544765440565, -0.001636306299418387, 0.13566907426172636, 0.0534170901707693, 0.00394364078849084, -0.07302516614516938, 0.029724616687372512], [-0.05248222428842548, -0.01834492683454489, -0.12043589024068123, 0.10973429722833959, 0.13866767658492907, -0.07300264370244706, -0.028924141708067362, 0.0344179051893935, 0.02206094039447834]], "net.2.bias": [-0.16770365019154057, -0.042689550820690564, 0.16542222277851998]}