{"net.0.weight": [[-0.20160809015120387, -0.14371913811594322, 0.06721988074281557], [-0.02111474101825641, -0.17435810845592034, -0.035100896433776514], [-0.1485467224279654, 0.1886953899747548, 0.17331040740370696], [0.09085974942373615, 0.10135800359550921, 0.07253974737762749], [-0.011050450194099658, -0.03787561429147362, 0.00288821138951198], [0.12519396454494333, -0.36130605292706686, -0.22790796501873106], [-0.026333489195805505, -0.03328007563136352, -0.15716287912107865], [0.046180791738104764, -0.13381450773995274, -0.3836764498131621], [-0.017454426670731462, -0.23664848151005002, 0.054111334476499545]], "net.0.bias": [-0.04999998226644156, -0.06081037232350361, -0.014475384872911865, 0.04021584268567225, -0.04887822673305577, -0.15232703419507485, -0.049999994459467206, -0.039638860729872195, -0.021665475679053487], "net.2.weight": [[0.0941113329634864, -0.02329849351427926, 0.2038445517271858, -0.11090913717405237, -0.060622874180912285, 0.028800499854059955, 0.026286354485975424, 0.09169211746441946, -0.038511630321587685], [0.06209264291125584, -0.025326947488353548, -0.11212601614841411, 0.0012599528909439947, 0.13566907426172636, 0.047835461582001644, 0.00394364078849084, -0.0891533832840316, 0.10369543280366295], [-0.05248222428842548, -0.01834492683454489, -0.11008914377231649, 0.11029974027333003, 0.13866767658492907, -0.08838238597683908, -0.028924141708067362, 0.024546620407809885, -0.017879308263113142]], "net.2.bias": [-0.18633928575846523, -0.030591318477418993, 0.18388834282721234]}