{"net.0.weight": [[-0.20160809015120387, -0.14371913811594322, 0.06721988074281557], [-0.02111474101825641, -0.17435810845592034, -0.035100896433776514], [-0.13175940968863764, -0.04507671098428907, 0.142335094219846], [0.10344550938351978, 0.05922205616923111, 0.020548440867639205], [-0.011050450194099658, -0.03787561429147362, 0.00288821138951198], [0.15991632903358632, -0.3085608262018374, -0.20621726946390798], [-0.026333489195805505, -0.03328007563136352, -0.15716287912107865], [0.014647447809236288, -0.10096172268793699, -0.27532250687550897], [-0.017929442433524675, -0.08852968896617856, 0.019277812169170704]], "net.0.bias": [-0.04999998226644156, -0.06081037232350361, -0.02807559261226021, 0.024742756939481518, -0.04887822673305577, -0.11247594570462546, -0.049999994459467206, -0.05592424834169595, -0.031379435972898724], "net.2.weight": [[0.0941113329634864, -0.02329849351427926, 0.22145548058914777, -0.09789044381359716, -0.060622874180912285, 0.015777595639276713, 0.026286354485975424, 0.02465434022942648, -0.022294702669602005], [0.06209264291125584, -0.025326947488353548, -0.065589742725072, -0.015876025754731595, 0.13566907426172636, 0.051480505638733624, 0.00394364078849084, -0.013298029848269983, 0.0068019485921844945], [-0.05248222428842548, -0.01834492683454489, -0.13731259206351867, 0.10954566421471192, 0.13866767658492907, -0.059558611625563446, -0.028924141708067362, 0.00868973133032476, 0.035944714810854754]], "net.2.bias": [-0.11311696797116531, -0.06946059674529756, 0.10616260322311281]}