{"net.0.weight": [[-0.20160809015120387, -0.14371913811594322, 0.06721988074281557], [-0.02111474101825641, -0.17435810845592034, -0.035100896433776514], [-0.1615072569489983, 0.2598220785754957, 0.17829460417781687], [0.0840129379764798, 0.1280315752939579, 0.09176865787457522], [-0.011050450194099658, -0.03787561429147362, 0.00288821138951198], [0.09938321880722446, -0.40501225400034785, -0.24360982588537133], [-0.026333489195805505, -0.03328007563136352, -0.15716287912107865], [0.030317767784174405, -0.15379691037389084, -0.4117398686013456], [-0.046306662073587246, -0.47472941070847463, 0.11247446340896744]], "net.0.bias": [-0.04999998226644156, -0.06081037232350361, -0.016304194838126316, 0.04450001177683784, -0.04887822673305577, -0.17986993905339438, -0.049999994459467206, -0.05708737480504228, -0.014135083718194635], "net.2.weight": [[0.0941113329634864, -0.02329849351427926, 0.2189335892137997, -0.11707883367711823, -0.060622874180912285, 0.03321014818351148, 0.026286354485975424, 0.07999292319707293, -0.05793493023589225], [0.06209264291125584, -0.025326947488353548, -0.1920547278898413, 0.01563766437040815, 0.13566907426172636, 0.04431287902984908, 0.00394364078849084, -0.06185145540264468, 0.24609478265828225], [-0.05248222428842548, -0.01834492683454489, -0.0715275825953473, 0.11116486407071394, 0.13866767658492907, -0.08568763412670678, -0.028924141708067362, 0.05576820203029574, -0.08766293215569915]], "net.2.bias": [-0.22163181848527488, 0.0012892663203053012, 0.21742368352747846]}