{"net.0.weight": [[-0.20160809015120387, -0.14371913811594322, 0.06721988074281557], [-0.02111474101825641, -0.17435810845592034, -0.035100896433776514], [-0.1724483087875792, 0.36873410101091564, 0.17741266350931845], [0.06337202929288585, 0.1611499072028718, 0.11409023977090194], [-0.011050450194099658, -0.03787561429147362, 0.00288821138951198], [0.08470875787634012, -0.453681115129029, -0.2606662327831196], [-0.026333489195805505, -0.03328007563136352, -0.15716287912107865], [0.02445335522040792, -0.16907158442412687, -0.43638861885360725], [-0.07928516687139342, -0.502245852564073, 0.14214317622423947]], "net.0.bias": [-0.04999998226644156, -0.06081037232350361, -0.019968484674805484, 0.041625640816285794, -0.04887822673305577, -0.19945891129500398, -0.049999994459467206, -0.06457623381166522, -0.011901627038715772], "net.2.weight": [[0.0941113329634864, -0.02329849351427926, 0.23644188707997743, -0.1182708356837366, -0.060622874180912285, 0.04994519100607385, 0.026286354485975424, 0.06266796142954686, -0.03595620189492781], [0.06209264291125584, -0.025326947488353548, -0.22214797609490775, 0.014677676492056984, 0.13566907426172636, 0.030681757802725206, 0.00394364078849084, -0.06247715404285684, 0.22416651846234759], [-0.05248222428842548, -0.01834492683454489, -0.04976602684032061, 0.10439886051674309, 0.13866767658492907, -0.08628797946531543, -0.028924141708067362, 0.07434959462506507, -0.13871721154287764]], "net.2.bias": [-0.2684135655828846, 0.04676810317949422, 0.2633504626686133]}