{"net.0.weight": [[-0.04943502547424796, 0.06155675204835546, -0.06776167569148302], [-0.012924465643145259, 0.2646851520176993, 0.2239063598575881], [0.05361852698507703, 0.18346102971454564, 0.03703409029373424], [0.04448721099736651, -0.07026649518976623, -0.24429309131338617], [0.08483631392306495, 0.2997252924567281, -0.027602392542270395], [-0.098966087119449, 0.023985768119808612, 0.10556001590589073], [0.09899687390172908, -0.055366796324567355, -0.12806496225089561], [-0.012403776021122404, 0.16116989631067097, 0.011693009010779753], [-0.0476636670747011, 0.1305646605645283, 0.07034048992298203]], "net.0.bias": [0.0, 0.05672702092810204, -0.0012538177510995775, -0.03754351225768081, 0.021865090414365077, 0.007577955030433603, 0.0242387264660963, -0.023915889648260236, -0.013771072892649994], "net.2.weight": [[-0.04678457990875216, 0.0796984298748375, 0.0365456433764211, 0.013183668602138328, 0.1387419310779806, -0.0203409270534222, -0.17243829170741323, 0.16203551629995736, -0.06045754714869195], [0.18929919203259743, 0.024262957680606614, -0.11922848535273468, -0.10106531445605979, 0.11153073467941357, 0.06716257849406146, -0.21544241255012506, 0.15562577949631806, 0.15242650178988515], [0.08339682352974959, 0.1664977051181551, 0.0505603893079268, -0.11153963040135068, -0.042864697484937715, -0.5006336378537461, 0.03432807760153285, 0.11358659057482623, 0.13395073163188823], [0.12909529993343202, 0.024612518986585834, 0.14155876116555094, -0.17035629510711345, 0.08666117657915533, -0.20300706503243257, 0.19909055340536075, 0.11929043664665785, 0.11862406296591903], [0.09608695748120816, -0.16705659249739288, 0.06549680449316322, -0.19740695776739867, 0.18711526839502693, -0.06055520204737993, -0.23620147761419366, -0.021193284857997395, -0.01276903136917331], [0.1688283079797707, -0.000593416206388035, -0.1199564997891385, -0.07169317387413163, 0.01072982346127982, -0.052182656170441793, 0.058407135537783886, 0.07087190293233557, 0.05887052362520443], [0.025107783310886186, -0.10935104792703193, -0.08491251830399942, -0.08604882921575316, -0.02538454811226632, -0.15617061810406743, 0.0042155934326048895, 0.06511780745562265, 0.006160422372923976], [0.027829294865065635, 0.3081065086669951, 0.10890582865455806, -0.25128562997012116, 0.21346265546682447, -0.43220968858289777, -0.18313167634626654, 0.012266614653331953, 0.19586733898487368], [0.170553610272299, -0.17100970198975818, 0.08139340284899406, -0.2159710489322989, 0.014793996279117476, 0.030106342617735565, -0.014645473360915389, 0.17511938401129853, 0.02252361200226904], [-0.07667461186037967, 0.2626905050703467, -0.11363536103219886, -0.1539619151775578, -0.12278429570694645, 0.4376737950061113, -0.21241064309470833, 0.16860053199879146, 0.08150743209371873], [0.016511435447365535, -0.11340648745228113, 0.16165412570488186, 0.056883306304576116, -0.11104870045109669, -0.13651538783630404, -0.10462220385965186, 0.015156313822350734, -0.11755595436127618], [-0.24804408499561134, 0.06992480651950538, -0.053200292562072996, -0.04190563811307659, -0.1905029941834208, 0.18461639363410737, 0.13284463357363527, 0.01927317616071531, 0.17701910352296835], [-0.06695989341725211, 0.013956169551619683, -0.22483026263274808, -0.07202087607613326, -0.043844218395001536, 0.01886966730330244, 0.1218269947952819, -0.02639459050377306, 0.05638990428737667], [-0.21991697442691677, -0.12354706229383955, -0.008616982401176154, 0.11681081923125697, -0.06050772700035453, -0.18192549022081514, -0.03643890553634217, -0.13842809542227416, 0.23508307679928403], [-0.09749825191430139, 0.056780329842051114, 0.017620512489586126, 0.21297764349244838, -0.16864300964983414, -0.08326871706410686, 0.09260468466725028, -0.04622188366262173, 0.009100707277334943], [-0.05083455779182359, -0.052355727954608806, 0.1552031285591696, -0.07469994475870707, 0.004719649898841201, -0.23719871167611664, -0.029645796816892445, 0.06885123083159436, -0.04336677233248015], [0.021475053245144437, -0.07766803079230723, 0.1697438843948886, -0.10902982911862967, 0.027964412639618248, 0.02542855782698989, 0.05649132194920302, 0.05377982896530471, -0.11171416200559695], [-0.08594748484551297, -0.06786149171016656, -0.04981478525937503, -0.12468543338547489, -0.15267421687632643, 0.03524504291072228, 0.04267544505232793, 0.01851998363116077, -0.21867424082897366], [0.13372310100521298, 0.09772846086208552, -0.09867256590628622, 0.022435368309054873, -0.24405049232191436, 0.26476271049685873, -0.11968596153803225, 0.08084544799320759, 0.18323554901420336], [0.07442489052468687, 0.017829023708651078, -0.10419384054578874, -0.13318598170408877, -0.11964114511600639, -0.04123456096551066, -0.013941158312004149, -0.043925902174487004, 0.10092594322172782], [0.013447652508637043, 0.05546604389813902, 0.10132936439593672, -0.1560884446641614, 0.020990038388863354, -0.05268905827439736, 0.05355741407888513, -0.05133060993581376, -0.11393863931182932], [-0.11724681306359795, 0.23040072338147413, -0.19083175192275767, 0.1344873753808986, -0.15959520204940486, 0.20114092981108928, 0.05060825196671597, 0.3658529561350061, -0.10570408112250634], [-0.09411096816946093, 0.12018418758639503, -0.08385520006337807, -0.06352130583572674, 0.08628632041451696, -0.005980498990546576, 0.026012628180178427, 0.16789939042763835, -0.11456859083595909], [-0.12205729571402515, 0.013941261217819094, 0.010869282964564287, -0.06396774883474084, 0.060356484230891044, -0.41498006675034, -0.30808923355953627, 0.1944679350274324, 0.207019256564938], [-0.0016725243685979643, -0.23180053642637033, 0.0575534644520913, 0.02054502570568751, -0.10141891808681205, 0.036508091970962546, 0.13679004721947058, -0.16459802956336833, -0.04510441566002531]], "net.2.bias": [0.016337649858443538, -0.02261385375041049, 0.013765421991052924, 0.0673394159614507, -0.03715865125845665, 0.0, 0.0, 0.09897597375230233, -0.018510017387997256, 0.04858619909289858, -0.00999999953407909, -0.0065524925944507005, 0.0, 0.0, -0.04707958393713069, 0.003475635564472181, -0.020686827457540954, 0.0, -0.03522182184942952, -0.014591578045417348, 0.015325647315252008, -0.036171211012759295, -0.003482537876554182, -0.016404292486336784, -0.01739132575912088], "net.4.weight": [[0.12045690903266444, 0.17070966074963523, 0.1992189548285321, 0.022949004403867542, -0.0159770184721301, -0.15827029416877994, 0.11907589117544003, 0.1742917195261219, 0.0742758127930932, -0.04638051120594007, -0.16628321503117882, -0.14292535211438895, -0.06817145505150472, 0.10290162446909885, -0.017188143385792193, 0.03102035750779287, 0.04160311990192541, -0.018374697598600134, -0.16889325519186482, -0.007369936220403035, -0.05517565888386368, -0.036474409048825186, -0.022275096962872682, 0.20493816623660216, -0.12119821269195673], [0.08426929213690759, -0.0645766648313679, -0.03728312167201058, 0.07785233641470446, 0.10022757229609738, 0.014579916169259598, -0.059750503915605616, -0.13908497317966004, 0.12438644559654174, 0.05455160567231339, -0.040311880841983685, 0.22875529995232155, -0.0650480822317915, -0.0980368010477042, 0.1027460624725819, 0.07976703518876176, -0.060428876641848026, -0.16363320434585213, 0.010369849460219566, 0.10120415743220687, 0.04364643744251462, 0.12688385115180253, -0.08430133935974128, 0.0031476293858822904, 0.16012707503441584], [-0.07802649886147639, 0.08151914198033672, -0.045260582739315006, 0.10944268642217675, 0.14395623781239544, -0.050832748560681054, -0.04773047980502145, -0.1233136327597476, 0.16044417909675102, -0.12828229414750425, -0.11644422435745276, -0.07352002707171926, -0.011171778528896706, -0.10631824203435887, 0.04843537448676216, 0.02283030709068855, 0.09903270708190456, -0.2143903382783032, -0.008590109597695208, -0.042230959695080485, 0.019051585692347984, -0.06094166351222133, 0.01682404511794172, 0.11497945165917406, 0.019517887878327953], [0.13578675273070187, -0.11911842927587218, -0.018734746791692805, 0.09737919103477816, 0.1398468624776778, -0.0610168735828045, -0.03461554042527966, 0.15087124683339917, 0.07232061406184243, -0.42556555887214975, -0.09914457483915601, -0.27136540716814317, 0.18828325747239716, 0.03662281232601802, -0.16737555022368258, 0.06279580577597094, 0.07717156727500994, -0.02705098150766217, -0.1627461579976057, -0.11385609647670124, 0.13454776811300762, -0.11535547902529812, 0.05852702336104435, -0.07567359059390026, -0.24454943973818674], [-0.12412012142963606, -0.07090213160355466, 0.01642215709338128, 0.1302584014027396, -0.09998792811252043, -0.04588383940606526, 0.24253251819346755, 0.03190696760664314, 0.03244356496451358, -0.15693509774449424, -0.07886197354027862, 0.005877228059239299, 0.13359073315586267, -0.014326708667470487, 0.043931625954122845, 0.09166818544060963, 0.06229156777892722, 0.10198634316272269, -0.14899700927744633, 0.08934467119242456, -0.1040633235448767, -0.22909196953440844, 0.10258772975995778, -0.13878673574550532, -0.0284229904276433], [0.2522391621114552, 0.08012182584675853, 0.1842158826018933, 0.16749997847851278, 0.07425205339347646, 0.11406469488593085, 0.07202830759751705, 0.33457973721837037, 0.07733460183995888, -0.0881370826366327, 0.020395280644502668, -0.39899917790873185, 0.08604913041116163, 0.1604189323766261, -0.10344296532766088, -0.03197990268838636, 0.0587162410695899, 0.06437650728873176, -0.26514495756047074, -0.10379457951909833, 0.0640030195252196, -0.0556353665767051, 0.03614676471067259, 0.17566855414022242, -0.1836854475654255], [-0.006518380457816663, -0.1085547357556917, -0.09910026619962013, -0.09248344340603791, -0.1550159385093126, 0.05980743905885094, -0.0401352174577928, 0.08172569539020802, 0.16152802137076994, -0.08746816606797303, 0.08321464787118055, 0.28366608424792633, 0.08061952190651438, -0.15699732830922197, -0.08899919517087161, -0.03310782944625929, 0.11698928944941688, 0.1327176180675774, -0.10333314431314969, -0.06774818738910302, -0.06472451704939176, 0.05797669609433053, -0.03444444016845786, -0.1014087706685205, -0.09872461772414513], [0.11788281790849611, 0.030437112127121104, 0.1330070747448588, -0.12904118315437038, 0.03572780835424019, -0.10998735431064655, 0.11764107601084005, 0.06953884724064485, -0.082428826771463, -0.07393858635977352, -0.06539166065866128, -0.06200366039975389, 0.024702894022475556, -0.11785311513019453, 0.0033564466350811057, 0.13720137906080807, -0.0878539758690161, -0.10729085120344378, 0.02876090453623884, 0.10723193144895027, -0.12876187325327604, -0.0701288142560054, -0.08373283072357887, 0.20708833943660324, 0.11253815266257935], [0.02449243681724597, -0.007443774515823521, 0.20087216387679277, 0.1493558494414635, 0.13541284935188908, -0.05449867879296577, 0.022475887342013084, 0.009230601654271663, 0.07172236069576755, -0.3524072650150605, -0.06978935427613919, -0.28190129210460246, -0.21520740668783456, 0.04528208548446374, 0.04611124315714795, 0.3440737629497384, 0.12270631754603913, -0.07349565980982213, -0.12635265210675356, -0.11916179075322071, 0.2542198503175254, -0.33746371743216985, 0.11955796821480842, 0.003799489429492612, -0.20756847668804612]], "net.4.bias": [-0.006565417549235056, 0.004269255582535552, -0.03346278361762059, 0.1022011770689887, 0.03288472616770255, 0.06716072977878254, -0.01677419904101416, -0.005177785909636732, 0.12366342729454757], "net.6.weight": [[-0.09141154038328468, -0.07510145732181199, -0.10006221430182594, -0.2614997602832865, -0.12209674032148436, -0.11764031981733551, 0.06954780478162734, 0.05610438591279826, -0.18709133127509345], [-0.19743877361628867, 0.15563634974506496, -0.06862706782038906, 0.12236423532274056, 0.15955538385453855, 0.005163352132783755, 0.1544385372415947, -0.04337309242228796, 0.0752877716462307], [0.07183857420618638, 0.056427943892734235, -0.018414199550138958, 0.11159539510998505, 0.06996358661841268, 0.20831944080833725, 0.13613915586741604, 0.11611251406203317, 0.09246882148799146]], "net.6.bias": [-0.024472144789952254, 0.006115327262483347, 0.05579631504365584]}