{"net.0.weight": [[-0.04943502547424796, 0.06155675204835546, -0.06776167569148302], [-0.01454381354429508, 0.2677891586191493, 0.222181817173363], [0.0531166541898468, 0.18210258571964, 0.03573708101217291], [0.04451354683852697, -0.07357462515465746, -0.2495999180367358], [0.08385491676775081, 0.29834534934833906, -0.02921908506456218], [-0.09846657563716021, 0.026653637565404644, 0.10834365780138068], [0.10014864337744055, -0.05780596269594152, -0.13163812950133108], [-0.015337599197955729, 0.1626363098959882, 0.008412859466793631], [-0.04970477852366733, 0.13425938197203394, 0.0710673543678343]], "net.0.bias": [0.0, 0.05541004385689671, -0.0018362597645669636, -0.03809971074755903, 0.02084494020676069, 0.009185553355657015, 0.02402280972804206, -0.02700594858149748, -0.01451205258803334], "net.2.weight": [[-0.04678457990875216, 0.07888483436879232, 0.03463014738858755, 0.008404880161956849, 0.13662321288254514, -0.02254515971093507, -0.17653548124464113, 0.15852271032335644, -0.06028915830782739], [0.18929919203259743, 0.024287529075493492, -0.11955080520093646, -0.10106531445605979, 0.11078076048653479, 0.06932144408741346, -0.2234654365103931, 0.15532639221273678, 0.15190939729630554], [0.08339682352974959, 0.16462689984850087, 0.04904313027454415, -0.10976470478881764, -0.044168523271991486, -0.5009153368903605, 0.03381233224668277, 0.10707992295321316, 0.13227027076266648], [0.12909529993343202, 0.02365215154893845, 0.14094872590169188, -0.17096699952454716, 0.08644701704754958, -0.20521411086172778, 0.19851187267120662, 0.11594381100641245, 0.11335513785661216], [0.09608695748120816, -0.16738688238731073, 0.06501363960589275, -0.19740760166599905, 0.18659265078961554, -0.06055520204737993, -0.23685485803176495, -0.021395086661152092, -0.01276903136917331], [0.1688283079797707, -0.000593416206388035, -0.1199564997891385, -0.07169317387413163, 0.01072982346127982, -0.052182656170441793, 0.058407135537783886, 0.07087190293233557, 0.05887052362520443], [0.025107783310886186, -0.10935104792703193, -0.08491251830399942, -0.08604882921575316, -0.02538454811226632, -0.15617061810406743, 0.0042155934326048895, 0.06511780745562265, 0.006160422372923976], [0.027829294865065635, 0.3072943836538135, 0.1077380098004932, -0.2564217719712187, 0.21253394546562832, -0.43784160152450663, -0.18559658283309988, 0.00900533822354002, 0.1937554877110816], [0.170553610272299, -0.17100970198975818, 0.08139340284899406, -0.2159710489322989, 0.014793996279117476, 0.030106342617735565, -0.014645473360915389, 0.17511938401129853, 0.02252361200226904], [-0.07667461186037967, 0.26507310016245345, -0.11109735339223102, -0.1539619151775578, -0.1202649304936077, 0.4423085983885533, -0.21169570164292464, 0.17345509084556138, 0.0840185827331094], [0.016511435447365535, -0.11340648745228113, 0.16165412570488186, 0.056883306304576116, -0.11104870045109669, -0.13651538783630404, -0.10462220385965186, 0.015156313822350734, -0.11755595436127618], [-0.24804408499561134, 0.07376152135140909, -0.04960869018417351, -0.04190563811307659, -0.18754594568010374, 0.18957456081221907, 0.13284463357363527, 0.02492092003993419, 0.18133239673605517], [-0.06695989341725211, 0.013956169551619683, -0.22483026263274808, -0.07202087607613326, -0.043844218395001536, 0.01886966730330244, 0.1218269947952819, -0.02639459050377306, 0.05638990428737667], [-0.21991697442691677, -0.12354706229383955, -0.008616982401176154, 0.11681081923125697, -0.06050772700035453, -0.18192549022081514, -0.03643890553634217, -0.13842809542227416, 0.23508307679928403], [-0.09749825191430139, 0.054520934546141535, 0.015852509135238235, 0.21229394602271046, -0.1702463400217768, -0.08239507626195898, 0.09281029477076415, -0.05010518342202557, 0.008453226631911772], [-0.05083455779182359, -0.05328203857934376, 0.15460609879742504, -0.07554327658611562, 0.004483584551935978, -0.25289242721846306, -0.03012675180165443, 0.0656297649943235, -0.0480785076996326], [0.021475053245144437, -0.07994989112127475, 0.16847569065058887, -0.11245767337813145, 0.027167772474050857, 0.02483791752551384, 0.0562429644609506, 0.047485722702266975, -0.12242916423804229], [-0.08594748484551297, -0.06786149171016656, -0.04981478525937503, -0.12468543338547489, -0.15267421687632643, 0.03524504291072228, 0.04267544505232793, 0.01851998363116077, -0.21867424082897366], [0.13372310100521298, 0.09896951296557635, -0.09693627679783315, 0.022435368309054873, -0.24147377351613988, 0.26215284748365275, -0.11968596153803225, 0.08797127865534127, 0.18535066099439426], [0.07442489052468687, 0.017829023708651078, -0.10419384054578874, -0.13318598170408877, -0.11964114511600639, -0.04123456096551066, -0.013941158312004149, -0.043925902174487004, 0.10092594322172782], [0.013447652508637043, 0.05353375833985181, 0.10065905175024588, -0.15719142119481663, 0.020965895082805688, -0.0576531356515472, 0.05375612291941294, -0.055811961889400755, -0.1211884069605309], [-0.11724681306359795, 0.2329722788460392, -0.1880618227544031, 0.1344873753808986, -0.15685871019080552, 0.20381180239895058, 0.0535418743197592, 0.37035417117844377, -0.10365822245350675], [-0.09411096816946093, 0.11692091224958433, -0.08482671721841267, -0.06399407620260793, 0.08610891258576632, -0.023304587806258933, 0.025896153002808703, 0.16418482612744464, -0.13812249840583554], [-0.12205729571402515, 0.014636525395288801, 0.011191941832275827, -0.06396774883474084, 0.06083269527218397, -0.4245787827104196, -0.32463190550774534, 0.1954871422875153, 0.20892356464336775], [-0.0016725243685979643, -0.24286595532872898, 0.055780310032016486, 0.020170424279863798, -0.10324566314640282, 0.036508091970962546, 0.1360275225809619, -0.16442120455142684, -0.04510441566002531]], "net.2.bias": [0.016093886756396707, -0.024289478726801185, 0.012958459107832391, 0.06808597581765792, -0.037646479962528796, 0.0, 0.0, 0.09915611132464143, -0.018510017387997256, 0.04918921371570798, -0.00999999953407909, -0.004681003526480062, 0.0, 0.0, -0.0487450212368305, 0.004157252604893828, -0.021171489128320668, 0.0, -0.03475005599916978, -0.014591578045417348, 0.01593746716821834, -0.03518813201197393, -0.003359527712440008, -0.015813173633316472, -0.01990453790761642], "net.4.weight": [[0.12089561206554997, 0.16796151522228492, 0.1984813915078392, 0.023425751673719304, -0.015980033524291587, -0.15827029416877994, 0.11907589117544003, 0.17430487883414114, 0.0742758127930932, -0.04539025721083259, -0.16628321503117882, -0.14258178675339292, -0.06817145505150472, 0.10290162446909885, -0.016735563828938912, 0.03271772351592322, 0.04186462589509638, -0.018374697598600134, -0.1666821880207776, -0.007369936220403035, -0.05392787830992659, -0.035501575591845656, -0.021235740184661338, 0.20302763519990946, -0.12311511151253743], [0.08300516729378979, -0.06068555271391547, -0.03673484785393097, 0.07483119916315893, 0.10022757229609738, 0.014579916169259598, -0.059750503915605616, -0.13954539184491402, 0.12438644559654174, 0.057084911130570716, -0.040311880841983685, 0.2338826085289486, -0.0650480822317915, -0.0980368010477042, 0.11177027574383253, 0.07357046865652402, -0.06383339886831457, -0.16363320434585213, 0.014481710229251515, 0.10120415743220687, 0.03977338072685861, 0.12965245379178403, -0.08689150089309916, -0.0066698375170830765, 0.16115701156085308], [-0.0779556917638234, 0.08151914198033672, -0.0454301451005395, 0.10967722456518052, 0.143953297652881, -0.050832748560681054, -0.04773047980502145, -0.12306331609279057, 0.16044417909675102, -0.12828229414750425, -0.11644422435745276, -0.07352002707171926, -0.011171778528896706, -0.10631824203435887, 0.038775979766914805, 0.024900405065934616, 0.0991476578087521, -0.2143903382783032, -0.008590109597695208, -0.042230959695080485, 0.02027919441620231, -0.06094166351222133, 0.01852529774160055, 0.11497945165917406, 0.01493951030200674], [0.135940261323736, -0.12605980136937608, -0.01883066107667146, 0.09899406336369164, 0.1398458536621675, -0.0610168735828045, -0.03461554042527966, 0.1521456605054962, 0.07232061406184243, -0.43132859850229555, -0.09914457483915601, -0.29573689772096484, 0.18828325747239716, 0.03662281232601802, -0.15633517748201725, 0.062180271200509084, 0.07866647311782313, -0.02705098150766217, -0.19694820145415898, -0.11385609647670124, 0.13570265435269147, -0.1200345931810466, 0.05864235729278619, -0.08484834639244364, -0.24627424567062087], [-0.12425079851017866, -0.07364982133065857, 0.01655683007764357, 0.12989201018422183, -0.09998561388129085, -0.04588383940606526, 0.24253251819346755, 0.03221715999033344, 0.03244356496451358, -0.16422818221547764, -0.07886197354027862, 0.005877228059239299, 0.13359073315586267, -0.014326708667470487, 0.054718482986063306, 0.08924940611088114, 0.06182224741477654, 0.10198634316272269, -0.14899700927744633, 0.08934467119242456, -0.1050883149867384, -0.23711107809441354, 0.10134316134894183, -0.1467317056843548, -0.02764526567466514], [0.2516277131575147, 0.08341186383742602, 0.18460995601131616, 0.16682135661668065, 0.07425408273999907, 0.11406469488593085, 0.07202830759751705, 0.3346860487666409, 0.07733460183995888, -0.08807735898079129, 0.020395280644502668, -0.3981017369579903, 0.08604913041116163, 0.1604189323766261, -0.09812653741150615, -0.03461125960504582, 0.05758828543951932, 0.06437650728873176, -0.26592433331733506, -0.10379457951909833, 0.06247278816355998, -0.05564903989282362, 0.03472830826796289, 0.17771589889339573, -0.18409066852500375], [-0.006518380457816663, -0.1085547357556917, -0.09910026619962013, -0.09248344340603791, -0.1550159385093126, 0.05980743905885094, -0.0401352174577928, 0.08172569539020802, 0.16152802137076994, -0.08746816606797303, 0.08321464787118055, 0.28366608424792633, 0.08061952190651438, -0.15699732830922197, -0.08899919517087161, -0.03310782944625929, 0.11698928944941688, 0.1327176180675774, -0.10333314431314969, -0.06774818738910302, -0.06472451704939176, 0.05797669609433053, -0.03444444016845786, -0.1014087706685205, -0.09872461772414513], [0.11766940851136731, 0.03634320410310948, 0.134269467837072, -0.12979990349923995, 0.03572780835424019, -0.10998735431064655, 0.11764107601084005, 0.06997830550176024, -0.082428826771463, -0.07241859618175303, -0.06539166065866128, -0.06119785596388714, 0.024702894022475556, -0.11785311513019453, -0.0064184400158483436, 0.13396748409494205, -0.09140939853830937, -0.10729085120344378, 0.02616847161585551, 0.10723193144895027, -0.13040346195435026, -0.06885412294318319, -0.0846759480326479, 0.21194590578776085, 0.11253815266257935], [0.024213898863080986, -0.013648164937145763, 0.2004120124787223, 0.1503002590738759, 0.13541178873816664, -0.05449867879296577, 0.022475887342013084, 0.010079417582871399, 0.07172236069576755, -0.3571781503153201, -0.06978935427613919, -0.31027156965132, -0.21520740668783456, 0.04528208548446374, 0.05675622859558468, 0.34263249582532296, 0.12335290537431212, -0.07349565980982213, -0.1354016504952957, -0.11916179075322071, 0.25470869006206487, -0.3406394677725086, 0.11912946379452635, -0.004990199819755131, -0.21000985742429054]], "net.4.bias": [-0.0077325081035857285, 0.004311652430793756, -0.034878775506050605, 0.1056481110329899, 0.034578036691416514, 0.06877948025033172, -0.01677419904101416, -0.0038592605852897947, 0.12650421189816535], "net.6.weight": [[-0.0900839712807946, -0.09063131354129636, -0.09957819565384343, -0.26487799434995474, -0.12844301118018028, -0.11859210270690503, 0.06954780478162734, 0.05712323518769739, -0.19040200750081068], [-0.19652501405871475, 0.15355471991073597, -0.06773473945615939, 0.1213976430023576, 0.15709454230709685, 0.0042113312220376925, 0.1544385372415947, -0.04689891707264917, 0.0741508069872897], [0.0742365366909406, 0.04835829380608769, -0.017332926241379686, 0.11013577800200285, 0.06616709791613676, 0.20853501295193397, 0.13613915586741604, 0.11656465893822036, 0.09085413004925756]], "net.6.bias": [-0.025232410737999297, 0.00728529109701365, 0.05743550078784425]}