{"net.0.weight": [[0.003936501729103361, -0.13867750369001627, -0.12247641046162439], [0.05246342741995741, -0.17041809386458107, -0.21963648227072197], [0.11049551792407135, 0.03329088380585789, -0.08755175775443294], [0.19163536167187958, -0.12093928322080122, -0.23598090428334031], [-0.09811817172088182, -0.015339208502688046, -0.03496671552089306], [0.008222746386428576, 0.16778273041203365, 0.19924753758987496], [0.05657154407458897, 0.17937244643257766, -0.043702127470588346], [-0.15370157262167564, -0.11026606592553684, 0.23994830517799104], [0.10648379936494266, 0.15380611643158618, 0.10265604020191157]], "net.0.bias": [-0.029129395362433662, 0.002404510320998554, 0.05638824770117718, -0.04504693257585799, 0.0, 0.06087168460904859, 0.012358689264192447, -0.0022722511185679422, 0.04745568720401559], "net.2.weight": [[0.14054484577174645, -0.011347084319465276, 0.07036630721700382, -0.031054036911157615, -0.2851369408518531, -0.08935848181049598, -0.06046374760347603, 0.016327704961494015, -0.1364473354110776], [-0.011315847422056158, -0.02209008216903561, -0.017461576110851574, -0.1881613183663262, -0.050587133777988395, -0.10726040646750011, -0.013852249605494133, 0.07275358704203067, 0.05004311792003037], [0.2706924644674903, -0.16878665802765377, 0.006551945783920304, -0.45987648121692143, 0.029157350591970266, 0.036642500211439034, 0.1872047972283671, 0.021559270641897076, 0.0944152048847497], [0.08370995283305217, 0.005640346386128647, 0.12258876020113779, -0.03612804117610257, 0.011433065842792522, 0.1500147555323144, 0.0752275492161412, -0.038730025408579456, 0.14252857976101524], [-0.02209785647564879, -0.17367347271585745, 0.04352655637708879, 0.008348432614036595, 0.11418569379901236, -0.052317059093555406, -0.08612428219123648, -0.153797065967264, 0.11100981023553569], [0.1006001145848587, -0.3280883383866141, 0.006167067503466578, -0.025297788635681433, -0.010745396495472135, 0.07213131804123675, 0.18176037281444915, -0.1919211141711098, 0.16208839072864079], [0.1340839263751685, -0.18532895447331524, 0.04494523204024466, -0.09893102400946598, 0.06910877183916414, 0.12821542079622222, 0.02087664005320297, -0.3868984795094297, 0.14716919140957743], [0.021537337486787787, 0.2061720166080765, -0.02376855399336122, -0.0023803492425623365, 0.08329774895665394, -0.13299740441920282, 0.09978268532902321, -0.03599473150901156, -0.03822153037605115], [0.019334058280854216, -0.12207658871681068, 0.1304492322044353, -0.08857074535908292, 0.010438644957549583, 0.011240674367550399, 0.08044042154548538, -0.07703668465374788, 0.01717977175809667]], "net.2.bias": [0.0, -0.012400459892733908, -0.006920716826850351, 0.0908684522939188, 0.02796801923081302, 0.07671879980979891, 0.08466071155951649, -0.07299560108664138, 0.03340221161023761], "net.4.weight": [[-0.09372549308407707, -0.0744501318129863, 0.2334166636381395, -0.15277950291861772, 0.007357570896740896, -0.06351487894233142, -0.10856965422965068, 0.20118826760877076, -0.176487498974746], [0.025684790846504074, -0.11822990578690715, -0.1891574416661599, 0.030229908609874977, 0.09505454376892421, 0.04910896472614793, -0.051867563454495516, 0.002027224412814879, -0.05753697283664788], [0.0623510775407494, -0.024748195669982632, 0.0204200256289197, 0.025261437601263047, 0.10362561878319713, 0.12707403056527222, 0.18507604467209224, 0.00895852861686162, -0.024918651072600096]], "net.4.bias": [-0.10619195160660069, 0.01655927974782409, 0.05802050112214058]}