{"net.0.weight": [[-0.04943502547424796, 0.06155675204835546, -0.06776167569148302], [-0.014993072188208792, 0.20617915477555676, 0.2188726681675919], [0.056292243278183184, 0.1872249706953864, 0.039378060686660214], [0.04963082948147355, -0.04015322501358076, -0.20334923483040543], [0.0825431809294509, 0.2926857979974661, -0.028782874518271245], [-0.08015097272346981, 0.04628572920189512, 0.08945676817628527], [0.08667378908923325, -0.05569015571858506, -0.11246413533057971], [-0.008551570304541156, 0.14571824308971407, 0.03768897555783919], [-0.027043997397204256, 0.10475858551794143, 0.06785482887916025]], "net.0.bias": [0.0, 0.04773430425353954, -0.00020784651077471238, -0.027748705498866228, 0.018163957320009628, 0.011170809587960608, 0.01792046854183085, -0.0171243575661903, -0.0038142005783149005], "net.2.weight": [[-0.04678457990875216, 0.07897342031429568, 0.04313992052527306, 0.0232904386379017, 0.14631170932028031, 0.009814085632320009, -0.146680208879427, 0.17674500174665347, -0.07361015597094142], [0.18929919203259743, 0.022550377656780442, -0.1187368164583682, -0.10106531445605979, 0.11424142350606843, 0.08098979614043128, -0.15913032110840789, 0.1490072659182715, 0.1548924413376538], [0.08339682352974959, 0.16367614944837083, 0.053746145771528094, -0.130284998345586, -0.03995312661179014, -0.35740709750868704, 0.06662088844804814, 0.12839303772327856, 0.10672820434379775], [0.12909529993343202, 0.020981765325610788, 0.14418779493940323, -0.1586349921754083, 0.08856471074864816, -0.20189843089834913, 0.20724867161697388, 0.14309918974851257, 0.1278397757640105], [0.09608695748120816, -0.13832881991097357, 0.08895521562098563, -0.20254167509545185, 0.20885474578414834, -0.0545727380849165, -0.2228149521200483, 0.02303951142408524, 0.009961295103370484], [0.1688283079797707, -0.000593416206388035, -0.1199564997891385, -0.07169317387413163, 0.01072982346127982, -0.052182656170441793, 0.058407135537783886, 0.07087190293233557, 0.05887052362520443], [0.025107783310886186, -0.10935104792703193, -0.08491251830399942, -0.08604882921575316, -0.02538454811226632, -0.15617061810406743, 0.0042155934326048895, 0.06511780745562265, 0.006160422372923976], [0.027829294865065635, 0.2938487688656398, 0.09397546298097201, -0.26135864909818807, 0.19498395910021876, -0.30274484803550805, -0.1815542501295375, 0.014896640921122936, 0.1765583375814125], [0.170553610272299, -0.1593007732319782, 0.09493778649380051, -0.20843459056144303, 0.02887076372446702, 0.030106342617735565, 0.0013920891161926146, 0.18628656948696498, 0.027092901258900026], [-0.07667461186037967, 0.2605588705625421, -0.11439569344100768, -0.1539619151775578, -0.12129376914398496, 0.3631247846789788, -0.19615339367145387, 0.14989046253020055, 0.08228063418055846], [0.016511435447365535, -0.11340648745228113, 0.16165412570488186, 0.056883306304576116, -0.11104870045109669, -0.13651538783630404, -0.10462220385965186, 0.015156313822350734, -0.11755595436127618], [-0.24804408499561134, 0.06366201664100787, -0.047821614839224556, -0.04190563811307659, -0.16754690994485952, 0.11722892060129743, 0.13284463357363527, 0.007457338671739037, 0.17065311250275286], [-0.06695989341725211, 0.013956169551619683, -0.22483026263274808, -0.07202087607613326, -0.043844218395001536, 0.01886966730330244, 0.1218269947952819, -0.02639459050377306, 0.05638990428737667], [-0.21991697442691677, -0.12354706229383955, -0.008616982401176154, 0.11681081923125697, -0.06050772700035453, -0.18192549022081514, -0.03643890553634217, -0.13842809542227416, 0.23508307679928403], [-0.09749825191430139, 0.07701839195150204, 0.03412108433009116, 0.21965500840129634, -0.1512952888408993, -0.09213244445063329, 0.09816178960895063, -0.031158306125134184, 0.02459271046941307], [-0.05083455779182359, -0.04441212379374711, 0.1642531688487139, -0.05968785917632243, 0.012020735078237104, -0.17954565088354588, -0.016936480401928005, 0.09242546462477345, -0.034689814131544726], [0.021475053245144437, -0.07046251350132313, 0.18527856545033541, -0.05196726514892993, 0.045309047093763745, 0.030711579563887297, 0.08348599751951276, 0.07388282965255079, -0.08699344399501298], [-0.08594748484551297, -0.06786149171016656, -0.04981478525937503, -0.12468543338547489, -0.15267421687632643, 0.03524504291072228, 0.04267544505232793, 0.01851998363116077, -0.21867424082897366], [0.13372310100521298, 0.09823548876372462, -0.08691855166249723, 0.022435368309054873, -0.21498801122813033, 0.23020329684304644, -0.11968596153803225, 0.07011866991821866, 0.17742259546510764], [0.07442489052468687, 0.017829023708651078, -0.10419384054578874, -0.13318598170408877, -0.11964114511600639, -0.04123456096551066, -0.013941158312004149, -0.043925902174487004, 0.10092594322172782], [0.013447652508637043, 0.05742589113361667, 0.10423972476069371, -0.14268838814858636, 0.022239824572277817, -0.061226158038318025, 0.05628297413812423, -0.023589884299182334, -0.09147257481490086], [-0.11724681306359795, 0.23194463884795963, -0.1890845439285793, 0.1344873753808986, -0.15588775717167502, 0.13946656434727267, 0.04326312583785581, 0.3517155649109423, -0.09549378894356075], [-0.09411096816946093, 0.12923653639396826, -0.08289727484106227, -0.04502739345810507, 0.08321969817855425, 0.03948310503131914, 0.02433174898988093, 0.195032390825858, -0.0388080622074755], [-0.12205729571402515, 0.0013164142183992383, 0.012675240513207954, -0.06378564927412489, 0.06594921264237012, -0.2939405076476278, -0.18855964595178765, 0.17434470410592245, 0.16320083191526388], [-0.0016725243685979643, -0.11568333701252141, 0.062036255682230736, -0.002326876021738657, -0.09876457860503206, 0.036508091970962546, 0.1276636562467644, -0.09724848293332995, -0.04510441566002531]], "net.2.bias": [0.01255441018077754, -0.011746676575024605, 0.014868826183811565, 0.06039511563720456, -0.01864420661591009, 0.0, 0.0, 0.07560526035882625, -0.0049639204734679716, 0.06026792953040061, -0.00999999953407909, 0.004981591769745986, 0.0, 0.0, -0.025221650719592308, 0.003946204284327185, -0.0042941020210425455, 0.0, -0.023326220603112565, -0.014591578045417348, 0.008413893222897413, -0.022781050140590172, -0.01010032067405938, -0.009205214868589679, -0.01208269645612428], "net.4.weight": [[0.1117674633763182, 0.1776129033301349, 0.19759926653355078, 0.024753123159822647, -0.007106625113720469, -0.15827029416877994, 0.11907589117544003, 0.1705872408534207, 0.07163721878912203, -0.050596460848731185, -0.16628321503117882, -0.10104350385043807, -0.06817145505150472, 0.10290162446909885, 0.040516534209786154, 0.021357590126742834, 0.05634071382109243, -0.018374697598600134, -0.14703250846929508, -0.007369936220403035, -0.06034264211604478, -0.03825423002107623, -0.029671351795783337, 0.19580290089050142, -0.12232838745777223], [0.09958903540137683, -0.07978608675179887, -0.029495778172805378, 0.09320084046687711, 0.10636308421688989, 0.014579916169259598, -0.059750503915605616, -0.1300521287801442, 0.13115731947719456, 0.04187880002235964, -0.040311880841983685, 0.19132734618458122, -0.0650480822317915, -0.0980368010477042, 0.05273002021949758, 0.10695494023662264, -0.05043716679784375, -0.16363320434585213, -0.015025286289692553, 0.10120415743220687, 0.06513477387687655, 0.11330451485239539, -0.067261665769331, 0.03198008332147004, 0.18314582482580125], [-0.06176498473749667, 0.09249440258351518, -0.02287740523841295, 0.12705347783472734, 0.15717924859257418, -0.050832748560681054, -0.04773047980502145, -0.10127804476492301, 0.15663744876002267, -0.11883622195717086, -0.11644422435745276, -0.07352002707171926, -0.011171778528896706, -0.10631824203435887, 0.09529878555818004, 0.030509962712946183, 0.12107098097619787, -0.2143903382783032, -0.008590109597695208, -0.042230959695080485, 0.03258402678822643, -0.054416179573577625, 0.029503260995239967, 0.12365531031934782, 0.02870956716274259], [0.13041279835071332, -0.0920360247366991, -0.023414311976164698, 0.08924020861222208, 0.13956466436498716, -0.0610168735828045, -0.03461554042527966, 0.1382197735633824, 0.07976048329093446, -0.394811670785077, -0.09914457483915601, -0.16283232602409264, 0.18828325747239716, 0.03662281232601802, -0.1603760230638611, 0.06512144040380892, 0.06568590569117444, -0.02705098150766217, -0.03132644901652295, -0.11385609647670124, 0.1273389480269502, -0.080126083759711, 0.059017957437376325, -0.043063046538042556, -0.17846845867861938], [-0.12385779206560033, -0.05944393513417977, 0.012733307627036979, 0.1263603471698059, -0.1059647136480181, -0.04588383940606526, 0.24253251819346755, 0.025850950129470848, 0.038729522838887566, -0.0963723241301624, -0.07886197354027862, 0.005877228059239299, 0.13359073315586267, -0.014326708667470487, 0.024200260024363835, 0.09969599528934343, 0.052378009200424513, 0.10198634316272269, -0.14899700927744633, 0.08934467119242456, -0.10378718581225717, -0.1376919137795323, 0.10754008279175695, -0.10915945088988332, 0.007194490505625328], [0.25125363796983513, 0.0520533859149961, 0.17466955452554422, 0.16316546992512515, 0.07638902166329897, 0.11406469488593085, 0.07202830759751705, 0.32567560035190335, 0.08669520216831196, -0.09828564669069137, 0.020395280644502668, -0.4107166622429834, 0.08604913041116163, 0.1604189323766261, -0.14467045347592908, -0.02287808025209058, 0.049559346270443214, 0.06437650728873176, -0.26008764194935824, -0.10379457951909833, 0.06638315031455616, -0.06283161893885895, 0.03793744277504692, 0.15240163167975818, -0.1531825067820035], [0.0007702737445747735, -0.10853033932330666, -0.09732497205584524, -0.08523298771540097, -0.1550159385093126, 0.05980743905885094, -0.0401352174577928, 0.08172595282866699, 0.16152802137076994, -0.08746805036899656, 0.08321464787118055, 0.2836664208677293, 0.08061952190651438, -0.15699732830922197, -0.07975988997606238, -0.023107844280760508, 0.1269892789974512, 0.1327176180675774, -0.10333286010999175, -0.06774818738910302, -0.05804219891886334, 0.0583635997758239, -0.028831395254295743, -0.0914087842826671, -0.09872461772414513], [0.12988130221646738, 0.008060064661297677, 0.1354844110200072, -0.11583364175585842, 0.04256676063081077, -0.10998735431064655, 0.11764107601084005, 0.07596684818480964, -0.07760840209316867, -0.07271307796782234, -0.06539166065866128, -0.051223850395391, 0.024702894022475556, -0.11785311513019453, -0.003910833780861816, 0.16404816764165123, -0.07318963255910457, -0.10729085120344378, 0.05888214266348445, 0.10723193144895027, -0.1093285757046598, -0.0657234279489175, -0.06975530193205193, 0.18696994362664837, 0.11253815266257935], [0.018626827359094704, 0.006655540801352041, 0.19433142161983546, 0.14396187760511667, 0.13894079943551702, -0.05449867879296577, 0.022475887342013084, -0.004992460618078689, 0.08065082587405821, -0.34088381939502366, -0.06978935427613919, -0.22484132581580013, -0.21520740668783456, 0.04528208548446374, 0.054813021025076736, 0.3501749701681142, 0.11598751506283204, -0.07349565980982213, -0.06556110433478575, -0.11916179075322071, 0.24940692291968913, -0.32464218760714775, 0.119763180995018, 0.027187329607268895, -0.1381463345891711]], "net.4.bias": [0.0061016264080996745, 0.0032130290664411478, -0.005304783470373155, 0.08037146958566559, 0.015719327734387906, 0.04749259427209956, -0.009999999838235808, -0.004335708484384254, 0.10356653342485943], "net.6.weight": [[-0.09220295162820248, -0.015069343550038798, -0.12403940440991675, -0.24579890484721212, -0.1002704492286832, -0.10520975514618908, 0.07952974173733775, 0.07628353166460002, -0.1753735555232927], [-0.19924523242008013, 0.1734730878092215, -0.08705998375254456, 0.12352063291222821, 0.16233336159132256, 0.015288982045528546, 0.16441432737389708, 0.0009359034642702177, 0.07551222959419283], [0.05324005739701786, 0.0991158318525587, -0.0420892013035464, 0.11533020557317121, 0.08452922286041328, 0.2041692726222999, 0.1460712330616128, 0.12232225411143596, 0.09460850962506641]], "net.6.bias": [-0.0217168499734617, -0.006863040638337398, 0.038081590336212154]}