{"net.0.weight": [[-0.04943502547424796, 0.06155675204835546, -0.06776167569148302], [-0.015916105041737322, 0.2175630620551249, 0.22346278031048042], [0.05474294803131124, 0.18532688353345464, 0.03665751711511654], [0.04840679309752424, -0.044978372757857245, -0.20938772492885588], [0.08293903838980246, 0.295130826942978, -0.029772195144006874], [-0.08513182213670398, 0.036251835229528295, 0.09519624194970157], [0.09086698763411084, -0.054544946355543786, -0.11515745317816066], [-0.01011658487896623, 0.14774046466970484, 0.0314695018853562], [-0.029905398774672257, 0.10981430593142191, 0.06641803538162072]], "net.0.bias": [0.0, 0.049858154120733876, -0.0017502365703051658, -0.029709271571550146, 0.018619496783872577, 0.010615657081174672, 0.020482717977671174, -0.019207336850326384, -0.005955388347249452], "net.2.weight": [[-0.04678457990875216, 0.07841830122525766, 0.041278249524856835, 0.019233213456096063, 0.14431546459280045, 0.0010039338098344112, -0.15371279373965296, 0.1750610555290148, -0.07195061041382252], [0.18929919203259743, 0.022730419392327176, -0.11838587785921098, -0.10106531445605979, 0.11482765910809588, 0.0722431079790892, -0.16603887243816426, 0.15077929841123766, 0.1540718990732773], [0.08339682352974959, 0.1624533139606119, 0.0527502014147887, -0.13341793925409037, -0.03973006793212955, -0.41500540959669485, 0.05707811208238421, 0.12939841702355304, 0.10857013557976244], [0.12909529993343202, 0.02202967777125134, 0.1431404277584564, -0.1602629070357873, 0.087418530859382, -0.19850269557071837, 0.20512716426412156, 0.13948975500626984, 0.12752300544057224], [0.09608695748120816, -0.14288364167099216, 0.08665169069630863, -0.19632272595297326, 0.20719558579462627, -0.057406295975910536, -0.2216938379800347, 0.015624774582164045, 0.005139385481616956], [0.1688283079797707, -0.000593416206388035, -0.1199564997891385, -0.07169317387413163, 0.01072982346127982, -0.052182656170441793, 0.058407135537783886, 0.07087190293233557, 0.05887052362520443], [0.025107783310886186, -0.10935104792703193, -0.08491251830399942, -0.08604882921575316, -0.02538454811226632, -0.15617061810406743, 0.0042155934326048895, 0.06511780745562265, 0.006160422372923976], [0.027829294865065635, 0.29734593957545763, 0.09738650320759643, -0.26113238378128745, 0.19936286909076298, -0.3417618861484556, -0.1855459725895174, 0.01777150221368943, 0.18201008947777828], [0.170553610272299, -0.1621442987127667, 0.09074547775221575, -0.21331835748083103, 0.02460928959982067, 0.030106342617735565, -0.003897428305096994, 0.1821948332073342, 0.023103224398907576], [-0.07667461186037967, 0.262955085908636, -0.11290931015851123, -0.1539619151775578, -0.12073449285984268, 0.3804437037363954, -0.20186004339653088, 0.15419991299602678, 0.08431559248002717], [0.016511435447365535, -0.11340648745228113, 0.16165412570488186, 0.056883306304576116, -0.11104870045109669, -0.13651538783630404, -0.10462220385965186, 0.015156313822350734, -0.11755595436127618], [-0.24804408499561134, 0.06364337541969041, -0.052258255654449345, -0.04190563811307659, -0.1783585483154048, 0.13776793169790502, 0.13284463357363527, 0.006142939952491374, 0.17066433364619435], [-0.06695989341725211, 0.013956169551619683, -0.22483026263274808, -0.07202087607613326, -0.043844218395001536, 0.01886966730330244, 0.1218269947952819, -0.02639459050377306, 0.05638990428737667], [-0.21991697442691677, -0.12354706229383955, -0.008616982401176154, 0.11681081923125697, -0.06050772700035453, -0.18192549022081514, -0.03643890553634217, -0.13842809542227416, 0.23508307679928403], [-0.09749825191430139, 0.07072104151590848, 0.02771249287861133, 0.2144310650388279, -0.1583509419937667, -0.09211653126314871, 0.09217684054191183, -0.03524053055494293, 0.019261664621867895], [-0.05083455779182359, -0.049224909358648844, 0.16121914707400678, -0.059927211589392355, 0.00972620587404935, -0.18985375046091435, -0.01900280091244772, 0.08686833645444145, -0.0386262292903861], [0.021475053245144437, -0.07032031898293241, 0.18409598637944583, -0.06167701545898861, 0.04372560568589992, 0.02837523884320555, 0.07948052839162616, 0.07404135858870407, -0.08892061965439887], [-0.08594748484551297, -0.06786149171016656, -0.04981478525937503, -0.12468543338547489, -0.15267421687632643, 0.03524504291072228, 0.04267544505232793, 0.01851998363116077, -0.21867424082897366], [0.13372310100521298, 0.09694198773440038, -0.09259347740000716, 0.022435368309054873, -0.22755819540024472, 0.2460185722037616, -0.11968596153803225, 0.06729877639572071, 0.17747345857346927], [0.07442489052468687, 0.017829023708651078, -0.10419384054578874, -0.13318598170408877, -0.11964114511600639, -0.04123456096551066, -0.013941158312004149, -0.043925902174487004, 0.10092594322172782], [0.013447652508637043, 0.05725767046506007, 0.10302557847436507, -0.14375594782600165, 0.020960439294895817, -0.048960670093269924, 0.055691086126326526, -0.028517089041143966, -0.093575196387527], [-0.11724681306359795, 0.23421468457064698, -0.1881202917334092, 0.1344873753808986, -0.15628750682818104, 0.16492314879667636, 0.04646613787359374, 0.3549320449767437, -0.0940454015945705], [-0.09411096816946093, 0.12726656880530668, -0.08435472494211568, -0.04797621937623404, 0.08222226483253292, 0.041421157377055005, 0.02363548536799869, 0.19031470942670944, -0.04406660941793794], [-0.12205729571402515, -0.004660078978835852, 0.010154692084133285, -0.06396774883474084, 0.06520272879043665, -0.32913036398145734, -0.20353324386794866, 0.17616191539180046, 0.16182801001085673], [-0.0016725243685979643, -0.13790973203458615, 0.063312357158829, 0.004865241016440884, -0.09689349700882881, 0.036508091970962546, 0.131808286079062, -0.11062821304137309, -0.04510441566002531]], "net.2.bias": [0.012294664067478096, -0.013385962069166106, 0.013102812897240385, 0.06100620274118218, -0.019768499935315327, 0.0, 0.0, 0.08001012429019734, -0.008932085641743722, 0.05976558375759861, -0.00999999953407909, 0.0006622937465803022, 0.0, 0.0, -0.0329816242788976, 0.00232228236217471, -0.006454363406878779, 0.0, -0.027342504247234296, -0.014591578045417348, 0.009150772276986494, -0.023289631551966127, -0.010464111983156683, -0.014900772623432234, -0.010119004230600108], "net.4.weight": [[0.11468680300837703, 0.17757306792236247, 0.1996660460972802, 0.025502609320922107, -0.005177663327550645, -0.15827029416877994, 0.11907589117544003, 0.17282834805438418, 0.07247220265681624, -0.051674054796052825, -0.16628321503117882, -0.11748010932216373, -0.06817145505150472, 0.10290162446909885, 0.028229627845145086, 0.025250367929350724, 0.054638629981565615, -0.018374697598600134, -0.15833549824243284, -0.007369936220403035, -0.058078701210855864, -0.04046093146575598, -0.027740855429935995, 0.19956257255288384, -0.1252182290241852], [0.0964654641473932, -0.0791819388354711, -0.031942764364240955, 0.0913323293416844, 0.10335682813161898, 0.014579916169259598, -0.059750503915605616, -0.13277699152097644, 0.12835061168318376, 0.0440733103895443, -0.040311880841983685, 0.19970013470839487, -0.0650480822317915, -0.0980368010477042, 0.06026286614623508, 0.10310516440598406, -0.05065275587991723, -0.16363320434585213, -0.009835172234689459, 0.10120415743220687, 0.06173671437148229, 0.11576982553334482, -0.07005246989598153, 0.029524446935760004, 0.1781779611518289], [-0.06219806694231235, 0.08802399022414108, -0.024124111789159977, 0.1257493232003783, 0.15673578804127603, -0.050832748560681054, -0.04773047980502145, -0.10241910456691983, 0.15788366046009675, -0.12308083454051653, -0.11644422435745276, -0.07352002707171926, -0.011171778528896706, -0.10631824203435887, 0.08696246116029109, 0.03085896234042416, 0.11866601151603846, -0.2143903382783032, -0.008590109597695208, -0.042230959695080485, 0.03246344161719683, -0.05800191497744354, 0.02907067470946121, 0.12064792046098295, 0.027871840055831095], [0.12959059065195494, -0.09757138374711595, -0.02463690422617331, 0.08956323112475102, 0.13939147018753625, -0.0610168735828045, -0.03461554042527966, 0.1379178551484315, 0.07597515172812726, -0.4029941597767781, -0.09914457483915601, -0.1714150705399852, 0.18828325747239716, 0.03662281232601802, -0.16036608300981203, 0.06419535771777753, 0.06765046667223545, -0.02705098150766217, -0.044142202655182095, -0.11385609647670124, 0.1270763978041194, -0.08935839611185367, 0.05710311375954059, -0.04753602224212522, -0.19453833665226816], [-0.12568307373990045, -0.06171710479041209, 0.01108326889067267, 0.12618624223571503, -0.10718761067759933, -0.04588383940606526, 0.24253251819346755, 0.024379741936409634, 0.03602002711436439, -0.1099944461689662, -0.07886197354027862, 0.005877228059239299, 0.13359073315586267, -0.014326708667470487, 0.030382892198204024, 0.09764014671977632, 0.053956294158705426, 0.10198634316272269, -0.14899700927744633, 0.08934467119242456, -0.10533685918491821, -0.16267049603687372, 0.10510954676480165, -0.11157604131645817, -0.0006369891052667776], [0.25157708097093445, 0.057276936371405504, 0.1766291195411308, 0.16314440965420132, 0.07515952288482769, 0.11406469488593085, 0.07202830759751705, 0.32763686365468414, 0.08280098460173743, -0.09511911241712526, 0.020395280644502668, -0.40873156209170713, 0.08604913041116163, 0.1604189323766261, -0.14009230867987973, -0.025120539844078235, 0.05010995895306849, 0.06437650728873176, -0.26201978391078723, -0.10379457951909833, 0.0653652674181643, -0.060420559529683185, 0.038361322173808714, 0.15676071768416416, -0.168699728902426], [0.0007702737445747735, -0.10853033932330666, -0.09732497205584524, -0.08523298771540097, -0.1550159385093126, 0.05980743905885094, -0.0401352174577928, 0.08172595282866699, 0.16152802137076994, -0.08746805036899656, 0.08321464787118055, 0.2836664208677293, 0.08061952190651438, -0.15699732830922197, -0.07975988997606238, -0.023107844280760508, 0.1269892789974512, 0.1327176180675774, -0.10333286010999175, -0.06774818738910302, -0.05804219891886334, 0.0583635997758239, -0.028831395254295743, -0.0914087842826671, -0.09872461772414513], [0.1262835709339617, 0.00887323430196234, 0.1331299815840497, -0.11917311584716894, 0.039342075796277284, -0.10998735431064655, 0.11764107601084005, 0.07326667299134841, -0.07976903453835207, -0.07537881796470156, -0.06539166065866128, -0.05635007192330508, 0.024702894022475556, -0.11785311513019453, -0.004314967419752734, 0.15931763384452285, -0.07556847171140342, -0.10729085120344378, 0.050922363276863745, 0.10723193144895027, -0.11397660918518679, -0.0693399282347003, -0.07316399723269977, 0.18793495479708722, 0.11253815266257935], [0.018387205680502235, 0.003983425733616672, 0.1942106390612386, 0.14396428759296523, 0.1382126386435687, -0.05449867879296577, 0.022475887342013084, -0.004246732472911307, 0.07617980817696776, -0.3444389034556908, -0.06978935427613919, -0.22735282267276963, -0.21520740668783456, 0.04528208548446374, 0.054295544469145696, 0.34888772445853217, 0.11709916626486572, -0.07349565980982213, -0.07229723357234025, -0.11916179075322071, 0.24902581851529856, -0.3284729907337825, 0.11860009857197175, 0.024785156180321587, -0.1560496377168232]], "net.4.bias": [0.004422655996088822, 0.0038428797388676476, -0.008367430228729125, 0.08284301263444047, 0.017786025585416462, 0.050385865868692745, -0.009999999838235808, -0.005905752889270392, 0.10590927553325435], "net.6.weight": [[-0.09432177987745276, -0.02060311607860728, -0.1222884786025614, -0.25022585584530455, -0.10482942605144391, -0.10930877657528162, 0.07952974173733775, 0.07029207756884488, -0.17884938381263013], [-0.20078762557011118, 0.17226799404573728, -0.08258999380781568, 0.12073336952479241, 0.1616424830532619, 0.011442999229009987, 0.16441432737389708, -0.008873825462958219, 0.07352656591233118], [0.05560240077210871, 0.09088676371869044, -0.04093196300679389, 0.1127855420307212, 0.07935601842672534, 0.20402010499225887, 0.1460712330616128, 0.1203202280694392, 0.0925718918534067]], "net.6.bias": [-0.023356076466309997, -0.004823876265133875, 0.04019815295014164]}