{"net.0.weight": [[0.1251100561733971, 0.21122327330039348, 0.12911213949232656], [0.19495612468807064, 0.1532402267469239, 0.026191182213497984], [0.07398627200747993, 0.19122629244676445, 0.15489275573610425], [-0.07374442172600836, 0.02311161859235921, -0.14350231215408743], [-0.09056017580703277, 0.2497888869507686, 0.12651900233453875], [0.008358935369164253, 0.05377097132746795, 0.11669763054224712], [-0.025992977731581757, -0.02225714166496703, -0.12304264077634919], [-0.16617318329060618, 0.11618263343384587, 0.2431060827059343], [-0.01452950590080554, 0.22664914047813536, 0.20641948580181546]], "net.0.bias": [0.01865736349061197, -0.007672714786878389, 0.019975850416110233, 0.0, 0.05410746903257849, -0.0077607922298454455, 0.0, 0.09561529607505108, 0.05262394925079653], "net.2.weight": [[0.1636687404775137, -0.010483752026104534, 0.07495439010871188, -0.14712284002348044, -0.06920864116629606, 0.15996260688415345, 0.09558527615675648, -0.23141084197787834, 0.06891766038096309], [-0.023677794222990305, -0.18575532853534052, -0.026578495473657416, -0.16053041372369026, -0.05048551220386355, -0.046731376170584, -0.049637279704176133, -0.10439241792126203, 0.074889922091216], [0.050451638756319146, -0.18865111251045497, 0.16952321881826787, 0.034398561063027466, 0.1893104885304798, 0.10051513733053885, 0.1457378396182547, 0.1786788955483583, 0.012489693360118983], [-0.1004464345339651, 0.05434913845741628, 0.03350483930241285, -0.05301845400645702, -0.071061245384516, -0.12562849032767018, 0.0674151389245872, -0.04124681969263931, 0.0985017903445108], [0.02465017523171517, 0.1696457798120364, -0.0942290755097619, 0.08796583330762832, -0.2062139126464256, 0.007115197033960847, -0.030970000624747016, -0.26387415700989814, -0.26201448096893726], [0.07335188562649422, -0.20357963145796643, 0.029200092264330166, -0.1772811865672421, 0.10675805158092098, 0.04014149804553314, 0.15323023068918754, -0.014362271108685444, -0.049592777411773814], [-0.10059005473190907, -0.004211457776778649, 0.05224629533938871, -0.07853715412787245, -0.1532520217918667, -0.08431763802180647, -0.06534874332994142, -0.06362267755569623, 0.0533185761089681], [0.16876002813898192, -0.0022315715712547604, 0.20476371617870526, -0.12656416415636867, -0.08225827526320649, 0.10374332792150129, -0.013903421803299313, -0.44121676750335515, 0.20035986827643673], [-0.08788842625618025, 0.014652002568445852, -0.01681935247456603, -0.10697463271482961, 0.12717050048837522, 0.08152041533571958, -0.08833569847204413, -0.10503678882852235, -0.00046142431885112887], [0.10511816622596058, -0.026297810564314614, 0.12472138224032882, -0.11680991893286884, -0.008399554275050168, 0.0647960664419282, -0.04551328230473515, -0.04558014953813528, 0.34975676285517465], [0.038627216539156496, -0.018954746624632108, 0.09816894360764718, -0.011246056908219748, -0.11311299894472372, 0.11384901494949957, -0.07344141575025258, -0.15629770882176236, -0.03496217022216895], [0.05097289676073464, -0.06337422851017104, 0.09787935402040734, 0.06306210254656165, 0.017878642538787935, 0.014571965232992388, -0.05246922839586188, -0.031019995917821203, -0.021092432567816823], [0.15621380145498248, 0.24353946688520253, 0.1100092133434901, 0.03834188320219523, -0.16751157660309568, -0.21158281655072148, -0.02846789621148434, 0.01756784184614673, 0.038402551315317744], [-0.05956878144957245, 0.1505625485755292, -0.062146557251206234, 0.0643468721242504, -0.34478526414535826, 0.08133121401342615, 0.025919106467546082, -0.11382439250045508, -0.041581589816578314], [0.07918981444267831, 0.058341784891517944, -0.04125762711391804, 0.14996285907935666, -0.16044068476469087, -0.04228201102764348, -0.0325944233948603, -0.2397111124768908, -0.14844194209996847], [0.01344921924765306, -0.00072991576217859, 0.1442318407766704, 0.09258518679401183, -0.05108491014201883, 0.08190425327105906, -0.06104738696768108, -0.2447889272129795, -0.051060309063387016], [0.11883202988668617, 0.0784795513848868, -0.09698292294989287, -0.17868226043755497, -0.13666032266535416, 0.012630925790250665, 0.13674624147079692, -0.14589750031733112, 0.03864498773933393], [-0.14292331646901724, 0.028170286507057017, 0.15327281447702654, 0.11809492836350506, -0.0024888734471751033, 0.054509642726258925, -0.018028764172279103, 0.20621516728437433, 0.018832473067652983], [0.10396686197649656, 0.12876708666239772, -0.0038279114946527626, 0.1455285617756784, 0.02737155846065197, 0.04769785280453522, -0.06094488897474448, -0.1865640352811194, 0.1484606841774646], [0.003148971646627451, -0.12609621648986483, 0.25519732858265837, -0.021413632819004956, 0.19841110878882987, 0.1522948898096032, -0.05312322012697284, -0.11950167812668308, 0.16813289696315822], [-0.11751017457580092, 0.02948035747040528, -0.027104717091328386, -0.03385830354266597, -0.030068390320189597, 0.08388307124153921, 0.05646945822831795, 0.10787293142464188, -0.16165496958643968], [-0.08142321407880722, 0.06122013155484024, -0.013108998929423955, 0.1208690891084746, -0.06490468907287542, -0.057251689013650665, -0.05659690805081086, 0.1270389303295612, -0.07193905709329791], [0.04559364750544945, -0.0335821547263724, -0.1266889842828953, 0.055459048416855616, 0.23516905626994172, 0.08085541437376571, 0.15246597210177915, 0.13724071657708556, 0.2668647891651875], [-0.3277224917381044, 0.09436821726556444, -0.11498309730198503, 0.019378693921466593, 0.09272961355464554, -0.05054401334648311, -0.07096482748709425, 0.030361764831393287, 0.13618251939027953], [-0.007827217346886454, -0.14773062614278104, 0.03572003884962315, 0.20654409617831226, 0.23722152332165303, -0.09193999997439689, 0.05147910403999496, -0.03461933063118579, 0.033495782410915054], [-0.017347799291096068, 0.06933589184285521, 0.0040157459984326415, 0.06287436551890795, -0.061852741530759106, 0.11315183639479845, -0.06724997600404893, -0.3400828016454502, 0.14134136331821523], [-0.0026225494248013946, -0.03615870541471516, 0.33807605811874303, -0.10601196504774342, -0.1796512049491604, 0.22396974312041218, 0.1370450846985873, -0.27185178061403265, 0.07570688022880788]], "net.2.bias": [-0.007747223992883898, 0.0, 0.018699377410198947, -0.01640457299925408, -0.0012773927895885775, 0.0, 0.0, 0.02903311794816129, 0.0, 0.00015059493488762184, 0.018734518280686348, 0.00720987677503962, 0.03123579861691278, -0.010370361406661165, -0.0022118664390268035, 0.025430041535816947, 0.00402252167165177, -0.018783177851156678, 0.01650202531463956, 0.05332358407432802, 0.0, -0.02203447952205363, 0.01827481055915704, 0.0, -0.009993936917991353, -0.008831686726634525, 0.019560054904399434], "net.4.weight": [[-0.10820451210749966, 0.18363358617243067, -0.0943647187425975, -0.009087467139861471, -0.14128110117620504, 0.007426128616716674, 0.10429292367530883, 0.14233339056175506, 0.03316955392211407, -0.08571016616179167, -0.048558163270078426, 0.11266559680145603, -0.08679838552579507, 0.13773637363384936, 0.06887896494021903, -0.1904451618808365, 0.13722630388817927, 0.03427075563818541, -0.11097528330373861, 0.10064504841527078, 0.05111866711638165, 0.0800803507933476, -0.03664301234112819, 0.2220682029793185, -0.007780376711290775, 0.06113694878331804, 0.02282179127736706], [-0.07291745947197735, 0.009493715695496237, -0.2633408841869985, -0.11303952256884808, -0.07425678729539612, 0.08425026826184788, 0.02841475076875631, 0.025812862986084727, 0.008415889534572554, -0.013928707016396905, 0.11643046139863444, -0.23065956205784618, 0.17143988791086473, 0.028287467774508374, 0.06108273303371326, 0.1559387397426129, 0.026425410643339475, -0.023928245781830358, -0.00924700384784502, 0.23432586294974833, 0.007733825861563523, -0.05260973507555295, -0.27836331330334196, 0.003438343703992878, 0.10984880283001452, 0.13671079562702781, 0.1785280711246714], [-0.1687395787039522, -0.046666893030524854, 0.1801193660260796, -0.059276024031138484, -0.15062439846248152, 0.08879778851729975, -0.023498496620997338, 0.11958295103202984, -0.06751426380398579, 0.08617909113359755, -0.03548933953953446, 0.006577969889717329, 0.03288861688521568, -0.0695663129922085, -0.036722058805364236, -0.057371628313146066, 0.062102309570178135, 0.02533442533954898, -0.024688555411898884, -0.0016657386950198775, -0.0097511713350487, -0.0031072687690173587, 0.07115986993806116, 0.13042844207317397, 0.17915926268308272, 0.13228602671140138, 0.011856249441737953], [0.09643117973042574, 0.11529522863187985, -0.010827227575843684, 0.02571533696058096, 0.1053323870431149, 0.0943391684828405, -0.11933042856163345, 0.10104446651718121, 0.04900416926710066, -0.10736809076616231, 0.040061179368944766, 0.05960757040665421, 0.10302000693328627, -0.020091878382595827, 0.2024972930049897, -0.2242400226324094, -0.05404068388685335, -0.024634486956827698, -0.03015010802569985, -0.07078620017523367, -0.003926803650693992, -0.0693546799228833, -0.16240937279917772, -0.08189382466414341, -0.0031344776946120078, 0.10373744411957103, -0.058276289124936945], [0.34569274175101905, -0.1012345031281779, -0.2957659415911648, 0.012228863503122488, -0.13412107362590808, -0.008411391227312213, 0.06890540382020881, -0.05021293280135273, -0.026136597988492622, 0.056027698059224966, 0.05412384608269855, 0.10760521167159404, 0.036627977668258906, 0.09796767007592827, 0.01801067624200866, -0.057672080688862426, 0.2325295352766992, -0.26120459884763864, 0.016984186796282375, -0.04430631985655, -0.19018424271067602, -0.09263740791253948, -0.13646718544427336, -0.022067427089903457, 0.15209850217354304, 0.07958029038432159, 0.25338542912708717], [0.04170151480188831, 0.2013949268455162, 0.228630418940344, -0.11274513454671618, -0.2921971646080292, -0.05709961446723764, -0.05050058478733138, -0.045596468208084724, -0.052585438093271444, 0.1157152108944788, 0.014900870539402368, 0.06723868309944174, -0.08194315872280579, -0.11138819573109138, -0.04986082355485342, 0.05296888183897019, 0.08306838487501877, 0.09435493513174877, 0.08464798803451423, 0.0977398178229782, -0.022172382967984076, 0.046461402303893694, 0.181505430786932, -0.060896068952278316, 0.013924194874770188, -0.18456405666929646, -0.06191720555065981], [0.09081524639389106, 0.183036855186552, -0.08180371811282884, -0.10876009093023283, -0.08492108706331256, 0.003684596905819744, -0.05235684089645246, -0.007106665925575134, -0.029728719177195124, -0.07680079476332045, -0.061442903392596594, -0.0734580354350913, -0.12941960915098347, 0.13475903863623911, -0.0006980991609382946, -0.04846164479541272, 0.008518085554363505, -0.08353336292702061, 0.05355957185036875, 0.040298466855240286, 0.14939450790873188, 0.11729713194452702, -0.042963190570630264, 0.043358548648089135, 0.010347408490239624, -0.07255176325472858, 0.07959081630287536], [0.026609801181423545, 0.07669436138322633, -0.13145014960490273, -0.16425513045558202, -0.04821202086306281, -0.025987309376468995, 0.09768713132528775, 0.012419289072138068, -0.16090572909305412, 0.13532563946124782, 0.2671958713919883, -0.020414293586197292, 0.20119300434426377, 0.08348714811658656, -0.08242828072774969, -0.08276360451774144, -0.006882833906612323, -0.08328964333358155, -0.2796703321583794, 0.16910755284418494, -0.1503975038647475, 0.20196265168879182, 0.0697808130926168, 0.12919097572139557, 0.12935062486479973, 0.08015440539374619, 0.12099626887233116], [-0.013822078763094048, 0.0004882682838379571, -0.2505750076055812, 0.14599731003342314, 0.12620187353119489, 0.05197372271305807, 0.09996279281883634, -0.14117901039226674, 0.06851635501178681, -0.09819345316524687, -0.02312483666262393, -0.09770685856308427, -0.06616163395673408, -0.08016268671644744, -0.10674188645019107, 0.048298051282034016, -0.13926384610291484, 0.07994352255581884, 0.08640075897903965, 0.06306719163744649, 0.03975207749741408, -0.08057025543450903, 0.1300433076737115, -0.0655078256087957, 0.042438142961156305, -0.11979365923437735, -0.049334626697574], [-0.016490271291389632, 0.07420168383947642, -0.22516560265535981, -0.003717580536862324, 0.17854954412716534, -0.06756582042772985, -0.044389464674817976, -0.03435098529693952, 0.05402597100115959, -0.19924365756623288, 0.007881513155678952, 0.06525851876651498, 0.22104150422099647, -0.056862677863269574, 0.13052160001997792, 0.16222441288759817, 0.15687494867114046, -0.02887719539727344, 0.25740510106316206, -0.041014332224256884, 0.0013004580383385988, -0.14708544377690538, -0.2791939652663884, -0.10350199931736115, 0.004666405065930308, 0.010460358823856607, -0.2527355698765828], [-0.020183391906554195, -0.07753695744031149, 0.15162918678178866, -0.14237465211833314, -0.13871832239475326, 0.03315319206546429, 0.09116612013892875, -0.014433616035873554, -0.08345144534104479, 0.1032530883298436, 0.049785913152835946, -0.0069979355025902995, -0.046345664601128184, -0.1275859777311849, -0.18678190049546287, -0.07806861276627694, 0.06922757258093871, 0.007059522645318851, -0.01481948277714004, 0.026981577798564155, 0.12560459132495908, 0.016428547517361572, 0.3940500519766545, 0.09838979013051861, 0.0009416401458699729, -0.09922504194926118, 0.04155957152801209], [-0.01293236886536684, -0.03992752666334503, -0.29538660970506636, 0.13099938645746576, 0.08597412418057983, 0.11762729342652822, -0.15079169377762322, -0.06046129788769724, 0.16150070079860507, 0.028691003866490258, -0.1915473660489256, -0.21406343071191944, 0.024986505403437834, -0.16540557632285638, -0.10540318428679941, 0.14461722293252027, -0.009527515969821734, -0.046312828740174325, 0.038818945128211206, 0.006717101790342943, -0.04433935635253668, 0.11943235128430874, 0.006239718482597561, -0.0785299520105663, 0.03839403952009482, -0.02617743169177957, 0.054942823618305346], [0.0890947165414849, 0.04673437258126504, 0.002913600091227278, 0.18849735322771527, -0.09096978388020967, -0.017544080160879327, 0.030620656909415823, -0.06075800731315617, -0.049823936730368425, -0.024646308418620304, 0.09598638325050934, -3.183752913808735e-05, -0.0015258949993985464, 0.004065656605579079, -0.004534842386249995, 0.028865058262617184, -0.05489754272934145, -0.0909014077343606, -0.08393022653494762, -0.048578393301614814, 0.021921949159078594, -0.03565202779411413, 0.07116616866104092, 0.004223650282841905, -0.0531382759363706, -0.035406369620889167, 0.03168408910595122], [0.01347483640426667, -0.11903797295250292, -0.020790581793712484, -0.07725308210976171, -0.20496658158824965, 0.05187233404986774, -0.1522508650723986, 0.1968305754894254, 0.006176338837767699, 0.005075720416711789, 0.00024832534188611336, -0.004267676222191737, 0.2542433462737572, -0.024620799513154604, -0.1516344349720432, 0.11674882499869782, 0.06476984693781587, 0.11374828097327964, 0.15123545704273963, 0.04988249466161575, -0.11955268952286058, 0.02489184565043564, 0.06396850611886484, -0.022082138653273627, 0.14929879004395477, -0.03323336105388488, 0.043126206157905835], [-0.05861988191707626, -0.027624933835457922, -0.05011485768066463, 0.19521385143796788, -0.13769793684760137, 0.11955933308185647, 0.022935884481606713, 0.059573934017054034, -0.06327560449743921, -0.08684158121714713, -0.040932335156006916, -0.1626802483375725, -0.13175573200773505, 0.04136976297656109, 0.004258512080620945, -0.1605006937133993, 0.1105608844118059, -0.054843030338542, -0.14903617945785233, -0.11230189569226463, 0.06830157097631594, -0.04790494579248616, 0.1638448200766095, -0.06342708754493587, 0.13313226840143397, 0.07303297011593046, -0.03917420040022654], [0.057817545112645856, -0.11012441971899488, 0.15846680759979467, 0.07288354789725247, -0.027849167793520237, 0.03737323776820759, 0.04336525277049425, -0.10980401723299904, -0.021167225459614733, 0.17621767201041907, 0.07638524585797073, -0.02990205953392583, -0.10243563726460203, -0.10996935197557865, 0.18262054886368442, -0.18027899463036773, -0.2327572774935114, 0.2399395079683987, -0.04797233383729954, 0.15667219367807808, 0.06718916903803483, -0.026247863868009366, 0.1370744048288448, 0.0931852248082052, 0.04428732919593758, -0.09679954276677581, -0.1979326461562407], [-0.2600543274556395, -0.060166826336595605, 0.014568042224332958, -0.06850347308048664, 0.14161464927367257, -0.0808521133092702, -0.08129323341945698, -0.1029028730001427, -0.0852709440179446, -0.05095182662609566, 0.1160574901994647, -0.04066026210347419, 0.1183004757094337, 0.01959228684551116, -0.16608278942245608, 0.03516865012104345, -0.08430810018162087, 0.12901235698712707, 0.09883309881506507, -0.11715137932709654, -0.15886232350556362, -0.18944270215779385, 0.07769601057042197, -0.029894472897731603, 0.05220115574224741, -0.025136115077641633, -0.2160174818243134], [0.03133229264796996, -0.026902561629696793, -0.21109896775569376, 0.028112476001149387, 0.02512994262273141, -0.09691594175722407, 0.0071473814627004756, 0.12860443258325466, 0.1840853384620303, 0.1953703121880964, 0.11821149529641813, -0.05365235359441185, -0.08819358748317085, 0.043077743642217406, -0.026611385696282838, -0.13725934903226839, -0.1874260533435167, 0.13498181717656366, -0.1387034591116805, -0.027692300367080154, -0.014758321251843102, -0.1236032943158642, -0.13241435132293086, -0.008307987411325607, 0.02911853053422451, 0.041113514819793265, -0.2114865539073934], [0.12243233179465197, -0.21868810834732946, 0.04186779818983061, -0.277494782863737, -0.0918520263268502, 0.09495811035819665, 0.06390438238518531, -0.010787822540014237, 0.03240910337994569, 0.0766041156916424, -0.006081413484137178, 0.07892545923288155, -0.16392993104723091, -0.0781293322817532, 0.04315415395324948, 0.054321266987886065, -0.09144230403537744, 0.3164529492892041, 0.0017575123560206016, 0.023561849061462792, -0.08013260325537944, 0.006778765548801834, 0.14681729718128494, -0.05464604873674968, -0.028140055728843594, 0.03990377854387844, 0.12302649815445775], [0.06734538801436864, 0.07046098707363385, -0.09335544349131597, 0.06352862631454124, 0.10964478416647036, -0.15007757613857456, -0.009280005513749103, 0.008056822160168372, -0.039461206306335976, -0.13235246435432507, 0.025316644506073543, -0.10347020047552725, -0.002709029673068874, 0.15102488119548502, -0.05333611475800887, -0.033247960982404595, 0.1359996294115633, -0.08564781059993856, 0.0003004315007384318, -0.14806782773572313, -0.11344295507914078, 0.13239421063482676, 0.08399070795123706, -0.023452416873414914, -0.06932278940939088, -0.10138227776399662, 0.034871185641657663], [0.002960451549319316, 0.01870093748004628, -0.20774935068352962, -0.04568110199398974, -0.07210694226209657, -0.022786878774286975, -0.04386071337390843, 0.19640010927924023, -0.13264489722944592, 0.15938881633077823, 0.09673939419767885, 0.059273218865456445, -0.07714297175114138, -0.034630018912694883, -0.19291029537686524, 0.12582478895916416, -0.04940180562893742, 0.11333650108919507, 0.06634202065999853, -0.07292348973349028, 0.1619642336360436, -0.057551827266781354, 0.011806470245623433, 0.11459581088574396, -0.02875713171439335, -0.07795198023070853, 0.08221516933251678], [0.05159043390299794, 0.07971285899689866, -0.15400934543148775, 0.13218234186862615, 0.07100050290709126, -0.10471679196734691, -0.13083225635810355, 0.07155947378846321, 0.034264416732375506, -0.12835924560845488, 0.05581598081767171, 0.10096314918170338, 0.07937635783237897, -0.051387290428040744, 0.0967522692530708, 0.005113127779843615, -0.09898916910494962, 0.006006672735927264, 0.1997019057098473, -0.03203893723159326, -0.021912770868316073, 0.09905170128947013, -0.08591660199186464, 0.04129913153646659, 0.06725627780414498, 0.056373150794998085, -0.0070698034159010084], [0.01596610033697694, -0.02654616487520191, -0.10105133527151797, -0.06711439396969764, -0.12179321258752669, 0.13940429068914967, 0.07547221969723146, 0.09090405003286399, 0.16311460306561598, 0.005176835843916331, -0.17832889513074435, 0.12039311521294431, 0.1403944435616761, 0.1290208980962101, -0.035108973242092924, 0.09174132110227749, 0.018587076868267233, -0.09742357410410035, 0.12506696373302462, -0.046894857169462116, -0.16284293737212474, 0.032403572606334606, -0.1918831354890176, -0.037612101824681395, -0.1645119876963759, -0.06791134197961318, 0.1264164499428816], [0.02406744598695145, -0.0419211221404666, 0.13782717604377023, -0.09353629257338948, -0.07738356753463466, 0.1577227703741597, -0.15407831890546014, -0.0628310767269086, 0.023590768033275533, -0.034795025259586346, -0.07452363120401059, -0.023176079435909228, -0.049920755406035536, 0.11427474463580597, 0.04585568728886515, 0.09414642636016975, -0.07668092918965196, 0.033957679417513695, 0.027884410320511335, -0.06340237159425709, -0.0015172304552315435, -0.07913068509187052, -0.12264758593345804, 0.09976302545124968, 0.16545348907223026, -0.09360326351785911, 0.06859701899568757], [-0.019081663418016818, -0.07345663365519511, 0.04750941758285276, -0.017110011318566275, 0.0679193220055397, -0.15135701758127285, -0.1206376851828725, -0.015989648640882065, -0.034663135674390666, -0.033460020860532146, -0.2982445557970875, 0.1206388216898341, 0.10120508620913811, 0.06905546017170029, 0.08170671182063664, -0.2570975617187467, -0.08948552236664845, -0.012685454977376028, -0.12289472529747301, -0.10865622417257757, -0.025922318496737724, 0.05528187537340321, 0.12610845753733457, 0.20216865065138215, -0.06719040149691476, -0.011945080569517768, -0.019934660679113807], [0.033373720875596986, 0.20481156765333353, -0.054255448144984425, -0.15041559466853172, -0.04641707109395413, -0.07663138249337126, -0.07807956195916846, 0.10669170915704891, 0.0499438690538418, -0.07495589688123533, -0.05614989139628205, 0.02294861348090813, -0.06519837470143043, -0.05453689794682729, 0.0006193315542440193, -0.03567062590364935, -0.04213417722239188, 0.108425438201464, 0.052252984014139615, -0.12529998330142694, -0.060318232466187185, 0.014797578647522054, -0.0561554296588934, -0.057500346030479044, -0.1047351069487166, -0.17864160076627522, -0.014684468973606533], [0.114074767989305, -0.030226104630777486, 0.13970238402360893, 0.048775778927521295, -0.12880441124221353, -0.11969370308768375, 0.06167026087579755, 0.07230746012085867, -0.12363781543763575, 0.16719549627140345, -0.0748054613733738, -0.12192742360433938, 0.07269804605465098, -0.17760143283169422, -0.1888809836116854, -0.03748806278239936, -0.08575771973499625, -0.06782179147337379, -0.06487999142157237, 0.08437665336478856, -0.18531956924790127, 0.08601524553395111, 0.04378258111154447, -0.014218794187323894, -0.0535973665571542, 0.19091533373338365, -0.025981609578045437], [-0.021642005130393674, 0.005351264026517923, -0.04744241872529155, 0.0026073575768458734, -0.08860162732799043, -0.08651185062780306, -0.1006467436459606, -0.01550644853190046, -0.14340322683704326, -0.13188810010007115, -0.09470529614405712, -0.059154235447206195, 0.01947990801757253, -0.11025632769220875, 0.11042652899565147, 0.04122126742142439, 0.11424706059178918, 0.00865574809343372, -0.10010287827580795, -0.09941260603377426, 0.05910520914944172, -0.10674363125780179, 0.05570481817810113, 0.07231869465626005, 0.08988926492302218, -0.04651593887352412, -0.011907573781421155], [-0.15174070539190798, -0.010823768789908919, 0.09739817299282312, 0.1146621042621606, -0.03400047873536687, -0.02148802803386854, -0.01564831924927968, -0.05243030775443875, 0.1118977774540934, 0.07634931050036632, 0.07947351076526481, -0.055474485363472895, -0.1141182484962465, -0.10908556862973205, 0.1255346539638092, -0.08838773038272021, -0.039296924208910455, 0.03774852524705304, 0.011825283990126048, 0.1258345701105768, -0.020525706774551875, 0.09625291718229267, 0.035086794188109435, -0.15384461215332423, 0.10285264389759669, -0.037452697574074746, -0.036456816444227345], [-0.010343740090994692, 0.11442158293733662, -0.004149336079137164, -0.007447909150484731, 0.01600512591941098, 0.04416434340528672, -0.016778420299744096, -0.034849190237525, 0.007840189382842203, -0.12028648224185878, 0.004021451141132694, 0.0021830701893094384, -0.003425538469140905, -0.008158073011222755, 0.05635640022571954, 0.07296029047722091, 0.029087108672988842, 0.12405852840161963, -0.028591108919818975, 0.08041907018136929, -0.015203639326132369, -0.06531191908757526, 0.17131403982495214, 0.10627871985367204, -0.18056749112495962, -0.007275558304905507, -0.005149933817529865], [-0.051484679917669314, -0.0377504413980625, -0.10343779049060241, -0.08076347484228112, -0.026210284077521014, 0.04355847690780046, 0.0788492452333617, 0.0831715893486591, -0.09220405272391553, 0.16188186917530725, -0.19393004479442438, 0.12227096315988807, -0.0879386083179687, -0.0864754584415296, 0.11512711297696954, -0.003311595212095857, -0.13089064282686957, -0.14810962265773467, -0.18659299599520757, 0.003056245147874526, 0.017868792942842653, 0.16112845302419251, 0.14753474443328582, -0.23934994006261046, -0.1108857735107999, 0.06244646218896818, -0.17034764860028295], [-0.08675203637260903, -0.03313160150430238, -0.07405196895494759, -0.10731549911881058, 0.06141557635521336, -0.10668668638845738, 0.022690415178365963, -0.08225827025377111, -0.20653807205931238, 0.06860700165009778, 0.14867915548857072, 0.11891959039893991, -0.05005301323790271, -0.03282795699012871, -0.058233362550564396, -0.026023534268208373, 0.022581286004497436, -0.19827082402143872, -0.15711247309175225, 0.20508897898519157, 0.004733084874903594, 0.04204970909954825, -0.14341518772617526, -0.061386604083091593, -0.12650976329014105, 0.018521420515478504, -0.04617686437087617], [0.0889837560206446, 0.025671215610152127, -0.11952318514284098, 0.09108888661108475, -0.08738139040080374, 0.12659084623338912, 0.16921358933748676, 0.05191800109142518, -0.09123795244879397, 0.12018616607437722, 0.11164585739803606, 0.031220065209465915, 0.24240042379010449, 0.026186082005816822, -0.2012614112817062, 0.15699549533703888, 0.01293094651302138, -0.010519533866093514, 0.20537949000958222, 0.020220158307296197, 0.016150062041817508, -0.03198021758826661, -0.22350265453336499, -0.1003788672116996, -0.04017951213799867, 0.07356546706671631, 0.13561055902273608], [0.006881811780013727, 0.017067077720054172, 0.17095309874358, 0.04286814281539397, -0.09640775117744942, -0.0622553027941985, -0.07912450354517905, -0.1561197679261591, -0.18856212975467354, -0.04618271700006363, 0.04831053424681322, -0.013600183264703036, 0.11723147393476994, 0.04235277591576087, -0.31280636390907507, -0.09792373966513351, -0.0995230236581011, 0.11233989171302786, 0.01203431587916038, 0.12735421273654612, 0.0842037454227342, -0.07391873395418834, 0.07415678321569712, 0.0456029094028802, 0.08116919836565317, 0.0078077241449338464, -0.05935709250047733], [0.03104277843483705, -0.10948253956063159, 0.07662303531724833, -0.12074140959043969, -0.15894707347182624, -0.17877488632577282, -0.18661261139928997, 0.09336369923656254, -0.14551897366050848, 0.19434487036972165, 0.16136290642998088, 0.1634550361632332, 0.1685563271470905, 0.03663097776250455, -0.02868423384962742, 0.007380754634082582, 0.09763114055155404, 0.12609050155796017, 0.11121468966959823, 0.22237530430715996, -0.0530637446444234, 0.183504783976668, 0.08151388065102438, -0.004769241077331787, -0.08077984921102395, 0.032865475400667185, 0.04762442377841037], [-0.10048837427219881, -0.09961514183125825, 0.2764980239236955, -0.14585471554430943, -0.11937399660630102, 0.0985973323380531, 0.06165704295361144, -0.0693058566338457, -0.021173796123749304, -0.01732517992691525, -0.10806952817990355, -0.1167741992634956, 0.043572705760646084, -0.15037654658570432, -0.05341213394624281, 0.015138069671155103, -0.10920413367865295, -0.06096922567944616, -0.01889088341618268, 0.11170202803994658, 0.08637835353884678, 0.08048719174840076, 0.20108004167043975, 0.09757330990510221, -0.03750589013920676, 0.2244516027083433, 0.14264793124428188], [-0.12992315412810249, -0.02781393730945146, -0.11130302991854109, -0.11879319358225165, 0.1385353638327088, -0.0915825659615392, -0.004284083882591389, -0.20080470639917616, 0.058636021744111616, 0.04992964950064781, -0.14719697214483396, -0.09953844804387782, 0.12067075383689121, -0.0009647071259330179, -0.14921295941066262, -0.006823423939592524, 0.049821717193707614, -0.010418166128002948, 0.013560107524013662, -0.06955613348488357, -0.06941622351086318, -0.08221199896207967, 0.10334242816201655, -0.14753993598975748, -0.029477675059116793, -0.15425640885798783, -0.05546776540971548], [0.18588240511760576, 0.05133692209970958, -0.26367364684535416, -0.14891080650576602, -0.05715938498788754, -0.008223852155597927, -0.08131983449133354, 0.20287522184706336, 0.09395283227360474, 0.03752373424675778, 0.13429928142833694, 0.134581281440108, 0.09294142419511944, -0.13226048750197678, 0.0760559444452259, 0.02055581961529368, -0.0141544107073988, -0.04267459374216617, 0.11200156923665976, -0.061011570502412994, 0.0016386387922602893, 0.043279462310545545, -0.18298064333439476, 0.12188556381862248, -0.054614460002133325, 0.12986604291359657, -0.05078381030950942], [-0.02070968907601752, 0.1658414348156687, -0.26829418729353594, -0.04204233146532747, 0.2390318614059904, 0.04267003113481018, -0.030783156032664023, 0.09564083768065806, -0.09358657202558053, -0.22901897827791484, 0.169958609314697, 0.012197954987362557, 0.12138016684473124, 0.0029536353453959866, 0.0515537406716507, -0.04980465668849197, 0.04546601991508574, -0.14395189139068226, 0.09403720520115424, -0.13544214001689658, 0.006921969585861313, 0.07067647625058963, -0.30780309099978787, -0.021109788670393023, 0.14079107082448192, 0.04422445855658858, -0.11363650287983229], [0.14449294486493283, 0.016352916596153105, 0.07916172422511268, -0.0018588150360537466, -0.023301878013069082, -0.06105670147727748, 0.0901628784937966, -0.11321942318057578, 0.05565619745268158, 0.014095831004269917, 0.10217262147300506, -0.11454120530696643, 0.005412780725115386, 0.01630818256081361, -0.13073594540280634, -0.053489464818828054, -0.02149420256651462, -0.03801861137832897, -0.025949959766368456, 0.1350105403490695, -0.047779337347394785, 0.14047541133874022, 0.3798596862264368, 0.15375136540232545, -0.03543189189591853, -0.17645161419053143, 0.0019379395425047216], [0.046849447403795465, -0.16665834835328208, -0.3480649188806268, 0.033361137393526884, 0.09610603314783203, -0.10299089683448484, -0.0069509182844191475, 0.01858809412980853, -0.04464061808936974, -0.06143310428650188, -0.09666252442481867, -0.21412944316561347, 0.06897895903024501, -0.04968955511576992, 0.07020841396484312, 0.08877536940626651, -0.034429128596760415, 0.21447028719178268, 0.07039964968772887, 0.08665543039115367, 0.19684058573436408, 0.12549099733362626, 0.04523688825541753, -0.06528450484457282, -0.001956044203656306, 0.020144398810646523, 0.10267864217508595], [-0.05856004745973436, -0.03920324311455699, 0.13138443303962227, -0.030167552696002978, 0.29615642503226997, 0.045408316604165194, -0.07588575788892915, -0.1310339839375833, 0.07332826993086805, 0.1349583496999343, -0.09564897604267994, 0.018498962813394703, -0.04120237928777189, 0.13144097235385044, 0.09476689979172839, 0.11405722040493702, -0.06167614414718285, -0.054965825531615164, 0.029945594184554315, -0.07762877843718576, -0.008867641171282923, -0.124072447421225, 0.2305957562055838, 0.07587645759173428, -0.046387346141584775, 0.06435536890281708, -0.056612832630182304], [0.10163936755674789, 0.045943827041653756, 0.2833736816514373, -0.020955387690743926, -0.09480615461065095, 0.03943087184238256, 0.02373210331619038, 0.0909227479089287, 0.11594370893443469, 0.014068596156804565, -0.1685393159747405, -0.0476457995139675, -0.14823789821998964, -0.047707274764207906, -0.06370033242006799, 0.006389581441699423, 0.053541777965294364, -0.10006109722006475, 0.11325758480164705, 0.1673057334440307, -0.11572473226654506, 0.058035345504860864, 0.11739347097325548, 0.09199224809975692, -0.11939264914466917, 0.0875452475955062, 0.1487043253192683], [0.03556399873867383, -0.03114106450283299, -0.08891684544380678, 0.014619696422053421, 0.12057906030924237, -0.1577530804616545, -0.08607741637223161, -0.0023351277384015753, -0.05849144387984667, -0.1726397581534497, -0.031036054925464452, -0.21236256597010533, 0.04334138200664051, 0.1289801872774942, 0.001258317990914139, 0.0844675002911757, -0.07856103784406344, 0.014979328915979346, -0.06932948147066953, 0.3104962095316749, 0.016443256446616327, -0.1744706292974127, -0.04864869568222413, -0.17453267307436182, 0.12327986024080897, -0.238817793677418, -0.0003471558927104299], [0.2575539879403702, 0.1516275586308305, -0.08036467432749075, 0.07266441287591385, 0.020328275981739617, 0.055500365159738475, -0.07626495939461908, -0.0528269625140064, -0.07360187822571991, 0.02284102708809406, -0.012200587275586981, -0.11472319260983553, 0.11579298276484733, -0.0352283580608994, 0.000690661028309821, -0.07510787771124747, 0.007932083319019779, -0.12088653882159131, 0.10490629826596537, 0.12013504136309089, 0.112079811021535, -0.09080968661531053, 0.07220584390918057, 0.010146115062747835, -0.14117931970822659, 0.11627189723833231, 0.12785718672398322], [-0.041262235426498706, -0.07140439079795179, -0.11823810336892089, 0.1539145022114003, -0.023422650681280525, -0.0797259667373805, 0.016178108672991114, 0.052679386483115334, -0.03533135086952623, -0.0341089538331843, -0.1783607561838926, 0.0035441755818678327, -0.02128458652988871, 0.075870923779976, -0.11959182505754813, -0.12297699954863234, 0.12238528923761163, -0.2087692999940047, -0.07795827774174538, -0.06139435492501986, 0.10189880574923676, 0.007531153505048089, 0.12174641589965973, -0.10113026895722586, -0.1422428702603029, 0.05841038269873769, 0.019500576241441466], [-0.09032941385539904, 0.07685975008980639, -0.07402935382191615, -0.11818046534260936, 0.20701813471992833, 0.09161876111524633, -0.0980730873493342, 0.0022802645260480174, -0.07988886482135317, -0.11012575052599168, 0.0025751430303796925, -0.087330266592233, 0.11631748167461892, -0.02196169944574756, 0.0499202158297103, -0.022014755530501775, 0.10351793503505462, -0.038342231074479184, -0.16771397714773947, -0.016434956433424713, 0.19776132850844186, -0.05806519747267077, -0.39430040323161036, 0.01821177766818017, 0.011332702093982634, 0.19062241018906526, 0.03249552037515504], [0.127528032723554, 0.052675437031105346, 0.015596814598933091, -0.12455859295662829, -0.03672635353368898, -0.00033048554883805654, -0.01956647022176992, 0.16018228257088346, -0.0822999028356079, -0.0050293320503867235, 0.06421818852735181, 0.025256494959660005, 0.0253681070360623, -0.156669700978614, 0.06826674497053767, -0.07393514281732366, -0.04227716683129201, -0.08623534797230824, -0.16372263284770885, -0.12193423221370592, -0.15164943178081247, -0.01239649480283798, -0.030158593923133428, -0.04189382954521134, -0.07245317614938053, 0.11070582695775441, -0.1925304542666431], [-0.05829649658369788, 0.045839754146543614, -0.1114996501751566, -0.07018126894227572, 0.1234840689881618, 0.10556908878925818, 0.047181618150849716, 0.00544379558799999, 0.08895031787413175, -0.013678348964764945, -0.01733632337903223, -0.08960664434794188, -0.10666154595371645, 0.25917831152983456, 0.05571416462053306, -0.02021858717099706, -0.08780898100011199, 0.08667567559678138, -0.10701212208501719, -0.2577093584121143, -0.027339359014271227, 0.14041985605045934, -0.03927011459643762, -0.12471935271107724, -0.011116441189993507, -0.07885134670913524, -0.043275526211235094], [0.02434635675481071, -0.3112447974514808, 0.08215478104348584, 0.021291256547974508, -0.1964595814470583, 0.2134556880276174, -0.09468478973469988, 0.012687928593143678, 0.11637195292563536, 0.10714095735071434, 0.10749024137425219, 0.003731059531787414, -0.11557904561312177, 0.08058045492681687, -0.03796600253471582, -0.030217703108008222, 0.010734880563542343, -0.08711003092381149, -0.07101799015911545, -0.047722131318841315, 0.023509371351363724, 0.1798247095706466, -0.04296753114078177, -0.04050253739979736, -0.13733073929824643, 0.11969532784185832, -0.1060151273650239]], "net.4.bias": [0.0, 0.0365733041654462, 0.019013771030582164, 0.007087193845298406, 0.013228623919718026, -0.007414497822049925, -0.009998836377312924, 0.041402693654489946, 0.0, 0.0073988566974275555, -0.025553556134677906, -0.037925213384246724, -0.009993800951053176, 0.03015953317902182, 0.0, 0.009190011467601265, -0.009971209454258213, -0.01496511398253367, -0.0017938305415810122, -0.02476921278177263, 0.018312841897072094, 0.032888712109331336, 0.030058433201652225, -0.009999989365246991, -0.00025468924635091704, 0.0, -0.01005426363166574, 0.0, 0.013578036158197842, -0.008708846088380217, -0.01974214169205301, 0.0, 0.02742671668874325, -0.025705738630457012, 0.031841611529671465, -0.026910377693307636, -0.00999459961963273, 0.030591608956866134, -0.01219114254932188, -0.004915699846981655, 0.000647084069791847, -0.0032145649451139225, 0.014863046955504179, -0.00999982706642421, 0.010355419912712714, 0.0, -0.007030343572212293, -0.014021128748705869, 0.0, 0.0], "net.6.weight": [[-0.09100504717673585, -0.034662217223649025, -0.043483083455190585, -0.16440504739881892, -0.008840635259969884, 0.08537036507882571, 0.10776395083805188, 0.0293734083525568, 0.0442681977757453, -0.25203311435924747, 0.0009992340269045445, 0.027718061627571348, -0.08611752950813088, -0.057484288556633976, 0.14374939012913773, 0.05155947729371461, 0.05038587045670673, 0.038333604454770506, -0.002547673093434775, -0.1383568381218917, 0.04907098680411852, -0.03182249072612091, 0.1861542541373529, -0.0633331136228758, 0.1696740933597685, 0.05981088704128176, 0.05336582583045348, 0.04253384081714559, 0.09868229964739161, 0.17159370642231014, 0.04424023269126615, -0.0037722868790491418, 0.06827242417465804, -0.10052175948940004, -0.19461960268995493, -0.051346062312792935, -0.19252472774555693, -0.04443662962653931, 0.19694488738723703, -0.11610962849268414, 0.01143167112133749, 0.04149825899157231, -0.005898627450315511, -0.0327645162561403, -0.013441404692881423, 0.1127680026540725, -0.05891074547883898, 0.10423506501686924, -0.03040968834715349, -0.1395078312965304], [0.07246000605116178, -0.06323360026242941, 0.0057167805711046665, -0.0292988312013283, 0.018479751462635852, -0.023392211454992123, -0.09698051346328558, -0.172973524462607, 0.07467319624066537, 0.03331498500915464, -0.03742381317230213, -0.07992778436792854, -0.054992054368824574, 0.07819195338841078, -0.020455602229068195, 0.00039998005327973244, -0.1577927172363407, 0.008930294039190859, -0.03628995836984531, 0.06507492642367618, 0.12545324832636326, -0.003944268399988492, 0.24848448312796245, 0.08794918649451251, -0.10177385049509542, 0.17714068184752463, 0.05423628398139788, -0.13487225258440533, 0.03881865070748458, 0.14114217057940062, 0.03908717011237245, 0.1247255030909013, -0.06149667860052814, 0.07999311856094074, -0.11577638313259235, -0.04844655863871092, -0.06632378889673539, 0.12229577075693086, 0.07493407710463248, 0.07957475437803394, -0.22897232975605442, -0.04073261311833109, 0.05876482106557057, 0.0646890757079023, -0.10134091933378844, 0.0023737037430158468, -0.1388467828277205, -0.011050234946748757, -0.04259937595270253, -0.011269652065397836], [0.017163469165930624, 0.03350577315935641, 0.030927412195178288, 0.06802681178086384, -0.053755864672861677, 0.0636052689317147, 0.018593299430193517, 0.01067182662455511, -0.1478493899658866, 0.3202420031995812, -0.1340647496064167, 0.04011601867536853, -0.05271543089334331, -0.059816675718373506, -0.11140724739668738, 0.25352069878799993, -0.09773718483859706, 0.08927276801398605, 0.11049844975331297, -0.08458837502847799, -0.013255354855362635, -0.002285071203927663, -0.02795046977140135, 0.015503409412365197, 0.06858816289636185, -0.04971807014010212, -0.15273435264967794, -0.017466236864933454, 0.1969377134188806, 0.1512225192718791, -0.08550572503228879, -0.06289757662599064, 0.09180259987636927, 0.11019428946008498, 0.037691856018084405, -0.00578284185858733, 0.0460918089663667, -0.007583161750015805, 0.057133290417740006, 0.08996751119237822, -0.02143785583665137, 0.14859202119673512, -0.08478063918224808, 0.118240939530072, 0.030695044012475362, 0.038875358324498385, 0.08885245982378158, 0.07034619559457733, 0.06992152066076267, -0.018347570445729187], [-0.12092126443746426, 0.10981983272056556, -0.050319411582060596, -0.1568624849881598, 0.035902951953896214, -0.17442356882647914, -0.06171178281824019, -0.020209323098787726, 0.06937674153549601, -0.02283603921350226, 0.07596752055040427, 0.001715191885914956, -0.04799312320448751, -0.048857139682988784, -0.0619877377192608, 0.13791071996653156, 0.044750001786150066, 0.11170275288026897, -0.16779081655296615, -0.14385033008957518, -0.03162898458316135, 0.2237633787451558, -0.022316387176167726, 0.04100906045479355, 0.04676152445183593, -0.03119324768526005, 0.02246104653227053, -0.05942557754520861, 0.008145413924722277, 0.0885429973314697, -0.02865903569560925, -0.15176025397038312, -0.19405038972847158, -0.10838526775698006, -0.09720096686732284, -0.023641240466447, 0.038908893488075635, 0.08776245749914877, -0.010553634694158119, -0.11444994309016943, -0.09430649261231133, -0.07643826029302868, 0.13012282493856497, -0.00381417330462773, -0.07046811957694189, 0.010142946783787932, -0.06496657161603069, 0.05533905934828183, 0.09959478384729292, 0.06732759668037828], [-0.002958939793845527, -0.2652544718094629, 0.16139696005545212, -0.029330333987724513, -0.10260512903363996, 0.2629604249097112, -0.09388867209270071, -0.07258876012351848, -0.0855723048863672, -0.22225877872347227, 0.2771988957768718, 0.05009106778756591, 0.17742204398997263, 0.04873803059191404, -0.06755055272818578, -0.40555201799786456, -0.02158321877535697, 0.00859081747979472, 0.07259323108221229, -0.06954114604932321, 0.06798686843652996, -0.0421765279088056, 0.19498826256355262, -0.02706418486167804, -0.07344191104404238, -0.13485711407641027, 0.03964743009784185, -0.16972263017841793, -0.09137265229665062, -0.12743332869650414, 0.11901695552845834, -0.11217682597481692, -0.019372667546258538, 0.04311577736509446, 0.203155743140071, 0.08375091302875552, 0.00794779579281742, 0.1108457619397521, -0.1861661417278192, 0.20671690467428977, 0.04799487695851034, -0.08338563102858344, 0.13047424669546823, 0.03431869747649743, 0.012013715070784374, 0.12550924764810104, -0.1871577613530976, -0.032483211661199045, 0.07806569814951993, 0.14870246872107543], [-0.04927290015322605, 0.07676712041669095, -0.07913678090254937, 0.15824675874514996, 0.0004521466215028642, -0.05985211921254651, 0.09542334231542238, -0.05954976633493871, 0.10740545761674147, -0.09233725662334263, -0.12393038208050788, 0.0029123827924771267, -0.11742696270545286, 0.23729744766602984, -0.056882913682196036, -0.14497448964236306, -0.07869515128228932, -0.06992626946375627, 0.25556035491084506, -0.030648025970802677, 0.0780628175562688, 0.04710512981471447, -0.0033723189649906074, -0.05766522411723767, 0.11510979142300709, 0.04778380922103347, -0.0905481777022156, -0.13133400586844354, 0.026308396103448276, -0.10437658555559262, 0.17142184755432482, -0.023652848661562934, 0.009506519309988531, 0.014005714226977712, -0.15002491407985907, 0.08433467863036932, 0.04522265303641382, -0.019088812590731793, -0.00021900225146714446, -0.02291951184962205, 0.1716443633440568, -0.02148141004362335, 0.12975159852107776, 0.018891954488730843, 0.049920971199652005, -0.15896537879754374, -0.047530783951945745, -0.0003559065194698769, 0.11659127159533281, -0.11769533236774575], [0.17812215618105703, 0.037613066290837535, 0.028083169700554647, 0.1225309656134087, 0.01824415845739854, 0.04753092103718914, 0.07426614561678296, 0.09100836135688047, 0.10677613210682387, 0.07153725306338114, -0.00610594249559648, 0.007057835259674213, 0.04903848131484492, -0.001783880529730769, -0.08320503555329717, -0.03608475791077281, -0.16131626935386892, 0.007308813860384941, -0.21369866812788743, 0.09508435017738313, 0.06502820363025451, 0.11016993586746487, 0.06576227274040046, -0.01791875734084408, -0.10061677290090709, 0.1096387802860594, 0.1962368856827681, -0.10378834605070703, 0.019640315980729073, 0.03164635110010068, -0.056461649251863956, 0.1418057319570837, 0.07971897030738304, -0.2360176620901587, 0.058649181053658274, -0.023379782564448205, -0.13794339516867932, 0.07996735441835182, -0.33726464615546864, -0.06884231897553914, 0.15424667474902334, -0.20600280575156615, -0.02910973423442733, -0.00038683347108749676, -0.27966697410190916, -0.0354682757919229, -0.048141091737348075, -0.1469599724564904, 0.05251280493055848, -0.020438358561396548], [-0.06604113057715309, 0.08209320418927041, 0.21784341637395835, -0.22166712418259177, 0.07394311617661412, -0.014922564042894609, -0.2287812822334311, 0.19830310544686916, -0.10025509498827108, -0.33007982586729623, 0.19498376336398812, -0.04602959976336193, 0.15999848010524068, 0.10802432824157154, -0.022631662824898, -0.19365128415944913, 0.01757792816501408, 0.14717392094692786, 0.01389989340953996, -0.12257105612102662, -0.08013685181918552, 0.05385659304228495, -0.11400328653177344, -0.13830319012137957, 0.06712107879403151, -0.09122590343923065, 0.09037263433047826, -0.048957043402657184, -0.33107535462885823, 0.04451399206055136, -0.021399253822578596, 0.10020970192930936, -0.020072110377144656, 0.15213741455196056, 0.2124464285771627, 0.13057963905202877, 0.043253539322816344, 0.11612771579246506, -0.22452954611554302, 0.13144366911914887, 0.0010459211820182952, -0.10273985027480982, 0.21100931883266322, 0.08589122034867361, 0.11812617434961335, -0.0015215819021257672, -0.01911970708963881, -0.07511355273175122, -0.029935240259780838, -0.14640219944879707], [0.04355515220106414, -0.13904470298239502, 0.014126106064969507, -0.05962178055067116, 0.16953684366995295, 0.044833101659303654, 0.09654755016547943, 0.032602258484593326, -0.06611765851787095, -0.1040771974354278, -0.055266181412823134, 0.10293078058439255, -0.048240800643708254, 0.18655415392893168, -0.26206292338380466, 0.04664788201605427, -0.10552194897283734, 0.15960695288762958, 0.012180602325275455, -0.015942871565373322, 0.10058937078749618, 0.013348776450850619, 0.06085661102198907, 0.05075887176727882, 0.061051063221634845, 0.09045003154287685, 0.13090289930596335, -0.047002007174297505, -0.11125643542732071, -0.2126271411674958, 0.24671729641923704, 0.0674986898107208, -0.09788171078924116, -0.18813863990332108, 0.03865304302003808, 0.017121841567268627, 0.11170163530688709, 0.296793396304598, -0.04026224785288551, -0.3067441282821021, -0.09253622572091164, -0.15425356117259567, -0.0649137809089498, -0.008256395084178884, 0.16135469166541835, 0.003526722300809572, -0.12065850517764383, 0.013146723977645805, -0.17712282627568396, 0.004770467902936626], [-0.11942946839272513, 0.0775212488074498, 0.0076946728168077825, -0.13337327473325705, 0.10965841122831618, -0.046932035578939726, 0.008558120512580274, -0.04269150955250284, -0.11686929931795367, -0.17077955679039006, -0.20689208405767567, -0.05054920068389297, -0.11519773087024804, -0.055757705348759096, 0.033274695005051966, 0.07415972693862903, 0.10500090876491366, -0.05130523669930991, -0.019582644450104103, -0.24426774600750603, -0.1557864069360723, -0.02879625882014639, 0.1410152198327806, 0.044515764128628676, -0.26600924240199814, -0.009598033587558787, 0.016605190378280267, -0.06300619866737307, 0.1014458987140796, 0.004807732221417015, -0.05984676579783374, 0.07021956740457087, 0.0033020467879820888, 0.03835442656402213, 0.0886684919380509, -0.11887119705083928, -0.012898969273415035, -0.03740663506705407, 0.07944911258447597, -0.11827844059130883, -0.011784648747377967, 0.12836306221979862, -0.14136728473527493, 0.012459543784258472, -0.26058502521056504, 0.038748321539414515, -0.09280305554765482, 0.11405078718297597, 0.14303589110831103, 0.0012942022712608512], [0.04431244052987733, 0.06285876836118667, -0.09144263794437663, -0.01797483530338751, -0.0029551981712767662, -0.1690759418660498, 0.04349243406077723, 0.1818107343763155, 0.24445492113596756, 0.1095009147585642, -0.011468654232702546, -0.08292393537955883, -0.09217631791093438, 0.225509339088437, 0.23774753412427857, -0.0428272882644408, 0.0009936283797991096, -0.05211502964932524, -0.15056589104589788, -0.1636174355356133, 0.10242342126760419, 0.045106065650231106, 0.21444110086799223, -0.06737755341101742, 0.012264700523721231, -0.10257786300642889, -0.04808609383352826, 0.0236229401165434, -0.003823439612724319, 0.0790031613584133, -0.07181867370105093, -0.0457709871683984, -0.005250410385818406, -0.09907796894778634, 0.005602216037125728, -0.11534717132143499, -0.032577028502180534, 0.11737429936878291, 0.11410777622903613, -0.16178216252624478, 0.09132880006911691, 0.07933088299004853, -0.05203553801721823, -0.20093150573045293, 0.15398550149157708, -0.06956266403288287, -0.009664229319476894, -0.03980489245711002, -0.06894898270215907, 0.004297669413181223], [-0.23456251700832334, 0.01657896899715477, -0.281066427801027, -0.09196571174879012, 0.03189552580240414, 0.09817189893906537, -0.05585598775539156, 0.07855353485438901, -0.033037644178189364, 0.015270995600652346, -0.07586835777454776, 0.0684451447954835, -0.23500356456282434, 0.02839748550442532, -0.023975827795524686, -0.12451343379588792, -0.06544816243714763, 0.014999851664633385, 0.02072201144023202, 0.13740970810595973, -0.027040682331935646, 0.1108292105030303, -0.04164096207448176, 0.019087715754226454, 0.09667029846743935, 0.029989078600971365, -0.10676961157865722, 0.038088239280934036, -0.09967255388771688, -0.03384817110589321, 0.007797852028321006, -0.09928832254516595, -0.21602256723781277, -0.1699879141588192, -0.034064499463895684, 0.1477813426064488, -0.029293300789672745, -0.07313582317373254, -0.2167129103303143, 0.07967720589948046, -0.10932234011156745, -0.10989469347570845, 0.027673364341701975, 0.039788531653777104, 0.023997615785206882, 0.012247579005567194, -0.07255687432368234, 0.03828747414168681, -0.046145924540111224, -0.021905012465687615], [0.12908425534796023, -0.08781527188997154, -0.045782636723580156, 0.08656193675815121, 0.026001076744180653, 0.011198238897341768, -0.08745433614861026, -0.009793296202280201, -0.09628078225623204, 0.1289397480695312, -0.054065745771368204, 0.03398294842011222, 0.2153639020326219, -0.1383707057992619, 0.10013629396891195, -0.1539134047649997, 0.04853353222410674, -0.08247158275309799, 0.038534181075055476, 0.13087749830738568, -0.09377718614694261, 0.0768481766833018, 0.05978663449862907, 0.03862387849334213, 0.05673949830134709, 0.11219524670682311, 0.14866803948080903, 0.05065927224189776, -0.06313591974722359, 0.03693514885713145, 0.06787813191729591, 0.17637041315299612, -0.19384495275552502, -0.07201974927815943, -0.07821465892115693, 0.05690008105697478, 0.11155729167474054, 0.03772425633069185, -0.05893746983885455, -0.08482822536537453, -0.00906138989855318, 0.027518942139868698, -0.06881531550350799, 0.1511576467707516, 0.06325414012954964, -0.12675167305509277, 0.1185377297904185, 0.0578322170649328, 0.05959139939961218, -0.08776398082437448], [0.007266667438776015, -0.3475604499921621, -0.10023636868313206, -0.09374108513953602, 0.1666131063365536, 0.13477159746887282, -0.09675528539023755, -0.11207617134719731, 0.06911219879232476, 0.07334453068527198, 0.28533384846352394, 0.11675524919499497, 0.0542434385255124, 0.008499911226358616, 0.054832415778919986, 0.28347744543490555, -0.020945644060027916, 0.04971457343714745, 0.2497158052432952, 0.15995555321228103, -0.07720070368406746, -0.06970045040070483, 0.0067677414070733445, 0.01432708080736934, -0.11170131140817122, -0.10030368297382311, 0.053764750341203586, 0.004428921610311348, 0.12441130218224486, -0.12564132913460366, 0.012366169819165034, -0.0027343443552021503, -0.11969693487466038, 0.22277321563348432, -0.005403913613692824, 0.024929771705073635, 0.13143381211624036, -0.11629401626903049, -0.16421046334967385, 0.2661006691141803, -0.11951981572230126, 0.009707496388759418, 0.09667623684674341, 0.15922416903253567, -0.1575799491308438, -0.10024175025653884, 0.01802515181638621, 0.2901771043506655, 0.10560249924432473, -0.0375990963577664], [-0.11271558733743525, -0.16377340195464032, -0.07289261195161889, 0.07211194142315679, 0.040795333468478245, -0.11012242665445372, 0.10085102051039696, -0.09768526169247582, 0.03748636542252517, 0.040280494786855574, -0.016621065247591257, -0.04448868367229037, 0.15813065863317433, -0.03768550722238284, 0.16998092960933192, -0.07650289799192762, -0.009047396541284353, 0.09980515299070639, 0.046277389554153496, -0.014859805359929493, 0.018213043325254148, -0.011717431438147123, -0.057193968938411124, 0.021891809892634465, 0.09118040152877387, -0.023527699163674795, -0.1433456926638554, 0.0022015127851924316, -0.0034152510025965126, 0.002337384225607003, 0.06984393757335342, 0.014681932465610984, 0.044270662270825135, -0.04644167882544343, -0.055613028689609253, -0.04163488844277058, -0.05209312120797568, 0.12920503521094379, 0.18886747754015498, -0.051736024711100344, -0.008336302620240639, 0.019626275203414548, -0.24442811154960864, 0.052580418404549474, 0.12592518927142932, 0.12113394565343423, 0.007328802966699698, -0.12589838980647364, -0.1993995342763505, 0.019941063293649516], [-0.2110563672825909, -0.011820838520210243, 0.005894851069008983, -0.016129577223377718, -0.08591069002711325, -0.10341762839117452, -0.1759852460609548, 0.03638999574268006, -0.14269927298410953, 0.10475076914493903, -0.18182533203483103, 0.03869829281504313, 0.17866339606177065, 0.0026423304383424596, -0.14533755210569327, -0.0724610362941404, 0.08682180125705931, 0.07264409306127045, 0.1292433239844921, -0.08183545898634739, -0.12371608672494333, 0.04241420879761532, 0.0058132591605805336, -0.15081891063198874, 0.014177765651284086, 0.10730422139502607, 0.15604177508505296, 0.034740891268797466, -0.0648076471430906, 0.16800711314037695, -0.06438378124344919, -0.09347289217289417, -0.03684783749918562, -0.056000847160980964, -0.09463910381499242, 0.0002374233697197013, 0.09580697899215368, 0.0647452299926203, -0.0647933872576442, 0.015033499411490306, 0.11722250091330436, -0.13363479210062673, 0.08449997069985904, 0.0752691074202403, -0.09918894947025922, 0.014986087523205356, 0.051558646629669906, -0.012947768906300101, -0.011994937303330786, -0.02481826919091703], [0.08955785834289016, 0.049007634888344434, 0.08774365228010472, -0.05153663966088215, 0.0749398328771146, -0.09913716460807027, 0.01825001466630048, 0.050943237681888826, -0.04023028676594762, -0.09886537224819543, -0.10213144747431376, 0.020795269716020505, -0.0693862081885784, -0.07889616667404435, -0.1436421950918839, 0.14821446377257774, -0.008727686216933756, 0.010495630524148255, -0.06339202523255444, -0.029358227172471732, -0.17802749635881818, -0.035984651971954246, 0.061503680520501716, 0.016007837190771933, 0.16165589728344662, 0.1642012539272909, -0.2470726656798653, -0.09691320409439506, -0.07040031084151167, 0.12395565616514823, 0.01354548559289065, 0.11373981177277655, 0.03666750081754065, 0.14884156166807885, 0.01712176894833205, 0.0295832963578564, -0.033570483758336184, 0.07484586437931201, -0.003814549322134444, 0.09006274406502077, -0.04416700686356544, -0.11908333089358492, 0.05741015298371605, 0.25694542940757836, -0.014970153659105801, 0.17553223539353535, 0.019591809153834544, 0.08642855426407114, -0.22150044581641315, 0.09065574781450564], [-0.10698816453556262, -0.29739313290673286, -0.09226887955898802, -0.09590146353910292, -0.011819355371302562, 0.07583651887031151, 0.08607682466381582, -0.05061151315263895, 0.10081044334114975, -0.06761522036117527, 0.19366470668280134, 0.1584951205914316, -0.06389664774547188, 0.10773064051123654, -0.145759308414377, -0.08606031186026297, 0.030446376592696164, 0.07857234478691298, -0.05772364961054897, -0.05292727588135652, 0.10785024843786423, 0.12678746816304634, -0.15608070823459275, 0.0955652510046194, 0.10409831487780329, 0.08075345276056123, -0.20624074271340725, -0.1535120806649088, -0.043413133703513684, -0.1609873361579527, -0.07089685751890117, -0.06392638162145978, -0.11240599252541779, 0.04625969925399472, -0.023493933630817324, 0.049974317770184934, 0.11368938177399845, 0.07007302322911488, -0.005070471730698269, -0.2247196960660876, 0.005973701137034365, -0.052271876777160046, 0.10190342818657323, 0.013533211304990484, -0.08661608435185958, 0.11085041165698023, -0.23936753140916675, 0.0686235605244535, -0.09703525900231193, -0.05889279587250945], [0.031493955543488154, 0.012195272289838854, -0.08415632716996019, -0.00429236410367996, 0.0036589496489696748, 0.11398326549061717, 0.03160891591053744, 0.1250790416847287, 0.08119811055887548, -0.028238624970104174, -0.11992745158889616, -0.020332923879336964, -0.03448048657991572, 0.14151347312777474, 0.04117180532715624, 0.20890272387634093, -0.03710701320325088, 0.07997897361375322, -0.05945785587285614, -0.01748779413204557, -0.14967350911151958, -0.04232152568765598, 0.15857725411755308, -0.028834253997283246, -0.09406244394388029, 0.03590299012899448, 0.1447589052485066, -0.128897516680807, -0.08750117996126615, 0.013568686597028137, -0.15593330906900005, -0.08167391720427931, 0.1624862507509546, -0.001881833674351086, 0.047826461845696014, -0.11191015213320063, -0.10384152854106679, -0.0962503505909252, -0.039281912655691115, 7.00108528811378e-06, 0.05256726477446408, -0.04860153677928439, -0.16744233595210284, 0.032962793800987385, 0.009502588296907352, 0.04791622183123609, -0.09320131913989527, 0.06983960788589978, -0.018412357231340163, 0.2298183169392595], [-0.032647253017326176, 0.16219774840692497, 0.06371069694825493, -0.03171717578360615, 0.16536842229028448, -0.1978648092491563, -0.014799958780760559, 0.14299026424287894, 0.16568287102109805, -0.08777959973634379, -0.034314771986734605, 0.012887846999156098, -0.06242586705697448, -0.025543117062787078, 0.12650540859115122, -0.3096829684366788, 0.010538559694272621, -0.06435793178034187, -0.015471620565677472, -0.1008598463877759, -0.02395983718267014, -0.012109568546344925, 0.1710337417101043, -0.06273982960312115, -0.11552215049362874, 0.05528147688110006, -0.15518333755734356, 0.08167385867145371, -0.08229666826479712, 0.00757796963919835, -0.07032087037991354, 0.08785322179869665, -0.04050637769643024, 0.22879313874412746, -0.022916732037741066, -0.2844234856546498, -0.0873752858826687, 0.11543233652358498, 0.05465121031240559, -0.014918313893323133, -0.04159997177785567, -0.1361596867865472, -0.05376405747429058, -0.0952778503805795, 0.1192083400541745, -0.1272948061933281, -0.279651917812807, -0.04549288908500315, -0.06812649944152992, -0.0355761277343588], [-0.16808716360170117, 0.1743976886729471, -0.058959742780191116, -0.10888164617361087, 0.13839273122059131, -0.15122009837695324, 0.03063648039299949, 0.06841505766037474, 0.07624291761260542, 0.0179505466211324, -0.08088039076603587, -0.1581266815411137, 0.027003773938883424, 0.2593201275679625, 0.13570379734423893, -0.15636227645811096, -0.04781423055384586, -0.15122413846837338, 0.05396940777040221, 0.05684125768445145, 0.06793316807732, 0.13855979784779549, 0.05555771308865433, -0.04195760860275298, -0.058420461412722995, -0.014916879371432698, 0.019071830181084617, 0.1294144534063577, 0.10420667402597236, -0.0447296746164567, -0.0035916099766929287, 0.10986723076547328, 0.19454837637827344, -0.11560726999989268, -0.08550760883681259, -0.07293901851867801, 0.04236286170596212, 0.09724569439064905, -0.1837206417529193, 0.05794139337517483, -0.14160740864204116, 0.0075106716886463604, 0.14827563378165873, -0.012830305591213668, 0.1665879452279999, -0.17400841700666098, -0.07610697397735883, -0.24333975876390285, 0.04799492192737889, -0.03652784532908441], [0.03562721092761242, 0.032100110135968175, 0.14951161556991938, 0.054307873286917635, 0.12525906375829857, -0.1928263622921538, 0.03668777635240893, 0.11492780189540237, -0.05090349925715453, -0.13949632662197417, -0.15900843850875754, 0.04172614044948396, 0.02486837755754223, 0.08143894234624063, -0.06964287222278435, -0.14219227121636485, -0.09223086486464596, -0.0101028866159847, 0.12065808661929377, -0.061030307100057725, 0.0663066699908941, 0.22487956738629555, 0.04878739511008413, 0.11316182775009141, 0.05541667101528131, -0.06891061285653098, 0.09273067436733753, 0.10609537782437557, 0.09122502209337345, -0.029028214135075142, 0.16834907764097098, 0.05424009657959586, 0.02045430997721829, -0.15937629575310253, -0.026201875609924808, 0.14801320209402533, -0.04046638325412648, 0.04926727406456301, -0.13223452936094915, -0.11304689240556022, 0.06200485072062762, 0.0016330794309921555, -0.15102267130566216, 0.09753995112632188, -0.0001434573386893598, 0.004632577980194655, -0.13156449727363892, -0.04811987467732657, 0.06040418664901598, 0.020784493856989245], [-0.08268929162960564, 0.10431762965466988, 0.15683726625188946, -0.17431254188956152, 0.11649758590086678, 0.019309107485189436, 0.020266855288666098, 0.06156410955262298, 0.07026247736420656, -0.15177288943272013, 0.022127482261779012, 0.03419037099084316, -0.11033099984329196, -0.05192184431788856, -0.06629196392367331, -0.2597091421105477, -0.15931420091731982, 0.039045054784914046, 0.12711306618063128, -0.21579932902174204, 0.0924916219391674, -0.10221073932309722, 0.004437187900689369, 0.01142666156469459, 0.24498850018729523, 0.07637122536123114, 0.2359200958433042, 0.11901495313198457, -0.11423521999615123, 0.02415251019047593, -0.07849162089151294, 0.09164321079549687, -0.124820797682124, 0.028666959530954546, 0.1639427206296945, 0.03251869089136761, -0.13520459676026286, -0.10787001398839018, -0.1790803865338443, -0.044402254705753166, -0.07136824498818241, -0.2043257967143, 0.13834998264934123, -0.07876539192934523, -0.008971808930856064, -0.03121097399935502, -0.2802979887289934, 0.11672349573662286, 0.006921792520307019, -0.06673406318902433], [-0.2048556220249727, 0.1837144764720566, -0.023110666812726322, 0.12037690786702697, -0.16228869284557063, 0.021440649935513652, 0.1288666177496711, 0.0014978060839832858, 0.07445664760248434, -0.01923673649961193, -0.09767268231079462, -0.0957593680100959, 0.07622686435056455, 0.10531288411277973, 0.09777801574253447, 0.013937853603986498, -0.0937554049820012, -0.04070252515729895, -0.09442571918511325, -0.03370700897049902, 0.10725821985026011, -0.018444921341698315, 0.04789628006061205, 0.054898936531459885, -0.09491055864555674, -0.02690595124884067, -0.05179136618133153, 0.0072005451703734576, 0.05664786131958556, -0.09587880904663416, -0.1660366927715457, 0.17307248321742646, 0.1735519037512592, -0.02761100048286301, 0.19226088899463095, -0.10017789488917526, 0.08322070079518694, 0.09677024240975678, -0.05489640787235847, -0.03440953977162082, 0.08247765918845076, -0.010148495691512997, -0.05029791944054361, -0.06361430335538647, 0.012007554763388075, 0.1326828167810943, -0.07734935481376042, 0.11325961557647858, 0.003382684209744686, 0.032775481954839224], [-0.08365189980018077, -0.15156460529902288, -0.03791726817708629, 0.10641575090401426, -0.12070317556750924, 0.023792959196512385, -0.0068492469162153395, -0.14137327697609142, 0.1536939456816264, -0.026856484995301674, -0.1318372053626823, 0.024743504358640915, 0.09559662285268128, 0.14657526634871826, 0.022404402991471478, 0.0347164897409373, 0.07624477303730581, -0.07378543156730935, -0.11940978615112971, 0.15227176401870457, 0.007772215329847393, 0.06358953463815288, -0.09422886324510449, 0.14513335513835293, -0.021348310350541962, 0.13748566733670955, 0.20922200595192467, 0.13894120178685462, -0.08948717693461374, -0.10026345978849388, -0.08589681796698047, 0.11584303517598718, -0.022060523549924244, -0.1878079382615967, -0.0847847275000963, 0.15827233195900806, 0.08340595923164998, -0.12652542740189082, -0.03528372877147454, -0.10590503699606511, 0.05470186539263583, -0.0005059939883466855, 0.035976384986880966, 0.017118811776385478, 0.08618653334808402, 0.052064066477367214, -0.04002373877429538, 0.02515971161031321, 0.06736463510486675, 0.046895802981818904], [0.030015787580015243, 0.17494667156979052, 0.029918573652728375, -0.030725564766237633, 0.04429670086094106, -0.06980044477901642, 0.03785125327028949, 0.09855703995202275, -0.0328303420494404, -0.0692646787792736, 0.05183975540528407, 0.017507099036878065, 0.08806831672287181, 0.049698501100430184, 0.059004581225155166, -0.1508999457135135, -0.1845936039781286, 0.122036589334816, -0.023348417765272637, -0.023823621083703287, 0.09834610504051924, -0.08560004601122902, 0.006231608981400948, -0.029693349799853733, 0.11538690999934999, -0.1422920626718, 0.03315454145737241, -0.011327167331411167, 0.08256801566877271, -0.088632595856507, 0.07203102311860086, 0.029302233503296894, 0.13539617153899708, -0.1890094529166167, 0.19391671498074906, 0.0004606301183973146, -0.07518137371597566, 0.21538615268761985, -0.11713265107871373, -0.1887490797039538, 0.04394723068320951, -0.18520697007479853, 0.14838422598981355, 0.05730405806067303, -0.0376805166743441, -0.1282389518078946, -0.07969589982816694, -0.07198078147682865, 0.061583683729718036, 0.06322315736113035], [0.08527371419788976, -0.09631863917060844, -0.03279486918797983, -0.06307910912701287, 0.06254545191521313, 0.10296141635208275, -0.15986073827225833, 0.11179799084704668, 0.04949020512961586, -0.12256089746159646, 0.12411584775325676, -0.10652195710872281, -0.17218226734241834, -0.13347797311990234, -0.07139527222870166, -0.048208390654954414, -0.025809830156756128, 0.06903204775784044, 0.03061356833717232, -0.22192691224243002, 0.03618620785163884, 0.07365746021670162, 0.011966410854490107, 0.2082516778569615, 0.035174092103505576, 0.063879824967412, -0.005318186116514411, 0.1740213634815836, 0.09668622612117195, -0.013479534802806626, 0.10911146907545144, -0.005644982319377322, 0.1727088372264792, -0.07207975696685254, -0.23390116246280715, 0.06426008189935419, 0.07014776652273635, 0.09489149645655207, 0.002767468209181185, 0.08714806519546595, -0.15292176588747317, -0.12739592787892454, -0.023739973220269106, -0.13269711573556295, 0.07936061185851973, -0.1673864824093916, -0.17765258788623997, -0.17665486671121955, 0.06251903611669109, 0.02062092167081639]], "net.6.bias": [-0.00999992327322877, -0.00999999049948402, 0.022249791508748725, 0.0, 0.031223942946042926, 0.02852259776930579, 0.0324084169416775, 0.03878414304803523, 0.028899848174269358, -0.009999997238669171, 0.029584943280660983, 0.0, -0.00999999857594, 0.0008105115776204022, -0.007081088674099618, 0.0, -0.013622212507359628, 0.0, 0.02278770710687478, 0.026631117791837376, 0.03362334486274778, 0.03397636456444843, 0.01748843839230188, 0.03333719654746531, -0.009999997187989463, 0.022269024263181662, -0.023850080943578815], "net.8.weight": [[0.054943822045291406, 0.10332780556731441, -0.0032592932455727756, -0.15996360012508426, -0.032304910890522474, 0.20977457399864105, 0.07521556270251056, -0.03736853753025047, 0.033830689352164704, -0.02769537424966974, 0.10509097947031436, 0.031117032862656387, -0.10012425518695696, -0.00563811924626802, 0.08740758279581375, 0.11627139338639735, -0.0004998689476500302, -0.07732118264248339, 0.047964422991316195, 0.2568149009841169, 0.025957592922800594, 0.09417427626169259, 0.03238408284449458, 0.09785465131454212, -0.1110237318002955, 0.10075455876392503, 0.019672790410068614], [0.20342205298509555, -0.006336618419188979, 0.03141260572283528, 0.1774051238014529, -0.1863036885433857, -0.12122934110353024, -0.15902663254872607, -0.09013694173412926, -0.12992854804244694, 0.1739815731180976, 0.17019411073376756, -0.00881979797834268, 0.05901780087719314, 0.06032793077753467, 0.038930076140904574, -0.17244187850226672, -0.08422519525857988, -0.14098606071820294, -0.007371951549935484, 0.017896090330296186, 0.05192981193344126, -0.13788730797505233, 0.11662156453315944, -0.004592712224200308, -0.09740264258039627, 0.015280150424427317, 0.02883282418814395], [-0.09131016232399375, 0.016560904382320715, -0.10240322387570146, 0.059213859302262466, 0.1108422691940982, 0.022393251944288355, -0.026361808359937036, 0.13140929586739333, -0.06221336455228773, 0.1451469498053113, -0.060833593051716026, 0.02423225123317331, 0.1317092660026341, -0.24884812417094176, -0.2890342075396859, -0.09823292656953758, 0.005794343288759123, 0.08246687429910973, 0.0895728953737535, -0.04022818614540871, -0.11282302684434858, -0.056120854752377325, 0.033654130496106695, -0.039688567620945, 0.07623824586828502, 0.13164749540778178, -0.039887279617039285], [-0.10505232910321023, 0.008620272226798923, -0.08919041367750018, -0.06962411598868339, 0.07727756262849138, 0.05255437215472335, 0.1095584352439639, 0.21645121263892828, 0.09808543638144926, -0.0036476741070459087, 0.09356771211417686, -0.0927984464438844, -0.11638196836702314, -0.08515061903295598, -0.218008867045578, 0.06140752605747806, -0.08505336617282354, -0.04274781627554291, 0.08731916702501478, -0.023817519605834975, 0.22502835662017495, 0.12802388308742949, -0.10550716839537129, 0.22602792090654994, 0.008745221382585596, 0.1485081213102392, -0.03316314726374023], [0.06782975245892912, 0.10138531504716247, -0.1976076726570095, -0.014311809901542002, 0.06227304400122738, 0.021856513918858518, -0.05663434683749139, 0.025202247662660777, -0.10992079274307631, 0.10744768743247711, 0.1654802879874518, -0.02599323109872466, -0.02899368304559596, -0.23623603171017066, 0.15469334067582172, -0.04397532643117973, 0.002919683159662478, 0.08509580129272559, 0.02693510072561424, 0.044639762395072724, 0.04367193602130117, -0.045352920095677915, -0.09105265935544954, -0.1809979105569797, -0.011571945418188474, -0.1044514413265562, 0.09805244192200074], [-0.019295856271560705, -0.1655204191946018, 0.00272872875114207, 0.04690356428687006, 0.2859132473168765, 0.10588957994402946, -0.02293557602980287, 0.08134492206849964, 0.28090294070069166, 0.009870498182153548, -0.1375777630173473, 0.17236002113252924, -0.06079220066011345, -0.13279522775720717, 0.0782224810584926, 0.07310114388639348, 0.12028707137294987, -0.005380178485058875, -0.16008945407995315, -0.04437421558580415, 0.12298174599822545, 0.020074051578202516, 0.18854498180444795, -0.04878920331394503, 0.05125556206719743, -0.0807047687731773, 0.037345115546072644], [0.1449393960847347, 0.08441342610045437, 0.055277652408292334, 0.03712875324881467, 0.06088361691706694, -0.0046704272176257815, -0.0719570829351783, -0.11069348092618207, 0.00746903534893123, -0.12390788325036249, -0.0011108194638934261, -0.1876442629440152, 0.10161222589561357, -0.018419691183800088, -0.12416953884144523, -0.06345187460892572, -0.025774687964150424, 0.06850604487650193, -0.16461079299829273, 0.025795454666195036, 0.00016569004743594538, -0.10058397313969214, -0.025090226837152403, -0.006000661295137769, 0.15764561341415761, 0.027319406205405232, -0.2714653641632198], [0.10023136129444687, -0.07515948419635388, 0.08789953856496477, 0.09497417991455238, 0.046792521057795175, 0.06756584855327256, 0.027944597772604506, -0.2448312404606087, 0.006394248609943375, -0.05798647273361465, -0.059581925339592105, -0.052611325668723986, -0.0775215662203702, -0.03775026218551243, -0.051210610398670135, 0.05763488334704897, -0.09279366663294472, 0.01641220747969027, 0.03859268104897774, 0.05270976311743582, -0.08428749238173575, 0.056911865139728283, -0.04492520563453969, 0.007329085544996579, 0.08370260235733248, 0.02960629435736679, 0.09584577476955809], [0.10235030275227078, -0.14767482243116906, 0.11048513953737239, -0.021955742553155078, -0.13695806648317754, 0.12947770704168285, 0.18947234642388758, 0.02240799149356302, 0.1997716870531637, 0.14914189472163067, -0.009755018591443043, -0.05567085181569803, 0.1661300235826828, -0.18559737485599379, -0.04460233330819955, 0.1257069381959725, -0.18184351008807487, -0.04904763100901214, -0.016825498854111793, 0.17767269739701, 0.060194232050601544, 0.056008705876096, 0.06843959134196403, -0.06690629935922549, -0.2353244149768998, 0.06985316502640335, 0.010275303472407306]], "net.8.bias": [0.022833692775945894, 0.012709844493024888, -0.02671952295253909, 0.04380111884108165, -0.00999999930785156, 0.005157638155462323, -0.009999998517145368, -0.01761306257314791, 0.07181344918285078], "net.10.weight": [[-0.02220756560618935, 0.06297379817687737, 0.14090207574121563, -0.2119032600777348, 0.1755940586446825, 0.05461333492037507, 0.06644914637886827, -0.005992855417928261, -0.2020097042528147], [0.14489900538312686, 0.0777769390121339, -0.2185696210933761, -0.024986796999486707, 0.14733650519869265, -0.0942608989506648, -0.0681205330845241, -0.11122062998606197, 0.002461621881880371], [0.11704247541023477, -0.0577061845955732, -0.036911049716518464, 0.15756667028305335, -0.03239062083424581, 0.14670351521403793, 0.003720801247532858, -0.011193236321176905, 0.030029009670745406]], "net.10.bias": [-0.07469689245202517, 0.05652099309980328, 0.010657598784613446]}