{"net.0.weight": [[0.12378917510747862, 0.21242726900876246, 0.1287238936424781], [0.19408147174594137, 0.15177834008825078, 0.025290931742939327], [0.07336088805230762, 0.1928622252866281, 0.1549679036114608], [-0.07374442172600836, 0.02311161859235921, -0.14350231215408743], [-0.09186218577104116, 0.2486854118387775, 0.12648905149333456], [0.007008972618027513, 0.05486362437627209, 0.11620354977015014], [-0.025992977731581757, -0.02225714166496703, -0.12304264077634919], [-0.16872309348040362, 0.11280494262804636, 0.24249714537229425], [-0.014459949178807403, 0.22863594488855973, 0.20645629609641808]], "net.0.bias": [0.017766365860938518, -0.008692464892201546, 0.01966278867267433, 0.0, 0.05330453289074697, -0.008773390206214104, 0.0, 0.09383169449375857, 0.05283582598439348], "net.2.weight": [[0.1631407066673685, -0.011079285514100244, 0.07453079202609757, -0.14712284002348044, -0.0686446494715042, 0.1593376702048193, 0.09558527615675648, -0.23336905807837974, 0.06917113219609361], [-0.023677794222990305, -0.18575532853534052, -0.026578495473657416, -0.16053041372369026, -0.05048551220386355, -0.046731376170584, -0.049637279704176133, -0.10439241792126203, 0.074889922091216], [0.04949035395811631, -0.19013946585149868, 0.1688128098766518, 0.034398561063027466, 0.19022627469894302, 0.10042630781160264, 0.1457378396182547, 0.1800258692867235, 0.012393498461635127], [-0.1004464345339651, 0.05434913845741628, 0.03350483930241285, -0.05301845400645702, -0.071061245384516, -0.12562849032767018, 0.0674151389245872, -0.04124681969263931, 0.0985017903445108], [0.024288918249663474, 0.16941806005000054, -0.09477769617323663, 0.08796583330762832, -0.20748825127228618, 0.006626746148970963, -0.030970000624747016, -0.26387415700989814, -0.2643601692914198], [0.07335188562649422, -0.20357963145796643, 0.029200092264330166, -0.1772811865672421, 0.10675805158092098, 0.04014149804553314, 0.15323023068918754, -0.014362271108685444, -0.049592777411773814], [-0.10059005473190907, -0.004211457776778649, 0.05224629533938871, -0.07853715412787245, -0.1532520217918667, -0.08431763802180647, -0.06534874332994142, -0.06362267755569623, 0.0533185761089681], [0.168718721989857, -0.002261628920908433, 0.20476505416457214, -0.12656416415636867, -0.08178046194792177, 0.10336631008860382, -0.013903421803299313, -0.443862517167819, 0.20069312459709818], [-0.08788842625618025, 0.014652002568445852, -0.01681935247456603, -0.10697463271482961, 0.12717050048837522, 0.08152041533571958, -0.08833569847204413, -0.10503678882852235, -0.00046142431885112887], [0.10447203424706406, -0.026999325850478168, 0.1241899355694833, -0.11680991893286884, -0.00493453080056762, 0.06403331455951737, -0.04551328230473515, -0.04668855173885535, 0.35009086833043396], [0.03772559576853039, -0.019983894415437718, 0.09739624220533807, -0.011246056908219748, -0.11331978643460731, 0.11310195818914753, -0.07344141575025258, -0.15603924352772158, -0.03505703474494732], [0.04929345914259588, -0.06518530339234857, 0.09631846346098254, 0.06306210254656165, 0.0177909773095982, 0.012981233803097646, -0.05246922839586188, -0.034542947516840165, -0.022066148379667312], [0.15601541413112768, 0.24338013382579768, 0.10982561362209164, 0.03834188320219523, -0.16825509434249358, -0.21216087345237733, -0.02846789621148434, 0.014652421118623084, 0.03843219558291028], [-0.05859581261216631, 0.15114588254217998, -0.060980353983246714, 0.0643468721242504, -0.3534616631228947, 0.0835537566948025, 0.025919106467546082, -0.11390169819685061, -0.03955333883855725], [0.07965314180215649, 0.05874364907637856, -0.04082415410906502, 0.14996285907935666, -0.1682024906804922, -0.041290160702898565, -0.0325944233948603, -0.2397111124768908, -0.14844011888262731], [0.013957229402866643, -0.00040075396489987257, 0.14489857299002123, 0.09258518679401183, -0.04966439946382591, 0.08254644546159852, -0.06104738696768108, -0.24467337440622108, -0.049665760186453724], [0.11950519832614533, 0.07870317633339383, -0.09613844577330667, -0.17868226043755497, -0.1339905143164538, 0.013326962603476206, 0.13674624147079692, -0.14682609647051548, 0.03992415636676938], [-0.1431825816889481, 0.028241119436216804, 0.15292329445141178, 0.11809492836350506, -0.0023933324149476324, 0.05442905907810262, -0.018028764172279103, 0.21024413136707454, 0.018236845634906712], [0.10374680234196447, 0.1284023050987452, -0.00390834264070341, 0.1455285617756784, 0.028403640614631083, 0.047532018192747404, -0.06094488897474448, -0.18795842441262048, 0.14906907461614563], [0.003498633979279697, -0.12565101217017094, 0.2555541599235267, -0.021413632819004956, 0.20167611482215692, 0.15201836525708615, -0.05312322012697284, -0.12050846223972672, 0.16876605144115445], [-0.11751017457580092, 0.02948035747040528, -0.027104717091328386, -0.03385830354266597, -0.030068390320189597, 0.08388307124153921, 0.05646945822831795, 0.10787293142464188, -0.16165496958643968], [-0.08133332397966593, 0.06131513992757697, -0.01302764753810678, 0.1208690891084746, -0.06490468907287542, -0.05723549315606943, -0.05659690805081086, 0.1270389303295612, -0.07193905709329791], [0.044251211394505864, -0.03530392092336396, -0.12782094012653514, 0.055459048416855616, 0.23615582961056197, 0.08017728298252313, 0.15246597210177915, 0.13803541168203584, 0.2662848646898581], [-0.3277224917381044, 0.09436821726556444, -0.11498309730198503, 0.019378693921466593, 0.09272961355464554, -0.05054401334648311, -0.07096482748709425, 0.030361764831393287, 0.13618251939027953], [-0.007827217346886454, -0.14773062614278104, 0.03572003884962315, 0.20654409617831226, 0.23722152332165303, -0.09193999997439689, 0.05147910403999496, -0.03461933063118579, 0.033495782410915054], [-0.01793549535898383, 0.06875050695882297, 0.0034729717736537912, 0.06287436551890795, -0.061136626024025795, 0.11230170008147768, -0.06724997600404893, -0.342326610045631, 0.14108803987821428], [-0.002930742360177552, -0.03644944862474702, 0.33781161223481737, -0.10601196504774342, -0.1796293804182454, 0.22328823725953445, 0.1370450846985873, -0.2753306620197141, 0.07583698252188088]], "net.2.bias": [-0.008134395263669256, 0.0, 0.01749810360732182, -0.01640457299925408, -0.0017456335092209862, 0.0, 0.0, 0.029143724485252112, 0.0, -0.00037411916711057127, 0.017983296778474826, 0.005629753324141178, 0.031188688588697434, -0.009519190553119316, -0.0018746896669891077, 0.026106026263789613, 0.004811779540498457, -0.01898945864749325, 0.01643860600698356, 0.05382064894987166, 0.0, -0.021944890110927498, 0.016732948862294483, 0.0, -0.009993936917991353, -0.00925448657730186, 0.019386496817606173], "net.4.weight": [[-0.10820451210749966, 0.18363358617243067, -0.0943647187425975, -0.009087467139861471, -0.14128110117620504, 0.007426128616716674, 0.10429292367530883, 0.14233339056175506, 0.03316955392211407, -0.08571016616179167, -0.048558163270078426, 0.11266559680145603, -0.08679838552579507, 0.13773637363384936, 0.06887896494021903, -0.1904451618808365, 0.13722630388817927, 0.03427075563818541, -0.11097528330373861, 0.10064504841527078, 0.05111866711638165, 0.0800803507933476, -0.03664301234112819, 0.2220682029793185, -0.007780376711290775, 0.06113694878331804, 0.02282179127736706], [-0.0725077626472174, 0.009493715695496237, -0.2633794383796843, -0.11303952256884808, -0.07457149646546385, 0.08425026826184788, 0.02841475076875631, 0.026453664435560065, 0.008415889534572554, -0.01324889108397917, 0.11619283738892382, -0.23159284427290877, 0.17191456006867797, 0.0294417056387179, 0.061737288250057504, 0.15577661131947856, 0.026516780037441696, -0.022237641765128147, -0.008804621740325123, 0.23476728061090435, 0.007733825861563523, -0.05260872352787719, -0.2780200071143011, 0.003438343703992878, 0.10984880283001452, 0.13693346911757664, 0.1790658856688464], [-0.16944189991583541, -0.046666893030524854, 0.17802273674475655, -0.059276024031138484, -0.15057606405114804, 0.08879778851729975, -0.023498496620997338, 0.11919425411585005, -0.06751426380398579, 0.08524701122013738, -0.036552805820281746, 0.004511912101131352, 0.0322906130464857, -0.0708772035609442, -0.03668776958256383, -0.05804005877631129, 0.061058971235167986, 0.023235623710842594, -0.025189888339596685, -0.002771813450428669, -0.0097511713350487, -0.0031072687690173587, 0.06982892735895722, 0.13042844207317397, 0.17915926268308272, 0.13204715268542785, 0.011033888424457494], [0.0981289504363699, 0.11529522863187985, -0.017227251542820135, 0.02571533696058096, 0.10234339455897576, 0.0943391684828405, -0.11933042856163345, 0.1027108909450892, 0.04900416926710066, -0.10549388174939045, 0.04198027566613328, 0.061866812369846085, 0.10418355266733838, -0.01929106294003523, 0.2010323334229266, -0.22245093999066928, -0.052150595294501265, -0.023611035926161275, -0.028797098928700356, -0.06844721640901522, -0.003926803650693992, -0.06935426996149066, -0.1616556462901161, -0.08189382466414341, -0.0031344776946120078, 0.10566349378269234, -0.0562990855994456], [0.34500240613054634, -0.1012345031281779, -0.2961404249857637, 0.012228863503122488, -0.13489651563033356, -0.008411391227312213, 0.06890540382020881, -0.050683743580854056, -0.026136597988492622, 0.055572245952115115, 0.05279184147083376, 0.10564086507509979, 0.03608301038975508, 0.09805993978773275, 0.018076263993707303, -0.05896626045546124, 0.2314563518994563, -0.26041228602187505, 0.016387732014912965, -0.04505486533114005, -0.19018424271067602, -0.0926366490985214, -0.136711056077029, -0.022067427089903457, 0.15209850217354304, 0.07867405244716293, 0.25275658241708177], [0.04167436855437934, 0.2013949268455162, 0.22949085604882735, -0.11274513454671618, -0.3012159438150763, -0.05709961446723764, -0.05050058478733138, -0.04565591560746151, -0.052585438093271444, 0.11593821687310799, 0.015043810163261426, 0.0681499512926519, -0.08256334970417067, -0.12024532099653065, -0.06072715014688443, 0.05306171650502437, 0.08221756995775507, 0.09405610198339938, 0.08455223352213377, 0.09851288406078314, -0.022172382967984076, 0.046461402303893694, 0.18214020074646098, -0.060896068952278316, 0.013924194874770188, -0.18437296032433312, -0.06191532182501105], [0.09081524639389106, 0.183036855186552, -0.08180371811282884, -0.10876009093023283, -0.08492108706331256, 0.003684596905819744, -0.05235684089645246, -0.007106665925575134, -0.029728719177195124, -0.07680079476332045, -0.061442903392596594, -0.0734580354350913, -0.12941960915098347, 0.13475903863623911, -0.0006980991609382946, -0.04846164479541272, 0.008518085554363505, -0.08353336292702061, 0.05355957185036875, 0.040298466855240286, 0.14939450790873188, 0.11729713194452702, -0.042963190570630264, 0.043358548648089135, 0.010347408490239624, -0.07255176325472858, 0.07959081630287536], [0.02638071458073047, 0.07669436138322633, -0.13359819708715806, -0.16425513045558202, -0.04860258792332628, -0.025987309376468995, 0.09768713132528775, 0.012445490403410897, -0.16090572909305412, 0.13509255735519884, 0.2664722605020598, -0.022184507334047258, 0.20112314649787622, 0.08415836021248502, -0.08195883397480314, -0.08333349694215252, -0.007264352891963578, -0.08342976880322268, -0.2798143807551597, 0.168366734533096, -0.1503975038647475, 0.20196487752639114, 0.0684659801253038, 0.12919097572139557, 0.12935062486479973, 0.0799613095287569, 0.12081019150830025], [-0.013822078763094048, 0.0004882682838379571, -0.2505750076055812, 0.14599731003342314, 0.12620187353119489, 0.05197372271305807, 0.09996279281883634, -0.14117901039226674, 0.06851635501178681, -0.09819345316524687, -0.02312483666262393, -0.09770685856308427, -0.06616163395673408, -0.08016268671644744, -0.10674188645019107, 0.048298051282034016, -0.13926384610291484, 0.07994352255581884, 0.08640075897903965, 0.06306719163744649, 0.03975207749741408, -0.08057025543450903, 0.1300433076737115, -0.0655078256087957, 0.042438142961156305, -0.11979365923437735, -0.049334626697574], [-0.01490579771316735, 0.07420168383947642, -0.22425216002366105, -0.003717580536862324, 0.17884729403096047, -0.06756582042772985, -0.044389464674817976, -0.03296070738711063, 0.05402597100115959, -0.19780271635728666, 0.010011700494733709, 0.06839163209301759, 0.22226865471358254, -0.056613771912831956, 0.13031198723166626, 0.1643233106927869, 0.1586992790460377, -0.029412860884166777, 0.25878968493139376, -0.03868545446173895, 0.0013004580383385988, -0.14708611081859768, -0.27617247702395453, -0.10350199931736115, 0.004666405065930308, 0.012321029920578448, -0.25111143938608327], [-0.020743197100885076, -0.07753695744031149, 0.15180861419254674, -0.14237465211833314, -0.14439909083463962, 0.03315319206546429, 0.09116612013892875, -0.014953635294642172, -0.08345144534104479, 0.10289297170558924, 0.04928465918626894, -0.006869655612051211, -0.04746385946867286, -0.1374131773533869, -0.19639695416687994, -0.07855418657460499, 0.06767951832786233, 0.006041395956770334, -0.01538834227702979, 0.027145343584311803, 0.12560459132495908, 0.016428547517361572, 0.39413937610661703, 0.09838979013051861, 0.0009416401458699729, -0.0994664864738355, 0.040988744152892234], [-0.01293236886536684, -0.03992752666334503, -0.29538660970506636, 0.13099938645746576, 0.08597412418057983, 0.11762729342652822, -0.15079169377762322, -0.06046129788769724, 0.16150070079860507, 0.028691003866490258, -0.1915473660489256, -0.21406343071191944, 0.024986505403437834, -0.16540557632285638, -0.10540318428679941, 0.14461722293252027, -0.009527515969821734, -0.046312828740174325, 0.038818945128211206, 0.006717101790342943, -0.04433935635253668, 0.11943235128430874, 0.006239718482597561, -0.0785299520105663, 0.03839403952009482, -0.02617743169177957, 0.054942823618305346], [0.0890947165414849, 0.04673437258126504, 0.002913600091227278, 0.18849735322771527, -0.09096978388020967, -0.017544080160879327, 0.030620656909415823, -0.06075800731315617, -0.049823936730368425, -0.024646308418620304, 0.09598638325050934, -3.183752913808735e-05, -0.0015258949993985464, 0.004065656605579079, -0.004534842386249995, 0.028865058262617184, -0.05489754272934145, -0.0909014077343606, -0.08393022653494762, -0.048578393301614814, 0.021921949159078594, -0.03565202779411413, 0.07116616866104092, 0.004223650282841905, -0.0531382759363706, -0.035406369620889167, 0.03168408910595122], [0.013492836146145822, -0.11903797295250292, -0.02023250961436683, -0.07725308210976171, -0.20552190182720026, 0.05187233404986774, -0.1522508650723986, 0.1971091138755281, 0.006176338837767699, 0.0053805410230964995, -0.0004978340016205456, -0.005592507843543871, 0.2543145048652028, -0.024337311881333007, -0.151377488763937, 0.11609405913358052, 0.06424265514414165, 0.11503150470850697, 0.15133395018971896, 0.05008509731682378, -0.11955268952286058, 0.02489227994326367, 0.06466363954341409, -0.022082138653273627, 0.14929879004395477, -0.03341854623541716, 0.04323083034543574], [-0.05861988191707626, -0.027624933835457922, -0.05011485768066463, 0.19521385143796788, -0.13769793684760137, 0.11955933308185647, 0.022935884481606713, 0.059573934017054034, -0.06327560449743921, -0.08684158121714713, -0.040932335156006916, -0.1626802483375725, -0.13175573200773505, 0.04136976297656109, 0.004258512080620945, -0.1605006937133993, 0.1105608844118059, -0.054843030338542, -0.14903617945785233, -0.11230189569226463, 0.06830157097631594, -0.04790494579248616, 0.1638448200766095, -0.06342708754493587, 0.13313226840143397, 0.07303297011593046, -0.03917420040022654], [0.05528293817431653, -0.11012441971899488, 0.1610966115731072, 0.07288354789725247, -0.027849167793520237, 0.03737323776820759, 0.04336525277049425, -0.11303248199647489, -0.021167225459614733, 0.17569330430401778, 0.07162803436744639, -0.029339018427253356, -0.10530828611032034, -0.10996935197557865, 0.18262054886368442, -0.19018216778887587, -0.24134587710770705, 0.242376374952418, -0.050644188355438824, 0.15666776051569647, 0.06718916903803483, -0.026247863868009366, 0.13852046715703473, 0.0931852248082052, 0.04428732919593758, -0.1046038485325651, -0.2000656186349424], [-0.2600543274556395, -0.060166826336595605, 0.014568042224332958, -0.06850347308048664, 0.14161464927367257, -0.0808521133092702, -0.08129323341945698, -0.1029028730001427, -0.0852709440179446, -0.05095182662609566, 0.1160574901994647, -0.04066026210347419, 0.1183004757094337, 0.01959228684551116, -0.16608278942245608, 0.03516865012104345, -0.08430810018162087, 0.12901235698712707, 0.09883309881506507, -0.11715137932709654, -0.15886232350556362, -0.18944270215779385, 0.07769601057042197, -0.029894472897731603, 0.05220115574224741, -0.025136115077641633, -0.2160174818243134], [0.03133229264796996, -0.026902561629696793, -0.21109896775569376, 0.028112476001149387, 0.02512994262273141, -0.09691594175722407, 0.0071473814627004756, 0.12860443258325466, 0.1840853384620303, 0.1953703121880964, 0.11821149529641813, -0.05365235359441185, -0.08819358748317085, 0.043077743642217406, -0.026611385696282838, -0.13725934903226839, -0.1874260533435167, 0.13498181717656366, -0.1387034591116805, -0.027692300367080154, -0.014758321251843102, -0.1236032943158642, -0.13241435132293086, -0.008307987411325607, 0.02911853053422451, 0.041113514819793265, -0.2114865539073934], [0.12086227799213542, -0.21868810834732946, 0.05175639283448278, -0.277494782863737, -0.09508812897474594, 0.09495811035819665, 0.06390438238518531, -0.01226226017612986, 0.03240910337994569, 0.07635429733382598, -0.008933419207647118, 0.0778931774264016, -0.16595566688952051, -0.08467283365333808, 0.038693054573455565, 0.05109859140656653, -0.09524498811373511, 0.3206144152955796, 0.0002823054430610238, 0.024415398254150046, -0.08013260325537944, 0.006778765548801834, 0.15227692734352394, -0.05464604873674968, -0.028140055728843594, 0.03735362993743973, 0.12158120430347326], [0.06543812823776966, 0.07046098707363385, -0.09335544349131597, 0.06352862631454124, 0.10916723863934769, -0.15007757613857456, -0.009280005513749103, 0.005795301056128617, -0.039461206306335976, -0.13532811274842532, 0.024196362120949222, -0.10391176185728662, -0.00424664606624764, 0.14932703972237898, -0.05453049293413725, -0.034471704949965855, 0.13474055925205358, -0.09111433407332953, -0.0014817335338399226, -0.1539930808250194, -0.11344295507914078, 0.132393860122187, 0.08395089588721745, -0.023452416873414914, -0.06932278940939088, -0.10325839197792276, 0.032536611454557766], [0.0025744791317272695, 0.01870093748004628, -0.20830925470565206, -0.04568110199398974, -0.07299429616162427, -0.022786878774286975, -0.04386071337390843, 0.19628349589905794, -0.13264489722944592, 0.15916191074079708, 0.0956950080823465, 0.05751002345891808, -0.077468664692884, -0.034776581268093215, -0.1930007594677635, 0.12489420046105157, -0.050244518199503006, 0.11366651273776228, 0.06603864559854372, -0.07334221513364227, 0.1619642336360436, -0.05755140766428586, 0.01167021654888326, 0.11459581088574396, -0.02875713171439335, -0.0783964503316276, 0.08189117444066858], [0.051420536752955326, 0.07971285899689866, -0.15364501732156988, 0.13218234186862615, 0.07026868352901021, -0.10471679196734691, -0.13083225635810355, 0.07160895229829647, 0.034264416732375506, -0.1282328829477015, 0.05497223233697025, 0.09962477223239828, 0.07928381942409746, -0.05096469211750608, 0.09695565995760208, 0.004302617980958123, -0.09961321233919683, 0.007320965362798908, 0.19959715861274113, -0.03207391311911819, -0.021912770868316073, 0.09905211779628734, -0.08547115029920413, 0.04129913153646659, 0.06725627780414498, 0.05596764375470749, -0.007146872194985297], [0.015410990349824271, -0.02654616487520191, -0.10343668623058147, -0.06711439396969764, -0.12239429327846549, 0.13940429068914967, 0.07547221969723146, 0.09058773371974473, 0.16311460306561598, 0.004630004979010942, -0.17936215226331437, 0.11835095135553382, 0.1399996468205905, 0.12938132744728942, -0.03490011064447199, 0.09081611399220013, 0.017900867912801093, -0.0977236509252785, 0.1245866403313531, -0.04797420163591277, -0.16284293737212474, 0.03240732665966678, -0.19341256133428197, -0.037612101824681395, -0.1645119876963759, -0.06845877132150253, 0.12591142511225484], [0.02406744598695145, -0.0419211221404666, 0.13782717604377023, -0.09353629257338948, -0.07738356753463466, 0.1577227703741597, -0.15407831890546014, -0.0628310767269086, 0.023590768033275533, -0.034795025259586346, -0.07452363120401059, -0.023176079435909228, -0.049920755406035536, 0.11427474463580597, 0.04585568728886515, 0.09414642636016975, -0.07668092918965196, 0.033957679417513695, 0.027884410320511335, -0.06340237159425709, -0.0015172304552315435, -0.07913068509187052, -0.12264758593345804, 0.09976302545124968, 0.16545348907223026, -0.09360326351785911, 0.06859701899568757], [-0.019081663418016818, -0.07345663365519511, 0.04750941758285276, -0.017110011318566275, 0.0679193220055397, -0.15135701758127285, -0.1206376851828725, -0.015989648640882065, -0.034663135674390666, -0.033460020860532146, -0.2982445557970875, 0.1206388216898341, 0.10120508620913811, 0.06905546017170029, 0.08170671182063664, -0.2570975617187467, -0.08948552236664845, -0.012685454977376028, -0.12289472529747301, -0.10865622417257757, -0.025922318496737724, 0.05528187537340321, 0.12610845753733457, 0.20216865065138215, -0.06719040149691476, -0.011945080569517768, -0.019934660679113807], [0.033373720875596986, 0.20481156765333353, -0.054255448144984425, -0.15041559466853172, -0.04641707109395413, -0.07663138249337126, -0.07807956195916846, 0.10669170915704891, 0.0499438690538418, -0.07495589688123533, -0.05614989139628205, 0.02294861348090813, -0.06519837470143043, -0.05453689794682729, 0.0006193315542440193, -0.03567062590364935, -0.04213417722239188, 0.108425438201464, 0.052252984014139615, -0.12529998330142694, -0.060318232466187185, 0.014797578647522054, -0.0561554296588934, -0.057500346030479044, -0.1047351069487166, -0.17864160076627522, -0.014684468973606533], [0.11338733088477196, -0.030226104630777486, 0.1388475438111431, 0.048775778927521295, -0.1292689243583794, -0.11969370308768375, 0.06167026087579755, 0.07190404789619302, -0.12363781543763575, 0.1665749055082, -0.07610450455054162, -0.12399560368820967, 0.07212845080045235, -0.17835104090204465, -0.18894058047276174, -0.03857702675920527, -0.08697530919477912, -0.06839888551585299, -0.06539919291855507, 0.08357000376853194, -0.18531956924790127, 0.08601524553395111, 0.043162455243248125, -0.014218794187323894, -0.0535973665571542, 0.19026773404845773, -0.026701455278586087], [-0.021642005130393674, 0.005351264026517923, -0.04744241872529155, 0.0026073575768458734, -0.08860162732799043, -0.08651185062780306, -0.1006467436459606, -0.01550644853190046, -0.14340322683704326, -0.13188810010007115, -0.09470529614405712, -0.059154235447206195, 0.01947990801757253, -0.11025632769220875, 0.11042652899565147, 0.04122126742142439, 0.11424706059178918, 0.00865574809343372, -0.10010287827580795, -0.09941260603377426, 0.05910520914944172, -0.10674363125780179, 0.05570481817810113, 0.07231869465626005, 0.08988926492302218, -0.04651593887352412, -0.011907573781421155], [-0.14916963318424478, -0.010823768789908919, 0.10700428962411229, 0.1146621042621606, -0.03400047873536687, -0.02148802803386854, -0.01564831924927968, -0.05077894989699979, 0.1118977774540934, 0.08191676756014711, 0.07564231053328876, -0.049520557483588815, -0.11184305409798086, -0.10908556862973205, 0.1255346539638092, -0.10329670679844945, -0.050124362413734753, 0.04730567730821572, 0.014252656611635049, 0.1320203725550854, -0.020525706774551875, 0.09625291718229267, 0.04328465876181281, -0.15384461215332423, 0.10285264389759669, -0.047422351312420154, -0.03319766213131459], [-0.01593675936473001, 0.11442158293733662, -0.007575070184465505, -0.007447909150484731, 0.01600512591941098, 0.04416434340528672, -0.016778420299744096, -0.040948633679498164, 0.007840189382842203, -0.12485360697593545, -0.0024197233718754358, -0.0010367329566935907, -0.009364293370957096, -0.008158073011222755, 0.05635640022571954, 0.06591951744358737, 0.02192987633048133, 0.12031645872425734, -0.034244064469639346, 0.07624541317653773, -0.015203639326132369, -0.06531191908757526, 0.16749630434277654, 0.10627871985367204, -0.18056749112495962, -0.01491953316115601, -0.01067479736422924], [-0.051484679917669314, -0.0377504413980625, -0.10343779049060241, -0.08076347484228112, -0.026210284077521014, 0.04355847690780046, 0.0788492452333617, 0.0831715893486591, -0.09220405272391553, 0.16188186917530725, -0.19393004479442438, 0.12227096315988807, -0.0879386083179687, -0.0864754584415296, 0.11512711297696954, -0.003311595212095857, -0.13089064282686957, -0.14810962265773467, -0.18659299599520757, 0.003056245147874526, 0.017868792942842653, 0.16112845302419251, 0.14753474443328582, -0.23934994006261046, -0.1108857735107999, 0.06244646218896818, -0.17034764860028295], [-0.08675203637260903, -0.03313160150430238, -0.07405196895494759, -0.10731549911881058, 0.06141557635521336, -0.10668668638845738, 0.022690415178365963, -0.08225827025377111, -0.20653807205931238, 0.06860700165009778, 0.14867915548857072, 0.11891959039893991, -0.05005301323790271, -0.03282795699012871, -0.058233362550564396, -0.026023534268208373, 0.022581286004497436, -0.19827082402143872, -0.15711247309175225, 0.20508897898519157, 0.004733084874903594, 0.04204970909954825, -0.14341518772617526, -0.061386604083091593, -0.12650976329014105, 0.018521420515478504, -0.04617686437087617], [0.08910917999393762, 0.025671215610152127, -0.11879973357384359, 0.09108888661108475, -0.08799990496375754, 0.12659084623338912, 0.16921358933748676, 0.0522786560458261, -0.09123795244879397, 0.12064896764504253, 0.11097124746104345, 0.030073310446127877, 0.24259557558998476, 0.02682163618117797, -0.20092144681377488, 0.15634344744173181, 0.012526849738006543, -0.00882586810642606, 0.20556187917191995, 0.020546141812376656, 0.016150062041817508, -0.03197991860193346, -0.22273131184841535, -0.1003788672116996, -0.04017951213799867, 0.07336648728248808, 0.13585299412607904], [0.004123613943195116, 0.017067077720054172, 0.1704308428643511, 0.04286814281539397, -0.09640775117744942, -0.0622553027941985, -0.07912450354517905, -0.1592912703810807, -0.18856212975467354, -0.04804704661237969, 0.04542968826364203, -0.014203015585968818, 0.11420463733816755, 0.04235277591576087, -0.31280636390907507, -0.10325893779063489, -0.10481767421431674, 0.11161033346724655, 0.009199803569856908, 0.12578499783990363, 0.0842037454227342, -0.07391873395418834, 0.07308752014627246, 0.0456029094028802, 0.08116919836565317, 0.0034012071691858613, -0.061982228012054955], [0.030469384536072508, -0.10948253956063159, 0.07607357637221072, -0.12074140959043969, -0.160074137155093, -0.17877488632577282, -0.18661261139928997, 0.09311605232066308, -0.14551897366050848, 0.1939288262428469, 0.16010405067218406, 0.16155193120226588, 0.16793815449555607, 0.035164690213783115, -0.02941027189874778, 0.006326270976330833, 0.09629390057947015, 0.12562681599656889, 0.11077517271487872, 0.2219880438362057, -0.0530637446444234, 0.18350515040028983, 0.0813512398246267, -0.004769241077331787, -0.08077984921102395, 0.03240566438222871, 0.04705928559191667], [-0.10153297575105509, -0.09961514183125825, 0.2767878291209789, -0.14585471554430943, -0.12472441956661834, 0.0985973323380531, 0.06165704295361144, -0.07014039659190019, -0.021173796123749304, -0.01814173199947725, -0.10950510599188146, -0.11774192218838062, 0.041951450477620056, -0.16202402999927676, -0.06278268744664253, 0.01389659487511655, -0.11171401411514932, -0.062415458143134164, -0.019849622244349798, 0.11149326675382232, 0.08637835353884678, 0.08048719174840076, 0.20127885141691124, 0.09757330990510221, -0.03750589013920676, 0.22377277231394477, 0.1415560635749844], [-0.12992315412810249, -0.02781393730945146, -0.11130302991854109, -0.11879319358225165, 0.1385353638327088, -0.0915825659615392, -0.004284083882591389, -0.20080470639917616, 0.058636021744111616, 0.04992964950064781, -0.14719697214483396, -0.09953844804387782, 0.12067075383689121, -0.0009647071259330179, -0.14921295941066262, -0.006823423939592524, 0.049821717193707614, -0.010418166128002948, 0.013560107524013662, -0.06955613348488357, -0.06941622351086318, -0.08221199896207967, 0.10334242816201655, -0.14753993598975748, -0.029477675059116793, -0.15425640885798783, -0.05546776540971548], [0.1859031723647632, 0.05133692209970958, -0.2628495453387799, -0.14891080650576602, -0.05777326332356752, -0.008223852155597927, -0.08131983449133354, 0.20316803693213056, 0.09395283227360474, 0.03786034172850081, 0.13351101103859878, 0.1332615727612901, 0.09300186992202178, -0.1321629258481823, 0.07623453861915687, 0.019891326881649348, -0.014758469533780356, -0.04131862779698048, 0.1121194773965726, -0.060713350933519754, 0.0016386387922602893, 0.043280177837071415, -0.18202009880062991, 0.12188556381862248, -0.054614460002133325, 0.12968645391626799, -0.05068780818105586], [-0.021971863572175156, 0.1658414348156687, -0.26842920029610384, -0.04204233146532747, 0.23895212568210036, 0.04267003113481018, -0.030783156032664023, 0.09407901377669284, -0.09358657202558053, -0.2310019278586662, 0.1693818478910086, 0.012342439085744122, 0.12032517823990578, 0.0014459085186438083, 0.050577547291849115, -0.05045558185593637, 0.04480606158756885, -0.14816460422252897, 0.09282259345643834, -0.1381903571628713, 0.006921969585861313, 0.07067537621897406, -0.31227339698389706, -0.021109788670393023, 0.14079107082448192, 0.04306292575067941, -0.11518364937626556], [0.14434468522139018, 0.016352916596153105, 0.0805202844319911, -0.0018588150360537466, -0.02622937782994121, -0.06105670147727748, 0.0901628784937966, -0.11357150258324551, 0.05565619745268158, 0.014431083114249808, 0.10222198766767046, -0.11321988085030049, 0.0047405434185271555, 0.009661670203187684, -0.14090030505691717, -0.05393502200039439, -0.02250187443597721, -0.03738515043156937, -0.026231925750655975, 0.135819613146468, -0.047779337347394785, 0.14047541133874022, 0.3807192017892529, 0.15375136540232545, -0.03543189189591853, -0.17691406964428846, 0.001892175140209607], [0.04585612182269354, -0.16665834835328208, -0.3544825698617316, 0.033361137393526884, 0.09515088135281284, -0.10299089683448484, -0.0069509182844191475, 0.017839432029427813, -0.04464061808936974, -0.06275930487824985, -0.09782283537671067, -0.21673368279760957, 0.06817596340708719, -0.04952769008640998, 0.0700679866289506, 0.08776073088580746, -0.03522183856201627, 0.21200993473996652, 0.06945633824676442, 0.0843116755721844, 0.19684058573436408, 0.12549161675392762, 0.04068837215516483, -0.06528450484457282, -0.001956044203656306, 0.019492395719357763, 0.10170770655639626], [-0.06137524842464662, -0.03920324311455699, 0.1318645826128966, -0.030167552696002978, 0.29604935122804815, 0.045408316604165194, -0.07588575788892915, -0.1343711650498622, 0.07332826993086805, 0.13212492772170284, -0.09799297790979042, 0.01765571244091367, -0.043444378926214236, 0.13006379617110658, 0.09397377297755403, 0.11116167986171444, -0.0639924969473246, -0.05577685834250452, 0.027298445477327613, -0.08069831084113684, -0.008867641171282923, -0.12407511219207362, 0.23001839128154647, 0.07587645759173428, -0.046387346141584775, 0.06051053827682425, -0.05973795110287559], [0.10156921398359796, 0.045943827041653756, 0.2846036245219289, -0.020955387690743926, -0.09461804549032639, 0.03943087184238256, 0.02373210331619038, 0.09113954000090668, 0.11594370893443469, 0.014238097559259328, -0.16942255447036741, -0.048954796257177365, -0.14825730319618854, -0.04861378125156243, -0.06345965634747343, 0.005727172832562361, 0.05264670658616603, -0.09944102280431781, 0.11338093539524399, 0.16757762083349417, -0.11572473226654506, 0.058035345504860864, 0.11847774159861517, 0.09199224809975692, -0.11939264914466917, 0.0873722449659261, 0.1486001600967679], [0.03556399873867383, -0.03114106450283299, -0.08891684544380678, 0.014619696422053421, 0.12057906030924237, -0.1577530804616545, -0.08607741637223161, -0.0023351277384015753, -0.05849144387984667, -0.1726397581534497, -0.031036054925464452, -0.21236256597010533, 0.04334138200664051, 0.1289801872774942, 0.001258317990914139, 0.0844675002911757, -0.07856103784406344, 0.014979328915979346, -0.06932948147066953, 0.3104962095316749, 0.016443256446616327, -0.1744706292974127, -0.04864869568222413, -0.17453267307436182, 0.12327986024080897, -0.238817793677418, -0.0003471558927104299], [0.25702079505260433, 0.1516275586308305, -0.08094382152774668, 0.07266441287591385, 0.018770190511326102, 0.055500365159738475, -0.07626495939461908, -0.05305966072356289, -0.07360187822571991, 0.022481967963806037, -0.013433919879371495, -0.1165940196376429, 0.11523163196099695, -0.03616872984934436, -8.23513180607542e-05, -0.07624645743758977, 0.006754967438821532, -0.12084257711757, 0.10444994816051036, 0.11971449952624201, 0.112079811021535, -0.09080859631847586, 0.07217448970028173, 0.010146115062747835, -0.14117931970822659, 0.11575081413588123, 0.12738929986060363], [-0.041262235426498706, -0.07140439079795179, -0.11823810336892089, 0.1539145022114003, -0.023422650681280525, -0.0797259667373805, 0.016178108672991114, 0.052679386483115334, -0.03533135086952623, -0.0341089538331843, -0.1783607561838926, 0.0035441755818678327, -0.02128458652988871, 0.075870923779976, -0.11959182505754813, -0.12297699954863234, 0.12238528923761163, -0.2087692999940047, -0.07795827774174538, -0.06139435492501986, 0.10189880574923676, 0.007531153505048089, 0.12174641589965973, -0.10113026895722586, -0.1422428702603029, 0.05841038269873769, 0.019500576241441466], [-0.09129031296823699, 0.07685975008980639, -0.07402935382191615, -0.11818046534260936, 0.20728330375618692, 0.09161876111524633, -0.0980730873493342, 0.0010042788770625634, -0.07988886482135317, -0.11195670041064236, 0.002314860571412152, -0.08695746936497789, 0.11564273150719895, -0.022906524075273924, 0.049438850663618535, -0.022314533603874896, 0.10318154789327032, -0.04292725535406536, -0.1685872566527939, -0.01981513114574514, 0.19776132850844186, -0.05806618846309417, -0.40192527871584843, 0.01821177766818017, 0.011332702093982634, 0.18972520876377524, 0.03118965143845148], [0.127528032723554, 0.052675437031105346, 0.015596814598933091, -0.12455859295662829, -0.03672635353368898, -0.00033048554883805654, -0.01956647022176992, 0.16018228257088346, -0.0822999028356079, -0.0050293320503867235, 0.06421818852735181, 0.025256494959660005, 0.0253681070360623, -0.156669700978614, 0.06826674497053767, -0.07393514281732366, -0.04227716683129201, -0.08623534797230824, -0.16372263284770885, -0.12193423221370592, -0.15164943178081247, -0.01239649480283798, -0.030158593923133428, -0.04189382954521134, -0.07245317614938053, 0.11070582695775441, -0.1925304542666431], [-0.05829649658369788, 0.045839754146543614, -0.1114996501751566, -0.07018126894227572, 0.1234840689881618, 0.10556908878925818, 0.047181618150849716, 0.00544379558799999, 0.08895031787413175, -0.013678348964764945, -0.01733632337903223, -0.08960664434794188, -0.10666154595371645, 0.25917831152983456, 0.05571416462053306, -0.02021858717099706, -0.08780898100011199, 0.08667567559678138, -0.10701212208501719, -0.2577093584121143, -0.027339359014271227, 0.14041985605045934, -0.03927011459643762, -0.12471935271107724, -0.011116441189993507, -0.07885134670913524, -0.043275526211235094], [0.02434635675481071, -0.3112447974514808, 0.08215478104348584, 0.021291256547974508, -0.1964595814470583, 0.2134556880276174, -0.09468478973469988, 0.012687928593143678, 0.11637195292563536, 0.10714095735071434, 0.10749024137425219, 0.003731059531787414, -0.11557904561312177, 0.08058045492681687, -0.03796600253471582, -0.030217703108008222, 0.010734880563542343, -0.08711003092381149, -0.07101799015911545, -0.047722131318841315, 0.023509371351363724, 0.1798247095706466, -0.04296753114078177, -0.04050253739979736, -0.13733073929824643, 0.11969532784185832, -0.1060151273650239]], "net.4.bias": [0.0, 0.03739010594537435, 0.01850810408479214, 0.008247424654131393, 0.013027467322454635, -0.008037741401446096, -0.009998836377312924, 0.04156948629599702, 0.0, 0.008399237068063142, -0.026635330191107923, -0.037925213384246724, -0.009993800951053176, 0.030643549256183657, 0.0, 0.007271461981032613, -0.009971209454258213, -0.01496511398253367, -0.0028723769556595106, -0.026723128316981436, 0.018349256547660533, 0.03317078314606128, 0.029908967697132523, -0.009999989365246991, -0.00025468924635091704, 0.0, -0.010346231372948505, 0.0, 0.017751671372688384, -0.014516389939398414, -0.01974214169205301, 0.0, 0.02805166568856734, -0.028636847665317162, 0.031567043087706324, -0.02822762410091247, -0.00999459961963273, 0.031081145319839375, -0.013631052774458105, -0.005591363965448872, -8.462240551995932e-05, -0.005773464189899101, 0.01521851598824373, -0.00999982706642421, 0.01019793529193395, 0.0, -0.008098739171782384, -0.014021128748705869, 0.0, 0.0], "net.6.weight": [[-0.09100504717673585, -0.034662217223649025, -0.043483083455190585, -0.16440504739881892, -0.008840635259969884, 0.08537036507882571, 0.10776395083805188, 0.0293734083525568, 0.0442681977757453, -0.25203311435924747, 0.0009992340269045445, 0.027718061627571348, -0.08611752950813088, -0.057484288556633976, 0.14374939012913773, 0.05155947729371461, 0.05038587045670673, 0.038333604454770506, -0.002547673093434775, -0.1383568381218917, 0.04907098680411852, -0.03182249072612091, 0.1861542541373529, -0.0633331136228758, 0.1696740933597685, 0.05981088704128176, 0.05336582583045348, 0.04253384081714559, 0.09868229964739161, 0.17159370642231014, 0.04424023269126615, -0.0037722868790491418, 0.06827242417465804, -0.10052175948940004, -0.19461960268995493, -0.051346062312792935, -0.19252472774555693, -0.04443662962653931, 0.19694488738723703, -0.11610962849268414, 0.01143167112133749, 0.04149825899157231, -0.005898627450315511, -0.0327645162561403, -0.013441404692881423, 0.1127680026540725, -0.05891074547883898, 0.10423506501686924, -0.03040968834715349, -0.1395078312965304], [0.07246000605116178, -0.06323360026242941, 0.0057167805711046665, -0.0292988312013283, 0.018479751462635852, -0.023392211454992123, -0.09698051346328558, -0.172973524462607, 0.07467319624066537, 0.03331498500915464, -0.03742381317230213, -0.07992778436792854, -0.054992054368824574, 0.07819195338841078, -0.020455602229068195, 0.00039998005327973244, -0.1577927172363407, 0.008930294039190859, -0.03628995836984531, 0.06507492642367618, 0.12545324832636326, -0.003944268399988492, 0.24848448312796245, 0.08794918649451251, -0.10177385049509542, 0.17714068184752463, 0.05423628398139788, -0.13487225258440533, 0.03881865070748458, 0.14114217057940062, 0.03908717011237245, 0.1247255030909013, -0.06149667860052814, 0.07999311856094074, -0.11577638313259235, -0.04844655863871092, -0.06632378889673539, 0.12229577075693086, 0.07493407710463248, 0.07957475437803394, -0.22897232975605442, -0.04073261311833109, 0.05876482106557057, 0.0646890757079023, -0.10134091933378844, 0.0023737037430158468, -0.1388467828277205, -0.011050234946748757, -0.04259937595270253, -0.011269652065397836], [0.017163469165930624, 0.03405989464285015, 0.03253527973699092, 0.068568650678151, -0.052910516491388414, 0.06496880549598004, 0.018593299430193517, 0.011543624307081848, -0.1478493899658866, 0.32130736337623994, -0.13279373227831123, 0.04011601867536853, -0.05271543089334331, -0.05926897155882969, -0.11140724739668738, 0.26102331857729005, -0.09773718483859706, 0.08927276801398605, 0.11226229152115316, -0.08277492229296798, -0.012720559801482848, -0.0003964053929200917, -0.027414485033608525, 0.015503409412365197, 0.06858816289636185, -0.04971807014010212, -0.15203469660416719, -0.017466236864933454, 0.21657633182033742, 0.164919974375158, -0.08550572503228879, -0.06289757662599064, 0.09221116705914183, 0.11541336808244256, 0.03843298481297018, -0.004527946890381019, 0.0460918089663667, -0.007296201303840376, 0.05704360245594387, 0.0913145377342201, -0.020911867663078298, 0.1556502332004431, -0.08385341517552407, 0.118240939530072, 0.03132708959723523, 0.038875358324498385, 0.08910554817913863, 0.07034619559457733, 0.06992152066076267, -0.018347570445729187], [-0.12092126443746426, 0.10981983272056556, -0.050319411582060596, -0.1568624849881598, 0.035902951953896214, -0.17442356882647914, -0.06171178281824019, -0.020209323098787726, 0.06937674153549601, -0.02283603921350226, 0.07596752055040427, 0.001715191885914956, -0.04799312320448751, -0.048857139682988784, -0.0619877377192608, 0.13791071996653156, 0.044750001786150066, 0.11170275288026897, -0.16779081655296615, -0.14385033008957518, -0.03162898458316135, 0.2237633787451558, -0.022316387176167726, 0.04100906045479355, 0.04676152445183593, -0.03119324768526005, 0.02246104653227053, -0.05942557754520861, 0.008145413924722277, 0.0885429973314697, -0.02865903569560925, -0.15176025397038312, -0.19405038972847158, -0.10838526775698006, -0.09720096686732284, -0.023641240466447, 0.038908893488075635, 0.08776245749914877, -0.010553634694158119, -0.11444994309016943, -0.09430649261231133, -0.07643826029302868, 0.13012282493856497, -0.00381417330462773, -0.07046811957694189, 0.010142946783787932, -0.06496657161603069, 0.05533905934828183, 0.09959478384729292, 0.06732759668037828], [-0.002958939793845527, -0.2663991036224668, 0.16038927906180658, -0.03221522787299849, -0.10394003182417857, 0.2629622921776161, -0.09388867209270071, -0.07353773212361221, -0.0855723048863672, -0.2262715211549517, 0.2772137070150074, 0.05009106778756591, 0.17742204398997263, 0.048105586581475956, -0.06755055272818578, -0.4143169284321465, -0.02158321877535697, 0.00859081747979472, 0.07194841647208515, -0.06969758748225074, 0.06734076380330445, -0.04440064919537489, 0.1938420400181108, -0.02706418486167804, -0.07344191104404238, -0.13485711407641027, 0.039252660272653374, -0.16972263017841793, -0.11301219755362263, -0.1379117428152525, 0.11901695552845834, -0.11217682597481692, -0.020100187664214297, 0.03736615805136236, 0.202447918203215, 0.0837405273285942, 0.00794779579281742, 0.11005168797045241, -0.18685169583136635, 0.20683862695905245, 0.04706520517986327, -0.09162597056788037, 0.1300350367429186, 0.03431869747649743, 0.01130518866850855, 0.12550924764810104, -0.18703222231767777, -0.032483211661199045, 0.07806569814951993, 0.14870246872107543], [-0.04927290015322605, 0.07630487175683105, -0.07946466266538967, 0.15841522000479943, -9.951769160938036e-05, -0.058582824241263876, 0.09542334231542238, -0.05990417960655985, 0.10740545761674147, -0.09252978343122702, -0.12270965467994234, 0.0029123827924771267, -0.11742696270545286, 0.2372905152388254, -0.056882913682196036, -0.1454354996766966, -0.07869515128228932, -0.06992626946375627, 0.25530013985049993, -0.030797833295535267, 0.07770406303627439, 0.04613739903813564, -0.003804693195007462, -0.05766522411723767, 0.11510979142300709, 0.04778380922103347, -0.09061133686538882, -0.13133400586844354, 0.022101211534241234, -0.09928106005751795, 0.17142184755432482, -0.023652848661562934, 0.009359422366951656, 0.015406878479728934, -0.14997090938460975, 0.08497768537421553, 0.04522265303641382, -0.019484318073251766, -0.0005350252379001133, -0.020737626699179643, 0.17112856307163135, -0.021076106478895705, 0.129751896082089, 0.018891954488730843, 0.04970428316909012, -0.15896537879754374, -0.04760361870511957, -0.0003559065194698769, 0.11659127159533281, -0.11769533236774575], [0.17812215618105703, 0.03744966238963615, 0.02681559486936659, 0.12362525974748632, 0.017973422869554674, 0.04658684195055451, 0.07426614561678296, 0.09050589777847187, 0.10677613210682387, 0.07224402360557076, -0.0070357152129284966, 0.007057835259674213, 0.04903848131484492, -0.00189966797588133, -0.08320503555329717, -0.03831984291485886, -0.16131626935386892, 0.007308813860384941, -0.21559393770381538, 0.09485823403118496, 0.06441678440838843, 0.10969047407749603, 0.06561363712130772, -0.01791875734084408, -0.10061677290090709, 0.1096387802860594, 0.19542757359377638, -0.10378834605070703, 0.0099694739209683, 0.032726585660783174, -0.056461649251863956, 0.1418057319570837, 0.07962767354198085, -0.23600260071993784, 0.058445526613318796, -0.024742275176795836, -0.13794339516867932, 0.07977583172313914, -0.33693084889054153, -0.06898501878362881, 0.15395962363651913, -0.20676084623850563, -0.03008931320413094, -0.00038683347108749676, -0.2799715514399043, -0.0354682757919229, -0.04777490245348827, -0.1469599724564904, 0.05251280493055848, -0.020438358561396548], [-0.06604113057715309, 0.08157200895843754, 0.21705189568465622, -0.22149788326903247, 0.07322250025619956, -0.014277649812784338, -0.2287812822334311, 0.19780280881995288, -0.10025509498827108, -0.3304890863713578, 0.19560874775354578, -0.04602959976336193, 0.15999848010524068, 0.10796451696623066, -0.022631662824898, -0.19903502598418485, 0.01757792816501408, 0.14717392094692786, 0.013147291233093869, -0.12378387058108792, -0.08053677823306431, 0.05263037683741714, -0.114486815042813, -0.13830319012137957, 0.06712107879403151, -0.09122590343923065, 0.09019595403640789, -0.048957043402657184, -0.34614438744568615, 0.03169981943432899, -0.021399253822578596, 0.10020970192930936, -0.020237258697678336, 0.1497820635806819, 0.21233412511191502, 0.13076543429957635, 0.043253539322816344, 0.1157627653725742, -0.22456088298456375, 0.13286601134414258, 0.0005575373111092773, -0.10656399823992592, 0.21077677786332416, 0.08589122034867361, 0.11786291894867407, -0.0015215819021257672, -0.01927938343524152, -0.07511355273175122, -0.029935240259780838, -0.14640219944879707], [0.04355515220106414, -0.1396801030422461, 0.013563233981695427, -0.05933459784518221, 0.16877102281996975, 0.0460054590175759, 0.09654755016547943, 0.03210388496364757, -0.06611765851787095, -0.10432403775513838, -0.05414317182683308, 0.10293078058439255, -0.048240800643708254, 0.18647514725647285, -0.26206292338380466, 0.04432659325650542, -0.10552194897283734, 0.15960695288762958, 0.011749749353909562, -0.016574109513040006, 0.10009574043982161, 0.01215422042546207, 0.06029547514357874, 0.05075887176727882, 0.061051063221634845, 0.09045003154287685, 0.13071042140429728, -0.047002007174297505, -0.12030968819892203, -0.2129051050836359, 0.24671729641923704, 0.0674986898107208, -0.09811572204688433, -0.18801519076248507, 0.03858165437236317, 0.01768001343570195, 0.11170163530688709, 0.29629387549597963, -0.04041094817765583, -0.3046395761607354, -0.09312826617646253, -0.15528142619220897, -0.0650905676538965, -0.008256395084178884, 0.16105726879667293, 0.003526722300809572, -0.1207594178243084, 0.013146723977645805, -0.17712282627568396, 0.004770467902936626], [-0.11942946839272513, 0.0775212488074498, 0.0076946728168077825, -0.13337327473325705, 0.10965841122831618, -0.046932035578939726, 0.008558120512580274, -0.04269150955250284, -0.11686929931795367, -0.17077955679039006, -0.20689208405767567, -0.05054920068389297, -0.11519773087024804, -0.055757705348759096, 0.033274695005051966, 0.07415972693862903, 0.10500090876491366, -0.05130523669930991, -0.019582644450104103, -0.24426774600750603, -0.1557864069360723, -0.02879625882014639, 0.1410152198327806, 0.044515764128628676, -0.26600924240199814, -0.009598033587558787, 0.016605190378280267, -0.06300619866737307, 0.1014458987140796, 0.004807732221417015, -0.05984676579783374, 0.07021956740457087, 0.0033020467879820888, 0.03835442656402213, 0.0886684919380509, -0.11887119705083928, -0.012898969273415035, -0.03740663506705407, 0.07944911258447597, -0.11827844059130883, -0.011784648747377967, 0.12836306221979862, -0.14136728473527493, 0.012459543784258472, -0.26058502521056504, 0.038748321539414515, -0.09280305554765482, 0.11405078718297597, 0.14303589110831103, 0.0012942022712608512], [0.04431244052987733, 0.06289791135459946, -0.09367274229095439, -0.016879803901954663, -0.002907482531292865, -0.17299685044324484, 0.04349243406077723, 0.18080335619222374, 0.24445492113596756, 0.11042693026164817, -0.015285669458222483, -0.08292393537955883, -0.09217631791093438, 0.2247546672747385, 0.23774753412427857, -0.046338748903608604, 0.0009936283797991096, -0.05211502964932524, -0.15393642058778156, -0.16301189189211304, 0.101293775691593, 0.04502780954406883, 0.2143837840393787, -0.06737755341101742, 0.012264700523721231, -0.10257786300642889, -0.05005881675506859, 0.0236229401165434, -0.011749022251082597, 0.08149723619380912, -0.07181867370105093, -0.0457709871683984, -0.005671114471288012, -0.10130401648793275, 0.004593280533648591, -0.11902795537990651, -0.032577028502180534, 0.11722821167644236, 0.11426383258126648, -0.1658895333554626, 0.09103306740055524, 0.07841528290189842, -0.05433618189096516, -0.20093150573045293, 0.15314878611346783, -0.06956266403288287, -0.009171899932137729, -0.03980489245711002, -0.06894898270215907, 0.004297669413181223], [-0.23456251700832334, 0.01657896899715477, -0.281066427801027, -0.09196571174879012, 0.03189552580240414, 0.09817189893906537, -0.05585598775539156, 0.07855353485438901, -0.033037644178189364, 0.015270995600652346, -0.07586835777454776, 0.0684451447954835, -0.23500356456282434, 0.02839748550442532, -0.023975827795524686, -0.12451343379588792, -0.06544816243714763, 0.014999851664633385, 0.02072201144023202, 0.13740970810595973, -0.027040682331935646, 0.1108292105030303, -0.04164096207448176, 0.019087715754226454, 0.09667029846743935, 0.029989078600971365, -0.10676961157865722, 0.038088239280934036, -0.09967255388771688, -0.03384817110589321, 0.007797852028321006, -0.09928832254516595, -0.21602256723781277, -0.1699879141588192, -0.034064499463895684, 0.1477813426064488, -0.029293300789672745, -0.07313582317373254, -0.2167129103303143, 0.07967720589948046, -0.10932234011156745, -0.10989469347570845, 0.027673364341701975, 0.039788531653777104, 0.023997615785206882, 0.012247579005567194, -0.07255687432368234, 0.03828747414168681, -0.046145924540111224, -0.021905012465687615], [0.12908425534796023, -0.08781527188997154, -0.045782636723580156, 0.08656193675815121, 0.026001076744180653, 0.011198238897341768, -0.08745433614861026, -0.009793296202280201, -0.09628078225623204, 0.1289397480695312, -0.054065745771368204, 0.03398294842011222, 0.2153639020326219, -0.1383707057992619, 0.10013629396891195, -0.1539134047649997, 0.04853353222410674, -0.08247158275309799, 0.038534181075055476, 0.13087749830738568, -0.09377718614694261, 0.0768481766833018, 0.05978663449862907, 0.03862387849334213, 0.05673949830134709, 0.11219524670682311, 0.14866803948080903, 0.05065927224189776, -0.06313591974722359, 0.03693514885713145, 0.06787813191729591, 0.17637041315299612, -0.19384495275552502, -0.07201974927815943, -0.07821465892115693, 0.05690008105697478, 0.11155729167474054, 0.03772425633069185, -0.05893746983885455, -0.08482822536537453, -0.00906138989855318, 0.027518942139868698, -0.06881531550350799, 0.1511576467707516, 0.06325414012954964, -0.12675167305509277, 0.1185377297904185, 0.0578322170649328, 0.05959139939961218, -0.08776398082437448], [0.007266667438776015, -0.35711059313757204, -0.09775730103184933, -0.09374108513953602, 0.1587497861521692, 0.13914330665051053, -0.09675528539023755, -0.11209484196007231, 0.06911219879232476, 0.07334453068527198, 0.289687081008898, 0.11675524919499497, 0.0542434385255124, 0.00789031495896893, 0.054832415778919986, 0.2944699443479276, -0.020945644060027916, 0.04971457343714745, 0.2534214403165318, 0.15995555321228103, -0.07837915524270368, -0.07819982077560328, 0.000568797259523982, 0.01432708080736934, -0.11170131140817122, -0.10030368297382311, 0.05494977101529623, 0.004428921610311348, 0.14914464225620275, -0.10948439352193588, 0.012366169819165034, -0.0027343443552021503, -0.12224390169675727, 0.23090691019930507, -0.004683797146325602, 0.0289289521306054, 0.13143381211624036, -0.12361991030630826, -0.16421046334967385, 0.2709097388574146, -0.12470216051042324, 0.020198923187998544, 0.09856307960238465, 0.15922416903253567, -0.15826707299833354, -0.10024175025653884, 0.01802515181638621, 0.2901771043506655, 0.10560249924432473, -0.0375990963577664], [-0.11271558733743525, -0.166740341453805, -0.07788021236064159, 0.06998363300582824, 0.038063792912289826, -0.11012242665445372, 0.10085102051039696, -0.10070750140170152, 0.03748636542252517, 0.038490524520363556, -0.016621065247591257, -0.04448868367229037, 0.15813065863317433, -0.040643845545248566, 0.16998092960933192, -0.07650289799192762, -0.009047396541284353, 0.09980515299070639, 0.046277389554153496, -0.014253492456627893, 0.014602094071100653, -0.013623135813349, -0.05986127247028577, 0.021891809892634465, 0.09118040152877387, -0.023527699163674795, -0.14788110060008905, 0.0022015127851924316, -0.0034152510025965126, 0.002337384225607003, 0.06984393757335342, 0.014681932465610984, 0.04141184382720524, -0.04644167882544343, -0.058716886722920594, -0.04163488844277058, -0.05209312120797568, 0.12653100859793526, 0.1876784146977473, -0.051736024711100344, -0.010524719590127877, 0.022055114675660507, -0.2506297605719833, 0.052580418404549474, 0.1232417141679037, 0.12113394565343423, 0.006452975694329427, -0.12589838980647364, -0.1993995342763505, 0.019941063293649516], [-0.2110563672825909, -0.011820838520210243, 0.005894851069008983, -0.016129577223377718, -0.08591069002711325, -0.10341762839117452, -0.1759852460609548, 0.03638999574268006, -0.14269927298410953, 0.10475076914493903, -0.18182533203483103, 0.03869829281504313, 0.17866339606177065, 0.0026423304383424596, -0.14533755210569327, -0.0724610362941404, 0.08682180125705931, 0.07264409306127045, 0.1292433239844921, -0.08183545898634739, -0.12371608672494333, 0.04241420879761532, 0.0058132591605805336, -0.15081891063198874, 0.014177765651284086, 0.10730422139502607, 0.15604177508505296, 0.034740891268797466, -0.0648076471430906, 0.16800711314037695, -0.06438378124344919, -0.09347289217289417, -0.03684783749918562, -0.056000847160980964, -0.09463910381499242, 0.0002374233697197013, 0.09580697899215368, 0.0647452299926203, -0.0647933872576442, 0.015033499411490306, 0.11722250091330436, -0.13363479210062673, 0.08449997069985904, 0.0752691074202403, -0.09918894947025922, 0.014986087523205356, 0.051558646629669906, -0.012947768906300101, -0.011994937303330786, -0.02481826919091703], [0.08955785834289016, 0.049007634888344434, 0.08774365228010472, -0.05153663966088215, 0.0749398328771146, -0.09913716460807027, 0.01825001466630048, 0.050943237681888826, -0.04023028676594762, -0.09886537224819543, -0.10213144747431376, 0.020795269716020505, -0.0693862081885784, -0.07889616667404435, -0.1436421950918839, 0.14821446377257774, -0.008727686216933756, 0.010495630524148255, -0.06339202523255444, -0.029358227172471732, -0.17802749635881818, -0.035984651971954246, 0.061503680520501716, 0.016007837190771933, 0.16165589728344662, 0.1642012539272909, -0.2470726656798653, -0.09691320409439506, -0.07040031084151167, 0.12395565616514823, 0.01354548559289065, 0.11373981177277655, 0.03666750081754065, 0.14884156166807885, 0.01712176894833205, 0.0295832963578564, -0.033570483758336184, 0.07484586437931201, -0.003814549322134444, 0.09006274406502077, -0.04416700686356544, -0.11908333089358492, 0.05741015298371605, 0.25694542940757836, -0.014970153659105801, 0.17553223539353535, 0.019591809153834544, 0.08642855426407114, -0.22150044581641315, 0.09065574781450564], [-0.10698816453556262, -0.29739313290673286, -0.09226887955898802, -0.09590146353910292, -0.011819355371302562, 0.07583651887031151, 0.08607682466381582, -0.05061151315263895, 0.10081044334114975, -0.06761522036117527, 0.19366470668280134, 0.1584951205914316, -0.06389664774547188, 0.10773064051123654, -0.145759308414377, -0.08606031186026297, 0.030446376592696164, 0.07857234478691298, -0.05772364961054897, -0.05292727588135652, 0.10785024843786423, 0.12678746816304634, -0.15608070823459275, 0.0955652510046194, 0.10409831487780329, 0.08075345276056123, -0.20624074271340725, -0.1535120806649088, -0.043413133703513684, -0.1609873361579527, -0.07089685751890117, -0.06392638162145978, -0.11240599252541779, 0.04625969925399472, -0.023493933630817324, 0.049974317770184934, 0.11368938177399845, 0.07007302322911488, -0.005070471730698269, -0.2247196960660876, 0.005973701137034365, -0.052271876777160046, 0.10190342818657323, 0.013533211304990484, -0.08661608435185958, 0.11085041165698023, -0.23936753140916675, 0.0686235605244535, -0.09703525900231193, -0.05889279587250945], [0.031493955543488154, 0.01245460172133201, -0.08500409480074081, -0.0034002472047899163, 0.0038212716475419716, 0.11247869779284164, 0.03160891591053744, 0.1250337981228626, 0.08119811055887548, -0.02753481279551119, -0.12137917541332228, -0.020332923879336964, -0.03448048657991572, 0.14169817649014638, 0.04117180532715624, 0.2131692015321223, -0.03710701320325088, 0.07997897361375322, -0.06132074087952935, -0.01765503591503772, -0.14985500058669193, -0.042399782902366276, 0.15879381804037151, -0.028834253997283246, -0.09406244394388029, 0.03590299012899448, 0.14427453116745403, -0.128897516680807, -0.07774918051501742, 0.02070348053706177, -0.15593330906900005, -0.08167391720427931, 0.1627198864475854, 0.001771140932631278, 0.04801909224774511, -0.11389556422664966, -0.10384152854106679, -0.09613666703171118, -0.03906165806937038, -0.0006250144190225455, 0.05256206552107539, -0.04758805288480834, -0.16812913823248382, 0.032962793800987385, 0.009508213947423806, 0.04791622183123609, -0.09290374476350749, 0.06983960788589978, -0.018412357231340163, 0.2298183169392595], [-0.032647253017326176, 0.16220357947085287, 0.0622084330212687, -0.031041194152264407, 0.16533447751433972, -0.2025091436092275, -0.014799958780760559, 0.14259950007350486, 0.16568287102109805, -0.08730548447084009, -0.03889176372560987, 0.012887846999156098, -0.06242586705697448, -0.02568488034505043, 0.12650540859115122, -0.31099841677197926, 0.010538559694272621, -0.06435793178034187, -0.01865412940415862, -0.10029859499536592, -0.0244677364743973, -0.012456152612981858, 0.17101220429254513, -0.06273982960312115, -0.11552215049362874, 0.05528147688110006, -0.15622482730082243, 0.08167385867145371, -0.08229666826479712, 0.00757796963919835, -0.07032087037991354, 0.08785322179869665, -0.04055971195171092, 0.22811991168417797, -0.023123962025569524, -0.2886786127878174, -0.0873752858826687, 0.11535115876357015, 0.05461712982272572, -0.02028812402465951, -0.041792141259879, -0.13526699819093232, -0.05508268749296498, -0.0952778503805795, 0.11892154046182225, -0.1272948061933281, -0.27930638491259463, -0.04549288908500315, -0.06812649944152992, -0.0355761277343588], [-0.16808716360170117, 0.17402372788780837, -0.058855039688596955, -0.10823042172099515, 0.13789831379435402, -0.1492816648752314, 0.03063648039299949, 0.0683346959387766, 0.07624291761260542, 0.018121286380130507, -0.07901138092189233, -0.1581266815411137, 0.027003773938883424, 0.2596465971723993, 0.13570379734423893, -0.15547918004510833, -0.04781423055384586, -0.15122413846837338, 0.05428287035480877, 0.056426486467564665, 0.0677936376650497, 0.13766530197755306, 0.05529002227200418, -0.04195760860275298, -0.058420461412722995, -0.014916879371432698, 0.01935778358707546, 0.1294144534063577, 0.10270990593593207, -0.03863821144771246, -0.0035916099766929287, 0.10986723076547328, 0.1946555372050943, -0.11323816008099703, -0.08511887513257438, -0.0716861760301108, 0.04236286170596212, 0.0969922359697943, -0.1836879080755987, 0.06081666428538456, -0.14193788341270838, 0.008679971239058403, 0.14865322973930373, -0.012830305591213668, 0.1666687676780421, -0.17400841700666098, -0.07600904274151186, -0.24333975876390285, 0.04799492192737889, -0.03652784532908441], [0.03562721092761242, 0.03177034112496457, 0.1484630701463621, 0.0549077856051782, 0.12484156748395392, -0.19331494860425225, 0.03668777635240893, 0.11438708353476602, -0.05090349925715453, -0.13931086427789005, -0.1595020647961528, 0.04172614044948396, 0.02486837755754223, 0.08125198670818554, -0.06964287222278435, -0.14440522656037802, -0.09223086486464596, -0.0101028866159847, 0.119135798062287, -0.06158433135605982, 0.06572344199903614, 0.22413836623718186, 0.04845819880346303, 0.11316182775009141, 0.05541667101528131, -0.06891061285653098, 0.09208116033177421, 0.10609537782437557, 0.08105159763327324, -0.02774396813446932, 0.16834907764097098, 0.05424009657959586, 0.020249784923628927, -0.1593117467178697, -0.02642720110205342, 0.14709104089867867, -0.04046638325412648, 0.048931194591792855, -0.13238265790042808, -0.11277667627829066, 0.06154429533339785, 0.0007768387939530374, -0.15177965696314294, 0.09753995112632188, -0.0005238637666745022, 0.004632577980194655, -0.13165334139735332, -0.04811987467732657, 0.06040418664901598, 0.020784493856989245], [-0.08268929162960564, 0.10182838475226319, 0.15395428354748306, -0.1818834582972909, 0.11394641512594272, 0.01650968788066275, 0.020266855288666098, 0.058901902004811164, 0.07026247736420656, -0.16111533902132413, 0.019404665399264585, 0.03419037099084316, -0.11033099984329196, -0.0544977984988028, -0.06629196392367331, -0.2691017126040677, -0.15931420091731982, 0.039045054784914046, 0.12448428857633019, -0.21579932902174204, 0.0902720662881146, -0.105755364953014, 0.0018035972189298106, 0.01142666156469459, 0.24498850018729523, 0.07637122536123114, 0.2336400881744467, 0.11901495313198457, -0.13250874180017938, 0.01392636975174592, -0.07849162089151294, 0.09164321079549687, -0.1272915392317331, 0.020874468788246538, 0.16126548033315494, 0.03009960918715718, -0.13520459676026286, -0.11003477766788089, -0.18294882389294168, -0.0475725737528931, -0.07372018105838608, -0.2137255886659486, 0.1359393135985802, -0.07876539192934523, -0.01146433308460496, -0.03121097399935502, -0.28243306007142255, 0.11672349573662286, 0.006921792520307019, -0.06673406318902433], [-0.2048556220249727, 0.18357152343291208, -0.022454223636254874, 0.12093767385302734, -0.16253099865427234, 0.023825545013701533, 0.1288666177496711, 0.0017373003915236633, 0.07445664760248434, -0.019076406317845924, -0.09535762569268784, -0.0957593680100959, 0.07622686435056455, 0.10589741376499422, 0.09777801574253447, 0.01657427742821483, -0.0937554049820012, -0.04070252515729895, -0.09356385890780528, -0.03418728077355345, 0.10745556156632005, -0.01913884293291412, 0.047833673721274214, 0.054898936531459885, -0.09491055864555674, -0.02690595124884067, -0.051079936317723985, 0.0072005451703734576, 0.05895864614955555, -0.08740869149123877, -0.1660366927715457, 0.17307248321742646, 0.17388719162411728, -0.02397722953800878, 0.19297303986031566, -0.09846609460951616, 0.08322070079518694, 0.09670419084078617, -0.05506400455966686, -0.031158302088042794, 0.08230144883163334, -0.008164780107800975, -0.04943459740717562, -0.06361430335538647, 0.012332954846148277, 0.1326828167810943, -0.07742532813873158, 0.11325961557647858, 0.003382684209744686, 0.032775481954839224], [-0.08365189980018077, -0.15156460529902288, -0.03791726817708629, 0.10641575090401426, -0.12070317556750924, 0.023792959196512385, -0.0068492469162153395, -0.14137327697609142, 0.1536939456816264, -0.026856484995301674, -0.1318372053626823, 0.024743504358640915, 0.09559662285268128, 0.14657526634871826, 0.022404402991471478, 0.0347164897409373, 0.07624477303730581, -0.07378543156730935, -0.11940978615112971, 0.15227176401870457, 0.007772215329847393, 0.06358953463815288, -0.09422886324510449, 0.14513335513835293, -0.021348310350541962, 0.13748566733670955, 0.20922200595192467, 0.13894120178685462, -0.08948717693461374, -0.10026345978849388, -0.08589681796698047, 0.11584303517598718, -0.022060523549924244, -0.1878079382615967, -0.0847847275000963, 0.15827233195900806, 0.08340595923164998, -0.12652542740189082, -0.03528372877147454, -0.10590503699606511, 0.05470186539263583, -0.0005059939883466855, 0.035976384986880966, 0.017118811776385478, 0.08618653334808402, 0.052064066477367214, -0.04002373877429538, 0.02515971161031321, 0.06736463510486675, 0.046895802981818904], [0.030015787580015243, 0.17476631501184303, 0.02926884402938187, -0.03008273198294726, 0.0439694552812705, -0.06915815572774184, 0.03785125327028949, 0.09829807079543815, -0.0328303420494404, -0.06896720208555915, 0.05245530204941599, 0.017507099036878065, 0.08806831672287181, 0.04984532744545839, 0.059004581225155166, -0.15293735136572, -0.1845936039781286, 0.122036589334816, -0.024220548827635156, -0.023815886628369497, 0.09805300966297394, -0.08627373104490002, 0.006071897790085697, -0.029693349799853733, 0.11538690999934999, -0.1422920626718, 0.032990519756097195, -0.011327167331411167, 0.07490536640007321, -0.08820466423792853, 0.07203102311860086, 0.029302233503296894, 0.1354608342927938, -0.18878449674562997, 0.19405370644769848, 0.00047480212419066976, -0.07518137371597566, 0.2152497001311009, -0.11693390313282684, -0.18709617016971952, 0.043696807159236704, -0.1856787574075507, 0.14818641020115197, 0.05730405806067303, -0.03774497798897857, -0.1282389518078946, -0.07933828905178604, -0.07198078147682865, 0.061583683729718036, 0.06322315736113035], [0.08527371419788976, -0.09631863917060844, -0.03279486918797983, -0.06307910912701287, 0.06254545191521313, 0.10296141635208275, -0.15986073827225833, 0.11179799084704668, 0.04949020512961586, -0.12256089746159646, 0.12411584775325676, -0.10652195710872281, -0.17218226734241834, -0.13347797311990234, -0.07139527222870166, -0.048208390654954414, -0.025809830156756128, 0.06903204775784044, 0.03061356833717232, -0.22192691224243002, 0.03618620785163884, 0.07365746021670162, 0.011966410854490107, 0.2082516778569615, 0.035174092103505576, 0.063879824967412, -0.005318186116514411, 0.1740213634815836, 0.09668622612117195, -0.013479534802806626, 0.10911146907545144, -0.005644982319377322, 0.1727088372264792, -0.07207975696685254, -0.23390116246280715, 0.06426008189935419, 0.07014776652273635, 0.09489149645655207, 0.002767468209181185, 0.08714806519546595, -0.15292176588747317, -0.12739592787892454, -0.023739973220269106, -0.13269711573556295, 0.07936061185851973, -0.1673864824093916, -0.17765258788623997, -0.17665486671121955, 0.06251903611669109, 0.02062092167081639]], "net.6.bias": [-0.00999992327322877, -0.00999999049948402, 0.022616704074467465, 0.0, 0.030733715592389677, 0.02912915263484126, 0.032974068620604105, 0.03928706866576562, 0.02947885422424864, -0.009999997238669171, 0.02936597173367768, 0.0, -0.00999999857594, 0.0008592166393196666, -0.009973138809556652, 0.0, -0.013622212507359628, 0.0, 0.02352322832774116, 0.027042332595594788, 0.03466317198578554, 0.034418354171328165, 0.014587791299433248, 0.03458866734930212, -0.009999997187989463, 0.02306194644458224, -0.023850080943578815], "net.8.weight": [[0.054943822045291406, 0.10332780556731441, -0.002034932650155942, -0.15996360012508426, -0.0307361534423353, 0.2084555302904079, 0.07436968301034322, -0.03671581589326091, 0.03334214565548433, -0.02769537424966974, 0.10474411941452742, 0.031117032862656387, -0.10012425518695696, 0.0022044457220533288, 0.08795983164160176, 0.11627139338639735, -0.0004998689476500302, -0.07732118264248339, 0.04769789926014013, 0.25612996664066695, 0.025773979571959215, 0.09336861031662423, 0.033456605431039385, 0.0976984450303588, -0.1110237318002955, 0.10064816052806132, 0.019672790410068614], [0.20342205298509555, -0.006336618419188979, 0.03283856601121096, 0.1774051238014529, -0.19665210610969325, -0.1228695814874853, -0.16420388271443667, -0.10498262899599499, -0.1339379912731409, 0.1739815731180976, 0.16889226957429243, -0.00881979797834268, 0.05901780087719314, 0.06032793077753467, 0.044865619401963375, -0.17244187850226672, -0.08422519525857988, -0.14098606071820294, -0.009626589180912096, 0.014599074577462472, 0.04935906202298619, -0.14170578353186236, 0.11662156453315944, -0.006819624142029294, -0.09740264258039627, 0.011281729981630254, 0.02883282418814395], [-0.09131016232399375, 0.016560904382320715, -0.11266859460047661, 0.059213859302262466, 0.1096596450868972, 0.022813628791957134, -0.02719046379974555, 0.13038705961037117, -0.06235795781179373, 0.1451469498053113, -0.06156515672215862, 0.02423225123317331, 0.1317092660026341, -0.2591133226226722, -0.2890342075396859, -0.09823292656953758, 0.005794343288759123, 0.08246687429910973, 0.08840770355614933, -0.044863451934228825, -0.11336284430447381, -0.05693400677821918, 0.033021836662560713, -0.040495478591697685, 0.07623824586828502, 0.1312367736473873, -0.039887279617039285], [-0.10505232910321023, 0.008620272226798923, -0.08722007825642901, -0.06962411598868339, 0.07805513714645596, 0.051312782758769486, 0.10842142429918938, 0.2166849881191023, 0.09752478976318614, -0.0036476741070459087, 0.09335664475363778, -0.0927984464438844, -0.11638196836702314, -0.08448851870512197, -0.21848276752465737, 0.06140752605747806, -0.08505336617282354, -0.04274781627554291, 0.08719669201539121, -0.025234341307683313, 0.2248861969605284, 0.1267204613455386, -0.10556588198267172, 0.22601210950793504, 0.008745221382585596, 0.14841635618500776, -0.03316314726374023], [0.06782975245892912, 0.10138531504716247, -0.1976076726570095, -0.014311809901542002, 0.06227304400122738, 0.021856513918858518, -0.05663434683749139, 0.025202247662660777, -0.10992079274307631, 0.10744768743247711, 0.1654802879874518, -0.02599323109872466, -0.02899368304559596, -0.23623603171017066, 0.15469334067582172, -0.04397532643117973, 0.002919683159662478, 0.08509580129272559, 0.02693510072561424, 0.044639762395072724, 0.04367193602130117, -0.045352920095677915, -0.09105265935544954, -0.1809979105569797, -0.011571945418188474, -0.1044514413265562, 0.09805244192200074], [-0.019295856271560705, -0.1655204191946018, -0.0003511489114906267, 0.04690356428687006, 0.28625950966947655, 0.1041288197059456, -0.02539737108782077, 0.08080452891596665, 0.27954079468120396, 0.009870498182153548, -0.1393980412411866, 0.17236002113252924, -0.06079220066011345, -0.14220042739982355, 0.07764612358965305, 0.07310114388639348, 0.12028707137294987, -0.005380178485058875, -0.16163547366825404, -0.04894618114132069, 0.12168966972645544, 0.017569855633455915, 0.18860938828090432, -0.05016136582965168, 0.05125556206719743, -0.0817372963944516, 0.037345115546072644], [0.1449393960847347, 0.08441342610045437, 0.055277652408292334, 0.03712875324881467, 0.06088361691706694, -0.0046704272176257815, -0.0719570829351783, -0.11069348092618207, 0.00746903534893123, -0.12390788325036249, -0.0011108194638934261, -0.1876442629440152, 0.10161222589561357, -0.018419691183800088, -0.12416953884144523, -0.06345187460892572, -0.025774687964150424, 0.06850604487650193, -0.16461079299829273, 0.025795454666195036, 0.00016569004743594538, -0.10058397313969214, -0.025090226837152403, -0.006000661295137769, 0.15764561341415761, 0.027319406205405232, -0.2714653641632198], [0.10023136129444687, -0.07515948419635388, 0.08789953856496477, 0.09497417991455238, 0.046792521057795175, 0.06756584855327256, 0.027944597772604506, -0.2448312404606087, 0.006394248609943375, -0.05798647273361465, -0.059581925339592105, -0.052611325668723986, -0.0775215662203702, -0.03775026218551243, -0.051210610398670135, 0.05763488334704897, -0.09279366663294472, 0.01641220747969027, 0.03859268104897774, 0.05270976311743582, -0.08428749238173575, 0.056911865139728283, -0.04492520563453969, 0.007329085544996579, 0.08370260235733248, 0.02960629435736679, 0.09584577476955809], [0.10235030275227078, -0.14767482243116906, 0.1135407452056542, -0.021955742553155078, -0.1383734403368509, 0.12813971961948584, 0.18845007234158506, 0.02129933696226507, 0.19891981914193319, 0.14914189472163067, -0.009680884363160974, -0.05567085181569803, 0.1661300235826828, -0.18666584726176208, -0.04382496844618701, 0.1257069381959725, -0.18184351008807487, -0.04904763100901214, -0.01711637614331647, 0.17701958320559136, 0.05982559525959425, 0.0548240643953173, 0.06647435052563656, -0.06709243981215557, -0.2353244149768998, 0.06932105421340623, 0.010275303472407306]], "net.8.bias": [0.023872627651992905, 0.011713475982443761, -0.02862803831586087, 0.045190666354053145, -0.00999999930785156, 0.004743278379157815, -0.009999998517145368, -0.01761306257314791, 0.07280062103583175], "net.10.weight": [[-0.021979588523873293, 0.05667575879456491, 0.14091127648849774, -0.21189954997158683, 0.1755940586446825, 0.055615252350744285, 0.06644914637886827, -0.005992855417928261, -0.20139481143998542], [0.14548890586912994, 0.0850695985470235, -0.22120545291394939, -0.024553720927612186, 0.14733650519869265, -0.09368964101797471, -0.0681205330845241, -0.11122062998606197, 0.003559852105816767], [0.11583689701133179, -0.058373007994494, -0.03284464661161108, 0.157219441232517, -0.03239062083424581, 0.14713188368002425, 0.003720801247532858, -0.011193236321176905, 0.028489001236883416]], "net.10.bias": [-0.07689326232254093, 0.057430000557245904, 0.011660991706728848]}