{"net.0.weight": [[-0.0915017240757748, 0.1448585217660117, 0.2429179777609324], [0.0442754031267541, -0.16412510418278745, -0.13928089619344533], [-0.006135082127200175, -0.2224540490701822, -0.07760158246012541], [0.07484825217831725, -0.09028880539085785, -0.04344897241959656], [-0.06388293855538561, 0.09378076431601726, 0.13913712385381444], [-0.056258385482898854, 0.03597816420844827, -0.1632067140722976], [-0.16085407359923856, -0.09096086019173294, 0.23113648561882394], [0.08750727079028779, 0.13102101873894123, 0.20147003103104766], [-0.04374080754603745, 0.03237771054049554, -0.019478357387845705]], "net.0.bias": [0.009062019486242637, -0.019644631273597085, -0.015097235011858185, -0.07338822962096701, 0.021597439741565663, 0.0, 0.059951811927103436, 0.048080402818452515, 0.0], "net.2.weight": [[0.09968523862301412, -0.18186485621675627, 0.14317750304168392, 0.016892896091682957, 0.17483263157572917, 0.1090581974280797, -0.20693688092476045, 0.07811654426747709, 0.028045067291018896], [-0.15378778228759826, 0.17340348987390955, -0.11543214772918642, 0.19307658263194288, -0.08175045750594381, 0.04415551827312142, 0.06423712434705219, -0.07953116941057083, 0.008383599097346517], [0.04510939658057245, -0.14332752079319883, -0.12508862086453795, 0.08232071433218302, -0.06648774912166283, 0.017957285029569843, -0.36124995858290937, 0.14604865307256162, 0.08101045507644795], [-0.09378756811455238, -0.11125031705112523, -0.15560170284422234, -0.11923518858936764, 0.06329376547380332, -0.049566957853646954, -0.007018445175889745, -0.02118686829941583, 0.17652777006443887], [0.17150672866783337, 0.12370843286269308, 0.1283993006438047, 0.09156624660021373, 0.2844921686867481, 0.19570712414323976, -0.03689654796692131, 0.04294961591902097, -0.08044355067673145], [-0.0428477299166511, -0.16062273675186223, 0.04219740233898276, -0.1735606944782436, 0.06884430513356368, -0.03319896534795351, -0.06967271767013845, -0.01414801265031093, -0.15326076767960659], [0.04245146398026191, -0.1983379183748173, 0.1343160022554423, -0.017714746007003603, -0.15666081049139324, -0.08107451256701785, -0.27524358234087476, 0.22898502485818498, -0.08691037016239628], [-0.09973813695348976, 0.18978786486368987, 0.010174117146681585, -0.04930962285220798, -0.09497280115448718, 0.01705058543609509, 0.17833535369064155, -0.19005142037452183, 0.13664690131409546], [-0.08261993395656801, -0.1607193347374469, 0.1869055068648921, 0.03633824456671647, -0.2059187618687272, -0.05701695560493247, 0.08559716373885932, 0.20436928645405703, -0.08378644038194716]], "net.2.bias": [0.09370823510418484, 7.831184394405555e-05, 0.12046400345487566, 0.0, -0.07308126131209575, 0.0, 0.0656802347255866, 0.0, 0.08356233773027756], "net.4.weight": [[0.07878493691756053, 0.09781188561418795, -0.09502878511161375, -0.07551588256566039, 0.08047630400261944, -0.08809752702167775, -0.22790931733030506, -0.07849224196717632, -0.1900195604826841], [-0.010566876363799174, 0.1449418884098014, -0.0751645074725867, -0.004618859914826533, -0.1282377189690537, -0.003744033633620691, -0.05879859995542427, -0.035899848910872875, 0.24244514976557208], [0.13984404815974524, -0.21491680865968188, 0.28519700510462587, -0.06499918505673767, -0.027807853291062865, -0.00961995364699457, 0.043645840976270306, -0.11439552167985007, 0.036199247827186934]], "net.4.bias": [-0.07570339957532307, 0.0559911057706623, 0.09961382330875083]}