{"net.0.weight": [[0.003936501729103361, -0.13867750369001627, -0.12247641046162439], [0.05211931984749225, -0.16554353510772496, -0.2130130099237079], [0.11150456862734834, 0.03232194994576126, -0.08658371659073245], [0.19300708249479734, -0.11673694329648668, -0.23949131883697336], [-0.09811817172088182, -0.015339208502688046, -0.03496671552089306], [0.008395161170134353, 0.16633904231871993, 0.20150416435856852], [0.057597630490950805, 0.17588110607901966, -0.043228992247767814], [-0.15030407595866932, -0.10943143761439969, 0.23896051924385775], [0.10586058080780629, 0.1507899580228486, 0.10307943934603717]], "net.0.bias": [-0.029129395362433662, 0.0028380812921692177, 0.05709984437522001, -0.044188508910983776, 0.0, 0.06124019386930908, 0.012897017586996731, -0.0008613961260543676, 0.046722436522422583], "net.2.weight": [[0.14054484577174645, -0.011347084319465276, 0.07036630721700382, -0.031054036911157615, -0.2851369408518531, -0.08935848181049598, -0.06046374760347603, 0.016327704961494015, -0.1364473354110776], [-0.011315847422056158, -0.02209008216903561, -0.017461576110851574, -0.1881613183663262, -0.050587133777988395, -0.10726040646750011, -0.013852249605494133, 0.07275358704203067, 0.05004311792003037], [0.2706924644674903, -0.16878665802765377, 0.00760870082550473, -0.4458262462548034, 0.029157350591970266, 0.03592739708981247, 0.18280810334838596, 0.027831532457321513, 0.09422687770693096], [0.08370995283305217, 0.010191790333072232, 0.12304189572767055, -0.036469776107018605, 0.011433065842792522, 0.1507532690152985, 0.0758923932250796, -0.03233146541335269, 0.14248872592174583], [-0.02209785647564879, -0.17029515364223669, 0.04371413559504706, 0.007700897766652604, 0.11418569379901236, -0.05397438438665691, -0.08626443323660485, -0.14524141246663236, 0.10980032170821433], [0.1006001145848587, -0.32592860160871545, 0.005655850591175466, -0.027092222126304952, -0.010745396495472135, 0.0720146736759408, 0.18150039341576674, -0.18900865321197705, 0.1611023540657506], [0.1340839263751685, -0.1810085664363649, 0.04455673823765825, -0.10090955489772367, 0.06910877183916414, 0.12988225156464986, 0.02072377270172464, -0.37661771156108736, 0.1471029104012748], [0.021537337486787787, 0.20773371659075118, -0.022223629638608983, -4.303578341522914e-05, 0.08329774895665394, -0.128973585798628, 0.10148458949029665, -0.03599473150901156, -0.03564354287532515], [0.019334058280854216, -0.12532195517684308, 0.1314846005299226, -0.08797504527710702, 0.010438644957549583, 0.010912815508302151, 0.08188552177023217, -0.07609384284626557, 0.016917608610702385]], "net.2.bias": [0.0, -0.012400459892733908, -0.005730369535399622, 0.08977277415292667, 0.025781292369885984, 0.07468283322101166, 0.08358688865422205, -0.06972540916843423, 0.03258730458602179], "net.4.weight": [[-0.09372549308407707, -0.0744501318129863, 0.23011676641826714, -0.15258751812472904, 0.007349436712602194, -0.06237519624325927, -0.10695280456933037, 0.20800393532394465, -0.17552917466054832], [0.025684790846504074, -0.11822990578690715, -0.18514799377554028, 0.029210316701267194, 0.09698771468771944, 0.04843124611074868, -0.05260451671591287, -0.007316444939557199, -0.060542490503148395], [0.0623510775407494, -0.024748195669982632, 0.02483542811429693, 0.024866919896231982, 0.10541610866977662, 0.12649184125810695, 0.1858579262652602, 0.003862277749932125, -0.02338188893955023]], "net.4.bias": [-0.10346799721230897, 0.013090150644004114, 0.05481314616468494]}