{"net.0.weight": [[-0.05651639393646969, 0.10007401743829741, 0.24786803601441784], [0.039445136421179125, -0.1402818591116436, -0.11038966847559067], [-0.006135082127200175, -0.2224540490701822, -0.07760158246012541], [0.1283815650378332, -0.07057187984952916, -0.023049151561364205], [-0.04666975007805472, 0.05147816570032993, 0.1307342072357815], [-0.056258385482898854, 0.03597816420844827, -0.1632067140722976], [-0.13064819237697098, -0.055825767936281086, 0.2275691103030708], [0.08825196073458903, 0.12518888005601342, 0.19949940742649866], [-0.04374080754603745, 0.03237771054049554, -0.019478357387845705]], "net.0.bias": [0.027019508461616125, -0.019899986821082363, -0.015097235011858185, -0.028506235084790003, 0.02502553879941858, 0.0, 0.0762320680330817, 0.047034894404484426, 0.0], "net.2.weight": [[0.09324203616582963, -0.17802106749216873, 0.14317750304168392, 0.028685299316284184, 0.1613768450721811, 0.1090581974280797, -0.08836410663741001, 0.08179682430909517, 0.028045067291018896], [-0.15289720115270283, 0.14104985262365896, -0.11543214772918642, 0.1806438862862542, -0.04411655012281184, 0.04415551827312142, 0.06423712434705219, -0.08584074317331769, 0.008383599097346517], [0.03919052229027626, -0.12024227340749359, -0.12508862086453795, 0.08786898518760283, -0.07871912277916292, 0.017957285029569843, -0.2902718402225343, 0.14234365426209133, 0.08101045507644795], [-0.09378756811455238, -0.11125031705112523, -0.15560170284422234, -0.11923518858936764, 0.06329376547380332, -0.049566957853646954, -0.007018445175889745, -0.02118686829941583, 0.17652777006443887], [0.1507640887359817, 0.1303654952318237, 0.1283993006438047, 0.10907676548182642, 0.2576263055043769, 0.19570712414323976, 0.05814508736561194, 0.05246517983767507, -0.08044355067673145], [-0.0428477299166511, -0.16062273675186223, 0.04219740233898276, -0.1735606944782436, 0.06884430513356368, -0.03319896534795351, -0.06967271767013845, -0.01414801265031093, -0.15326076767960659], [0.07523891590823, -0.10247869629365615, 0.1343160022554423, -0.018550211785607357, -0.12017877231539657, -0.08107451256701785, -0.30198725428770634, 0.23039070403200818, -0.08691037016239628], [-0.09973813695348976, 0.18978786486368987, 0.010174117146681585, -0.04930962285220798, -0.09497280115448718, 0.01705058543609509, 0.17833535369064155, -0.19005142037452183, 0.13664690131409546], [-0.051610817235790224, -0.15797168122305785, 0.1869055068648921, 0.024330719671431196, -0.1674763645613328, -0.05701695560493247, -0.015256274904471468, 0.20288351435535856, -0.08378644038194716]], "net.2.bias": [0.09521444374120121, -0.00568419941950845, 0.11504507172089302, 0.0, -0.05821667697762268, 0.0, 0.06355372312325322, 0.0, 0.07646197738149124], "net.4.weight": [[0.06300316967586164, 0.06804226121695951, -0.09937106641919591, -0.07551588256566039, 0.07217850204244498, -0.08809752702167775, -0.23184191453170983, -0.07849224196717632, -0.17146274362882594], [0.013508152819564493, 0.12818328533732973, -0.06440691817387059, -0.004618859914826533, -0.12908040965389841, -0.003744033633620691, -0.04706230175355694, -0.035899848910872875, 0.2351985460274128], [0.13457942576486256, -0.21257508045498547, 0.2765922067213057, -0.06499918505673767, -0.031482952221653294, -0.00961995364699457, 0.0341016107499499, -0.11439552167985007, 0.03676059230546735]], "net.4.bias": [-0.06455416467418529, 0.046325034790789074, 0.09354230194205194]}