{"net.0.weight": [[0.003936501729103361, -0.13867750369001627, -0.12247641046162439], [0.05639781222580374, -0.1950036508293218, -0.247899386732492], [0.10014187734510528, 0.03439583242580266, -0.09569053314815351], [0.1820384616996808, -0.15891155249933717, -0.21523834663229402], [-0.09811817172088182, -0.015339208502688046, -0.03496671552089306], [0.0033414828150316843, 0.1719284522661188, 0.18756536488430398], [0.04746550089691234, 0.20048297432517848, -0.038895143171817935], [-0.17573111105122793, -0.10166155086848253, 0.2436162792891163], [0.10714348055244785, 0.16865863202338188, 0.1026185096113341]], "net.0.bias": [-0.029129395362433662, 0.0021883479697151305, 0.048153857417172576, -0.051683124479563, 0.0, 0.05624330289588032, 0.007926069725679295, -0.011994821535202949, 0.0501872451389595], "net.2.weight": [[0.14054484577174645, -0.011347084319465276, 0.07036630721700382, -0.031054036911157615, -0.2851369408518531, -0.08935848181049598, -0.06046374760347603, 0.016327704961494015, -0.1364473354110776], [-0.011315847422056158, -0.02209008216903561, -0.017461576110851574, -0.1881613183663262, -0.050587133777988395, -0.10726040646750011, -0.013852249605494133, 0.07275358704203067, 0.05004311792003037], [0.2706924644674903, -0.16878665802765377, -0.020320865695799894, -0.5141525113353429, 0.029157350591970266, 0.040194768762647645, 0.21174005642703492, -0.010749084553681466, 0.09349824964195108], [0.08370995283305217, -0.0065594022457744474, 0.11770333885689119, -0.03440936077490983, 0.011433065842792522, 0.14176978913908753, 0.06835022892793573, -0.0832844433337507, 0.14110628904470957], [-0.02209785647564879, -0.1834011529845765, 0.03555794725528859, 0.0061137495323106035, 0.11418569379901236, -0.044488532407723054, -0.09086628953328203, -0.253293667644515, 0.11486013898300847], [0.1006001145848587, -0.3288456390716268, 0.005116020761260807, -0.01788437287184612, -0.010745396495472135, 0.07241896994994758, 0.1790009971272333, -0.20400252703344304, 0.16689455192936747], [0.1340839263751685, -0.21473837932312254, 0.03822758119299789, -0.09520493943072292, 0.06910877183916414, 0.12208800603946832, 0.015318927694908942, -0.4361422555738532, 0.14705002423746688], [0.021537337486787787, 0.20051867470131263, -0.02271833471013705, -0.004868608091543324, 0.08329774895665394, -0.12688157359120514, 0.1017379581625685, -0.03599473150901156, -0.03834256088743896], [0.019334058280854216, -0.10736976604881317, 0.12474916975215296, -0.08282327737924476, 0.010438644957549583, 0.008112344861843021, 0.07331588659227599, -0.11538245467238618, 0.017196111861012674]], "net.2.bias": [0.0, -0.012400459892733908, -0.016843877981127218, 0.09677500074067598, 0.03908787273675553, 0.089348979663418, 0.09214470583742454, -0.07452617466901175, 0.03597915141152912], "net.4.weight": [[-0.09372549308407707, -0.0744501318129863, 0.24248307148288611, -0.15339881580491999, 0.0033352143713587575, -0.06857495701746792, -0.11592095983509301, 0.16912752013856255, -0.17053861559995534], [0.025684790846504074, -0.11822990578690715, -0.20611775138893385, 0.029828849014825028, 0.07506861993340345, 0.043197049590944045, -0.05755745731636014, 0.03941653137729634, -0.0389123347773021], [0.0623510775407494, -0.024748195669982632, 0.002895932300805975, 0.027494638690872746, 0.08347232861056511, 0.12759231386516787, 0.17966164122470552, 0.013567970256097588, -0.03836760871362649]], "net.4.bias": [-0.12434836699678947, 0.03431527094148257, 0.08044236169509462]}