{"net.0.weight": [[-0.08084772392827182, 0.12806614348612644, 0.24361942444303955], [0.04289131375788395, -0.15836532326538486, -0.13507297898645046], [-0.006135082127200175, -0.2224540490701822, -0.07760158246012541], [0.08903873292556194, -0.09336589235792044, -0.04136172563155067], [-0.05630550602413215, 0.08015386064893872, 0.1367114731652807], [-0.056258385482898854, 0.03597816420844827, -0.1632067140722976], [-0.15343816701566124, -0.07852736748132053, 0.2261510350036414], [0.08740696337121594, 0.12971184867824556, 0.20188414092599216], [-0.04374080754603745, 0.03237771054049554, -0.019478357387845705]], "net.0.bias": [0.013619138992077602, -0.02006956993038716, -0.015097235011858185, -0.0663033355848061, 0.023858379175566886, 0.0, 0.0624448460252033, 0.047687239431116614, 0.0], "net.2.weight": [[0.10003370535425628, -0.18325061290617325, 0.14317750304168392, 0.022004281455547017, 0.17385536899142054, 0.1090581974280797, -0.16854089432188432, 0.07934114164567778, 0.028045067291018896], [-0.15378778228759826, 0.17357077591580664, -0.11543214772918642, 0.18771260163903575, -0.08175045750594381, 0.04415551827312142, 0.06423712434705219, -0.08523339162734211, 0.008383599097346517], [0.0440817904071933, -0.1423031238056873, -0.12508862086453795, 0.08438386786541202, -0.06896215395162442, 0.017957285029569843, -0.33758844627243867, 0.1443652132054899, 0.08101045507644795], [-0.09378756811455238, -0.11125031705112523, -0.15560170284422234, -0.11923518858936764, 0.06329376547380332, -0.049566957853646954, -0.007018445175889745, -0.02118686829941583, 0.17652777006443887], [0.16255485824428545, 0.12615996951716238, 0.1283993006438047, 0.09766553431131604, 0.2740997747375364, 0.19570712414323976, 0.0034663515687107004, 0.046690158154907346, -0.08044355067673145], [-0.0428477299166511, -0.16062273675186223, 0.04219740233898276, -0.1735606944782436, 0.06884430513356368, -0.03319896534795351, -0.06967271767013845, -0.01414801265031093, -0.15326076767960659], [0.0545489687684394, -0.18324298545171902, 0.1343160022554423, -0.018305516512739706, -0.14409870040664316, -0.08107451256701785, -0.28445357867464627, 0.2298037183729445, -0.08691037016239628], [-0.09973813695348976, 0.18978786486368987, 0.010174117146681585, -0.04930962285220798, -0.09497280115448718, 0.01705058543609509, 0.17833535369064155, -0.19005142037452183, 0.13664690131409546], [-0.06932492960554602, -0.15987519645542728, 0.1869055068648921, 0.0325790507271057, -0.19092321685419686, -0.05701695560493247, 0.04360014221175526, 0.2040847906045569, -0.08378644038194716]], "net.2.bias": [0.09381693217111858, -0.004253190785393126, 0.11771753209811402, 0.0, -0.06735455444675544, 0.0, 0.06482852136627705, 0.0, 0.081181514539186], "net.4.weight": [[0.07180900325875265, 0.0899719876437649, -0.09719348161643712, -0.07551588256566039, 0.0774412754903378, -0.08809752702167775, -0.22929499733886755, -0.07849224196717632, -0.18346458178114666], [-0.0003354951923668116, 0.1425159173119588, -0.070636240486356, -0.004618859914826533, -0.1261951662267412, -0.003744033633620691, -0.05514251286694995, -0.035899848910872875, 0.23899800692682566], [0.1389211526126563, -0.2162439042263772, 0.2822395169479908, -0.06499918505673767, -0.029182616387159827, -0.00961995364699457, 0.04049512835779832, -0.11439552167985007, 0.036116659430662765]], "net.4.bias": [-0.07144028152410366, 0.052896996051588596, 0.09664353065845072]}