{"net.0.weight": [[0.003936501729103361, -0.13867750369001627, -0.12247641046162439], [0.049833392810363024, -0.13355443288792831, -0.16822993486368704], [0.12134474938845638, 0.02862022708764002, -0.07630362387118769], [0.19168025515040715, -0.10142389264282195, -0.2524971639646593], [-0.09811817172088182, -0.015339208502688046, -0.03496671552089306], [0.011409656392320064, 0.15431236900345163, 0.21347774545745204], [0.06431097446721241, 0.14312732471370504, -0.04604971076110997], [-0.11830088433727029, -0.09053410503215693, 0.24117655958335688], [0.10561013697195752, 0.13187869268352936, 0.10653170124727364]], "net.0.bias": [-0.029129395362433662, 0.006199059570986816, 0.06496073492869113, -0.045930022291992625, 0.0, 0.06394993383006815, 0.01406417585276862, 0.01873579528077199, 0.04462933307179144], "net.2.weight": [[0.14054484577174645, -0.011347084319465276, 0.07036630721700382, -0.031054036911157615, -0.2851369408518531, -0.08935848181049598, -0.06046374760347603, 0.016327704961494015, -0.1364473354110776], [-0.011315847422056158, -0.02209008216903561, -0.017461576110851574, -0.1881613183663262, -0.050587133777988395, -0.10726040646750011, -0.013852249605494133, 0.07275358704203067, 0.05004311792003037], [0.2706924644674903, -0.16878665802765377, -0.013014375144146448, -0.30455809676694107, 0.029157350591970266, 0.030641957315238822, 0.1345415165683158, 0.11447422389073675, 0.0879176136836816], [0.08370995283305217, 0.05466923958248863, 0.13003033324706842, -0.03361741276559717, 0.011433065842792522, 0.15249047424399576, 0.08419019301075654, -0.018881924442595083, 0.14345076218739158], [-0.02209785647564879, -0.14294552745271186, 0.049822539669610845, 0.009236766278747735, 0.11418569379901236, -0.057237770348325036, -0.0809162839159412, -0.10039018134762573, 0.10913390020831343], [0.1006001145848587, -0.30735652667402286, 0.007284327696546895, -0.03128203614367508, -0.010745396495472135, 0.0700140658750213, 0.18462802455458105, -0.1838125339447475, 0.15765538478413968], [0.1340839263751685, -0.1684938802234451, 0.042297758794156676, -0.10808668351564708, 0.06910877183916414, 0.1416494192316793, 0.020085934936779654, -0.3029724649261999, 0.14823952667179097], [0.021537337486787787, 0.19542280486280914, -0.023745323910522247, 0.0011192659726456345, 0.08329774895665394, -0.09928082776601599, 0.1022490925750458, -0.03599473150901156, -0.027819250468702792], [0.019334058280854216, -0.13560040774135998, 0.13002170205489288, -0.08579269488989667, 0.010438644957549583, 0.012993062247343342, 0.08161057020682172, -0.046593852447772005, 0.015370941483254599]], "net.2.bias": [0.0, -0.012400459892733908, -0.0029411468948979977, 0.08408766307119123, 0.01876135691898218, 0.06437594309343263, 0.07827004602694586, -0.057387619804791894, 0.03033576628417841], "net.4.weight": [[-0.09372549308407707, -0.0744501318129863, 0.20451512545823103, -0.15148732223723751, 0.0081393530659724, -0.05502966798125678, -0.09934057098585979, 0.2052012666900514, -0.16518862528648104], [0.025684790846504074, -0.11822990578690715, -0.1493687553763159, 0.026230006857368725, 0.11126449673894726, 0.050303081276117836, -0.04826629884979293, -0.026484252224128032, -0.07540935796974962], [0.0623510775407494, -0.024748195669982632, 0.023761521094814282, 0.02403903021130582, 0.1262404505636579, 0.12563064691164358, 0.18939974419884148, -0.026816551983305705, -0.025056530872435603]], "net.4.bias": [-0.08729882949649224, -0.005812900823907511, 0.03791810109541788]}